tree
version=v4
num_class=1
num_tree_per_iteration=1
label_index=0
max_feature_idx=23
objective=regression
feature_names=Column_0 Column_1 Column_2 Column_3 Column_4 Column_5 Column_6 Column_7 Column_8 Column_9 Column_10 Column_11 Column_12 Column_13 Column_14 Column_15 Column_16 Column_17 Column_18 Column_19 Column_20 Column_21 Column_22 Column_23
feature_infos=[-1.6902482375970327:1.6222017836717468] [-1.4508355901184724:2.8076364108147107] [-1.504626417974354:2.4772817067464072] [-1.1325964822147814:6.1159640763980878] [-1.1913836937221876:4.3384307725427824] [-1.4647248287223555:2.3298990798847834] none none none [-1.5540270001034999:2.355339544502741] [-2.0441739508728229:1.3725768406616272] [-1.4270156132492289:1.940959189603175] [-1.2968940114699574:1.9052568324731038] none none [-1.1445455044715935:2.4814440085145453] [-2.8256726196754332:1.1139985561799546] [-1.1460659066674115:2.6792164643213856] [-0.8895745592727613:3.1708560278429512] [-1.1866503531090622:4.0988823123669498] none [-2.0883353200117107:1.3403783485378906] [-1.191046949323483:3.4201165793835053] [-1.7551902066212446:1.4613286785884148]
tree_sizes=1055 1059 975 1064 1147 1148 1222 1222 1228 1148 1066 1240 1154 1067 1153 1149 1242 1242 1155 1239 1149 1146 1159 1159 1157 1078 1074 1078 1077 1158 1242 1159 1240 1249 1244 1150 1235 1152 1162 1242 1241 1159 1157 1247 1330 1165 1165 1080 1254 1085 1163 1249 1086 1249 1085 1163 1084 1168 1178 1167 1259 1161 1178 1080 1175 1181 1173 1173 1177 1257 1163 1090 1170 1173 1088 1176 1174 1179 1176 1266 1171 1258 1091 1268 1261 1355 1356 1176 1271 1259 1187 1269 1267 1186 1176 1270 1272 1356 1099 1278 1272 1277 1270 1276 1184 1179 1183 1172 1273 1262 1269 1367 1109 1282 1187 1194 1185 1195 1287 1269 1185 1193 1102 1191 1272 1273 1273 1183 1281 1357 1274 1275 1270 1271 1278 1271 1272 1271 1275 1194 1111 1371 1196 1194 1194 1105 1106 1273 1268 1194

Tree=0
num_leaves=11
num_cat=0
split_feature=10 19 18 12 2 22 12 22 3 22
split_gain=1141.33 314.095 170.62 124.839 46.3627 44.9705 18.0809 12.3589 8.85329 8.67054
threshold=0.095559875072966885 -0.7853100598539493 -0.59101805919577111 1.6855651535122433 -1.3770570110722857 -0.29693645877881819 0.99494248538725627 -0.70965936808017316 -0.32073182348571821 0.7986904436587251
decision_type=2 2 2 2 2 2 2 2 2 2
left_child=1 -1 4 6 -2 -4 9 -6 -9 -3
right_child=2 3 5 -5 7 -7 -8 8 -10 -11
leaf_value=-0.79932985241724963 -0.68763677746472518 -0.98631985392725052 -0.80596385185540775 -1.1155006901598365 -0.73725446874547529 -0.88555735209484232 -1.0125237012973052 -0.80549535288675544 -0.76225330221763155 -0.94454333423513004
leaf_weight=20 26 27 35 24 26 36 39 20 29 23
leaf_count=20 26 27 35 24 26 36 39 20 29 23
internal_value=-0.871978 -0.981971 -0.786926 -1.0143 -0.745173 -0.846321 -0.987006 -0.765118 -0.779903 -0.967103
internal_weight=305 133 172 113 101 71 89 75 49 50
internal_count=305 133 172 113 101 71 89 75 49 50
is_linear=0
shrinkage=1


Tree=1
num_leaves=11
num_cat=0
split_feature=10 0 9 9 18 10 10 9 9 9
split_gain=1030.05 278.657 237.918 149.487 80.3912 72.7558 38.9948 29.539 24.7106 12.9347
threshold=0.095559875072966885 -0.95200840727550229 0.44548845734418252 0.73241444226939911 -0.80111549511262881 -1.1663849116810094 0.56188971189858472 -0.28975937902671317 -0.30769225308453801 -0.4870209936628157
decision_type=2 2 2 2 2 2 2 2 2 2
left_child=1 -1 4 5 9 -3 -4 -6 -7 -2
right_child=2 3 6 -5 7 8 -8 -9 -10 -11
leaf_value=0.064766967594623567 0.054158279454956451 -0.23060394294800296 0.10810523360967637 -0.032512906723870687 -0.030654245917038581 -0.16389311561360956 0.19562488658087596 0.039285787209295313 -0.096777217462658882 0.1030509427189827
leaf_weight=20 24 31 20 26 36 32 35 26 24 31
leaf_count=20 24 31 20 26 36 32 35 26 24 31
internal_value=-0.00276957 -0.107263 0.0780304 -0.137711 0.0377116 -0.169149 0.1638 -0.00132455 -0.135129 0.081716
internal_weight=305 133 172 113 117 87 55 62 56 55
internal_count=305 133 172 113 117 87 55 62 56 55
is_linear=0
shrinkage=0.05


Tree=2
num_leaves=10
num_cat=0
split_feature=21 19 9 9 22 21 21 22 9
split_gain=924.754 251.795 214.346 134.529 90.7471 62.7344 59.1885 27.0456 7.77588
threshold=0.11734347805932296 -0.7853100598539493 0.14062959836112135 0.2571932797370024 -0.29693645877881819 -1.1701006220107877 0.90305363247505122 -0.75928058866144366 -0.57668536395194947
decision_type=2 2 2 2 2 2 2 2 2
left_child=1 -1 4 5 7 -3 -4 -2 -7
right_child=2 3 6 -5 -6 8 -8 -9 -10
leaf_value=0.063412004522979265 0.099410849475655066 -0.22650078194481985 0.096081565115600828 -0.05182620204593006 -0.035527497219542667 -0.15568106096415293 0.18803536925997055 0.034116516294223923 -0.11543214257274355
leaf_weight=20 29 28 35 38 36 21 35 35 28
leaf_count=20 29 28 35 38 36 21 35 35 28
internal_value=-0.0026311 -0.10033 0.0749535 -0.128807 0.02798 -0.166798 0.142058 0.063703 -0.132682
internal_weight=305 135 170 115 100 77 70 64 49
internal_count=305 135 170 115 100 77 70 64 49
is_linear=0
shrinkage=0.05


Tree=3
num_leaves=11
num_cat=0
split_feature=10 0 9 9 12 18 10 0 9 9
split_gain=840.157 228.194 195.882 127.291 69.2975 68.0416 31.9357 25.7092 22.8152 11.1059
threshold=0.095559875072966885 -0.95200840727550229 0.44548845734418252 1.0103739901657232 1.6315599097540852 -0.80111549511262881 0.56188971189858472 0.12646369267247229 -0.30769225308453801 -0.4870209936628157
decision_type=2 2 2 2 2 2 2 2 2 2
left_child=1 -1 5 4 8 9 -4 -7 -3 -2
right_child=2 3 6 -5 -6 7 -8 -9 -10 -11
leaf_value=0.058805130273103717 0.048837641137652099 -0.15050740143334546 0.097895893901586539 -0.013349526508578234 -0.22282158434391022 0.034634697790844021 0.17709868618420194 -0.030302654079028542 -0.092356721576183076 0.094142213607988051
leaf_weight=20 24 37 20 21 24 27 35 35 31 31
leaf_count=20 24 37 20 21 24 27 35 35 31 31
internal_value=-0.00249954 -0.0968706 0.0704734 -0.124424 -0.149778 0.0338894 0.148298 -0.00202348 -0.123998 0.0743729
internal_weight=305 133 172 113 92 117 55 62 68 55
internal_count=305 133 172 113 92 117 55 62 68 55
is_linear=0
shrinkage=0.05


Tree=4
num_leaves=12
num_cat=0
split_feature=17 19 12 21 0 17 0 19 0 15 23
split_gain=758.712 268.274 105.662 53.0074 52.0572 23.0475 22.5166 9.69949 6.38858 6.1964 3.57453
threshold=-0.33064116387612957 -0.28839510852904832 1.6315599097540852 1.097993899346178 -1.3628549215413972 0.60070537735705154 1.0000000180025095e-35 0.31612452058569879 0.53731020693836751 -0.36896867749286849 -0.51924452504226892
decision_type=2 2 2 2 2 2 2 2 2 2 2
left_child=3 4 5 6 -2 7 10 -3 -7 -8 -1
right_child=1 2 -4 -5 -6 8 9 -9 -10 -11 -12
leaf_value=0.11029550390584129 0.071817671010891593 -0.043166915893865128 -0.2066657891273499 0.13826832334996558 -0.023249226368756759 -0.095348512780453476 0.02617970467968421 -0.090313483811914924 -0.13311120967070264 0.06111540542915464 0.080759828620030019
leaf_weight=21 24 24 25 38 36 21 22 20 24 30 20
leaf_count=21 24 24 25 38 36 21 22 20 24 30 20
internal_value=-0.00237456 -0.0708003 -0.115841 0.0885116 0.0147775 -0.0903288 0.0681808 -0.0645972 -0.115489 0.0463349 0.0958879
internal_weight=305 174 114 131 60 89 93 44 45 52 41
internal_count=305 174 114 131 60 89 93 44 45 52 41
is_linear=0
shrinkage=0.05


Tree=5
num_leaves=12
num_cat=0
split_feature=17 22 16 10 0 17 0 0 3 12 1
split_gain=716.982 247.199 111.637 57.9222 27.3845 19.0143 11.7008 9.63905 8.18807 8.13235 6.93944
threshold=-0.33064116387612957 -0.30033328337936405 -1.0635864808895172 1.0860453109212622 -1.3628549215413972 0.55884523542502518 1.0000000180025095e-35 0.6015049747924136 -0.22733504252634931 -1.2238002356428208 0.8797625479488056
decision_type=2 2 2 2 2 2 2 2 2 2 2
left_child=3 4 -3 6 -2 7 -1 -4 -8 -5 -7
right_child=1 2 5 9 -6 10 8 -9 -10 -11 -12
leaf_value=0.079750032764342102 0.063550957808127778 -0.18094363731997354 -0.031415203103097158 0.14795422582399279 -0.013216162916450275 -0.079740170172105232 0.058110849350465066 -0.077234573222019459 0.017566827088594437 0.10791079816408455 -0.11817380393976751
leaf_weight=36 26 35 24 21 21 24 33 22 20 32 23
leaf_count=36 26 35 24 21 21 24 33 22 20 32 23
internal_value=-0.00108186 -0.0688179 -0.104827 0.0823956 0.0292508 -0.0761816 0.0577528 -0.0533288 0.0428112 0.123777 -0.0985481
internal_weight=317 175 128 142 47 93 89 46 53 53 47
internal_count=317 175 128 142 47 93 89 46 53 53 47
is_linear=0
shrinkage=0.05


Tree=6
num_leaves=13
num_cat=0
split_feature=12 19 9 9 12 0 22 10 9 9 11 4
split_gain=644.98 239.617 155.488 127.607 54.7929 43.223 40.6606 25.7626 17.6456 15.7022 9.17399 1.50964
threshold=-0.35332428917840125 -0.20704735757245726 0.67861582009592469 0.14062959836112135 1.4460972036673825 -1.3628549215413972 -0.69883861954926518 0.89524629268880729 -0.30769225308453801 -0.6394504231543362 0.49464065829741061 0.72948167658118945
decision_type=2 2 2 2 2 2 2 2 2 2 2 2
left_child=3 5 4 6 8 -2 -1 -5 10 -8 -3 -9
right_child=1 2 -4 7 -6 -7 9 11 -10 -11 -12 -13
leaf_value=0.077017833899174423 0.060373410295981624 -0.1094684660807252 0.014788650684058666 0.087815145301547923 -0.20226635456085207 -0.023290622136310529 -0.024973655492741706 0.16489130884408953 -0.078700464227321479 0.032944932376965878 -0.15625786916776138 0.14546426713466645
leaf_weight=35 26 20 20 22 25 38 22 20 22 25 22 20
leaf_count=35 26 20 20 22 25 38 22 20 22 25 22 20
internal_value=-0.00102777 -0.0660964 -0.111187 0.0771449 -0.139496 0.0106979 0.0362174 0.131275 -0.114976 0.0058341 -0.133977 0.155178
internal_weight=317 173 109 144 89 64 82 62 64 47 42 40
internal_count=317 173 109 144 89 64 82 62 64 47 42 40
is_linear=0
shrinkage=0.05


Tree=7
num_leaves=13
num_cat=0
split_feature=12 19 9 9 12 4 22 10 9 9 22 4
split_gain=582.094 216.254 140.328 115.166 49.4506 39.0087 36.6962 23.2507 15.9252 14.1712 8.5674 1.36245
threshold=-0.35332428917840125 -0.20704735757245726 0.67861582009592469 0.14062959836112135 1.4460972036673825 -1.1232641948846156 -0.69883861954926518 0.89524629268880729 -0.30769225308453801 -0.6394504231543362 0.57435418251882275 0.72948167658118945
decision_type=2 2 2 2 2 2 2 2 2 2 2 2
left_child=3 5 4 6 8 -2 -1 -5 10 -8 -3 -9
right_child=1 2 -4 7 -6 -7 9 11 -10 -11 -12 -13
leaf_value=0.07316694278802191 0.057354738677923504 -0.10359372589737177 0.014049218147993087 0.083424388447945766 -0.1921530375480652 -0.022126090771665701 -0.023724973201751709 0.15664674550294877 -0.074765440415252335 0.031297685276716947 -0.14880980876359073 0.13819105476140978
leaf_weight=35 26 20 20 22 25 38 22 20 22 25 22 20
leaf_count=35 26 20 20 22 25 38 22 20 22 25 22 20
internal_value=-0.000976377 -0.0627916 -0.105627 0.0732877 -0.132521 0.010163 0.0344065 0.124711 -0.109227 0.0055424 -0.127278 0.147419
internal_weight=317 173 109 144 89 64 82 62 64 47 42 40
internal_count=317 173 109 144 89 64 82 62 64 47 42 40
is_linear=0
shrinkage=0.05


Tree=8
num_leaves=13
num_cat=0
split_feature=17 22 9 9 10 22 9 10 0 9 0 4
split_gain=527.192 184.784 114.192 100.671 65.9171 32.8163 23.5028 20.9838 19.1842 15.7704 13.1603 1.22961
threshold=-0.33064116387612957 -0.30033328337936405 1.0103739901657232 0.14062959836112135 -1.0177154718756358 -0.25023870893985928 -0.6394504231543362 0.89524629268880729 -1.3628549215413972 -0.11939707547735791 -0.88139416263605153 0.72948167658118945
decision_type=2 2 2 2 2 2 2 2 2 2 2 2
left_child=3 8 4 5 9 10 -6 -5 -2 -3 -1 -9
right_child=1 2 -4 7 6 -7 -8 11 -10 -11 -12 -13
leaf_value=0.085672873482108114 0.054487003959142244 -0.17277236543595792 0.019599633738398556 0.079253169386224315 -0.11464339349241484 -0.020084935444451515 -0.047735045610794002 0.14881440341472627 -0.009766145884281114 -0.1161740615963936 0.035786448357005916 0.1312815010547638
leaf_weight=20 26 32 20 22 21 21 35 20 21 20 39 20
leaf_count=20 26 32 20 22 21 21 35 20 21 20 39 20
internal_value=-0.000927558 -0.0590107 -0.0901441 0.0706538 -0.110467 0.0335918 -0.0728257 0.118476 0.0257781 -0.151004 0.0526971 0.140048
internal_weight=317 175 128 142 108 80 56 62 47 52 59 40
internal_count=317 175 128 142 108 80 56 62 47 52 59 40
is_linear=0
shrinkage=0.05


Tree=9
num_leaves=12
num_cat=0
split_feature=16 0 9 9 19 16 18 11 9 9 10
split_gain=475.517 154.662 136.449 114.778 47.9296 36.267 32.6446 22.0646 18.882 15.8408 10.8448
threshold=0.088907033898764379 -1.0162031751295484 -0.21802788279540417 0.83104524958745529 -0.66700416018903608 -1.0887569967604227 -0.70486094043826919 -0.49551923303018197 -0.21802788279540417 0.67861582009592469 -0.76731490380770073
decision_type=2 2 2 2 2 2 2 2 2 2 2
left_child=1 -1 4 5 -2 -3 9 -6 10 -4 -7
right_child=2 3 6 -5 7 8 -8 -9 -10 -11 -12
leaf_value=0.05038658861409534 0.059511885074553662 -0.17036644617716473 0.088768681344287156 0.01455582518130541 0.0040274837421196879 -0.14021658028165501 0.056103718471958455 -0.060616933723742321 -0.059482217846172192 0.14017941817160576 -0.09360717695492965
leaf_weight=22 27 24 29 20 33 24 38 22 21 31 26
leaf_count=22 27 24 29 20 33 24 38 22 21 31 26
internal_value=-0.00088118 -0.0710751 0.0525442 -0.0943112 0.00495311 -0.117231 0.0923653 -0.0218303 -0.0992692 0.115331 -0.11598
internal_weight=317 137 180 115 82 95 98 55 71 60 50
internal_count=317 137 180 115 82 95 98 55 71 60 50
is_linear=0
shrinkage=0.05


Tree=10
num_leaves=11
num_cat=0
split_feature=10 9 22 9 22 9 10 9 22 22
split_gain=469.174 111.712 105.096 139.797 48.2702 27.2684 27.2211 19.7355 13.2096 7.14784
threshold=0.095559875072966885 0.14062959836112135 -0.30033328337936405 1.0103739901657232 -0.45215276232572005 -0.90844353402174793 0.89524629268880729 -0.28975937902671317 1.0389531573268189 -0.83353411019790935
decision_type=2 2 2 2 2 2 2 2 2 2
left_child=2 4 -1 5 9 -4 -3 -6 -7 -2
right_child=1 6 3 -5 7 8 -8 -9 -10 -11
leaf_value=0.017148615662818372 0.067282969614973778 0.063739377294074404 -0.17239427749927227 0.017355126123875381 -0.038221719370198415 -0.079081544705799645 0.12660879178179638 0.023425825632875787 -0.12924247937543051 0.031533424492026195
leaf_weight=23 27 33 26 20 37 21 36 20 35 29
leaf_count=23 27 33 26 20 37 21 36 20 35 29
internal_value=-0.00481496 0.0464107 -0.0793994 -0.10117 0.0158002 -0.130079 0.0965408 -0.016591 -0.110432 0.0487698
internal_weight=307 182 125 102 113 82 69 57 56 56
internal_count=307 182 125 102 113 82 69 57 56 56
is_linear=0
shrinkage=0.05


Tree=11
num_leaves=13
num_cat=0
split_feature=10 22 22 22 18 16 18 3 21 3 15 3
split_gain=423.43 95.64 61.1777 49.4257 22.4991 20.6521 19.5516 11.5177 7.48298 3.58171 3.26218 2.42737
threshold=0.095559875072966885 -0.50428705953322595 -0.29693645877881819 1.4454022258739829 -0.58457207593504579 -1.0635864808895172 -0.81979870444698622 -0.070460795720135666 1.0867614078578065 -0.21156675483191043 0.77935251102516656 -0.5115685360953387
decision_type=2 2 2 2 2 2 2 2 2 2 2 2
left_child=1 -1 4 5 8 -3 -4 -7 9 -2 -8 -10
right_child=2 3 6 -5 -6 7 10 -9 11 -11 -12 -13
leaf_value=0.024781312234699728 0.048163153054192664 -0.10916342575413485 0.045718120504170658 -0.14518843938906986 0.028046017028391365 -0.025731634721159937 -0.028152245531479519 -0.074887418360091176 0.081495880657299014 0.07655125319957734 -0.00089532671415287518 0.10526163890248252
leaf_weight=20 20 24 20 33 30 22 21 26 22 25 23 21
leaf_count=20 20 24 20 33 30 22 21 26 22 25 23 21
internal_value=-0.00457421 -0.0754295 0.0440901 -0.0945172 0.0654392 -0.0712929 0.0047277 -0.0523577 0.0781869 0.0639343 -0.0139043 0.0931024
internal_weight=307 125 182 105 118 72 64 48 88 45 44 43
internal_count=307 125 182 105 118 72 64 48 88 45 44 43
is_linear=0
shrinkage=0.05


Tree=12
num_leaves=12
num_cat=0
split_feature=12 9 9 22 22 9 9 11 21 22 21
split_gain=378.704 123.415 86.5322 88.3621 45.8894 29.5079 25.2908 16.7813 13.8908 10.4203 10.1367
threshold=0.42151448167883526 -0.11939707547735791 1.2883335380620273 -0.18351384812571206 -0.75928058866144366 -0.90844353402174793 0.44548845734418252 -0.4647121003231845 0.90305363247505122 -0.44028829015187343 -1.4052369991341338
decision_type=2 2 2 2 2 2 2 2 2 2 2
left_child=1 4 3 -2 -1 -5 9 -6 -8 -3 -7
right_child=2 6 -4 5 7 10 8 -9 -10 -11 -12
leaf_value=0.048811220808018897 -0.0051386078447103502 0.074292459934949873 0.016639257783535869 -0.17382092333975294 -0.0018083271147175271 -0.13115088880062103 0.072978053853980138 -0.052625080267898743 0.12235145034461187 0.025425416114740074 -0.085493820953753685
leaf_weight=29 20 20 20 21 33 20 28 32 29 24 31
leaf_count=29 20 20 20 21 33 20 28 32 29 24 31
internal_value=-0.0043455 0.0377409 -0.077621 -0.0981124 -0.00349098 -0.123938 0.0761152 -0.0268258 0.0980979 0.0476377 -0.103399
internal_weight=307 195 112 92 94 72 101 65 57 44 51
internal_count=307 195 112 92 94 72 101 65 57 44 51
is_linear=0
shrinkage=0.05


Tree=13
num_leaves=11
num_cat=0
split_feature=10 9 9 4 22 9 10 9 22 9
split_gain=345.031 88.8898 83.1035 114.238 36.3791 20.6951 20.5671 16.3388 9.34487 5.50156
threshold=0.095559875072966885 0.14062959836112135 1.2883335380620273 -0.83813957066173816 -0.45215276232572005 -0.90844353402174793 0.89524629268880729 -0.30769225308453801 1.0389531573268189 -0.77394697858804207
decision_type=2 2 2 2 2 2 2 2 2 2
left_child=2 4 3 -1 9 -5 -3 -6 -7 -2
right_child=1 6 -4 5 7 8 -8 -9 -10 -11
leaf_value=0.020986564643681052 0.022345321645717259 0.056005922704935075 0.022637410794517823 -0.1480379413675379 -0.036070211195490427 -0.069362222267822779 0.11065372576316197 0.019425193788040251 -0.11094836392572949 0.054200947629005625
leaf_weight=20 23 33 21 27 36 22 36 21 35 33
leaf_count=20 23 33 21 27 36 22 36 21 35 33
internal_value=-0.00412822 0.0398006 -0.0680886 -0.0864082 0.0124954 -0.111978 0.0845178 -0.0156245 -0.0948976 0.0411174
internal_weight=307 182 125 104 113 84 69 57 57 56
internal_count=307 182 125 104 113 84 69 57 57 56
is_linear=0
shrinkage=0.05


Tree=14
num_leaves=12
num_cat=0
split_feature=12 9 9 19 22 9 17 22 9 9 21
split_gain=310.161 101.201 70.2178 73.6496 40.6577 24.6482 22.7419 13.2099 9.90026 9.71959 8.79995
threshold=0.42151448167883526 -0.21802788279540417 1.2883335380620273 -0.28839510852904832 -0.25665624051065405 -0.90844353402174793 -0.76536912169106608 -0.83353411019790935 0.61585076089353785 0.44548845734418252 -1.4052369991341338
decision_type=2 2 2 2 2 2 2 2 2 2 2
left_child=1 4 3 -2 7 -5 8 -1 -3 -8 -7
right_child=2 6 -4 5 -6 10 9 -9 -10 -11 -12
leaf_value=0.049696013098582625 -0.0038129293918609621 0.066690566703677179 0.01467542489990592 -0.15786275381133671 -0.047614255711874547 -0.11935782194137574 0.021269552335143091 0.00094369113671057155 0.10929394592841467 0.065816347083697713 -0.076817643209811187
leaf_weight=24 20 25 20 21 34 20 25 33 30 24 31
leaf_count=24 20 25 20 21 34 20 25 33 30 24 31
internal_value=-0.00392181 0.034166 -0.0702355 -0.0886943 -0.00434108 -0.112273 0.0678597 0.021471 0.0899288 0.0430884 -0.0935001
internal_weight=307 195 112 92 91 72 104 57 55 49 51
internal_count=307 195 112 92 91 72 104 57 55 49 51
is_linear=0
shrinkage=0.05


Tree=15
num_leaves=12
num_cat=0
split_feature=16 22 10 18 21 22 0 4 22 12 18
split_gain=267.565 64.3671 45.1793 41.547 13.4189 12.4807 9.04198 8.12686 2.91425 1.89525 1.73
threshold=0.075987098494867469 -0.39858787329316409 -1.1608268920917995 -0.58457207593504579 1.097993899346178 0.85415130732868139 0.12646369267247229 -0.30803131341465345 -0.27874893176357335 -1.2240282835277549 -0.82084995336920852
decision_type=2 2 2 2 2 2 2 2 2 2 2
left_child=1 -1 5 4 8 -3 -5 -4 10 -6 -2
right_child=3 2 7 6 9 -7 -8 -9 -10 -11 -12
leaf_value=0.031425177492201327 0.041044946844604885 -0.069559340439736841 -0.058086137768113992 0.021821107895988408 0.086230559771259638 -0.11990954726934433 -0.018043623656034468 -0.023273771417964446 0.03186801762374885 0.066559587925672542 0.060456241232653467
leaf_weight=20 22 20 30 33 24 32 25 38 34 25 24
leaf_count=20 22 20 30 33 24 32 25 38 34 25 24
internal_value=0.000652 -0.0516198 -0.0654607 0.039786 0.0555889 -0.100544 0.00463803 -0.0386322 0.0429681 0.0761943 0.0511726
internal_weight=327 140 120 187 129 52 58 68 80 49 46
internal_count=327 140 120 187 129 52 58 68 80 49 46
is_linear=0
shrinkage=0.05


Tree=16
num_leaves=13
num_cat=0
split_feature=16 22 21 18 19 21 0 15 16 19 23 18
split_gain=241.478 58.0913 40.7743 37.4962 14.2624 12.1106 8.16039 7.38166 8.24424 2.88831 1.93595 0.913141
threshold=0.075987098494867469 -0.39858787329316409 -1.1701006220107877 -0.58457207593504579 0.3338022957998496 1.097993899346178 0.12646369267247229 1.4072241006761064 -0.99011760335234233 0.088897107668088796 -1.0573144125522356 -0.82084995336920852
decision_type=2 2 2 2 2 2 2 2 2 2 2 2
left_child=1 -1 4 5 -3 9 -5 8 -4 11 -7 -2
right_child=3 2 7 6 -6 10 -8 -9 -10 -11 -12 -13
leaf_value=0.029853919334709645 0.040634539746679368 -0.064938517219640987 -0.049562954796212061 0.020730052786794576 -0.11794101039568583 0.06341347182514491 -0.017141442209482195 -0.062221588315442201 -0.0077920094408370838 0.027872718305193951 0.083394691212610769 0.053925485057490209
leaf_weight=20 24 22 21 33 30 27 25 20 27 28 22 28
leaf_count=20 24 22 21 33 30 27 25 20 27 28 22 28
internal_value=0.0006194 -0.0490388 -0.0621876 0.0377967 -0.0955169 0.0528095 0.00440613 -0.0367006 -0.0260668 0.0408197 0.0723846 0.0477912
internal_weight=327 140 120 187 52 129 58 68 48 80 49 52
internal_count=327 140 120 187 52 129 58 68 48 80 49 52
is_linear=0
shrinkage=0.05


Tree=17
num_leaves=13
num_cat=0
split_feature=10 9 9 19 12 22 10 9 11 2 9 9
split_gain=218.405 64.9097 59.8163 43.6173 32.1536 29.9205 15.9955 14.8928 12.7308 8.01406 5.99482 2.26496
threshold=0.095559875072966885 0.2571932797370024 0.44548845734418252 -0.015310998968488356 0.99494248538725627 -0.70965936808017316 -1.1663849116810094 -0.28975937902671317 -0.35856437730550872 -0.074664966351437587 -0.30769225308453801 1.0103739901657232
decision_type=2 2 2 2 2 2 2 2 2 2 2 2
left_child=1 3 5 -1 -3 10 -5 9 11 -7 -2 -4
right_child=2 4 8 6 -6 7 -8 -9 -10 -11 -12 -13
leaf_value=-0.023322707563638689 0.031981939276946446 0.047764156945049763 0.081474891602993024 -0.12773056173324585 -0.033551498268160132 -0.0019094829403218769 -0.075045682040645809 0.020271023377977513 0.044515624977648265 -0.046134055536240337 0.067322024915899545 0.10527067929506302
leaf_weight=30 28 20 20 25 31 21 34 37 20 20 21 20
leaf_count=30 28 20 20 25 31 21 34 37 20 20 21 20
internal_value=0.00058843 -0.0466379 0.0359451 -0.0724101 -0.00166301 0.0165079 -0.0973698 -0.00272759 0.0770871 -0.0234824 0.0471277 0.0933728
internal_weight=327 140 187 89 51 127 59 78 60 41 49 40
internal_count=327 140 187 89 51 127 59 78 60 41 49 40
is_linear=0
shrinkage=0.05


Tree=18
num_leaves=12
num_cat=0
split_feature=10 9 9 19 10 22 10 9 9 22 9
split_gain=197.111 58.581 53.9842 39.3646 29.342 27.0033 14.436 13.4407 9.27844 7.82879 5.41033
threshold=0.095559875072966885 0.2571932797370024 0.44548845734418252 -0.015310998968488356 -1.1541136065763669 -0.70965936808017316 -1.1663849116810094 -0.28975937902671317 1.2883335380620273 -0.25665624051065405 -0.30769225308453801
decision_type=2 2 2 2 2 2 2 2 2 2 2
left_child=1 3 5 -1 -3 10 -5 9 -4 -7 -2
right_child=2 4 8 6 -6 7 -8 -9 -10 -11 -12
leaf_value=-0.022156572242577874 0.030382842314429583 -0.043424987193682922 0.057730453038537827 -0.1213440330028534 0.032792931156499047 7.9928226768970502e-05 -0.071293397221769042 0.019257472440399031 0.098171130794545883 -0.043630466525930736 0.063955923985867275
leaf_weight=30 28 23 37 25 28 20 34 37 23 21 21
leaf_count=30 28 23 37 25 28 20 34 37 23 21 21
internal_value=0.000559009 -0.044306 0.0341478 -0.0687896 -0.00157986 0.0156825 -0.0925013 -0.00259121 0.0732327 -0.0223083 0.0447713
internal_weight=327 140 187 89 51 127 59 78 60 41 49
internal_count=327 140 187 89 51 127 59 78 60 41 49
is_linear=0
shrinkage=0.05


Tree=19
num_leaves=13
num_cat=0
split_feature=17 9 22 17 9 17 22 19 9 17 9 18
split_gain=180.158 66.9886 46.6058 40.5608 35.0388 25.373 12.7532 8.33264 6.15358 6.03897 5.51509 3.02998
threshold=-0.43577549033674029 0.14062959836112135 0.1200527279799587 1.1176378233822721 0.67861582009592469 1.1176378233822721 -0.67281817638869756 -0.53861143380196486 -0.21802788279540417 0.60070537735705154 -0.28975937902671317 0.22634055251011179
decision_type=2 2 2 2 2 2 2 2 2 2 2 2
left_child=4 2 7 9 6 11 8 -2 -1 -3 -8 -4
right_child=1 3 5 -5 -6 -7 10 -9 -10 -11 -12 -13
leaf_value=0.031558805982102499 0.0072924415767192845 0.046228381146987282 -0.047495476399426875 -0.045960392300039538 0.088470399467384109 -0.12570487396283583 -0.0087506937306551704 -0.034658841531852197 0.064833084183434642 0.010758406156674028 0.026335568718301755 -0.073450462520122536
leaf_weight=33 20 30 23 25 34 22 21 29 24 20 24 22
leaf_count=33 20 30 23 25 34 22 21 29 24 20 24 22
internal_value=0.000531058 -0.0307857 -0.0545954 0.00604013 0.0445126 -0.0816987 0.02986 -0.0175359 0.045569 0.0320404 0.00996198 -0.0601846
internal_weight=327 191 116 75 136 67 102 49 57 50 45 45
internal_count=327 191 116 75 136 67 102 49 57 50 45 45
is_linear=0
shrinkage=0.05


Tree=20
num_leaves=12
num_cat=0
split_feature=12 9 9 4 22 9 9 17 21 9 21
split_gain=160.225 66.1094 36.2739 35.0002 25.7057 19.4246 18.0535 14.6046 12.7338 10.3721 9.20338
threshold=0.4031712781868188 0.068898102129802311 0.2571932797370024 -0.74838426224382404 -0.75928058866144366 -1.0250072153976189 1.2883335380620273 1.1176378233822721 0.87499091317469369 -0.57668536395194947 0.53765825910943843
decision_type=2 2 2 2 2 2 2 2 2 2 2
left_child=1 4 3 -2 -1 -6 8 -4 -3 -5 -7
right_child=2 6 7 9 5 10 -8 -9 -10 -11 -12
leaf_value=0.03775972113209336 -0.011041200682520867 0.025659193624291688 0.015757009332068264 -0.11715705364942551 -0.054915263354778289 -0.016740306749426084 0.098433672994375235 -0.041566923316568138 0.07217651030847004 -0.070972862274521181 0.024227191450504157
leaf_weight=38 20 31 25 20 20 29 25 20 28 31 26
leaf_count=38 20 31 25 20 20 29 25 20 28 31 26
internal_value=0.00177854 0.0292295 -0.0448408 -0.0671003 0.00425666 -0.0127182 0.062824 -0.00972029 0.0477352 -0.0890843 0.00262615
internal_weight=313 197 116 71 113 75 84 45 59 51 55
internal_count=313 197 116 71 113 75 84 45 59 51 55
is_linear=0
shrinkage=0.05


Tree=21
num_leaves=12
num_cat=0
split_feature=12 9 9 4 16 9 21 21 0 9 9
split_gain=144.603 59.6637 32.758 32.897 19.7461 16.2933 14.5988 11.4922 9.7978 8.25638 5.20394
threshold=0.4031712781868188 0.068898102129802311 0.14062959836112135 -0.74838426224382404 0.72050189600075287 1.2883335380620273 -1.1701006220107877 0.87499091317469369 0.15856107659949545 -0.57668536395194947 -0.90844353402174793
decision_type=2 2 2 2 2 2 2 2 2 2 2
left_child=1 4 3 -2 8 7 -4 -3 -1 -5 -6
right_child=2 5 6 9 10 -7 -8 -9 -10 -11 -12
leaf_value=0.0027195866485791552 -0.010489141196012498 0.024376233652113909 -0.041411560756110015 -0.11129920214414597 0.0033036576397716998 0.093511988505721094 0.014639166975393893 0.06856768562325409 -0.03990551534180458 -0.06954030764514002 0.034673689133845845
leaf_weight=28 20 31 21 20 20 25 26 28 26 29 39
leaf_count=28 20 31 21 20 20 25 26 28 26 29 39
internal_value=0.00168962 0.0277681 -0.0425988 -0.0645281 0.00404382 0.0596828 -0.0104048 0.0453484 -0.0178036 -0.0865848 0.0240398
internal_weight=313 197 116 69 113 84 47 59 54 49 59
internal_count=313 197 116 69 113 84 47 59 54 49 59
is_linear=0
shrinkage=0.05


Tree=22
num_leaves=12
num_cat=0
split_feature=12 17 10 22 0 15 0 23 0 10 10
split_gain=130.504 27.8387 22.5713 11.0849 9.48992 8.40147 6.09272 5.43238 3.50799 3.34776 2.33051
threshold=0.4031712781868188 -0.76536912169106608 -1.6364717341899091 -0.70965936808017316 -0.74658515014255467 -0.38637501859210249 0.5694075908653905 -0.63739889212581569 0.83260613906697967 -1.1541136065763669 0.13975383593626303
decision_type=2 2 2 2 2 2 2 2 2 2 2
left_child=1 6 -2 -3 -4 9 7 -1 10 -6 -5
right_child=2 3 4 8 5 -7 -8 -9 -10 -11 -12
leaf_value=0.067513036493744169 -0.087379514248598189 0.037854327107577218 0.00050324796698987485 0.018085463451487677 -0.040847957124933602 -0.05994114923024816 0.028307216231312073 0.038249811279619565 -0.018608097383350303 -0.013858187295220517 -0.0033507731728604998
leaf_weight=35 21 23 20 21 20 28 35 29 22 27 32
leaf_count=35 21 23 20 21 20 28 35 29 22 27 32
internal_value=0.00160514 0.0263797 -0.0404689 0.00748818 -0.0300991 -0.0382598 0.0450803 0.0542531 -0.00182411 -0.0253432 0.00514283
internal_weight=313 197 116 98 95 75 99 64 75 47 53
internal_count=313 197 116 98 95 75 99 64 75 47 53
is_linear=0
shrinkage=0.05


Tree=23
num_leaves=12
num_cat=0
split_feature=12 0 12 12 19 15 17 4 3 1 19
split_gain=118.985 41.2049 25.8391 11.3344 9.91452 8.5705 5.28039 5.21496 4.06983 4.25017 3.11572
threshold=-0.36388900924727402 -1.3628549215413972 1.6855651535122433 0.38698755013061953 -0.84842119067113786 -0.38637501859210249 -0.76536912169106608 -0.56421894857028454 -0.33488285090380498 -0.51984882665654142 0.77200915326601949
decision_type=2 2 2 2 2 2 2 2 2 2 2
left_child=4 -2 3 7 -1 10 8 -3 -6 -10 -5
right_child=1 2 -4 5 6 -7 -8 -9 9 -11 -12
leaf_value=0.061868758002916968 0.03378366458415985 0.0092742896436349212 -0.086979196468989051 -0.037098544689693619 0.022951384056960386 -0.059233787024934453 0.012711069466913064 -0.023715707767754793 0.061376060221506205 0.029860241955611856 -0.012261993583777678
leaf_weight=30 25 23 21 28 31 31 33 25 23 20 23
leaf_count=30 25 23 21 28 31 31 33 25 23 20 23
internal_value=0.00152488 -0.0256738 -0.0355177 -0.0272047 0.0364662 -0.0385004 0.029344 -0.007908 0.0367614 0.0467175 -0.0258977
internal_weight=313 176 151 130 137 82 107 48 74 43 51
internal_count=313 176 151 130 137 82 107 48 74 43 51
is_linear=0
shrinkage=0.05


Tree=24
num_leaves=12
num_cat=0
split_feature=12 9 19 9 21 17 22 9 9 21 22
split_gain=107.384 39.8454 40.2732 33.736 24.0503 21.0306 14.566 5.60471 4.72275 4.32823 2.03681
threshold=-0.36388900924727402 0.14062959836112135 -0.80254750482258352 0.73241444226939911 -0.54488016249510896 1.1176378233822721 -0.25023870893985928 -0.21802788279540417 -0.57668536395194947 -0.61758516223597903 -0.88160151814167531
decision_type=2 2 2 2 2 2 2 2 2 2 2
left_child=3 2 -2 6 8 9 7 10 -4 -3 -1
right_child=1 5 4 -5 -6 -7 -8 -9 -10 -11 -12
leaf_value=0.030252058573229157 0.02164706151932478 0.010030630035325887 -0.092633087646502715 0.076999669553978106 -0.024200703033379147 -0.033062478493560442 -0.011382384277035104 0.047729579912077998 -0.063518259041011341 0.041834554405447665 0.0087144302758609959
leaf_weight=23 20 20 26 35 35 22 27 31 30 23 21
leaf_count=23 20 20 26 35 35 22 27 31 30 23 21
internal_value=0.00144864 -0.0243901 -0.0425954 0.0346429 -0.0567146 0.00669897 0.0201088 0.0314456 -0.0770359 0.027042 0.0199727
internal_weight=313 176 111 137 91 65 102 75 56 43 44
internal_count=313 176 111 137 91 65 102 75 56 43 44
is_linear=0
shrinkage=0.05


Tree=25
num_leaves=11
num_cat=0
split_feature=16 18 19 19 2 16 4 19 3 3
split_gain=132.524 44.753 13.0165 11.9128 7.69218 5.04296 5.03569 3.66299 3.61946 6.62233
threshold=-0.99011760335234233 -0.58822031839833044 -0.80254750482258352 0.81133716825447166 -1.3792911512982415 0.15517876769352387 -0.26097663387995879 -0.16679424527734424 -0.18245606985756138 -0.32073182348571821
decision_type=2 2 2 2 2 2 2 2 2 2
left_child=3 4 -3 -1 -2 6 -4 -7 9 -6
right_child=1 2 5 -5 8 7 -8 -9 -10 -11
leaf_value=-0.045756917391662245 0.059475248521910266 0.028740114683196663 -0.034814784411144883 -0.090539927272634074 0.02045778822811211 0.013991418600614584 -0.0068700103687920752 -0.01489145227647184 0.012859489851129745 0.053625758599351959
leaf_weight=27 26 21 38 33 34 21 28 23 26 27
leaf_count=27 26 21 38 33 34 21 28 23 26 27
internal_value=-0.00381432 0.0125561 -0.00733178 -0.0703876 0.0356121 -0.0142182 -0.0229594 -0.00110645 0.0284805 0.0351387
internal_weight=304 244 131 60 113 110 66 44 87 61
internal_count=304 244 131 60 113 110 66 44 87 61
is_linear=0
shrinkage=0.05


Tree=26
num_leaves=11
num_cat=0
split_feature=16 17 0 0 16 0 16 3 18 1
split_gain=119.603 41.4281 11.9265 8.7277 7.8195 6.712 6.17458 5.79094 5.74218 1.91885
threshold=-0.99011760335234233 -0.44582756060006745 0.83260613906697967 0.53731020693836751 0.95905849728646475 -0.97126683763171606 -0.4972140557942008 -0.18245606985756138 -0.31604140833913841 -1.2532309278127265
decision_type=2 2 2 2 2 2 2 2 2 2
left_child=3 4 5 -1 7 -3 -7 -2 -8 -6
right_child=1 2 -4 -5 9 6 8 -9 -10 -11
leaf_value=-0.050192205991376852 0.031223670632029195 0.025914168599992994 -0.035590850291473256 -0.088675255185136428 0.055568589687347417 -0.028157637438372424 -0.011582983730153906 -0.00085864017071964397 0.023764658793807032 0.037637118519460028
leaf_weight=34 39 20 31 26 25 23 27 22 20 37
leaf_count=34 39 20 31 26 25 23 27 22 20 37
internal_value=-0.00362361 0.0119283 -0.00884385 -0.0668682 0.0323628 0.000369004 -0.00692961 0.019653 0.00345857 0.0448676
internal_weight=304 244 121 60 123 90 70 61 47 62
internal_count=304 244 121 60 123 90 70 61 47 62
is_linear=0
shrinkage=0.05


Tree=27
num_leaves=11
num_cat=0
split_feature=16 17 22 22 2 0 16 3 10 3
split_gain=107.942 37.3888 18.3337 12.4564 7.06806 5.97256 6.40495 4.12768 3.95804 3.29009
threshold=-0.99011760335234233 -0.44582756060006745 1.6028521088597878 -0.61067252287896145 -1.3792911512982415 0.83260613906697967 -0.4972140557942008 -0.18245606985756138 0.13975383593626303 -0.32073182348571821
decision_type=2 2 2 2 2 2 2 2 2 2
left_child=2 4 -1 -3 -2 6 -5 9 -8 -6
right_child=1 3 -4 5 7 -7 8 -9 -10 -11
leaf_value=-0.040957793852107398 0.053895475658086639 0.027649460062384609 -0.097375270891158536 -0.028387957314650221 0.019948417464779183 -0.033811307814152494 0.016338971794511267 0.0087452343857750813 -0.013247087048366666 0.041954235125865255
leaf_weight=36 26 20 24 24 33 31 26 29 20 35
leaf_count=36 26 20 24 24 33 31 26 29 20 35
internal_value=-0.00344243 0.0113319 -0.0635248 -0.00840166 0.0307446 -0.0155405 -0.00744913 0.0245393 0.00347547 0.0312749
internal_weight=304 244 60 121 123 101 70 97 46 68
internal_count=304 244 60 121 123 101 70 97 46 68
is_linear=0
shrinkage=0.05


Tree=28
num_leaves=11
num_cat=0
split_feature=16 17 19 19 16 0 16 3 18 2
split_gain=97.4173 33.7434 11.0205 9.41535 6.70059 5.33154 5.77695 4.81061 3.94114 1.94387
threshold=-0.99011760335234233 -0.44582756060006745 -0.80254750482258352 0.83744108916770232 0.95905849728646475 0.83260613906697967 -0.4972140557942008 -0.18245606985756138 -0.31604140833913841 -1.3792911512982415
decision_type=2 2 2 2 2 2 2 2 2 2
left_child=3 4 -3 -1 7 6 -4 -2 -8 -6
right_child=1 2 5 -5 9 -7 8 -9 -10 -11
leaf_value=-0.039174270137612315 0.027987964756977863 0.02494662344633114 -0.02696855878457427 -0.078876037045847627 0.051200701984075406 -0.032120742564720493 -0.01043383136857301 -0.0012529694898561999 0.019226218830971493 0.033259087305567751
leaf_weight=28 39 21 24 32 26 31 24 22 21 36
leaf_count=28 39 21 24 32 26 31 24 22 21 36
internal_value=-0.00327031 0.0107653 -0.00798158 -0.0603485 0.0292074 -0.0148965 -0.00715807 0.0174421 0.00340753 0.040783
internal_weight=304 244 121 60 123 100 69 61 45 62
internal_count=304 244 121 60 123 100 69 61 45 62
is_linear=0
shrinkage=0.05


Tree=29
num_leaves=12
num_cat=0
split_feature=16 18 22 22 15 19 2 22 10 15 4
split_gain=87.9191 30.6421 15.6066 12.3219 5.93241 5.77969 4.86677 4.37865 4.30196 2.37167 0.976197
threshold=-0.99011760335234233 -0.58530536610494732 1.6028521088597878 -0.70965936808017316 1.4072241006761064 0.21197345464737066 0.25688144318038142 -0.25023870893985928 0.91535622555936624 -0.623598581573091 0.1263681479321635
decision_type=2 2 2 2 2 2 2 2 2 2 2
left_child=2 5 -1 -3 6 8 7 -5 -2 -10 -11
right_child=1 3 -4 4 -6 -7 -8 -9 9 10 -12
leaf_value=-0.036510060525809726 0.016982377837929462 0.028738237386569384 -0.088562706237037991 0.0043816558644175531 -0.034799286973877595 0.0068481390476226815 0.014047834649682046 -0.024521641679549299 0.054541941341899693 0.041691627191460655 0.02727651429983477
leaf_weight=36 27 20 24 20 26 25 20 38 21 23 24
leaf_count=36 27 20 24 20 26 25 20 38 21 23 24
internal_value=-0.00310679 0.0102271 -0.0573311 -0.00720362 -0.0141155 0.0282388 -0.00722093 -0.014555 0.0338679 0.0405724 0.0343307
internal_weight=304 244 60 124 104 120 78 58 95 68 47
internal_count=304 244 60 124 104 120 78 58 95 68 47
is_linear=0
shrinkage=0.05


Tree=30
num_leaves=13
num_cat=0
split_feature=9 22 10 22 9 18 16 17 9 19 15 9
split_gain=81.3165 52.4282 45.2633 20.7813 15.6732 11.8554 9.29671 5.73599 4.14628 3.69833 2.19998 1.81189
threshold=-0.21802788279540417 0.23779510075483118 -1.4053875669275313 -1.0361611446353527 1.5752595229872635 0.49091708815725693 0.80462220991554823 -0.10579113291141039 -0.90844353402174793 0.17420562549513682 0.33573947501040374 0.67861582009592469
decision_type=2 2 2 2 2 2 2 2 2 2 2 2
left_child=1 3 -2 -1 6 -3 9 8 -5 10 -4 -8
right_child=2 5 4 7 -6 -7 11 -9 -10 -11 -12 -13
leaf_value=0.032669735229574143 -0.044101366155188199 -0.039856086075305941 0.013022456518732585 -0.02506655224040151 0.068017453499711486 -0.089553957407673204 0.034110286938292642 -0.041548055037856108 0.0040286562560747068 -0.0006990117115761947 0.035079947542399174 0.05381467737257481
leaf_weight=25 22 20 26 25 26 30 28 22 24 27 20 20
leaf_count=25 22 20 26 25 26 30 28 22 24 27 20 20
internal_value=-0.000825764 -0.0281577 0.0227865 -0.00653427 0.0327969 -0.0696748 0.0252289 -0.0203385 -0.0108158 0.0139905 0.0226127 0.0423204
internal_weight=315 146 169 96 147 50 121 71 49 73 46 48
internal_count=315 146 169 96 147 50 121 71 49 73 46 48
is_linear=0
shrinkage=0.05


Tree=31
num_leaves=12
num_cat=0
split_feature=9 10 19 0 16 9 11 16 9 0 0
split_gain=73.3882 40.8502 39.4451 16.2437 16.0432 14.1451 11.7326 6.47871 4.80326 2.23884 1.82157
threshold=-0.21802788279540417 -1.4053875669275313 -0.11369550555682359 -1.3628549215413972 -0.67540133422253201 1.5752595229872635 -0.38257091384354197 0.15960046864906266 0.67861582009592469 0.33188694980541994 0.26769218195137384
decision_type=2 2 2 2 2 2 2 2 2 2 2
left_child=2 -2 3 -1 -4 6 8 -5 10 -8 -3
right_child=1 5 4 7 -6 -7 9 -9 -10 -11 -12
leaf_value=0.033199092148887839 -0.04189629803983156 0.039200743511319164 -0.080987316602841031 -0.038628563708202411 -0.031300541236432215 0.064616580293155632 0.015920256857167591 -0.0043653636314981694 0.056949229149714765 -0.0041501505368311577 0.018116405854622524
leaf_weight=22 22 20 32 22 33 26 33 37 23 24 21
leaf_count=22 22 20 32 22 33 26 33 37 23 24 21
internal_value=-0.000784475 0.0216472 -0.0267499 -0.00346873 -0.0557617 0.0311571 0.0239674 -0.0171415 0.0386608 0.00746956 0.0284014
internal_weight=315 169 146 81 65 147 121 59 64 57 41
internal_count=315 169 146 81 65 147 121 59 64 57 41
is_linear=0
shrinkage=0.05


Tree=32
num_leaves=13
num_cat=0
split_feature=10 22 18 1 0 16 22 11 4 4 1 16
split_gain=66.8885 17.8547 10.0005 5.90436 4.66165 3.8237 4.48352 2.04369 1.61596 2.4033 1.34638 0.940924
threshold=-0.72721019382845575 1.845181206073321 -0.58457207593504579 -0.078489997781543544 0.64002183550484137 -0.34506366590232485 0.15755455565356807 1.0527688568961415 -0.9531471734523046 0.29669578804786345 -0.14997837390580651 0.95756719958577652
decision_type=2 2 2 2 2 2 2 2 2 2 2 2
left_child=1 3 4 -1 8 -4 10 -5 -2 -10 -7 -6
right_child=2 -3 5 7 11 6 -8 -9 9 -11 -12 -13
leaf_value=-0.0080608122210417479 0.041925716244926053 -0.074310735477642581 0.020378614081577821 -0.045884458032315195 0.003409081100570885 0.013263987470418216 -0.022809613383807509 -0.024030353426933288 0.017884095648632331 0.038305723547935489 -0.003665068514807069 0.018393696921411903
leaf_weight=35 24 22 22 23 22 24 21 20 34 25 23 20
leaf_count=35 24 22 22 23 22 24 21 20 34 25 23 20
internal_value=-0.000745251 -0.0345291 0.0149682 -0.0233087 0.0241183 0.00225963 -0.00360239 -0.0357198 0.030987 0.0265373 0.00497956 0.0105446
internal_weight=315 100 215 78 125 90 68 43 83 59 47 42
internal_count=315 100 215 78 125 90 68 43 83 59 47 42
is_linear=0
shrinkage=0.05


Tree=33
num_leaves=13
num_cat=0
split_feature=9 22 10 22 9 11 18 9 12 9 22 22
split_gain=65.4349 40.8651 33.9558 16.3083 12.5865 9.58402 9.37039 4.28477 4.09128 3.68494 2.26984 1.55506
threshold=-0.21802788279540417 0.23779510075483118 -1.4053875669275313 -1.0361611446353527 1.5752595229872635 -0.38257091384354197 0.49091708815725693 0.67861582009592469 -0.0058770638089751959 -0.90844353402174793 1.0000000180025095e-35 -0.62162375249075674
decision_type=2 2 2 2 2 2 2 2 2 2 2 2
left_child=1 3 -2 -1 5 7 -3 11 9 -5 -7 -4
right_child=2 6 4 8 -6 10 -8 -9 -10 -11 -12 -13
leaf_value=0.028594013325870041 -0.037460355545309458 -0.035370007418096067 0.035929912613792116 -0.023756318485364317 0.060706031336807291 0.018345681082708048 -0.079553319215774534 0.052914816497460659 -0.03627669619480995 0.0036725152696211205 -0.0016869467833349782 0.016448921433073426
leaf_weight=25 22 20 20 25 26 26 30 23 22 24 31 21
leaf_count=25 22 20 20 25 26 26 30 23 22 24 31 21
internal_value=-0.000707989 -0.0252261 0.0204733 -0.00613546 0.0291436 0.0223616 -0.06188 0.0356417 -0.0183642 -0.0103218 0.00745074 0.0259518
internal_weight=315 146 169 96 147 121 50 64 71 49 57 41
internal_count=315 146 169 96 147 121 50 64 71 49 57 41
is_linear=0
shrinkage=0.05


Tree=34
num_leaves=13
num_cat=0
split_feature=9 22 10 22 9 11 18 9 11 22 0 9
split_gain=59.055 36.8808 30.6451 14.7183 11.3593 8.64958 8.45678 3.867 3.74605 2.04853 1.41872 1.0363
threshold=-0.21802788279540417 0.23779510075483118 -1.4053875669275313 -1.0361611446353527 1.5752595229872635 -0.38257091384354197 0.49091708815725693 0.67861582009592469 -0.18787786611498059 1.0000000180025095e-35 0.26769218195137384 -0.90844353402174793
decision_type=2 2 2 2 2 2 2 2 2 2 2 2
left_child=1 3 -2 -1 5 7 -3 10 11 -7 -4 -5
right_child=2 6 4 8 -6 9 -8 -9 -10 -11 -12 -13
leaf_value=0.027164312735199932 -0.035587336546318099 -0.033601507246494293 0.034184881970286372 -0.016122974371094081 0.057670730067631952 0.01742839709712336 -0.07557565344575172 0.050269076082369558 -0.031678506080061196 -0.0016025993071736829 0.015577461517837255 -0.00059461510629096838
leaf_weight=25 22 20 20 21 26 26 30 23 28 31 21 22
leaf_count=25 22 20 20 21 26 26 30 23 28 31 21 22
internal_value=-0.000672589 -0.0239648 0.0194496 -0.00582869 0.0276865 0.0212436 -0.058786 0.0338596 -0.0174459 0.00707821 0.0246543 -0.00817823
internal_weight=315 146 169 96 147 121 50 64 71 57 41 43
internal_count=315 146 169 96 147 121 50 64 71 57 41 43
is_linear=0
shrinkage=0.05


Tree=35
num_leaves=12
num_cat=0
split_feature=9 22 10 22 9 0 9 0 16 1 18
split_gain=50.1185 36.0465 30.3431 13.7095 10.1793 9.73953 4.63635 4.57426 3.73482 2.14517 1.00511
threshold=-0.11939707547735791 -0.23747814056142857 -1.1608268920917995 1.3471655998034409 1.5752595229872635 -1.3628549215413972 -1.0250072153976189 -0.68880985907391312 0.9596957985102641 0.10880569384321 -0.70486094043826919
decision_type=2 2 2 2 2 2 2 2 2 2 2
left_child=1 5 -2 6 8 -1 -3 -7 9 10 -4
right_child=2 3 4 -5 -6 7 -8 -9 -10 -11 -12
leaf_value=0.026444459409901391 -0.030419937363610816 -0.050129010204387751 0.020014836459886283 -0.081580211222171795 0.059709852392023255 -0.029287435077130799 -0.020500470791012051 0.00053604028810999202 0.038657963993372742 0.027728694989796611 0.0058097598425140892
leaf_weight=27 26 23 20 20 22 20 31 36 27 31 33
leaf_count=27 26 23 20 20 22 20 31 36 27 31 33
internal_value=-0.000805269 -0.0208442 0.0189816 -0.0462174 0.028639 0.0017777 -0.03312 -0.0101152 0.0224808 0.0172811 0.0111702
internal_weight=316 157 159 74 133 83 54 56 111 84 53
internal_count=316 157 159 74 133 83 54 56 111 84 53
is_linear=0
shrinkage=0.05


Tree=36
num_leaves=13
num_cat=0
split_feature=9 22 10 22 9 0 11 0 4 10 9 1
split_gain=45.2974 35.3933 27.7716 10.5889 9.6485 8.40143 4.55182 4.48568 2.72466 2.01786 1.65894 0.593697
threshold=-0.21802788279540417 -0.23747814056142857 -1.3990646411283101 1.0457319131498333 1.5752595229872635 -1.3628549215413972 -0.38257091384354197 -0.68880985907391312 -0.26097663387995879 1.0542466230635652 -1.0250072153976189 0.10880569384321
decision_type=2 2 2 2 2 2 2 2 2 2 2 2
left_child=1 5 -2 10 6 -1 8 -7 -4 -10 -3 -8
right_child=2 3 4 -5 -6 7 11 -9 9 -11 -12 -13
leaf_value=0.025122236256936083 -0.035950759144145104 -0.043247887101911367 0.044429445446003232 -0.073749085305177639 0.055307201360878737 -0.027823063768446444 0.0051156756409909583 0.0018605419439388371 0.011557545885443688 0.033501456044032242 -0.024657257147399442 0.015518852470753096
leaf_weight=27 21 21 20 23 23 20 32 35 22 20 28 24
leaf_count=27 21 21 20 23 23 20 32 35 22 20 28 24
internal_value=-0.000765006 -0.020181 0.0176922 -0.0457616 0.0256816 0.00227998 0.0199071 -0.0089335 0.0292401 0.022007 -0.0326247 0.00957418
internal_weight=316 154 162 72 141 82 118 55 62 42 49 56
internal_count=316 154 162 72 141 82 118 55 62 42 49 56
is_linear=0
shrinkage=0.05


Tree=37
num_leaves=12
num_cat=0
split_feature=9 22 10 22 9 0 0 16 1 18 0
split_gain=40.8809 32.0053 25.2407 10.0317 8.43493 7.11819 4.52388 3.38314 2.34022 1.57732 1.04577
threshold=-0.21802788279540417 -0.25665624051065405 -1.1608268920917995 1.0457319131498333 1.5752595229872635 -1.3628549215413972 -0.68880985907391312 0.80462220991554823 0.10880569384321 0.22634055251011179 0.26769218195137384
decision_type=2 2 2 2 2 2 2 2 2 2 2
left_child=1 5 -2 9 7 -1 -7 8 -4 -3 -9
right_child=2 3 4 -5 -6 6 -8 10 -10 -11 -12
leaf_value=0.023866124395108611 -0.027323822052804411 -0.022947147501011692 0.0043362042517401276 -0.070061630889287463 0.053959000229158186 -0.026431910619139673 0.0038816619326098589 0.038208991667741665 0.022919664898654449 -0.040573369237509649 0.022960758776488632
leaf_weight=27 27 30 36 23 22 20 32 23 32 22 22
leaf_count=27 27 30 36 23 22 20 32 23 32 22 22
internal_value=-0.000726756 -0.019172 0.0168076 -0.0425659 0.0256339 0.00303747 -0.0077774 0.0201193 0.0130814 -0.0304044 0.0307543
internal_weight=316 154 162 75 135 79 52 113 68 52 45
internal_count=316 154 162 75 135 79 52 113 68 52 45
is_linear=0
shrinkage=0.05


Tree=38
num_leaves=12
num_cat=0
split_feature=22 17 19 10 22 18 16 3 16 12 3
split_gain=35.014 16.3368 8.69003 2.75114 3.80182 5.05545 2.39528 2.53698 2.00644 1.80851 0.652448
threshold=1.6028521088597878 -0.33434003081497427 -0.92484912474675218 -1.0999685199089282 0.7986904436587251 0.22634055251011179 0.95905849728646475 -0.52410230323707196 0.2396962537701762 -0.77579392927160218 -0.1978200424829121
decision_type=2 2 2 2 2 2 2 2 2 2 2
left_child=1 6 -3 -4 5 8 9 -8 -5 -1 -11
right_child=-2 2 3 4 -6 -7 7 -9 -10 10 -12
leaf_value=0.0016503276303410531 -0.053049133595978397 0.021936267411166971 -0.023804787339435685 0.0060075055730218693 0.010081693408605846 -0.033094533363526517 0.012845497267941633 0.032411605106490486 -0.015435648129787297 0.023974295710213485 0.011355723733348507
leaf_weight=32 29 22 36 24 23 22 30 37 20 20 21
leaf_count=32 29 22 36 24 23 22 30 37 20 20 21
internal_value=-0.000690418 0.00460018 -0.00704155 -0.0121416 -0.00742397 -0.0135244 0.016824 0.0236507 -0.00373938 0.0105584 0.0175111
internal_weight=316 287 147 125 89 66 140 67 44 73 41
internal_count=316 287 147 125 89 66 140 67 44 73 41
is_linear=0
shrinkage=0.05


Tree=39
num_leaves=13
num_cat=0
split_feature=9 22 10 22 9 0 0 11 4 10 18 3
split_gain=36.5105 27.0248 21.2504 8.419 7.93914 6.10924 3.85999 3.39015 2.39845 1.61316 1.15463 0.546898
threshold=-0.21802788279540417 -0.25665624051065405 -1.3990646411283101 1.0457319131498333 1.5752595229872635 -1.3628549215413972 -0.68880985907391312 -0.38257091384354197 -0.26097663387995879 1.0542466230635652 0.22634055251011179 -0.19418120686111848
decision_type=2 2 2 2 2 2 2 2 2 2 2 2
left_child=1 5 -2 10 7 -1 -7 8 -4 -10 -3 -9
right_child=2 3 4 -5 -6 6 -8 11 9 -11 -12 -13
leaf_value=0.02161717632164558 -0.031009404104025591 -0.022062636020903789 0.039970945771783589 -0.064772930417371838 0.049776909678526549 -0.024929505400359632 0.0030715649802004921 0.013868806990622371 0.0095905228348618209 0.029210893418639902 -0.037143331088803036 0.0039801748774560362
leaf_weight=27 21 30 20 23 23 20 32 27 22 20 22 29
leaf_count=27 21 30 20 23 23 20 32 27 22 20 22 29
internal_value=-0.000655897 -0.0180873 0.0159147 -0.0395841 0.0229034 0.00232106 -0.00769808 0.0176653 0.0257198 0.0189336 -0.0284429 0.00874791
internal_weight=316 154 162 75 141 79 52 118 62 42 52 56
internal_count=316 154 162 75 141 79 52 118 62 42 52 56
is_linear=0
shrinkage=0.05


Tree=40
num_leaves=13
num_cat=0
split_feature=9 22 9 22 21 9 9 15 3 17 11 4
split_gain=32.2056 28.9894 11.9885 10.1923 8.20194 8.96116 4.23819 4.21495 3.37184 2.65855 2.16642 1.01489
threshold=0.14062959836112135 0.23779510075483118 -1.0250072153976189 -0.70965936808017316 -1.1701006220107877 1.5752595229872635 -0.90844353402174793 -0.46967679385272215 -0.1978200424829121 -0.23023618477004262 -0.49945313897314753 -0.68320241628445244
decision_type=2 2 2 2 2 2 2 2 2 2 2 2
left_child=1 3 -3 11 -2 8 -5 -4 10 -8 -6 -1
right_child=4 2 7 6 5 -7 9 -9 -10 -11 -12 -13
leaf_value=0.024744651202232609 -0.0075421922263644997 -0.068937067890709094 -0.039987348131835465 -0.026403437845408918 0.03773923729223988 0.055901757521288731 0.0064759979904111895 -0.008272347561036111 0.0075315645549978542 -0.016260332943347749 0.016672928590813412 0.010702789303931324
leaf_weight=31 21 22 20 25 26 21 36 22 35 20 23 22
leaf_count=31 21 22 20 25 26 21 36 22 35 20 23 22
internal_value=0.00122188 -0.0113534 -0.0390368 0.00186857 0.020983 0.026688 -0.00928588 -0.0233747 0.0193846 -0.00164412 0.027851 0.018916
internal_weight=324 198 64 134 126 105 81 42 84 56 49 53
internal_count=324 198 64 134 126 105 81 42 84 56 49 53
is_linear=0
shrinkage=0.05


Tree=41
num_leaves=12
num_cat=0
split_feature=9 19 16 19 9 17 16 9 19 2 3
split_gain=29.1369 16.5536 11.6987 9.92517 9.14892 8.2387 4.54233 4.14887 3.60387 1.90141 0.879456
threshold=-0.21802788279540417 0.58939585698817321 -1.0635864808895172 -0.89357975551687219 1.5752595229872635 -0.73917317216525791 0.80462220991554823 -0.90844353402174793 0.10087464399014782 0.25688144318038142 -0.28070463164598897
decision_type=2 2 2 2 2 2 2 2 2 2 2
left_child=1 3 -2 -1 6 -5 8 -7 9 -4 -8
right_child=2 -3 4 5 -6 7 10 -9 -10 -11 -12
leaf_value=0.02279100823013679 -0.019294636578045109 -0.047749096548725528 0.0072025248671279242 0.0057121748378609911 0.048048451046148938 -0.038674619703971111 0.031403324641888185 -0.012152935424819589 -0.0082592620944174442 0.026631520595401525 0.017955055739730597
leaf_weight=23 22 31 34 34 24 29 31 30 26 20 20
leaf_count=23 22 31 34 34 24 29 31 30 26 20 20
internal_value=0.00116078 -0.0152923 0.0148252 -0.00661849 0.019668 -0.0138918 0.0144685 -0.025189 0.00703469 0.0143984 0.0261295
internal_weight=324 147 177 116 155 93 131 59 80 54 51
internal_count=324 147 177 116 155 93 131 59 80 54 51
is_linear=0
shrinkage=0.05


Tree=42
num_leaves=12
num_cat=0
split_feature=9 19 9 4 18 10 9 9 3 3 9
split_gain=26.6842 19.2342 10.2 7.13934 7.59972 6.87364 7.31325 4.76028 2.87973 1.76039 0.931317
threshold=0.14062959836112135 0.31612452058569879 -0.6394504231543362 -1.1232641948846156 0.22634055251011179 -1.1608268920917995 1.5752595229872635 -0.90844353402174793 -0.1978200424829121 -0.48326648125916633 -0.30769225308453801
decision_type=2 2 2 2 2 2 2 2 2 2 2
left_child=1 3 -3 -1 7 -2 8 -5 9 -7 -9
right_child=5 2 -4 4 -6 6 -8 10 -10 -11 -12
leaf_value=0.022268810894872464 -0.0070230904079618909 -0.061377813249286685 -0.018164153531607656 -0.015272190195641348 -0.028517892514355481 0.016253739777952435 0.050704247788304381 0.0019613976124674081 0.0067612098104187423 0.035211939946748316 0.015164071615949713
leaf_weight=28 21 22 36 28 28 25 21 22 35 24 34
leaf_count=28 21 22 36 28 28 25 21 22 35 24 34
internal_value=0.00110274 -0.0103439 -0.0345555 -0.000313332 -0.00595887 0.0190903 0.024313 0.00156081 0.0177151 0.0255394 0.00997731
internal_weight=324 198 58 140 112 126 105 84 84 49 56
internal_count=324 198 58 140 112 126 105 84 84 49 56
is_linear=0
shrinkage=0.05


Tree=43
num_leaves=13
num_cat=0
split_feature=22 22 17 19 22 21 11 3 3 11 15 3
split_gain=22.4658 12.0402 4.85135 3.81784 2.11441 2.08165 4.64403 2.55315 1.72165 1.37761 1.23281 1.15674
threshold=1.4454022258739829 -0.62162375249075674 0.39389544933376669 0.58939585698817321 -1.0361611446353527 0.15774225804308731 -0.50423781592178873 -0.31385846731121902 -0.24593353570440521 -0.8679103259016363 -0.36896867749286849 -0.070460795720135666
decision_type=2 2 2 2 2 2 2 2 2 2 2 2
left_child=1 4 5 11 8 -3 10 -8 -1 -6 -7 -4
right_child=-2 2 3 -5 9 6 7 -9 -10 -11 -12 -13
leaf_value=0.035668946959078317 -0.038049796946120984 0.018820414505898955 -0.012385970629751683 0.0054136049002408981 0.018089970677263208 0.0036380635108798744 -0.024112580865621569 0.00031403355381411059 0.017112820044159892 0.0017232935503125194 0.019188638783991338 -0.027596110761165624
leaf_weight=25 33 20 25 21 36 26 20 23 25 20 25 25
leaf_count=25 33 20 25 21 36 26 20 23 25 20 25 25
internal_value=0.00104761 0.00548133 -0.0022172 -0.012477 0.0189174 0.00417268 0.00105614 -0.0110472 0.0263909 0.0122447 0.0112609 -0.019991
internal_weight=324 291 185 71 106 114 94 43 50 56 51 50
internal_count=324 291 185 71 106 114 94 43 50 56 51 50
is_linear=0
shrinkage=0.05


Tree=44
num_leaves=14
num_cat=0
split_feature=12 19 12 21 0 19 4 19 4 2 3 12 4
split_gain=16.5245 7.70267 5.0626 4.96962 2.99183 4.27242 2.43114 1.71229 2.22663 1.15651 0.910181 0.727049 0.304229
threshold=0.38698755013061953 -0.53861143380196486 1.6855651535122433 1.0592338880071619 1.0893852104831643 0.62611187849664296 -0.65171237515074687 0.06958208180678653 0.22934840988505217 0.25688144318038142 -0.51601600185530871 1.0425727061385237 -0.44346466548871549
decision_type=2 2 2 2 2 2 2 2 2 2 2 2 2
left_child=3 -2 4 6 5 11 9 8 12 -1 -5 -3 -8
right_child=1 2 -4 10 -6 -7 7 -9 -10 -11 -12 -13 -14
leaf_value=0.0060986377955123319 0.01389836963443529 -0.024379350398667159 -0.0419117882475257 0.014655926943357503 -0.030534177292138337 0.010664930865168572 -0.0056799004209183513 -0.0082872127560344906 0.018544436467900164 0.022898757883480617 0.026750513001212051 -0.010897424235008658 0.0029367333767004312
leaf_weight=20 21 20 20 28 20 20 21 37 21 21 35 20 20
leaf_count=20 21 20 20 28 20 20 21 37 21 21 35 20 20
internal_value=0.000995226 -0.0136305 -0.0194116 0.00971302 -0.0137865 -0.00820395 0.00446507 0.000224879 0.00530468 0.0147036 0.0213751 -0.0176384 -0.00147666
internal_weight=324 121 100 203 80 60 140 99 62 41 63 40 41
internal_count=324 121 100 203 80 60 140 99 62 41 63 40 41
is_linear=0
shrinkage=0.05


Tree=45
num_leaves=12
num_cat=0
split_feature=22 12 11 22 16 12 4 10 4 3 12
split_gain=22.5885 6.22489 5.4496 4.8166 2.44303 1.96472 1.912 3.59623 1.76762 1.06216 0.430106
threshold=0.3386156971164434 1.4604235858098547 -0.95054432960144386 -0.88160151814167531 0.075987098494867469 -0.64813204188925633 1.0000000180025095e-35 -1.0177154718756358 -0.4170975312649256 -0.2034804534501464 -0.18425510559097125
decision_type=2 2 2 2 2 2 2 2 2 2 2
left_child=2 6 8 -4 -5 -6 -2 -8 -1 -10 -7
right_child=1 -3 3 4 5 10 7 -9 9 -11 -12
leaf_value=0.0071577126837589532 -0.022250328671985439 -0.038676063691576328 0.017839268683210799 -0.015608841129246036 -0.0087867664794127158 0.013520057519365634 -0.019143373355269434 0.0079533108548882122 0.02945659433710663 0.015544272554309471 0.0036228985363698524
leaf_weight=22 28 30 38 28 27 21 25 24 34 23 23
leaf_count=22 28 30 38 28 27 21 25 24 34 23 23
internal_value=-0.000568526 -0.0193551 0.00873779 0.00270693 -0.00310144 0.00183106 -0.0118275 -0.00587153 0.0191964 0.0238429 0.00834654
internal_weight=323 107 216 137 99 71 77 49 79 57 44
internal_count=323 107 216 137 99 71 77 49 79 57 44
is_linear=0
shrinkage=0.05


Tree=46
num_leaves=12
num_cat=0
split_feature=9 22 11 9 4 9 11 12 0 11 0
split_gain=26.5419 19.9997 7.78209 7.08619 4.37668 3.61618 2.34849 1.79419 1.28268 0.579831 0.362674
threshold=1.0000000180025095e-35 0.23779510075483118 -0.84014006503514593 -0.90844353402174793 -0.41543291963201873 -1.0788058375711029 1.3123243530711197 -0.18036194906732131 0.51163229979674918 -0.83273221039097733 0.38324276408865682
decision_type=2 2 2 2 2 2 2 2 2 2 2
left_child=1 5 8 -3 -4 -1 10 9 -2 -7 -6
right_child=2 3 4 -5 6 7 -8 -9 -10 -11 -12
leaf_value=-0.015103467588778586 0.03887314908195684 -0.056049652411960638 0.020741270691458438 -0.022173978554967205 -0.012577149439603093 0.0056840027566067881 0.013113010618835689 -0.006006978201464965 0.022396888175890559 0.016228632298192349 -0.0032740755810994997
leaf_weight=32 27 26 37 38 20 32 20 26 21 22 22
leaf_count=32 27 26 37 38 20 32 20 26 21 22 22
internal_value=-0.0005401 -0.0136391 0.015143 -0.035936 0.00713247 -0.000897986 -0.00098891 0.00478421 0.0316648 0.00997996 -0.00770411
internal_weight=323 176 147 64 99 112 62 80 48 54 42
internal_count=323 176 147 64 99 112 62 80 48 54 42
is_linear=0
shrinkage=0.05


Tree=47
num_leaves=11
num_cat=0
split_feature=9 22 16 9 9 11 0 9 0 10
split_gain=23.9541 18.0497 7.04512 6.39529 6.30799 3.67868 3.35359 4.75532 2.425 0.906
threshold=1.0000000180025095e-35 0.23779510075483118 -0.4972140557942008 -0.90844353402174793 1.2883335380620273 -0.84014006503514593 -1.3628549215413972 -1.0788058375711029 -0.12389590195830748 -1.1608268920917995
decision_type=2 2 2 2 2 2 2 2 2 2
left_child=1 6 9 -3 5 -4 -1 -8 -9 -2
right_child=2 3 4 -5 -6 -7 7 8 -10 -11
leaf_value=0.014882332588044498 -0.0090324835284896522 -0.053247169741930868 0.025653185734920432 -0.021065279748290779 0.040473899326377343 0.0028341902447496787 -0.025069141193576484 -0.010208546595934493 0.0097169229911791312 0.0051602230068634857
leaf_weight=26 23 26 33 38 31 38 23 26 37 22
leaf_count=26 23 26 33 38 31 38 23 26 37 22
internal_value=-0.000513095 -0.0129571 0.0143859 -0.0341392 0.0216563 0.0134402 -0.000853086 -0.00561031 0.00149371 -0.00209383
internal_weight=323 176 147 64 102 71 112 86 63 45
internal_count=323 176 147 64 102 71 112 86 63 45
is_linear=0
shrinkage=0.05


Tree=48
num_leaves=13
num_cat=0
split_feature=9 22 9 16 9 15 9 21 17 22 22 21
split_gain=21.6637 16.2792 6.90541 6.44024 4.43104 3.50926 3.19555 2.79402 1.87483 1.07565 1.14511 0.550068
threshold=0.14062959836112135 0.23779510075483118 -0.90844353402174793 -0.4972140557942008 1.2883335380620273 -0.46967679385272215 -1.0788058375711029 0.87499091317469369 -0.15317743611072607 -0.63569310696589487 -0.36979266600351979 -1.1701006220107877
decision_type=2 2 2 2 2 2 2 2 2 2 2 2
left_child=1 6 -3 11 7 -4 -1 -5 9 -8 -11 -2
right_child=3 2 5 4 -6 -7 8 -9 -10 10 -12 -13
leaf_value=-0.013656654942315072 -0.0065549381449818622 -0.050584811507724231 -0.032494505761529915 0.0041415947645998983 0.038450204403770553 -0.0045620542910435932 0.016425138974079379 0.02671415460510896 -0.0084373556565315953 -0.0050881773233413703 0.011111249223661919 0.0049022116655991835
leaf_weight=32 20 26 22 29 31 23 27 26 21 20 24 22
leaf_count=32 20 26 22 29 31 23 27 26 21 20 24 22
internal_value=-0.00048744 -0.0109786 -0.0300706 0.0154952 0.0233329 -0.0182179 -4.68729e-05 0.0148123 0.00468696 0.00856881 0.00374787 -0.000553574
internal_weight=323 195 71 128 86 45 124 55 92 71 44 42
internal_count=323 195 71 128 86 45 124 55 92 71 44 42
is_linear=0
shrinkage=0.05


Tree=49
num_leaves=11
num_cat=0
split_feature=9 22 16 9 9 4 9 10 4 10
split_gain=19.5534 14.7947 5.74348 5.46996 5.12722 3.08811 3.87771 2.76384 1.83733 0.736149
threshold=1.0000000180025095e-35 0.25328288495958279 -0.4972140557942008 -0.90844353402174793 1.2883335380620273 -1.1232641948846156 -1.0788058375711029 0.89524629268880729 -0.40480641305181547 -1.1608268920917995
decision_type=2 2 2 2 2 2 2 2 2 2
left_child=1 5 9 -3 7 -1 -7 -4 -8 -2
right_child=2 3 4 -5 -6 6 8 -9 -10 -11
leaf_value=0.014124480162102444 -0.0081362392267455234 -0.049430799961090094 0.0032192030876803286 -0.019155608826140699 0.036527693680217188 -0.023132851412114894 -0.0089082950746939924 0.023045795102370904 0.0080678985831705297 0.0046571012586355213
leaf_weight=26 23 25 39 37 31 23 28 32 37 22
leaf_count=26 23 25 39 37 31 23 28 32 37 22
internal_value=-0.000463068 -0.0117061 0.0129979 -0.0313633 0.0195625 -0.00101526 -0.00548836 0.0121551 0.000755077 -0.00188172
internal_weight=323 176 147 62 102 114 88 71 65 45
internal_count=323 176 147 62 102 114 88 71 65 45
is_linear=0
shrinkage=0.05


Tree=50
num_leaves=12
num_cat=0
split_feature=9 19 16 9 19 12 0 3 9 1 3
split_gain=21.1748 13.4284 8.80615 4.53942 3.92356 3.83738 2.58351 2.06659 1.34626 1.09242 0.826516
threshold=-0.21802788279540417 0.58939585698817321 -1.0635864808895172 1.5752595229872635 -0.89357975551687219 -0.77579392927160218 1.0380293961999272 -0.2034804534501464 -0.90844353402174793 -0.24921425990040333 -0.48326648125916633
decision_type=2 2 2 2 2 2 2 2 2 2 2
left_child=1 4 -2 6 -1 -6 7 10 -7 -9 -4
right_child=2 -3 3 -5 5 8 -8 9 -10 -11 -12
leaf_value=0.0099329564335017377 -0.017805815750563687 -0.042053964176695005 0.015728332609153139 0.035519509319216012 0.0026954457276698318 -0.024881335202870627 -0.0025675360113382342 -0.00021187546451322057 -0.010021471044617808 0.015372714620974401 0.028005306822536838
leaf_weight=29 22 33 26 25 33 35 24 22 27 23 29
leaf_count=29 22 33 26 25 33 35 24 22 27 23 29
internal_value=-0.000449882 -0.0137083 0.011723 0.016083 -0.00616469 -0.0110787 0.0121644 0.0157 -0.0184101 0.00775358 0.0222016
internal_weight=328 157 171 149 124 95 124 100 62 45 55
internal_count=328 157 171 149 124 95 124 100 62 45 55
is_linear=0
shrinkage=0.05


Tree=51
num_leaves=13
num_cat=0
split_feature=9 2 16 0 9 9 11 0 3 1 0 3
split_gain=19.1103 9.09847 7.94755 7.1764 4.72909 4.09683 3.53587 2.33162 1.8651 0.985907 0.982945 0.745931
threshold=-0.21802788279540417 -0.074664966351437587 -1.0635864808895172 0.010913110535189318 -0.95327571916630982 1.5752595229872635 -1.0813227167371584 1.0380293961999272 -0.2034804534501464 -0.24921425990040333 0.64002183550484137 -0.48326648125916633
decision_type=2 2 2 2 2 2 2 2 2 2 2 2
left_child=1 6 -2 -3 -5 7 -1 8 11 -10 -8 -4
right_child=2 3 5 4 -6 -7 10 -9 9 -11 -12 -13
leaf_value=0.015059066818018134 -0.016915525013411589 -0.0080863563889371493 0.014941915808818663 -0.054815650125965482 -0.022031619018790399 0.033743533560074868 -0.0028325822533053512 -0.0024391591704140108 -0.00020128189247440209 0.014604078675746797 -0.016801957258721814 0.026605041573378098
leaf_weight=24 22 35 26 22 22 25 34 24 22 23 20 29
leaf_count=24 22 35 26 22 22 25 34 24 22 23 20 29
internal_value=-0.000427388 -0.0130229 0.0111369 -0.0249831 -0.0384236 0.0152789 -0.00090935 0.0115561 0.014915 0.0073659 -0.00800642 0.0210916
internal_weight=328 157 171 79 44 149 78 124 100 45 54 55
internal_count=328 157 171 79 44 149 78 124 100 45 54 55
is_linear=0
shrinkage=0.05


Tree=52
num_leaves=11
num_cat=0
split_feature=22 22 11 0 10 19 0 0 16 15
split_gain=15.0432 4.97097 3.9008 2.30762 2.20531 1.8729 2.15664 1.45478 1.33143 0.680541
threshold=1.4883687750118084 -1.0361611446353527 -0.96282993677201834 -0.64387352157608102 -1.1541136065763669 -0.070943206254956398 0.93531776763345331 0.12646369267247229 0.95905849728646475 -0.50125686984704665
decision_type=2 2 2 2 2 2 2 2 2 2
left_child=1 9 8 -4 -5 7 -7 -6 -3 -1
right_child=-2 2 3 4 5 6 -8 -9 -10 -11
leaf_value=0.0096233099722303466 -0.031893481051220612 0.0035365383011392425 -0.019421277425828436 -0.014379400078074209 0.0014625170161681517 0.016303482290823013 -0.0023568238938848178 -0.014329600051045419 0.01744072598343006 0.021246883982573364
leaf_weight=20 34 36 21 28 35 32 30 25 33 34
leaf_count=20 34 36 21 28 35 32 30 25 33 34
internal_value=-0.000406018 0.00323539 0.000151434 -0.00389775 -0.00172446 0.00117996 0.0072743 -0.00511753 0.0101864 0.0169419
internal_weight=328 294 240 171 150 122 62 60 69 54
internal_count=328 294 240 171 150 122 62 60 69 54
is_linear=0
shrinkage=0.05


Tree=53
num_leaves=13
num_cat=0
split_feature=9 22 17 9 22 12 0 3 11 1 3 3
split_gain=17.0535 12.7617 5.90806 3.80122 3.78152 2.76146 2.26697 1.78066 1.31438 0.875949 0.624706 0.60274
threshold=-0.21802788279540417 1.0389531573268189 1.1290157267252969 1.5752595229872635 -0.96359765202459124 -0.77579392927160218 0.9866735819166903 -0.2034804534501464 -0.10649526296835668 -0.24921425990040333 0.031426601690085584 -0.48326648125916633
decision_type=2 2 2 2 2 2 2 2 2 2 2 2
left_child=1 4 3 6 -1 -6 7 11 -7 -9 -10 -2
right_child=2 -3 -4 -5 5 8 -8 9 10 -11 -12 -13
leaf_value=0.008617808279814199 0.014558100387454032 -0.046692433856103735 -0.014300244396907233 0.031813953727483753 0.00029978876667363305 -0.02610611620172858 -0.002371916961338785 -0.0004564384824003686 -0.0052303677506279206 0.013498900336739811 -0.017440100581469862 0.025239399813913873
leaf_weight=32 25 23 21 25 35 25 27 22 20 23 22 28
leaf_count=32 25 23 21 25 35 25 27 22 20 23 22 28
internal_value=-0.000385717 -0.0122841 0.0105385 0.014016 -0.00637821 -0.0110828 0.0104564 0.0139907 -0.017029 0.00667629 -0.0116259 0.0202011
internal_weight=328 157 171 150 134 102 125 98 67 45 42 53
internal_count=328 157 171 150 134 102 125 98 67 45 42 53
is_linear=0
shrinkage=0.05


Tree=54
num_leaves=11
num_cat=0
split_feature=22 22 11 0 10 19 0 22 3 16
split_gain=12.5582 4.13222 3.25671 2.0072 1.81093 1.71321 2.8924 1.52114 1.32427 1.15283
threshold=1.4883687750118084 -1.0361611446353527 -0.96282993677201834 -0.64387352157608102 -1.1541136065763669 -0.14865639517361198 0.83260613906697967 -0.29693645877881819 -0.24593353570440521 0.95905849728646475
decision_type=2 2 2 2 2 2 2 2 2 2
left_child=1 8 9 -4 -5 7 -7 -6 -1 -3
right_child=-2 2 3 4 5 6 -8 -9 -10 -11
leaf_value=0.023582960049120281 -0.029135832442518547 0.0031302222956178919 -0.01802875197359494 -0.012991742929443717 0.00089518804212703428 0.01732550500510115 -0.0033343666126408305 -0.016482718791812661 0.0079122019991960512 0.016068296845663677
leaf_weight=26 34 36 21 28 34 32 36 20 28 33
leaf_count=26 34 36 21 28 34 32 36 20 28 33
internal_value=-0.000366431 0.00296064 0.000148876 -0.00355095 -0.00152405 0.00110788 0.00638793 -0.00554107 0.0154574 0.009318
internal_weight=328 294 240 171 150 122 68 54 54 69
internal_count=328 294 240 171 150 122 68 54 54 69
is_linear=0
shrinkage=0.05


Tree=55
num_leaves=12
num_cat=0
split_feature=9 22 22 9 9 22 3 19 9 16 0
split_gain=12.3153 9.15637 4.38566 3.60754 2.68659 2.83409 2.3905 1.01392 0.920004 0.802978 0.662786
threshold=0.14062959836112135 1.3471655998034409 -0.67281817638869756 -0.90844353402174793 1.5752595229872635 0.15755455565356807 -0.18690353561753145 -0.35293153350608536 -0.30769225308453801 0.23594463629917412 -1.3628549215413972
decision_type=2 2 2 2 2 2 2 2 2 2 2
left_child=1 2 8 -4 5 6 -2 -5 10 -9 -1
right_child=4 -3 3 7 -6 -7 -8 9 -10 -11 -12
leaf_value=0.011066976974585228 0.026046142532405531 -0.033273516136866348 -0.019882005344046966 -0.010424104084571202 0.028522745668198225 -0.0014441918116062881 0.0061832183248563006 -0.0037462726545830572 0.017732424395424978 0.0082358844064432998 -0.001651177164167166
leaf_weight=21 33 26 38 21 27 32 28 27 21 29 20
leaf_count=21 33 26 38 21 27 32 28 27 21 29 20
internal_value=0.00193955 -0.00556689 -0.00149699 -0.00727592 0.0146379 0.0106069 0.0169287 -0.00105474 0.009222 0.00245877 0.004863
internal_weight=323 203 177 115 120 93 61 77 62 56 41
internal_count=323 203 177 115 120 93 61 77 62 56 41
is_linear=0
shrinkage=0.05


Tree=56
num_leaves=11
num_cat=0
split_feature=9 22 12 9 22 19 9 23 9 18
split_gain=11.1146 8.26363 4.03147 2.42465 2.55777 2.34229 3.29875 0.923006 0.766383 0.725443
threshold=0.14062959836112135 1.3471655998034409 -0.78186767170660298 1.5752595229872635 0.15755455565356807 -0.80254750482258352 -0.90844353402174793 -1.0085792779278469 0.67861582009592469 0.22310514647379434
decision_type=2 2 2 2 2 2 2 2 2 2
left_child=1 2 7 4 8 -4 -7 -1 -2 -8
right_child=3 -3 5 -5 -6 6 9 -9 -10 -11
leaf_value=0.0036834110762795497 0.0099980622295074029 -0.031609839903495203 0.0078848163921224051 0.027096608089697029 -0.0013719823909923434 -0.022447602448108443 0.0012254620314036547 0.016657235716971069 0.021244679997096574 -0.0094935467604685721
leaf_weight=29 28 26 23 27 32 34 38 26 33 27
leaf_count=29 28 26 23 27 32 34 38 26 33 27
internal_value=0.00184257 -0.00528855 -0.00142214 0.013906 0.0100765 -0.00648874 -0.00982805 0.00981649 0.0160823 -0.00322705
internal_weight=323 203 177 120 93 122 99 55 61 65
internal_count=323 203 177 120 93 122 99 55 61 65
is_linear=0
shrinkage=0.05


Tree=57
num_leaves=12
num_cat=0
split_feature=9 22 12 9 22 9 0 23 23 23 22
split_gain=10.0309 7.45792 3.6384 2.18825 2.30838 2.18381 2.71125 1.20443 0.833013 0.705982 0.355137
threshold=0.14062959836112135 1.3471655998034409 -0.78186767170660298 1.5752595229872635 0.15755455565356807 -0.37942374931584705 0.094366308745449323 0.03015911470592832 -1.0085792779278469 -0.15146426491170695 -0.15885255687154734
decision_type=2 2 2 2 2 2 2 2 2 2 2
left_child=1 2 8 4 9 6 7 -4 -1 -2 -7
right_child=3 -3 5 -5 -6 10 -8 -9 -10 -11 -12
leaf_value=0.0034992406819144201 0.011093388528503343 -0.030029347886403018 -0.012105974307368426 0.025741778769426876 -0.0013033831375651062 -0.0013155811127613893 -0.022284765678341503 0.0037898386613680769 0.015824374026403978 0.022192192020947521 0.0078903155960142607
leaf_weight=29 38 26 22 27 32 22 32 26 26 23 20
leaf_count=29 38 26 22 27 32 22 32 26 26 23 20
internal_value=0.00175044 -0.00502412 -0.00135103 0.0132107 0.0095727 -0.0061643 -0.0110114 -0.00349574 0.00932567 0.0152782 0.00306818
internal_weight=323 203 177 120 93 122 80 48 55 61 42
internal_count=323 203 177 120 93 122 80 48 55 61 42
is_linear=0
shrinkage=0.05


Tree=58
num_leaves=12
num_cat=0
split_feature=22 22 11 12 3 15 1 4 4 4 11
split_gain=8.26374 3.69741 2.39506 1.3667 1.14538 0.999333 1.54942 0.976871 1.071 0.840434 0.839092
threshold=1.6808945105315682 -0.96359765202459124 -0.95054432960144386 -0.78186767170660298 -0.22733504252634931 1.6481775938926453 0.39697514530907307 0.17955073128572896 1.2001357644716799 -0.47300662068987065 -0.034332297537939059
decision_type=2 2 2 2 2 2 2 2 2 2 2
left_child=1 4 3 -3 -1 6 7 9 -9 -4 -11
right_child=-2 2 5 -5 -6 -7 -8 8 -10 10 -12
leaf_value=0.021934023424983025 -0.026565535319969059 0.016206863042233247 -0.00017069533531521928 0.00051687109972471787 0.0081175139585199455 -0.011192813857148091 0.0088684950618901203 0.0083812418323941529 -0.0065561535349115728 -0.018649819027632474 -0.0044992784715511581
leaf_weight=30 24 35 29 23 30 24 36 30 20 20 22
leaf_count=30 24 35 29 23 30 24 36 30 20 20 22
internal_value=0.00166292 0.00392875 0.00114289 0.00998497 0.0150258 -0.00169049 -0.000237902 -0.00294724 0.00240628 -0.00671733 -0.0112376
internal_weight=323 299 239 58 60 181 157 121 50 71 42
internal_count=323 299 239 58 60 181 157 121 50 71 42
is_linear=0
shrinkage=0.05


Tree=59
num_leaves=12
num_cat=0
split_feature=9 22 22 9 9 22 3 18 9 3 0
split_gain=8.93684 6.20726 3.13351 2.74889 1.97737 1.91365 2.09435 1.02153 0.815104 0.567961 0.560802
threshold=0.14062959836112135 1.3471655998034409 -0.67281817638869756 -0.90844353402174793 1.5752595229872635 0.15755455565356807 -0.18690353561753145 0.22310514647379434 -0.30769225308453801 -0.258062987777051 -1.3628549215413972
decision_type=2 2 2 2 2 2 2 2 2 2 2
left_child=1 2 8 -4 5 6 -2 9 10 -5 -1
right_child=4 -3 3 7 -6 -7 -8 -9 -10 -11 -12
leaf_value=0.0092005734331905842 0.022667542701079089 -0.027627130484996511 -0.017352556270596228 -0.0014095216257763762 0.024309000055547116 -0.0009638503368478269 0.004075639783176095 -0.0087549804744345167 0.015607360812524954 0.0093260223823811179 -0.0024982482625637206
leaf_weight=21 33 26 38 28 27 32 28 27 21 22 20
leaf_count=21 33 26 38 28 27 32 28 27 21 22 20
internal_value=0.00157977 -0.00481468 -0.0014637 -0.00634848 0.0123971 0.00893875 0.0141336 -0.000917904 0.0075968 0.00331412 0.00349383
internal_weight=323 203 177 115 120 93 61 77 62 50 41
internal_count=323 203 177 115 120 93 61 77 62 50 41
is_linear=0
shrinkage=0.05


Tree=60
num_leaves=13
num_cat=0
split_feature=9 9 22 22 9 15 11 1 22 19 9 18
split_gain=13.1134 5.69081 5.20776 1.5984 1.54361 1.48595 1.00498 1.35191 0.970576 0.925192 0.475676 0.438306
threshold=-0.90844353402174793 1.5752595229872635 0.048899251643740031 -0.8057601320715696 0.14062959836112135 -0.84938369183172602 -0.84014006503514593 -0.15893850730143511 0.59825331702380391 -0.57971085507455544 -0.30769225308453801 -0.44362653028858701
decision_type=2 2 2 2 2 2 2 2 2 2 2 2
left_child=2 4 3 -1 5 -2 -6 -8 -9 -7 -11 -12
right_child=1 -3 -4 -5 6 9 7 8 -10 10 11 -13
leaf_value=0.0016787270003038902 -0.012684257924556734 0.029263675585389139 -0.035244499436683126 -0.016110425615417107 0.016287344245107048 0.010798868191583703 -0.0047723543728985223 0.01825586883351207 0.0028653901779935476 0.0040068859801976947 -0.0094058066466823215 0.0010620752256363631
leaf_weight=23 20 24 27 28 28 24 23 20 21 32 20 20
leaf_count=23 20 24 27 28 28 24 23 20 21 32 20 20
internal_value=0.000247261 0.00621006 -0.0174882 -0.00808787 0.00355003 -0.000285919 0.00838665 0.0049301 0.0103729 0.00229707 -0.000536865 -0.00417187
internal_weight=310 232 78 51 208 116 92 64 41 96 72 40
internal_count=310 232 78 51 208 116 92 64 41 96 72 40
is_linear=0
shrinkage=0.05


Tree=61
num_leaves=12
num_cat=0
split_feature=9 0 9 0 18 9 0 4 4 4 4
split_gain=11.8348 6.80603 5.13596 2.33233 1.58152 1.18 1.56807 1.22746 0.731649 0.653538 0.524607
threshold=-0.90844353402174793 0.094366308745449323 1.5752595229872635 1.2498721301182796 0.78605386318567927 0.14062959836112135 0.6015049747924136 -0.64419348086018513 -0.74838426224382404 -0.27199920967916819 0.37465081780052018
decision_type=2 2 2 2 2 2 2 2 2 2 2
left_child=1 8 3 4 5 7 9 -2 -1 -7 -9
right_child=2 -3 -4 -5 -6 6 -8 10 -10 -11 -12
leaf_value=0.0037054079049266874 0.01267966355662793 -0.032984623573720458 0.027800492321451504 -0.012860405957326293 -0.0066104389727115638 0.01205126592850623 0.023520542038604618 0.0032345943299955447 -0.0093706466581510474 0.00098156123637333317 -0.0058806858592476974
leaf_weight=20 24 35 24 20 25 30 20 38 23 24 27
leaf_count=20 24 35 24 20 25 30 20 38 23 24 27
internal_value=0.000234898 -0.0166138 0.00589956 0.00337252 0.00509943 0.00689543 0.0115609 0.00301627 -0.00328876 0.0071314 -0.000551753
internal_weight=310 78 232 208 188 163 74 89 43 54 65
internal_count=310 78 232 208 188 163 74 89 43 54 65
is_linear=0
shrinkage=0.05


Tree=62
num_leaves=12
num_cat=0
split_feature=22 22 22 18 2 2 17 23 3 15 1
split_gain=4.85361 1.82147 1.45633 1.82996 1.55579 2.59419 1.03922 1.87727 0.933623 0.901166 0.700025
threshold=1.6808945105315682 -1.0361611446353527 1.1556513704800031 0.24040520024847431 -1.2834465356047438 -0.73407145404224872 -0.87235215850882308 0.26278437939559796 -0.24593353570440521 -0.40651664186407321 0.44534059654139119
decision_type=2 2 2 2 2 2 2 2 2 2 2
left_child=1 8 3 4 -3 -6 -7 -8 -1 -5 -9
right_child=-2 2 -4 9 5 6 7 10 -10 -11 -12
leaf_value=0.01754082371480763 -0.022986074596909541 -0.0097888879607328123 0.012912209685891868 -0.0036213102191686632 0.014287632925044867 0.008017532728612423 -0.016906498272146565 -0.0034361472042898338 0.0043100150663910129 -0.017671161978727295 0.0078846848188814794
leaf_weight=24 21 27 20 25 39 25 20 36 30 21 22
leaf_count=24 21 27 20 25 39 25 20 36 30 21 22
internal_value=0.000223153 0.00190964 6.82921e-06 -0.00119367 0.00121295 0.00330484 -0.000853688 -0.00369703 0.0101904 -0.0100354 0.000857961
internal_weight=310 289 235 215 169 142 103 78 54 46 58
internal_count=310 289 235 215 169 142 103 78 54 46 58
is_linear=0
shrinkage=0.05


Tree=63
num_leaves=11
num_cat=0
split_feature=9 9 4 9 9 4 2 4 23 15
split_gain=10.6072 4.53896 3.70504 4.42855 1.25475 1.54408 1.36905 1.11886 1.45545 0.271395
threshold=-0.90844353402174793 1.5752595229872635 -0.74838426224382404 -1.2760674522071855 0.14062959836112135 0.37465081780052018 -0.035567512397213653 -0.27979768581348008 -0.56089606451776375 0.36135166262784818
decision_type=2 2 2 2 2 2 2 2 2 2
left_child=2 4 -1 -4 5 6 -2 -6 -9 -8
right_child=1 -3 3 -5 7 -7 9 8 -10 -11
leaf_value=0.0022144427234750421 0.011576517570210854 0.026163577094363673 -0.03929828795725885 -0.010890670774696286 0.013987750913470222 -0.0090350024748061374 -0.0050792906226383317 0.010084827058017255 -0.0066330695767765459 0.0024019921198487285
leaf_weight=21 32 24 23 34 39 35 27 30 23 22
leaf_count=21 32 24 23 34 39 35 27 30 23 22
internal_value=0.000211996 0.00557482 -0.015739 -0.0223534 0.0031992 -0.000259255 0.00353274 0.00755985 0.00282989 -0.00172035
internal_weight=310 232 78 57 208 116 81 92 53 49
internal_count=310 232 78 57 208 116 81 92 53 49
is_linear=0
shrinkage=0.05


Tree=64
num_leaves=12
num_cat=0
split_feature=22 22 22 16 1 23 15 15 0 23 0
split_gain=4.21603 1.50823 1.26592 1.60301 1.35436 1.70267 1.17906 1.08638 0.852151 0.84458 0.407235
threshold=1.6808945105315682 -1.0361611446353527 1.1556513704800031 0.075987098494867469 -1.1049551719431301 -0.51924452504226892 -0.37717452401107882 0.80322406453268758 0.51163229979674918 -0.23731743811629877 0.3062090426638015
decision_type=2 2 2 2 2 2 2 2 2 2 2
left_child=1 9 3 6 -5 8 -3 10 -6 -1 -7
right_child=-2 2 -4 4 5 7 -8 -9 -10 -11 -12
leaf_value=0.0039222272007816269 -0.021429782059221043 -0.0024905392245666404 0.012073897952213884 -0.0079317834631850333 0.015872647099604367 -0.011190589526224703 -0.016906675419000827 0.0060728638147514681 0.0027161586750298738 0.016567918591444259 -0.0013437278036560333
leaf_weight=31 21 37 20 30 32 21 23 31 20 23 21
leaf_count=31 21 37 20 30 32 21 23 31 20 23 21
internal_value=0.000201396 0.00177321 4.17318e-05 -0.00107754 0.0016086 0.00389829 -0.00801672 -0.00102688 0.0108125 0.00930836 -0.00626716
internal_weight=310 289 235 215 155 125 60 73 52 54 42
internal_count=310 289 235 215 155 125 60 73 52 54 42
is_linear=0
shrinkage=0.05


Tree=65
num_leaves=12
num_cat=0
split_feature=10 22 11 19 0 2 2 19 17 2 11
split_gain=3.8594 2.15287 2.06503 1.44838 1.75139 1.87196 1.92035 1.13139 0.846798 0.641321 0.544815
threshold=-1.6768087452413296 -0.96359765202459124 -0.95054432960144386 -0.40600080238711506 1.2177747461912565 0.89070702528400048 -0.73407145404224872 -0.063266617635700309 -0.9785921756751893 -0.0915327250574028 -0.95504307129200938
decision_type=2 2 2 2 2 2 2 2 2 2 2
left_child=-1 10 8 9 5 6 -5 -8 -3 -4 -2
right_child=1 2 3 4 -6 -7 7 -9 -10 -11 -12
leaf_value=-0.021650915946811441 0.0036469426705263599 0.014423093653749676 -0.017605496796646289 0.010897679142653943 -0.013028420826420188 0.011051609659463996 -0.014878879301249981 -0.0012688803360671611 0.0022981831079555886 -0.0058575898122328988 0.013889933244311526
leaf_weight=20 21 24 21 20 25 36 26 37 36 26 34
leaf_count=20 21 24 21 20 25 36 26 37 36 26 34
internal_value=-0.000371157 0.00101968 -0.000943515 -0.0034854 -0.000997906 0.00152951 -0.00260055 -0.00688571 0.00714815 -0.0111067 0.00997897
internal_weight=326 306 251 191 144 119 83 63 60 47 55
internal_count=326 306 251 191 144 119 83 63 60 47 55
is_linear=0
shrinkage=0.05


Tree=66
num_leaves=12
num_cat=0
split_feature=10 22 16 3 1 12 10 3 19 4 11
split_gain=3.48311 1.94297 2.00626 2.69574 1.94398 1.98307 1.52031 1.13816 0.841872 0.795404 0.491696
threshold=-1.6768087452413296 -0.96359765202459124 0.15960046864906266 -0.51601600185530871 0.64053662083755925 0.53607755942885882 -1.1541136065763669 -0.2034804534501464 -0.38793684975102105 0.054823482415733406 -0.95504307129200938
decision_type=2 2 2 2 2 2 2 2 2 2 2
left_child=-1 10 4 -4 6 -6 -3 8 -5 -9 -2
right_child=1 2 3 7 5 -7 -8 9 -10 -11 -12
leaf_value=-0.02056836996227503 0.0034645957506394816 -0.004491697742994274 -0.0091202129418139957 0.0035906502977013591 -0.011349582597613336 0.008603249375786012 -0.0205649176778804 0.0087040303441296742 0.016323180350701554 -0.0042705406055406287 0.0131954365697525
leaf_weight=20 21 31 34 20 20 33 28 21 37 27 34
leaf_count=20 21 31 34 20 20 33 28 21 37 27 34
internal_value=-0.000352599 0.000968693 -0.00089634 0.00311628 -0.00587629 0.00107388 -0.0121197 0.00707858 0.0118556 0.00140583 0.00948002
internal_weight=326 306 251 139 112 53 59 105 57 48 55
internal_count=326 306 251 139 112 53 59 105 57 48 55
is_linear=0
shrinkage=0.05


Tree=67
num_leaves=12
num_cat=0
split_feature=9 0 9 17 17 18 12 9 0 0 0
split_gain=9.03304 5.47591 2.7485 2.72355 1.3087 1.72342 1.36971 0.843005 1.66557 1.42111 0.643029
threshold=-0.90844353402174793 0.15856107659949545 1.5752595229872635 -0.16058056271735921 0.60976403803835988 1.0000000180025095e-35 1.4604235858098547 0.83104524958745529 0.83260613906697967 -0.39993340373070579 -0.95200840727550229
decision_type=2 2 2 2 2 2 2 2 2 2 2
left_child=1 10 3 7 5 -5 -6 8 9 -2 -1
right_child=2 -3 -4 4 6 -7 -8 -9 -10 -11 -12
leaf_value=0.0026014772486329702 0.0023507106883794461 -0.030802693299836283 0.019945941042155028 -0.00086960554495453838 0.0071744563670730899 -0.020299252135945217 -0.008736978630934443 0.016440706539221788 -0.0061688146310979915 0.016025069429490127 -0.0097719718302999234
leaf_weight=21 38 33 25 25 38 21 21 22 23 38 21
leaf_count=21 38 33 25 25 38 21 21 22 23 38 21
internal_value=-0.000334969 -0.0155609 0.00421462 0.00247443 -0.00341783 -0.00973966 0.00151106 0.00758754 0.00562017 0.00918789 -0.00358525
internal_weight=326 75 251 226 105 46 59 121 99 76 42
internal_count=326 75 251 226 105 46 59 121 99 76 42
is_linear=0
shrinkage=0.05


Tree=68
num_leaves=12
num_cat=0
split_feature=9 9 3 15 22 11 11 10 17 9 10
split_gain=8.28641 3.18595 3.13473 2.24754 2.03995 1.53254 0.897577 0.785334 1.16978 0.410108 0.358409
threshold=-1.2760674522071855 1.2883335380620273 0.4478711228509103 -0.41521981241369027 -0.96359765202459124 -0.95054432960144386 -0.48439532504906241 0.1270795378243523 0.56790216402166616 -0.21802788279540417 -1.1663849116810094
decision_type=2 2 2 2 2 2 2 2 2 2 2
left_child=-1 2 4 -3 -2 9 -7 8 -8 -6 -10
right_child=1 3 -4 -5 5 6 7 -9 10 -11 -12
leaf_value=-0.02367948633618653 0.012850220176685407 0.0033578269649296999 -0.013999152104096378 0.024996633522581156 0.0025495358521030066 -0.010916543296641774 0.012016617498275909 -0.0066257049921633953 -0.0070655368943698706 0.011943991089132258 0.0022869430393690155
leaf_weight=34 38 24 34 24 21 27 22 35 20 26 21
leaf_count=34 38 24 34 24 21 27 22 35 20 26 21
internal_value=-0.000318221 0.00240193 8.54735e-05 0.0141772 0.00236584 4.95252e-05 -0.00284453 -0.000620602 0.00271557 0.00774647 -0.00227524
internal_weight=326 292 244 48 210 172 125 98 63 47 41
internal_count=326 292 244 48 210 172 125 98 63 47 41
is_linear=0
shrinkage=0.05


Tree=69
num_leaves=13
num_cat=0
split_feature=9 0 17 9 22 10 0 22 18 17 0 9
split_gain=7.54686 4.92754 2.33909 1.99294 1.13887 1.70677 1.13403 1.13083 0.672847 1.67197 0.570767 0.283137
threshold=-0.90844353402174793 0.15856107659949545 -0.16058056271735921 1.2883335380620273 0.37200917412231643 -1.1663849116810094 0.83260613906697967 -0.50428705953322595 -0.58582506851156413 -0.87388251845715559 -0.95200840727550229 0.068898102129802311
decision_type=2 2 2 2 2 2 2 2 2 2 2 2
left_child=1 10 3 6 7 -6 8 -4 9 11 -1 -2
right_child=2 -3 4 -5 5 -7 -8 -9 -10 -11 -12 -13
leaf_value=0.0029694972482199474 0.007591206633926208 -0.028677930725230411 0.0026956736668944364 0.022563920536222647 -0.0065076262966074329 0.0098460336430714682 -0.0036065634004771711 -0.012371570577449871 0.015811284550506136 -0.0061240421095862989 -0.0086879859013216845 0.015725564393214882
leaf_weight=21 23 33 20 21 27 39 25 33 23 20 21 20
leaf_count=21 23 33 20 21 27 39 25 33 23 20 21 20
internal_value=-0.00030231 -0.0142195 0.0038562 0.00843914 -0.00122739 0.0031559 0.00576688 -0.00668582 0.00849172 0.0058195 -0.00285924 0.0113746
internal_weight=326 75 251 132 119 66 111 53 86 63 42 43
internal_count=326 75 251 132 119 66 111 53 86 63 42 43
is_linear=0
shrinkage=0.05


Tree=70
num_leaves=12
num_cat=0
split_feature=9 10 9 23 4 1 22 1 22 0 9
split_gain=5.86127 3.54132 2.34035 1.5826 1.56883 0.9143 0.683373 1.69549 1.04334 1.04406 0.988467
threshold=-1.2760674522071855 -1.595199664044632 1.2883335380620273 -1.2227871952303928 0.054823482415733406 1.6813572775362287 0.048899251643740031 -0.09207471615556119 -0.38566044483326561 -0.79794096442579154 -0.28975937902671317
decision_type=2 2 2 2 2 2 2 2 2 2 2
left_child=-1 -2 3 -3 -4 6 8 -8 9 -5 -11
right_child=1 2 4 5 -6 -7 7 -9 -10 10 -12
leaf_value=-0.020688225262399232 -0.016429281438745204 0.015822101049568684 0.024900862303647131 0.008389700308261026 0.0057947868569975811 -0.0082259567200460224 -0.012356360135195048 0.0048435981912342344 0.013094945688699856 0.004542715015651828 -0.010281852624662545
leaf_weight=28 21 21 22 36 21 22 23 38 29 22 23
leaf_count=28 21 21 22 36 21 22 23 38 29 22 23
internal_value=0.0011164 0.00331255 0.00492569 0.00278688 0.01557 0.00136854 0.00260293 -0.00164163 0.00495673 0.00204304 -0.00303429
internal_weight=306 278 257 214 43 193 171 61 110 81 45
internal_count=306 278 257 214 43 193 171 61 110 81 45
is_linear=0
shrinkage=0.05


Tree=71
num_leaves=11
num_cat=0
split_feature=9 0 10 9 15 19 15 23 15 1
split_gain=5.36847 4.96958 2.16607 2.94695 1.71901 1.68935 1.10011 0.652272 1.3966 0.578446
threshold=-0.90844353402174793 1.0000000180025095e-35 -0.74254258969426956 1.2883335380620273 1.5763142713543792 -0.32278591027013309 -0.49404567139164968 0.051126556346653494 -0.84068052128210902 -0.13437039960374367
decision_type=2 2 2 2 2 2 2 2 2 2
left_child=1 -1 7 4 5 6 -4 8 -2 -7
right_child=2 -3 3 -5 -6 9 -8 -9 -10 -11
leaf_value=0.0016865124163979836 -0.007632571219912042 -0.026192805321226198 0.0096482980623841287 0.022348092868924141 -0.0079118664740868237 0.0094158665064190128 -0.0037878762208259642 -0.0089927079431988584 0.010201821777792205 0.019912542934928622
leaf_weight=33 23 31 25 28 23 35 39 27 21 21
leaf_count=33 23 31 25 28 23 35 39 27 21 21
internal_value=0.00106058 -0.0118175 0.00446636 0.00751446 0.00460997 0.00700999 0.00146063 -0.00287485 0.000879298 0.0133521
internal_weight=306 64 242 171 143 120 64 71 44 56
internal_count=306 64 242 171 143 120 64 71 44 56
is_linear=0
shrinkage=0.05


Tree=72
num_leaves=12
num_cat=0
split_feature=9 10 9 22 19 1 23 22 10 12 2
split_gain=4.97991 3.0194 1.85362 1.34676 1.36901 1.22929 1.39448 1.12521 0.976861 0.781698 1.0993
threshold=-1.2760674522071855 -1.595199664044632 1.2883335380620273 0.048899251643740031 -0.32278591027013309 -0.09207471615556119 0.87452365645405983 -1.0807775719418433 0.41392285524789502 -0.14371951169711814 -0.93894211276238215
decision_type=2 2 2 2 2 2 2 2 2 2 2
left_child=-1 -2 3 4 7 -5 -7 -3 -4 10 -9
right_child=1 2 8 5 -6 6 -8 9 -10 -11 -12
leaf_value=-0.019090940903073977 -0.015197228786668607 0.010108629253844618 0.0069668306928613909 -0.011520980183894818 0.013808585013690833 0.0096329134906193731 -0.0069314292864874009 -0.0048211963679641485 0.022076041339896619 -0.0094500683248043074 0.010503636605360292
leaf_weight=28 21 33 23 26 37 27 24 25 20 20 22
leaf_count=28 21 33 23 26 37 27 24 25 20 20 22
internal_value=0.00100755 0.00303186 0.00452139 0.00261794 0.00559161 -0.00267287 0.00183793 0.00255133 0.0139944 -0.00117091 0.00235213
internal_weight=306 278 257 214 137 77 51 100 43 67 47
internal_count=306 278 257 214 137 77 51 100 43 67 47
is_linear=0
shrinkage=0.05


Tree=73
num_leaves=12
num_cat=0
split_feature=9 4 1 18 9 4 18 4 12 19 23
split_gain=4.50491 3.39024 2.99848 2.0468 1.8881 1.16972 0.93137 0.931765 1.08354 0.63895 0.593611
threshold=-0.90844353402174793 -0.74838426224382404 -0.10585212557034497 0.49737458480997526 1.2883335380620273 -0.40480641305181547 -0.2542083152548163 0.77739377744624127 -1.0732388738098282 0.56860833657818366 0.078894249330316676
decision_type=2 2 2 2 2 2 2 2 2 2 2
left_child=1 -1 -3 4 6 -5 7 8 -2 -7 -10
right_child=3 2 -4 5 -6 9 -8 -9 10 -11 -12
leaf_value=0.0056274125618594037 0.0095268700297152543 -0.0059820605949922048 -0.032396036419335625 0.0059493432715535168 0.018497456047334711 -0.00074880045971700132 0.014353034157483353 0.010349074404145923 -0.0093397793437664713 -0.012286333437077702 0.00065454645321155215
leaf_weight=21 23 22 21 25 30 21 21 31 24 28 39
leaf_count=21 23 22 21 25 30 21 21 31 24 28 39
internal_value=0.000957171 -0.0108398 -0.0188819 0.00407703 0.00712887 -0.00285147 0.00465743 0.0029172 0.000238263 -0.00734168 -0.00315282
internal_weight=306 64 43 242 168 74 138 117 86 49 63
internal_count=306 64 43 242 168 74 138 117 86 49 63
is_linear=0
shrinkage=0.05


Tree=74
num_leaves=11
num_cat=0
split_feature=9 3 16 2 0 2 19 4 12 1
split_gain=4.21118 2.34232 1.68587 2.94652 1.21827 1.13165 0.909801 1.8581 1.00006 0.842939
threshold=-1.2760674522071855 1.1647217403442505 -0.46226705998989776 0.58507664237326706 0.010913110535189318 -0.074664966351437587 -0.31158198959544553 1.0000000180025095e-35 -0.77378973144770891 0.74324094556594789
decision_type=2 2 2 2 2 2 2 2 2 2
left_child=-1 2 4 5 -2 6 7 -4 -8 -6
right_child=1 -3 3 -5 9 -7 8 -9 -10 -11
leaf_value=-0.017572924834010857 0.0054615593035564278 -0.012885121950371701 0.010482350147857859 0.024920082455500963 -0.012835247652536189 -0.002968923242664651 0.018073413627029494 -0.0064211606987398771 0.0041122253903228302 0.00070791880309116094
leaf_weight=28 33 22 37 20 27 38 29 29 23 20
leaf_count=28 33 22 37 20 27 38 29 29 23 20
internal_value=0.000909312 0.00277083 0.00411627 0.00685185 -0.00190202 0.00453541 0.00695206 0.00305505 0.0118983 -0.0070722
internal_weight=306 278 256 176 80 156 118 66 52 47
internal_count=306 278 256 176 80 156 118 66 52 47
is_linear=0
shrinkage=0.05


Tree=75
num_leaves=12
num_cat=0
split_feature=9 15 9 11 1 2 21 9 10 15 9
split_gain=3.80554 3.78208 2.78533 1.70165 1.37143 2.00594 0.855786 0.938922 1.7126 0.704882 0.571875
threshold=-1.3926311335830566 -0.97993125007598081 1.5752595229872635 0.60908056440349378 -0.46628071732353588 -0.91637729648023003 0.53765825910943843 -0.074564890332795952 0.11691484254768013 -0.623598581573091 -0.074564890332795952
decision_type=2 2 2 2 2 2 2 2 2 2 2
left_child=-1 -2 3 4 5 10 7 8 -6 -5 -3
right_child=1 2 -4 9 6 -7 -8 -9 -10 -11 -12
leaf_value=-0.021171273612916205 -0.01697845938443034 0.011110441306267274 0.019291435376457548 -0.013657058062519701 0.0092059403620660309 -0.010647256625816226 0.016361901651890505 0.011321270613766768 -0.010162619878316209 -0.0022426641693240718 0.00042001128694492168
leaf_weight=21 27 22 23 21 25 34 21 34 21 38 29
leaf_count=21 27 22 23 21 25 34 21 34 21 38 29
internal_value=-0.000605923 0.000858051 0.00265501 0.00109323 0.00344011 -0.00123996 0.00737878 0.00502071 0.000363772 -0.00630541 0.00503157
internal_weight=316 295 268 245 186 85 101 80 46 59 51
internal_count=316 295 268 245 186 85 101 80 46 59 51
is_linear=0
shrinkage=0.05


Tree=76
num_leaves=12
num_cat=0
split_feature=9 15 9 11 1 2 21 9 10 15 15
split_gain=3.4345 3.41333 2.51376 1.53573 1.23772 1.81036 0.772347 0.847377 1.54562 0.636156 0.524926
threshold=-1.3926311335830566 -0.97993125007598081 1.5752595229872635 0.60908056440349378 -0.46628071732353588 -0.91637729648023003 0.53765825910943843 -0.074564890332795952 0.11691484254768013 -0.623598581573091 -0.623598581573091
decision_type=2 2 2 2 2 2 2 2 2 2 2
left_child=-1 -2 3 4 5 10 7 8 -6 -5 -3
right_child=1 2 -4 9 6 -7 -8 -9 -10 -11 -12
leaf_value=-0.020112709585754646 -0.016129535898842192 0.010376908869037162 0.018326863711294921 -0.012974205213998044 0.0087456431463360778 -0.01011489383835236 0.015543807000670182 0.010755207115674721 -0.0096544887604457993 -0.0021305308187086333 0.00018252214545749927
leaf_weight=21 27 23 23 21 25 34 21 34 21 38 28
leaf_count=21 27 23 23 21 25 34 21 34 21 38 28
internal_value=-0.000575627 0.000815149 0.00252226 0.00103857 0.0032681 -0.00117796 0.00700984 0.00476967 0.000345583 -0.00599014 0.00477999
internal_weight=316 295 268 245 186 85 101 80 46 59 51
internal_count=316 295 268 245 186 85 101 80 46 59 51
is_linear=0
shrinkage=0.05


Tree=77
num_leaves=12
num_cat=0
split_feature=15 0 11 19 3 0 19 0 1 16 3
split_gain=2.59728 1.92655 1.12351 2.52676 1.51505 1.51622 0.74486 0.630853 0.504477 0.436414 0.408385
threshold=-0.84068052128210902 0.15856107659949545 1.6110983319061454 0.75719994992401773 -0.30051607003130981 0.094366308745449323 0.10087464399014782 -0.38709445015989657 -0.67246013094337764 0.35365250767043493 -0.14808928898506665
decision_type=2 2 2 2 2 2 2 2 2 2 2
left_child=1 -1 3 4 5 -2 7 10 -9 -7 -6
right_child=2 -3 -4 -5 6 9 -8 8 -10 -11 -12
leaf_value=-0.0024769415751703691 0.0028063047715034838 -0.020444359738379717 -0.0091060554608702656 0.017404480174613688 0.000767733422773225 -0.016420818539336326 0.010983319672185087 0.0032219234226352495 -0.0071407121256925167 -0.0062157120590034705 0.0099916319828480486
leaf_weight=37 37 25 22 26 21 20 31 23 24 22 28
leaf_count=37 37 25 22 26 21 20 31 23 24 22 28
internal_value=-0.000546845 -0.00972187 0.00169273 0.00271675 0.000862958 -0.00457378 0.00424487 0.00206891 -0.00206964 -0.0110753 0.00603853
internal_weight=316 62 254 232 206 79 127 96 47 42 49
internal_count=316 62 254 232 206 79 127 96 47 42 49
is_linear=0
shrinkage=0.05


Tree=78
num_leaves=12
num_cat=0
split_feature=9 15 15 10 1 11 15 3 9 1 16
split_gain=3.20295 3.34787 1.73913 1.66299 1.54467 1.3057 1.74608 1.26053 1.03864 0.868478 0.494542
threshold=-0.21802788279540417 -0.84068052128210902 -0.22922062466759013 -1.1608268920917995 -0.15893850730143511 -0.84014006503514593 -0.623598581573091 -0.31385846731121902 -0.6394504231543362 -0.47658968800452789 0.14840647215020694
decision_type=2 2 2 2 2 2 2 2 2 2 2
left_child=1 -1 9 -2 5 6 -5 -6 -4 -3 -9
right_child=3 2 8 4 7 -7 -8 10 -10 -11 -12
leaf_value=-0.020513253752142191 -0.0069548930972814565 -0.0025579507718794048 -0.015058539372644035 0.018348382320255041 0.022254639766400769 -0.005645752234918559 -0.0014725000634789468 0.0018315866412151429 -0.00099687473266385496 0.0091964958997612645 0.012817566599696876
leaf_weight=31 28 30 29 20 21 34 25 21 24 33 20
leaf_count=31 28 30 29 20 21 34 25 21 24 33 20
internal_value=-0.000519503 -0.00591692 -0.00201618 0.00417529 0.00638554 0.00174936 0.00733678 0.0122929 -0.00869099 0.00359914 0.0071906
internal_weight=316 147 116 169 141 79 45 62 53 63 41
internal_count=316 147 116 169 141 79 45 62 53 63 41
is_linear=0
shrinkage=0.05


Tree=79
num_leaves=13
num_cat=0
split_feature=15 10 17 2 0 1 2 4 17 10 0 0
split_gain=2.22529 0.97432 1.39619 1.20844 1.23776 1.00119 0.511797 0.573835 0.621088 0.716703 0.608992 0.220195
threshold=-0.97993125007598081 -0.74254258969426956 0.41964049787446672 0.96845510514725719 0.094366308745449323 0.57039708199865979 0.25688144318038142 0.50085544043319985 -0.23023618477004262 0.89524629268880729 0.62718288193403227 -0.82361887156741009
decision_type=2 2 2 2 2 2 2 2 2 2 2 2
left_child=-1 3 5 4 -2 6 7 8 9 -3 -9 -11
right_child=1 2 -4 -5 -6 -7 -8 10 -10 11 -12 -13
leaf_value=-0.013950178059582999 0.0098908935301005845 -0.010275284316390753 0.014730950427197277 -0.01311780970543623 -0.0066540464147692548 -0.0086352592820058693 0.0092446176383721955 0.012064354361167977 0.0058015065015448878 0.0038691492190330544 0.0014038146419979231 -0.0033797516125923725
leaf_weight=28 20 25 21 25 26 23 24 21 24 22 37 20
leaf_count=28 20 25 21 25 26 23 24 21 24 22 37 20
internal_value=-0.000493528 0.000814757 0.00247826 -0.00426947 0.000539406 0.00116547 0.00246846 0.001377 -0.00110022 -0.00357248 0.00526367 0.000417292
internal_weight=316 288 217 71 46 196 173 149 91 67 58 42
internal_count=316 288 217 71 46 196 173 149 91 67 58 42
is_linear=0
shrinkage=0.05


Tree=80
num_leaves=12
num_cat=0
split_feature=9 9 21 0 15 9 9 9 11 0 10
split_gain=3.84549 1.37744 1.67982 1.30343 1.18227 1.54533 2.04643 0.776217 0.71651 0.609632 0.607242
threshold=-1.2760674522071855 0.14062959836112135 -0.54488016249510896 -0.74658515014255467 -0.5044894760511901 1.2883335380620273 0.61585076089353785 1.0103739901657232 -1.1585596271950893 0.62718288193403227 -1.0314488768556125
decision_type=2 2 2 2 2 2 2 2 2 2 2
left_child=-1 2 10 -4 7 6 -6 -3 -5 -10 -2
right_child=1 4 3 8 5 -7 -8 -9 9 -11 -12
leaf_value=-0.017142283841967584 -0.0035379999765643372 0.0052890882612420965 0.012209605572978035 0.0071687263819122955 0.015813564212823455 0.01977035749005154 -0.0047298592032381792 -0.0076354281444634721 0.00055820345878601076 -0.009548953156918288 -0.014352358058094978
leaf_weight=30 27 26 25 21 22 25 27 21 37 25 25
leaf_count=30 27 26 25 21 22 25 27 21 37 25 25
internal_value=-0.00012626 0.0016904 -0.00135389 0.00220105 0.0057159 0.00965475 0.00449372 -0.000485696 -0.000813579 -0.00351726 -0.00873721
internal_weight=311 281 160 108 121 74 49 47 83 62 52
internal_count=311 281 160 108 121 74 49 47 83 62 52
is_linear=0
shrinkage=0.05


Tree=81
num_leaves=13
num_cat=0
split_feature=9 12 4 9 16 4 4 2 19 15 2 19
split_gain=3.51615 1.39884 1.38689 1.38274 1.85371 1.01295 0.868523 1.1835 0.87042 0.785842 0.446943 0.171355
threshold=-1.3926311335830566 1.6855651535122433 1.5699448213763989 1.2883335380620273 0.89008892359519443 0.84956992113899821 0.51822141753583839 -0.31584040374335048 -0.62221156780185127 1.4512372774555979 0.25688144318038142 -0.69370491527645939
decision_type=2 2 2 2 2 2 2 2 2 2 2 2
left_child=-1 2 3 4 6 11 7 -2 -9 10 -10 -6
right_child=1 -3 -4 -5 5 -7 -8 8 9 -11 -12 -13
leaf_value=-0.019389026815241035 -0.013515926728194412 -0.010771613479168579 -0.0099882600429866998 0.012168568524679072 0.010469089623629338 -0.00010173218091949822 0.0070464310021354608 0.0078272934071719653 -0.0034993860299106349 -0.010992201401487642 0.0059730559343006461 0.01693584063090384
leaf_weight=22 22 22 21 38 21 20 26 23 33 23 20 20
leaf_count=22 22 22 21 38 21 20 26 23 33 23 20 20
internal_value=-0.000119947 0.0013469 0.00234543 0.00339831 0.00179605 0.00912349 -0.00124459 -0.00302613 -0.000695066 -0.0032742 7.51204e-05 0.0136236
internal_weight=311 289 267 246 208 61 147 121 99 76 53 41
internal_count=311 289 267 246 208 61 147 121 99 76 53 41
is_linear=0
shrinkage=0.05


Tree=82
num_leaves=11
num_cat=0
split_feature=9 9 21 0 19 4 11 3 11 0
split_gain=3.17332 1.28938 1.53252 1.11348 1.10041 1.3416 2.7141 1.03571 0.603909 0.563492
threshold=-1.3926311335830566 0.14062959836112135 -0.54488016249510896 -0.74658515014255467 0.70647354046364974 -0.41543291963201873 -0.84014006503514593 0.16282899914374419 -1.1585596271950893 0.62718288193403227
decision_type=2 2 2 2 2 2 2 2 2 2
left_child=-1 2 7 -4 5 -3 -7 -2 -5 -10
right_child=1 4 3 8 -6 6 -8 -9 9 -11
leaf_value=-0.018419575377960098 -0.0011144044084681404 0.010836285257634398 0.010922032865122534 0.0064551167269071043 0.015930031053721906 0.0098400944347182915 -0.010654783067958695 -0.014612883127604923 0.00069130500149283864 -0.0088086383818234831
leaf_weight=22 27 36 26 21 20 30 35 30 37 27
leaf_count=22 27 36 26 21 20 30 35 30 37 27
internal_value=-0.00011395 0.00127956 -0.00155476 0.00186735 0.00521481 0.00309299 -0.00119561 -0.00821887 -0.000902324 -0.00331648
internal_weight=311 289 168 111 121 101 65 57 85 64
internal_count=311 289 168 111 121 101 65 57 85 64
is_linear=0
shrinkage=0.05


Tree=83
num_leaves=13
num_cat=0
split_feature=9 18 4 2 9 17 19 4 12 9 1 9
split_gain=2.86392 1.16954 1.23649 1.13469 0.743976 0.914705 0.66793 0.771186 0.776277 0.84931 0.871637 0.470877
threshold=-1.3926311335830566 1.96066213741213 1.5699448213763989 -1.3859935719761085 1.2883335380620273 -0.87132193309513806 -0.80254750482258352 0.51822141753583839 -0.37547530899586085 -0.11939707547735791 0.20062297476830779 -0.11939707547735791
decision_type=2 2 2 2 2 2 2 2 2 2 2 2
left_child=-1 2 3 -2 5 11 -7 8 -8 10 -10 -5
right_child=1 -3 -4 4 -6 6 7 -9 9 -11 -12 -13
leaf_value=-0.017498596450737255 0.014609175133518877 -0.0091206017030635855 -0.0094457394454539531 0.013051613403949886 0.0089861861787914454 0.0069520035515660827 -0.012938684717352903 0.0049902934248426132 0.00045155826532705261 0.0041197105194441972 -0.013623216096311808 0.0023317108019476848
leaf_weight=22 20 25 21 20 34 23 21 28 22 32 22 21
leaf_count=22 20 25 21 20 34 23 21 28 22 32 22 21
internal_value=-0.000108252 0.00121558 0.00219439 0.00320032 0.00217711 0.000952192 -0.000878607 -0.00231944 -0.00442947 -0.00207823 -0.00658583 0.00756093
internal_weight=311 289 264 243 223 189 148 125 97 76 44 41
internal_count=311 289 264 243 223 189 148 125 97 76 44 41
is_linear=0
shrinkage=0.05


Tree=84
num_leaves=13
num_cat=0
split_feature=9 12 4 9 17 4 4 2 9 2 3 3
