{"learner":{"attributes":{"scikit_learn":"{\"_estimator_type\": \"regressor\"}"},"feature_names":[],"feature_types":[],"gradient_booster":{"model":{"cats":{"enc":[],"feature_segments":[],"sorted_idx":[]},"gbtree_model_param":{"num_parallel_tree":"1","num_trees":"50"},"iteration_indptr":[0,1,2,3,4,5,6,7,8,9,10,11,12,13,14,15,16,17,18,19,20,21,22,23,24,25,26,27,28,29,30,31,32,33,34,35,36,37,38,39,40,41,42,43,44,45,46,47,48,49,50],"tree_info":[0,0,0,0,0,0,0,0,0,0,0,0,0,0,0,0,0,0,0,0,0,0,0,0,0,0,0,0,0,0,0,0,0,0,0,0,0,0,0,0,0,0,0,0,0,0,0,0,0,0],"trees":[{"base_weights":[-6.479024E-2,1.8995283E0,-3.0715363E0,1.4120765E-1,3.1218309E-2,-2.0659466E-1,-5.9032507E-2],"categories":[],"categories_nodes":[],"categories_segments":[],"categories_sizes":[],"default_left":[0,0,0,0,0,0,0],"id":0,"left_children":[1,3,5,-1,-1,-1,-1],"loss_changes":[1.6891034E3,2.0221173E2,2.2168835E2,0E0,0E0,0E0,0E0],"parents":[2147483647,0,0,1,1,2,2],"right_children":[2,4,6,-1,-1,-1,-1],"split_conditions":[3.5246342E-2,-5.3976583E-1,-6.4974064E-1,1.4120765E-1,3.1218309E-2,-2.0659466E-1,-5.9032507E-2],"split_indices":[22,22,10,0,0,0,0],"split_type":[0,0,0,0,0,0,0],"sum_hessian":[2.84E2,1.72E2,1.12E2,9.9E1,7.3E1,7.1E1,4.1E1],"tree_param":{"num_deleted":"0","num_feature":"24","num_nodes":"7","size_leaf_vector":"1"}},{"base_weights":[8.732354E-2,1.9985917E0,-2.4406948E0,1.5083021E-1,5.324279E-2,-1.8218012E-1,-3.872299E-2],"categories":[],"categories_nodes":[],"categories_segments":[],"categories_sizes":[],"default_left":[0,0,0,0,0,0,0],"id":1,"left_children":[1,3,5,-1,-1,-1,-1],"loss_changes":[1.3577599E3,1.4887653E2,2.3970172E2,0E0,0E0,0E0,0E0],"parents":[2147483647,0,0,1,1,2,2],"right_children":[2,4,6,-1,-1,-1,-1],"split_conditions":[-9.379354E-2,-6.927555E-1,-6.0026586E-1,1.5083021E-1,5.324279E-2,-1.8218012E-1,-3.872299E-2],"split_indices":[22,22,21,0,0,0,0],"split_type":[0,0,0,0,0,0,0],"sum_hessian":[2.79E2,1.59E2,1.2E2,7.5E1,8.4E1,6.9E1,5.1E1],"tree_param":{"num_deleted":"0","num_feature":"24","num_nodes":"7","size_leaf_vector":"1"}},{"base_weights":[-9.706774E-3,1.9506559E0,-2.6737065E0,1.5469733E-1,5.4220617E-2,-2.1464892E-1,-7.006102E-2],"categories":[],"categories_nodes":[],"categories_segments":[],"categories_sizes":[],"default_left":[0,0,0,0,0,0,0],"id":2,"left_children":[1,3,5,-1,-1,-1,-1],"loss_changes":[1.441377E3,1.541134E2,2.3506323E2,0E0,0E0,0E0,0E0],"parents":[2147483647,0,0,1,1,2,2],"right_children":[2,4,6,-1,-1,-1,-1],"split_conditions":[-9.379354E-2,-7.857005E-1,-9.305954E-1,1.5469733E-1,5.4220617E-2,-2.1464892E-1,-7.006102E-2],"split_indices":[22,22,16,0,0,0,0],"split_type":[0,0,0,0,0,0,0],"sum_hessian":[2.74E2,1.58E2,1.16E2,6.7E1,9.1E1,5E1,6.6E1],"tree_param":{"num_deleted":"0","num_feature":"24","num_nodes":"7","size_leaf_vector":"1"}},{"base_weights":[-1.5801722E-1,1.349364E0,-2.7731128E0,1.11139834E-1,6.694703E-3,-2.0293231E-1,-1.8293928E-2],"categories":[],"categories_nodes":[],"categories_segments":[],"categories_sizes":[],"default_left":[0,0,0,0,0,0,0],"id":3,"left_children":[1,3,5,-1,-1,-1,-1],"loss_changes":[1.1429642E3,1.9504254E2,3.2654053E2,0E0,0E0,0E0,0E0],"parents":[2147483647,0,0,1,1,2,2],"right_children":[2,4,6,-1,-1,-1,-1],"split_conditions":[9.9202186E-2,-3.9464563E-1,-6.0026586E-1,1.11139834E-1,6.694703E-3,-2.0293231E-1,-1.8293928E-2],"split_indices":[19,19,21,0,0,0,0],"split_type":[0,0,0,0,0,0,0],"sum_hessian":[2.88E2,1.83E2,1.05E2,1.06E2,7.7E1,6.8E1,3.7E1],"tree_param":{"num_deleted":"0","num_feature":"24","num_nodes":"7","size_leaf_vector":"1"}},{"base_weights":[-3.8890295E-2,1.2537395E0,-2.3273182E0,1.2262805E-1,2.0073177E-2,-1.835765E-1,-4.1887265E-2],"categories":[],"categories_nodes":[],"categories_segments":[],"categories_sizes":[],"default_left":[0,0,0,0,0,0,0],"id":4,"left_children":[1,3,5,-1,-1,-1,-1],"loss_changes":[8.933029E2,1.9620865E2,2.1517493E2,0E0,0E0,0E0,0E0],"parents":[2147483647,0,0,1,1,2,2],"right_children":[2,4,6,-1,-1,-1,-1],"split_conditions":[9.9202186E-2,-5.682295E-1,-6.69465E-1,1.2262805E-1,2.0073177E-2,-1.835765E-1,-4.1887265E-2],"split_indices":[19,19,21,0,0,0,0],"split_type":[0,0,0,0,0,0,0],"sum_hessian":[3E2,1.92E2,1.08E2,7.9E1,1.13E2,5.6E1,5.2E1],"tree_param":{"num_deleted":"0","num_feature":"24","num_nodes":"7","size_leaf_vector":"1"}},{"base_weights":[-6.812717E-2,1.4937891E0,-2.5359044E0,2.4652917E-2,1.2065089E-1,-1.8053362E-1,-5.4018628E-2],"categories":[],"categories_nodes":[],"categories_segments":[],"categories_sizes":[],"default_left":[0,0,0,0,0,0,0],"id":5,"left_children":[1,3,5,-1,-1,-1,-1],"loss_changes":[1.113873E3,1.616326E2,1.7130731E2,0E0,0E0,0E0,0E0],"parents":[2147483647,0,0,1,1,2,2],"right_children":[2,4,6,-1,-1,-1,-1],"split_conditions":[3.5246342E-2,-8.725283E-2,-7.0518214E-1,2.4652917E-2,1.2065089E-1,-1.8053362E-1,-5.4018628E-2],"split_indices":[22,9,10,0,0,0,0],"split_type":[0,0,0,0,0,0,0],"sum_hessian":[2.87E2,1.76E2,1.11E2,8.5E1,9.1E1,6.3E1,4.8E1],"tree_param":{"num_deleted":"0","num_feature":"24","num_nodes":"7","size_leaf_vector":"1"}},{"base_weights":[1.183844E-2,1.9951893E0,-1.5365312E0,1.134155E-1,-4.3042046E-3,-1.551467E-1,-1.8538166E-2],"categories":[],"categories_nodes":[],"categories_segments":[],"categories_sizes":[],"default_left":[0,0,0,0,0,0,0],"id":6,"left_children":[1,3,5,-1,-1,-1,-1],"loss_changes":[8.475798E2,6.897632E1,2.8188916E2,0E0,0E0,0E0,0E0],"parents":[2147483647,0,0,1,1,2,2],"right_children":[2,4,6,-1,-1,-1,-1],"split_conditions":[-3.364255E-1,8.0564857E-1,-6.8083876E-1,1.134155E-1,-4.3042046E-3,-1.551467E-1,-1.8538166E-2],"split_indices":[22,0,10,0,0,0,0],"split_type":[0,0,0,0,0,0,0],"sum_hessian":[2.74E2,1.2E2,1.54E2,1.06E2,1.4E1,6.5E1,8.9E1],"tree_param":{"num_deleted":"0","num_feature":"24","num_nodes":"7","size_leaf_vector":"1"}},{"base_weights":[3.487439E-2,1.661584E0,-1.7728391E0,1.2446552E-1,4.724097E-2,-4.8054326E-2,-1.9098262E-1],"categories":[],"categories_nodes":[],"categories_segments":[],"categories_sizes":[],"default_left":[0,0,0,0,0,0,0],"id":7,"left_children":[1,3,5,-1,-1,-1,-1],"loss_changes":[8.380832E2,8.664081E1,2.2063232E2,0E0,0E0,0E0,0E0],"parents":[2147483647,0,0,1,1,2,2],"right_children":[2,4,6,-1,-1,-1,-1],"split_conditions":[-1.5125899E-1,-7.8714794E-1,1.4246423E0,1.2446552E-1,4.724097E-2,-4.8054326E-2,-1.9098262E-1],"split_indices":[22,22,12,0,0,0,0],"split_type":[0,0,0,0,0,0,0],"sum_hessian":[2.83E2,1.49E2,1.34E2,6.8E1,8.1E1,9.7E1,3.7E1],"tree_param":{"num_deleted":"0","num_feature":"24","num_nodes":"7","size_leaf_vector":"1"}},{"base_weights":[7.867154E-2,1.3450068E0,-2.024665E0,1.238958E-1,3.2136735E-2,-1.3426714E-1,1.7227022E-2],"categories":[],"categories_nodes":[],"categories_segments":[],"categories_sizes":[],"default_left":[0,0,0,0,0,0,0],"id":8,"left_children":[1,3,5,-1,-1,-1,-1],"loss_changes":[7.5117487E2,1.3843478E2,1.6684512E2,0E0,0E0,0E0,0E0],"parents":[2147483647,0,0,1,1,2,2],"right_children":[2,4,6,-1,-1,-1,-1],"split_conditions":[3.5246342E-2,-7.857005E-1,8.4785587E-1,1.238958E-1,3.2136735E-2,-1.3426714E-1,1.7227022E-2],"split_indices":[22,22,9,0,0,0,0],"split_type":[0,0,0,0,0,0,0],"sum_hessian":[2.8E2,1.75E2,1.05E2,6.6E1,1.09E2,8.2E1,2.3E1],"tree_param":{"num_deleted":"0","num_feature":"24","num_nodes":"7","size_leaf_vector":"1"}},{"base_weights":[6.0981106E-2,-2.0712197E0,1.0634469E0,6.1732914E-2,-1.2820266E-1,9.458811E-2,1.3236455E-2],"categories":[],"categories_nodes":[],"categories_segments":[],"categories_sizes":[],"default_left":[0,0,0,0,0,0,0],"id":9,"left_children":[1,3,5,-1,-1,-1,-1],"loss_changes":[6.348903E2,1.5794424E2,1.3314043E2,0E0,0E0,0E0,0E0],"parents":[2147483647,0,0,1,1,2,2],"right_children":[2,4,6,-1,-1,-1,-1],"split_conditions":[-6.4935297E-1,-1.070672E0,-3.9146182E-1,6.1732914E-2,-1.2820266E-1,9.458811E-2,1.3236455E-2],"split_indices":[10,0,19,0,0,0,0],"split_type":[0,0,0,0,0,0,0],"sum_hessian":[2.95E2,9.4E1,2.01E2,1.2E1,8.2E1,9.8E1,1.03E2],"tree_param":{"num_deleted":"0","num_feature":"24","num_nodes":"7","size_leaf_vector":"1"}},{"base_weights":[-5.417489E-2,1.0516727E0,-2.3881948E0,1.2270253E-3,1.01528935E-1,-1.7098713E-1,-5.3717148E-2],"categories":[],"categories_nodes":[],"categories_segments":[],"categories_sizes":[],"default_left":[0,0,0,0,0,0,0],"id":10,"left_children":[1,3,5,-1,-1,-1,-1],"loss_changes":[7.9490015E2,2.1009253E2,1.305008E2,0E0,0E0,0E0,0E0],"parents":[2147483647,0,0,1,1,2,2],"right_children":[2,4,6,-1,-1,-1,-1],"split_conditions":[2.539033E-1,-2.1313286E-1,-2.1313286E-1,1.2270253E-3,1.01528935E-1,-1.7098713E-1,-5.3717148E-2],"split_indices":[22,9,9,0,0,0,0],"split_type":[0,0,0,0,0,0,0],"sum_hessian":[3.06E2,2.08E2,9.8E1,1.02E2,1.06E2,5.4E1,4.4E1],"tree_param":{"num_deleted":"0","num_feature":"24","num_nodes":"7","size_leaf_vector":"1"}},{"base_weights":[-3.955344E-2,6.724814E-1,-2.5654907E0,-3.4562477E-3,8.9283824E-2,-2.2354547E-3,-1.7206562E-1],"categories":[],"categories_nodes":[],"categories_segments":[],"categories_sizes":[],"default_left":[0,0,0,0,0,0,0],"id":11,"left_children":[1,3,5,-1,-1,-1,-1],"loss_changes":[5.0711932E2,1.8174496E2,1.3672699E2,0E0,0E0,0E0,0E0],"parents":[2147483647,0,0,1,1,2,2],"right_children":[2,4,6,-1,-1,-1,-1],"split_conditions":[6.496978E-1,1.1055862E-1,-5.1227105E-1,-3.4562477E-3,8.9283824E-2,-2.2354547E-3,-1.7206562E-1],"split_indices":[17,9,4,0,0,0,0],"split_type":[0,0,0,0,0,0,0],"sum_hessian":[2.8E2,2.19E2,6.1E1,1.32E2,8.7E1,1.6E1,4.5E1],"tree_param":{"num_deleted":"0","num_feature":"24","num_nodes":"7","size_leaf_vector":"1"}},{"base_weights":[-2.2630276E-2,1.7883303E0,-1.0262905E0,3.747985E-2,1.0597817E-1,-1.4919266E-1,-2.3990735E-2],"categories":[],"categories_nodes":[],"categories_segments":[],"categories_sizes":[],"default_left":[0,0,0,0,0,0,0],"id":12,"left_children":[1,3,5,-1,-1,-1,-1],"loss_changes":[4.9440204E2,3.1785278E1,1.857764E2,0E0,0E0,0E0,0E0],"parents":[2147483647,0,0,1,1,2,2],"right_children":[2,4,6,-1,-1,-1,-1],"split_conditions":[-5.3976583E-1,-5.548072E-1,-1.2046106E0,3.747985E-2,1.0597817E-1,-1.4919266E-1,-2.3990735E-2],"split_indices":[22,9,21,0,0,0,0],"split_type":[0,0,0,0,0,0,0],"sum_hessian":[2.7E2,9.6E1,1.74E2,2.4E1,7.2E1,3.7E1,1.37E2],"tree_param":{"num_deleted":"0","num_feature":"24","num_nodes":"7","size_leaf_vector":"1"}},{"base_weights":[-1.4964147E-1,9.49241E-1,-1.8065946E0,7.299807E-2,-2.7280478E-2,-1.729369E-2,-1.4062709E-1],"categories":[],"categories_nodes":[],"categories_segments":[],"categories_sizes":[],"default_left":[0,0,0,0,0,0,0],"id":13,"left_children":[1,3,5,-1,-1,-1,-1],"loss_changes":[5.0243402E2,1.275294E2,1.6066208E2,0E0,0E0,0E0,0E0],"parents":[2147483647,0,0,1,1,2,2],"right_children":[2,4,6,-1,-1,-1,-1],"split_conditions":[1.076402E-1,6.2889373E-1,1.7841658E-1,7.299807E-2,-2.7280478E-2,-1.729369E-2,-1.4062709E-1],"split_indices":[12,0,19,0,0,0,0],"split_type":[0,0,0,0,0,0,0],"sum_hessian":[2.74E2,1.65E2,1.09E2,1.23E2,4.2E1,4.5E1,6.4E1],"tree_param":{"num_deleted":"0","num_feature":"24","num_nodes":"7","size_leaf_vector":"1"}},{"base_weights":[4.9607918E-2,1.310242E0,-1.4166303E0,3.2341328E-2,1.1472924E-1,-1.6403066E-1,-4.2163458E-2],"categories":[],"categories_nodes":[],"categories_segments":[],"categories_sizes":[],"default_left":[0,0,0,0,0,0,0],"id":14,"left_children":[1,3,5,-1,-1,-1,-1],"loss_changes":[5.157085E2,9.647003E1,1.351004E2,0E0,0E0,0E0,0E0],"parents":[2147483647,0,0,1,1,2,2],"right_children":[2,4,6,-1,-1,-1,-1],"split_conditions":[-1.1711122E-1,3.9828438E-1,-9.144644E-1,3.2341328E-2,1.1472924E-1,-1.6403066E-1,-4.2163458E-2],"split_indices":[22,9,9,0,0,0,0],"split_type":[0,0,0,0,0,0,0],"sum_hessian":[2.77E2,1.49E2,1.28E2,9E1,5.9E1,2.9E1,9.9E1],"tree_param":{"num_deleted":"0","num_feature":"24","num_nodes":"7","size_leaf_vector":"1"}},{"base_weights":[-6.2339533E-2,-1.3306077E0,9.57656E-1,6.51579E-2,-8.972607E-2,1.5311662E-4,8.813491E-2],"categories":[],"categories_nodes":[],"categories_segments":[],"categories_sizes":[],"default_left":[0,0,0,0,0,0,0],"id":15,"left_children":[1,3,5,-1,-1,-1,-1],"loss_changes":[3.5702194E2,1.5262486E2,1.1757327E2,0E0,0E0,0E0,0E0],"parents":[2147483647,0,0,1,1,2,2],"right_children":[2,4,6,-1,-1,-1,-1],"split_conditions":[1.19994715E-1,-7.903812E-1,-2.1313286E-1,6.51579E-2,-8.972607E-2,1.5311662E-4,8.813491E-2],"split_indices":[16,19,9,0,0,0,0],"split_type":[0,0,0,0,0,0,0],"sum_hessian":[2.74E2,1.22E2,1.52E2,1.8E1,1.04E2,7E1,8.2E1],"tree_param":{"num_deleted":"0","num_feature":"24","num_nodes":"7","size_leaf_vector":"1"}},{"base_weights":[7.191437E-2,9.944111E-1,-1.5196557E0,9.463643E-2,2.3475142E-2,-1.09954834E-1,-8.801425E-3],"categories":[],"categories_nodes":[],"categories_segments":[],"categories_sizes":[],"default_left":[0,0,0,0,0,0,0],"id":16,"left_children":[1,3,5,-1,-1,-1,-1],"loss_changes":[3.920572E2,7.8800644E1,8.907861E1,0E0,0E0,0E0,0E0],"parents":[2147483647,0,0,1,1,2,2],"right_children":[2,4,6,-1,-1,-1,-1],"split_conditions":[3.5246342E-2,-7.8714794E-1,-6.4974064E-1,9.463643E-2,2.3475142E-2,-1.09954834E-1,-8.801425E-3],"split_indices":[22,22,10,0,0,0,0],"split_type":[0,0,0,0,0,0,0],"sum_hessian":[2.65E2,1.68E2,9.7E1,6.1E1,1.07E2,6.4E1,3.3E1],"tree_param":{"num_deleted":"0","num_feature":"24","num_nodes":"7","size_leaf_vector":"1"}},{"base_weights":[1.07108206E-1,9.619507E-1,-1.3854586E0,1.0390132E-2,8.0544956E-2,-1.5028179E-1,-3.081849E-2],"categories":[],"categories_nodes":[],"categories_segments":[],"categories_sizes":[],"default_left":[0,0,0,0,0,0,0],"id":17,"left_children":[1,3,5,-1,-1,-1,-1],"loss_changes":[3.292415E2,7.992737E1,1.15277084E2,0E0,0E0,0E0,0E0],"parents":[2147483647,0,0,1,1,2,2],"right_children":[2,4,6,-1,-1,-1,-1],"split_conditions":[1.0109987E-1,-8.725283E-2,-1.1955324E0,1.0390132E-2,8.0544956E-2,-1.5028179E-1,-3.081849E-2],"split_indices":[19,9,10,0,0,0,0],"split_type":[0,0,0,0,0,0,0],"sum_hessian":[2.56E2,1.63E2,9.3E1,7.6E1,8.7E1,2.9E1,6.4E1],"tree_param":{"num_deleted":"0","num_feature":"24","num_nodes":"7","size_leaf_vector":"1"}},{"base_weights":[1.0990863E-1,-1.0193641E0,1.0539412E0,6.811207E-2,-7.107327E-2,1.8132051E-2,1.0048073E-1],"categories":[],"categories_nodes":[],"categories_segments":[],"categories_sizes":[],"default_left":[0,0,0,0,0,0,0],"id":18,"left_children":[1,3,5,-1,-1,-1,-1],"loss_changes":[2.9957404E2,1.2451512E2,1.0035176E2,0E0,0E0,0E0,0E0],"parents":[2147483647,0,0,1,1,2,2],"right_children":[2,4,6,-1,-1,-1,-1],"split_conditions":[1.19994715E-1,-1.0007229E0,1.645072E-1,6.811207E-2,-7.107327E-2,1.8132051E-2,1.0048073E-1],"split_indices":[16,4,9,0,0,0,0],"split_type":[0,0,0,0,0,0,0],"sum_hessian":[2.79E2,1.27E2,1.52E2,1.8E1,1.09E2,8.9E1,6.3E1],"tree_param":{"num_deleted":"0","num_feature":"24","num_nodes":"7","size_leaf_vector":"1"}},{"base_weights":[4.049439E-2,9.276556E-1,-1.2672563E0,8.3657995E-2,2.3791071E-2,-1.301192E-1,-3.572472E-2],"categories":[],"categories_nodes":[],"categories_segments":[],"categories_sizes":[],"default_left":[0,0,0,0,0,0,0],"id":19,"left_children":[1,3,5,-1,-1,-1,-1],"loss_changes":[3.2718777E2,5.5793716E1,8.22735E1,0E0,0E0,0E0,0E0],"parents":[2147483647,0,0,1,1,2,2],"right_children":[2,4,6,-1,-1,-1,-1],"split_conditions":[-8.034468E-2,-8.5216916E-1,-1.0445818E0,8.3657995E-2,2.3791071E-2,-1.301192E-1,-3.572472E-2],"split_indices":[22,22,16,0,0,0,0],"split_type":[0,0,0,0,0,0,0],"sum_hessian":[2.8E2,1.67E2,1.13E2,6.2E1,1.05E2,3.2E1,8.1E1],"tree_param":{"num_deleted":"0","num_feature":"24","num_nodes":"7","size_leaf_vector":"1"}},{"base_weights":[-5.0233465E-2,4.5152068E-1,-2.0304313E0,-4.032399E-2,4.61696E-2,-1.3978082E-1,7.645315E-3],"categories":[],"categories_nodes":[],"categories_segments":[],"categories_sizes":[],"default_left":[0,0,0,0,0,0,0],"id":20,"left_children":[1,3,5,-1,-1,-1,-1],"loss_changes":[2.850785E2,1.3668237E2,9.732562E1,0E0,0E0,0E0,0E0],"parents":[2147483647,0,0,1,1,2,2],"right_children":[2,4,6,-1,-1,-1,-1],"split_conditions":[7.47855E-1,-5.907729E-1,7.399587E-1,-4.032399E-2,4.61696E-2,-1.3978082E-1,7.645315E-3],"split_indices":[22,9,9,0,0,0,0],"split_type":[0,0,0,0,0,0,0],"sum_hessian":[2.85E2,2.28E2,5.7E1,6.2E1,1.66E2,4.2E1,1.5E1],"tree_param":{"num_deleted":"0","num_feature":"24","num_nodes":"7","size_leaf_vector":"1"}},{"base_weights":[3.629421E-2,9.0040207E-1,-1.0618453E0,3.0942863E-2,1.2446588E-1,-7.653426E-2,2.833921E-2],"categories":[],"categories_nodes":[],"categories_segments":[],"categories_sizes":[],"default_left":[0,0,0,0,0,0,0],"id":21,"left_children":[1,3,5,-1,-1,-1,-1],"loss_changes":[2.6285553E2,6.779888E1,9.4022644E1,0E0,0E0,0E0,0E0],"parents":[2147483647,0,0,1,1,2,2],"right_children":[2,4,6,-1,-1,-1,-1],"split_conditions":[-1.2953281E-1,9.55753E-1,7.399587E-1,3.0942863E-2,1.2446588E-1,-7.653426E-2,2.833921E-2],"split_indices":[22,9,9,0,0,0,0],"split_type":[0,0,0,0,0,0,0],"sum_hessian":[2.75E2,1.54E2,1.21E2,1.32E2,2.2E1,9.4E1,2.7E1],"tree_param":{"num_deleted":"0","num_feature":"24","num_nodes":"7","size_leaf_vector":"1"}},{"base_weights":[4.047853E-2,7.172451E-1,-1.0427336E0,6.4697675E-2,1.5111334E-2,-3.538553E-2,-1.3113469E-1],"categories":[],"categories_nodes":[],"categories_segments":[],"categories_sizes":[],"default_left":[0,0,0,0,0,0,0],"id":22,"left_children":[1,3,5,-1,-1,-1,-1],"loss_changes":[2.0014612E2,3.9818825E1,5.3722794E1,0E0,0E0,0E0,0E0],"parents":[2147483647,0,0,1,1,2,2],"right_children":[2,4,6,-1,-1,-1,-1],"split_conditions":[2.8977247E-2,-7.2185063E-1,1.523928E0,6.4697675E-2,1.5111334E-2,-3.538553E-2,-1.3113469E-1],"split_indices":[22,22,22,0,0,0,0],"split_type":[0,0,0,0,0,0,0],"sum_hessian":[2.71E2,1.67E2,1.04E2,6.9E1,9.8E1,8.7E1,1.7E1],"tree_param":{"num_deleted":"0","num_feature":"24","num_nodes":"7","size_leaf_vector":"1"}},{"base_weights":[-7.0427634E-2,2.5095835E-1,-2.639315E0,6.7408495E-2,-9.704706E-3,-8.203795E-2,-1.7119391E-1],"categories":[],"categories_nodes":[],"categories_segments":[],"categories_sizes":[],"default_left":[0,0,0,0,0,0,0],"id":23,"left_children":[1,3,5,-1,-1,-1,-1],"loss_changes":[2.3761081E2,1.2527074E2,1.9452011E1,0E0,0E0,0E0,0E0],"parents":[2147483647,0,0,1,1,2,2],"right_children":[2,4,6,-1,-1,-1,-1],"split_conditions":[1.4439223E0,-6.927555E-1,1.4902354E0,6.7408495E-2,-9.704706E-3,-8.203795E-2,-1.7119391E-1],"split_indices":[22,22,12,0,0,0,0],"split_type":[0,0,0,0,0,0,0],"sum_hessian":[2.86E2,2.55E2,3.1E1,7.3E1,1.82E2,1.5E1,1.6E1],"tree_param":{"num_deleted":"0","num_feature":"24","num_nodes":"7","size_leaf_vector":"1"}},{"base_weights":[-3.1593636E-2,6.3425374E-1,-9.95043E-1,6.604582E-2,8.156801E-3,5.2354693E-2,-6.457066E-2],"categories":[],"categories_nodes":[],"categories_segments":[],"categories_sizes":[],"default_left":[0,0,0,0,0,0,0],"id":24,"left_children":[1,3,5,-1,-1,-1,-1],"loss_changes":[1.7897095E2,5.3161835E1,7.034827E1,0E0,0E0,0E0,0E0],"parents":[2147483647,0,0,1,1,2,2],"right_children":[2,4,6,-1,-1,-1,-1],"split_conditions":[1.076402E-1,-5.1049966E-1,-9.711921E-1,6.604582E-2,8.156801E-3,5.2354693E-2,-6.457066E-2],"split_indices":[12,19,19,0,0,0,0],"split_type":[0,0,0,0,0,0,0],"sum_hessian":[2.77E2,1.64E2,1.13E2,6.6E1,9.8E1,1.4E1,9.9E1],"tree_param":{"num_deleted":"0","num_feature":"24","num_nodes":"7","size_leaf_vector":"1"}},{"base_weights":[-1.4146418E-2,7.6308316E-1,-8.712809E-1,-1.7501226E-2,5.7193495E-2,-2.8796444E-2,-1.6076961E-1],"categories":[],"categories_nodes":[],"categories_segments":[],"categories_sizes":[],"default_left":[0,0,0,0,0,0,0],"id":25,"left_children":[1,3,5,-1,-1,-1,-1],"loss_changes":[1.905291E2,6.3978867E1,9.230614E1,0E0,0E0,0E0,0E0],"parents":[2147483647,0,0,1,1,2,2],"right_children":[2,4,6,-1,-1,-1,-1],"split_conditions":[-1.9884185E-1,-5.907729E-1,1.9871536E0,-1.7501226E-2,5.7193495E-2,-2.8796444E-2,-1.6076961E-1],"split_indices":[22,9,22,0,0,0,0],"split_type":[0,0,0,0,0,0,0],"sum_hessian":[2.84E2,1.49E2,1.35E2,3.8E1,1.11E2,1.21E2,1.4E1],"tree_param":{"num_deleted":"0","num_feature":"24","num_nodes":"7","size_leaf_vector":"1"}},{"base_weights":[5.3270865E-2,-8.6153805E-1,7.9433644E-1,-7.341295E-2,4.8540477E-3,9.704629E-3,8.607398E-2],"categories":[],"categories_nodes":[],"categories_segments":[],"categories_sizes":[],"default_left":[0,0,0,0,0,0,0],"id":26,"left_children":[1,3,5,-1,-1,-1,-1],"loss_changes":[1.8779396E2,7.226271E1,8.481221E1,0E0,0E0,0E0,0E0],"parents":[2147483647,0,0,1,1,2,2],"right_children":[2,4,6,-1,-1,-1,-1],"split_conditions":[1.2094512E-1,-1.5321396E-2,1.645072E-1,-7.341295E-2,4.8540477E-3,9.704629E-3,8.607398E-2],"split_indices":[16,9,9,0,0,0,0],"split_type":[0,0,0,0,0,0,0],"sum_hessian":[2.75E2,1.23E2,1.52E2,7.5E1,4.8E1,9.3E1,5.9E1],"tree_param":{"num_deleted":"0","num_feature":"24","num_nodes":"7","size_leaf_vector":"1"}},{"base_weights":[4.74532E-2,4.846855E-1,-1.3346351E0,1.0836973E-2,9.166406E-2,-1.0266551E-1,1.4702409E-2],"categories":[],"categories_nodes":[],"categories_segments":[],"categories_sizes":[],"default_left":[0,0,0,0,0,0,0],"id":27,"left_children":[1,3,5,-1,-1,-1,-1],"loss_changes":[1.7347487E2,7.837715E1,8.136785E1,0E0,0E0,0E0,0E0],"parents":[2147483647,0,0,1,1,2,2],"right_children":[2,4,6,-1,-1,-1,-1],"split_conditions":[5.2988243E-1,9.55753E-1,3.9828438E-1,1.0836973E-2,9.166406E-2,-1.0266551E-1,1.4702409E-2],"split_indices":[22,9,9,0,0,0,0],"split_type":[0,0,0,0,0,0,0],"sum_hessian":[2.85E2,2.17E2,6.8E1,1.82E2,3.5E1,4.7E1,2.1E1],"tree_param":{"num_deleted":"0","num_feature":"24","num_nodes":"7","size_leaf_vector":"1"}},{"base_weights":[-5.657601E-2,6.19061E-1,-9.3499345E-1,-7.3354836E-3,6.0814526E-2,-1.3555382E-1,-3.1228691E-2],"categories":[],"categories_nodes":[],"categories_segments":[],"categories_sizes":[],"default_left":[0,0,0,0,0,0,0],"id":28,"left_children":[1,3,5,-1,-1,-1,-1],"loss_changes":[1.6794337E2,7.3352974E1,6.612045E1,0E0,0E0,0E0,0E0],"parents":[2147483647,0,0,1,1,2,2],"right_children":[2,4,6,-1,-1,-1,-1],"split_conditions":[-6.696433E-2,-2.1313286E-1,-1.1122758E0,-7.3354836E-3,6.0814526E-2,-1.3555382E-1,-3.1228691E-2],"split_indices":[17,9,9,0,0,0,0],"split_type":[0,0,0,0,0,0,0],"sum_hessian":[2.81E2,1.59E2,1.22E2,7E1,8.9E1,1.7E1,1.05E2],"tree_param":{"num_deleted":"0","num_feature":"24","num_nodes":"7","size_leaf_vector":"1"}},{"base_weights":[-1.7600093E-3,-1.2275109E0,4.5222995E-1,1.629026E-2,-8.583359E-2,3.8011115E-2,-4.825371E-2],"categories":[],"categories_nodes":[],"categories_segments":[],"categories_sizes":[],"default_left":[0,0,0,0,0,0,0],"id":29,"left_children":[1,3,5,-1,-1,-1,-1],"loss_changes":[1.6471631E2,6.134501E1,9.502174E1,0E0,0E0,0E0,0E0],"parents":[2147483647,0,0,1,1,2,2],"right_children":[2,4,6,-1,-1,-1,-1],"split_conditions":[-5.907729E-1,-6.2723947E-1,6.359025E-1,1.629026E-2,-8.583359E-2,3.8011115E-2,-4.825371E-2],"split_indices":[9,22,17,0,0,0,0],"split_type":[0,0,0,0,0,0,0],"sum_hessian":[2.94E2,7.9E1,2.15E2,1.9E1,6E1,1.77E2,3.8E1],"tree_param":{"num_deleted":"0","num_feature":"24","num_nodes":"7","size_leaf_vector":"1"}},{"base_weights":[-2.1502199E-2,-7.811881E-1,7.329483E-1,6.924161E-2,-5.5605795E-2,5.1994886E-2,-1.9488607E-2],"categories":[],"categories_nodes":[],"categories_segments":[],"categories_sizes":[],"default_left":[0,0,0,0,0,0,0],"id":30,"left_children":[1,3,5,-1,-1,-1,-1],"loss_changes":[1.6105328E2,1.0189162E2,4.899652E1,0E0,0E0,0E0,0E0],"parents":[2147483647,0,0,1,1,2,2],"right_children":[2,4,6,-1,-1,-1,-1],"split_conditions":[-2.1313286E-1,-1.0162859E0,6.3345855E-1,6.924161E-2,-5.5605795E-2,5.1994886E-2,-1.9488607E-2],"split_indices":[9,0,12,0,0,0,0],"split_type":[0,0,0,0,0,0,0],"sum_hessian":[2.79E2,1.39E2,1.4E2,1.8E1,1.21E2,1.1E2,3E1],"tree_param":{"num_deleted":"0","num_feature":"24","num_nodes":"7","size_leaf_vector":"1"}},{"base_weights":[7.070792E-2,-6.609755E-1,6.283978E-1,5.0861724E-2,-4.7532506E-2,7.0586815E-3,6.5416984E-2],"categories":[],"categories_nodes":[],"categories_segments":[],"categories_sizes":[],"default_left":[0,0,0,0,0,0,0],"id":31,"left_children":[1,3,5,-1,-1,-1,-1],"loss_changes":[1.1222173E2,5.8817066E1,5.1495613E1,0E0,0E0,0E0,0E0],"parents":[2147483647,0,0,1,1,2,2],"right_children":[2,4,6,-1,-1,-1,-1],"split_conditions":[1.2094512E-1,-8.0261475E-1,1.645072E-1,5.0861724E-2,-4.7532506E-2,7.0586815E-3,6.5416984E-2],"split_indices":[16,19,9,0,0,0,0],"split_type":[0,0,0,0,0,0,0],"sum_hessian":[2.73E2,1.18E2,1.55E2,1.7E1,1.01E2,9.1E1,6.4E1],"tree_param":{"num_deleted":"0","num_feature":"24","num_nodes":"7","size_leaf_vector":"1"}},{"base_weights":[1.9112755E-2,-1.074018E0,3.5615724E-1,-1.9195672E-2,-8.022674E-2,4.3989424E-2,8.837464E-4],"categories":[],"categories_nodes":[],"categories_segments":[],"categories_sizes":[],"default_left":[0,0,0,0,0,0,0],"id":32,"left_children":[1,3,5,-1,-1,-1,-1],"loss_changes":[1.03175514E2,2.3547401E1,3.791379E1,0E0,0E0,0E0,0E0],"parents":[2147483647,0,0,1,1,2,2],"right_children":[2,4,6,-1,-1,-1,-1],"split_conditions":[-7.9388994E-1,5.783962E-2,-5.1049966E-1,-1.9195672E-2,-8.022674E-2,4.3989424E-2,8.837464E-4],"split_indices":[10,0,19,0,0,0,0],"split_type":[0,0,0,0,0,0,0],"sum_hessian":[2.78E2,6.5E1,2.13E2,2.9E1,3.6E1,8.3E1,1.3E2],"tree_param":{"num_deleted":"0","num_feature":"24","num_nodes":"7","size_leaf_vector":"1"}},{"base_weights":[-2.799078E-2,-3.105876E-1,1.3855889E0,4.4155132E-2,-3.812566E-2,1.1254968E-1,4.5479346E-2],"categories":[],"categories_nodes":[],"categories_segments":[],"categories_sizes":[],"default_left":[0,0,0,0,0,0,0],"id":33,"left_children":[1,3,5,-1,-1,-1,-1],"loss_changes":[1.126823E2,1.27446266E2,1.7313438E1,0E0,0E0,0E0,0E0],"parents":[2147483647,0,0,1,1,2,2],"right_children":[2,4,6,-1,-1,-1,-1],"split_conditions":[9.55753E-1,-7.167544E-1,-5.9875333E-1,4.4155132E-2,-3.812566E-2,1.1254968E-1,4.5479346E-2],"split_indices":[9,22,12,0,0,0,0],"split_type":[0,0,0,0,0,0,0],"sum_hessian":[2.8E2,2.34E2,4.6E1,6.4E1,1.7E2,1.5E1,3.1E1],"tree_param":{"num_deleted":"0","num_feature":"24","num_nodes":"7","size_leaf_vector":"1"}},{"base_weights":[1.0504617E-2,3.3125585E-1,-1.5066003E0,4.6893246E-2,-1.5816222E-3,-4.2955603E-2,-1.2690094E-1],"categories":[],"categories_nodes":[],"categories_segments":[],"categories_sizes":[],"default_left":[0,0,0,0,0,0,0],"id":34,"left_children":[1,3,5,-1,-1,-1,-1],"loss_changes":[1.338311E2,4.999948E1,2.987545E1,0E0,0E0,0E0,0E0],"parents":[2147483647,0,0,1,1,2,2],"right_children":[2,4,6,-1,-1,-1,-1],"split_conditions":[8.8367295E-1,-6.20236E-1,1.6434138E0,4.6893246E-2,-1.5816222E-3,-4.2955603E-2,-1.2690094E-1],"split_indices":[22,22,22,0,0,0,0],"split_type":[0,0,0,0,0,0,0],"sum_hessian":[2.73E2,2.26E2,4.7E1,8.4E1,1.42E2,3E1,1.7E1],"tree_param":{"num_deleted":"0","num_feature":"24","num_nodes":"7","size_leaf_vector":"1"}},{"base_weights":[4.552373E-2,5.026479E-1,-1.0476696E0,-1.6182331E-2,3.7910126E-2,-7.694357E-2,2.2621688E-2],"categories":[],"categories_nodes":[],"categories_segments":[],"categories_sizes":[],"default_left":[0,0,0,0,0,0,0],"id":35,"left_children":[1,3,5,-1,-1,-1,-1],"loss_changes":[1.3895047E2,4.163342E1,6.111821E1,0E0,0E0,0E0,0E0],"parents":[2147483647,0,0,1,1,2,2],"right_children":[2,4,6,-1,-1,-1,-1],"split_conditions":[2.539033E-1,-5.907729E-1,7.399587E-1,-1.6182331E-2,3.7910126E-2,-7.694357E-2,2.2621688E-2],"split_indices":[22,9,9,0,0,0,0],"split_type":[0,0,0,0,0,0,0],"sum_hessian":[2.76E2,1.95E2,8.1E1,4.6E1,1.49E2,6.1E1,2E1],"tree_param":{"num_deleted":"0","num_feature":"24","num_nodes":"7","size_leaf_vector":"1"}},{"base_weights":[-3.9735656E-2,-8.6510503E-1,4.028089E-1,-1.2112911E-1,-2.8660519E-2,-1.2309894E-4,5.5450004E-2],"categories":[],"categories_nodes":[],"categories_segments":[],"categories_sizes":[],"default_left":[0,0,0,0,0,0,0],"id":36,"left_children":[1,3,5,-1,-1,-1,-1],"loss_changes":[1.0152625E2,4.2709427E1,5.1804695E1,0E0,0E0,0E0,0E0],"parents":[2147483647,0,0,1,1,2,2],"right_children":[2,4,6,-1,-1,-1,-1],"split_conditions":[-6.4935297E-1,-1.1122758E0,3.9828438E-1,-1.2112911E-1,-2.8660519E-2,-1.2309894E-4,5.5450004E-2],"split_indices":[10,9,9,0,0,0,0],"split_type":[0,0,0,0,0,0,0],"sum_hessian":[2.76E2,9.6E1,1.8E2,1.4E1,8.2E1,1.15E2,6.5E1],"tree_param":{"num_deleted":"0","num_feature":"24","num_nodes":"7","size_leaf_vector":"1"}},{"base_weights":[-1.1480339E-2,-5.155367E-1,6.015441E-1,5.3239383E-2,-4.404856E-2,-3.0087844E-2,4.0479623E-2],"categories":[],"categories_nodes":[],"categories_segments":[],"categories_sizes":[],"default_left":[0,0,0,0,0,0,0],"id":37,"left_children":[1,3,5,-1,-1,-1,-1],"loss_changes":[8.5593796E1,8.8718796E1,3.178027E1,0E0,0E0,0E0,0E0],"parents":[2147483647,0,0,1,1,2,2],"right_children":[2,4,6,-1,-1,-1,-1],"split_conditions":[-8.725283E-2,-7.151255E-1,-1.207217E0,5.3239383E-2,-4.404856E-2,-3.0087844E-2,4.0479623E-2],"split_indices":[9,19,10,0,0,0,0],"split_type":[0,0,0,0,0,0,0],"sum_hessian":[2.75E2,1.51E2,1.24E2,2.8E1,1.23E2,1.8E1,1.06E2],"tree_param":{"num_deleted":"0","num_feature":"24","num_nodes":"7","size_leaf_vector":"1"}},{"base_weights":[1.1918719E-2,2.7550945E-1,-1.0426462E0,-7.14951E-3,3.9505634E-2,-6.314763E-2,8.157465E-3],"categories":[],"categories_nodes":[],"categories_segments":[],"categories_sizes":[],"default_left":[0,0,0,0,0,0,0],"id":38,"left_children":[1,3,5,-1,-1,-1,-1],"loss_changes":[8.201148E1,5.093824E1,1.5879059E1,0E0,0E0,0E0,0E0],"parents":[2147483647,0,0,1,1,2,2],"right_children":[2,4,6,-1,-1,-1,-1],"split_conditions":[6.496978E-1,-1.5321396E-2,7.399587E-1,-7.14951E-3,3.9505634E-2,-6.314763E-2,8.157465E-3],"split_indices":[17,9,9,0,0,0,0],"split_type":[0,0,0,0,0,0,0],"sum_hessian":[2.93E2,2.35E2,5.8E1,1.3E2,1.05E2,4.9E1,9E0],"tree_param":{"num_deleted":"0","num_feature":"24","num_nodes":"7","size_leaf_vector":"1"}},{"base_weights":[4.8610747E-2,-1.7756404E-1,1.3196287E0,3.110151E-2,-3.4308176E-2,4.7411084E-2,1.0090361E-1],"categories":[],"categories_nodes":[],"categories_segments":[],"categories_sizes":[],"default_left":[0,0,0,0,0,0,0],"id":39,"left_children":[1,3,5,-1,-1,-1,-1],"loss_changes":[7.612698E1,9.192828E1,8.462692E0,0E0,0E0,0E0,0E0],"parents":[2147483647,0,0,1,1,2,2],"right_children":[2,4,6,-1,-1,-1,-1],"split_conditions":[9.55753E-1,-5.4082406E-1,5.4905665E-1,3.110151E-2,-3.4308176E-2,4.7411084E-2,1.0090361E-1],"split_indices":[9,22,10,0,0,0,0],"split_type":[0,0,0,0,0,0,0],"sum_hessian":[2.63E2,2.24E2,3.9E1,8.7E1,1.37E2,2.7E1,1.2E1],"tree_param":{"num_deleted":"0","num_feature":"24","num_nodes":"7","size_leaf_vector":"1"}},{"base_weights":[-2.910051E-2,-2.398964E-1,1.2580411E0,3.49324E-2,-2.5956789E-2,9.519344E-2,3.875355E-2],"categories":[],"categories_nodes":[],"categories_segments":[],"categories_sizes":[],"default_left":[0,0,0,0,0,0,0],"id":40,"left_children":[1,3,5,-1,-1,-1,-1],"loss_changes":[7.518728E1,6.273738E1,1.0689068E1,0E0,0E0,0E0,0E0],"parents":[2147483647,0,0,1,1,2,2],"right_children":[2,4,6,-1,-1,-1,-1],"split_conditions":[1.2075131E0,-6.98406E-1,-3.4845328E-1,3.49324E-2,-2.5956789E-2,9.519344E-2,3.875355E-2],"split_indices":[9,19,11,0,0,0,0],"split_type":[0,0,0,0,0,0,0],"sum_hessian":[2.75E2,2.37E2,3.8E1,5.4E1,1.83E2,1.5E1,2.3E1],"tree_param":{"num_deleted":"0","num_feature":"24","num_nodes":"7","size_leaf_vector":"1"}},{"base_weights":[-2.4864126E-2,-9.8859984E-1,2.5560838E-1,-3.7165444E-2,-1.4398913E-1,3.796837E-2,-9.718105E-3],"categories":[],"categories_nodes":[],"categories_segments":[],"categories_sizes":[],"default_left":[0,0,0,0,0,0,0],"id":41,"left_children":[1,3,5,-1,-1,-1,-1],"loss_changes":[7.6747986E1,2.7548397E1,5.0016464E1,0E0,0E0,0E0,0E0],"parents":[2147483647,0,0,1,1,2,2],"right_children":[2,4,6,-1,-1,-1,-1],"split_conditions":[-8.245501E-1,1.6099491E0,-2.6965907E-1,-3.7165444E-2,-1.4398913E-1,3.796837E-2,-9.718105E-3],"split_indices":[9,22,11,0,0,0,0],"split_type":[0,0,0,0,0,0,0],"sum_hessian":[2.82E2,6.3E1,2.19E2,5.7E1,6E0,1.03E2,1.16E2],"tree_param":{"num_deleted":"0","num_feature":"24","num_nodes":"7","size_leaf_vector":"1"}},{"base_weights":[-6.030099E-2,-1.0455526E0,2.2586712E-1,-1.642389E-1,-4.224347E-2,1.7985258E-2,-6.629092E-2],"categories":[],"categories_nodes":[],"categories_segments":[],"categories_sizes":[],"default_left":[0,0,0,0,0,0,0],"id":42,"left_children":[1,3,5,-1,-1,-1,-1],"loss_changes":[8.1437065E1,2.6434174E1,4.6996E1,0E0,0E0,0E0,0E0],"parents":[2147483647,0,0,1,1,2,2],"right_children":[2,4,6,-1,-1,-1,-1],"split_conditions":[-8.245501E-1,-1.7102244E0,1.8272872E0,-1.642389E-1,-4.224347E-2,1.7985258E-2,-6.629092E-2],"split_indices":[9,10,17,0,0,0,0],"split_type":[0,0,0,0,0,0,0],"sum_hessian":[2.87E2,6.4E1,2.23E2,4E0,6E1,2.06E2,1.7E1],"tree_param":{"num_deleted":"0","num_feature":"24","num_nodes":"7","size_leaf_vector":"1"}},{"base_weights":[-1.4726432E-2,-5.528222E-1,4.4607285E-1,-6.274695E-3,-6.824044E-2,4.9046393E-2,6.5357694E-3],"categories":[],"categories_nodes":[],"categories_segments":[],"categories_sizes":[],"default_left":[0,0,0,0,0,0,0],"id":43,"left_children":[1,3,5,-1,-1,-1,-1],"loss_changes":[6.7194214E1,4.3201828E1,2.4497679E1,0E0,0E0,0E0,0E0],"parents":[2147483647,0,0,1,1,2,2],"right_children":[2,4,6,-1,-1,-1,-1],"split_conditions":[-2.3111571E-1,3.9355847E-1,-5.565724E-1,-6.274695E-3,-6.824044E-2,4.9046393E-2,6.5357694E-3],"split_indices":[9,22,11,0,0,0,0],"split_type":[0,0,0,0,0,0,0],"sum_hessian":[2.69E2,1.24E2,1.45E2,8.2E1,4.2E1,5.3E1,9.2E1],"tree_param":{"num_deleted":"0","num_feature":"24","num_nodes":"7","size_leaf_vector":"1"}},{"base_weights":[-1.2061863E-2,6.068286E-1,-5.1834244E-1,4.3983E-2,-1.9095728E-2,-3.685996E-2,3.277855E-2],"categories":[],"categories_nodes":[],"categories_segments":[],"categories_sizes":[],"default_left":[0,0,0,0,0,0,0],"id":44,"left_children":[1,3,5,-1,-1,-1,-1],"loss_changes":[8.146758E1,3.1897896E1,3.7222683E1,0E0,0E0,0E0,0E0],"parents":[2147483647,0,0,1,1,2,2],"right_children":[2,4,6,-1,-1,-1,-1],"split_conditions":[-3.1385654E-1,8.6003464E-1,1.2075131E0,4.3983E-2,-1.9095728E-2,-3.685996E-2,3.277855E-2],"split_indices":[12,0,9,0,0,0,0],"split_type":[0,0,0,0,0,0,0],"sum_hessian":[2.58E2,1.16E2,1.42E2,9.1E1,2.5E1,1.2E2,2.2E1],"tree_param":{"num_deleted":"0","num_feature":"24","num_nodes":"7","size_leaf_vector":"1"}},{"base_weights":[-8.056826E-3,8.126964E-1,-2.8294927E-1,4.4517264E-2,-1.7187428E-2,-2.5330624E-2,5.382498E-2],"categories":[],"categories_nodes":[],"categories_segments":[],"categories_sizes":[],"default_left":[0,0,0,0,0,0,0],"id":45,"left_children":[1,3,5,-1,-1,-1,-1],"loss_changes":[6.114704E1,6.4122276E0,6.2269295E1,0E0,0E0,0E0,0E0],"parents":[2147483647,0,0,1,1,2,2],"right_children":[2,4,6,-1,-1,-1,-1],"split_conditions":[-7.8714794E-1,1.2529564E0,1.5132217E0,4.4517264E-2,-1.7187428E-2,-2.5330624E-2,5.382498E-2],"split_indices":[22,21,9,0,0,0,0],"split_type":[0,0,0,0,0,0,0],"sum_hessian":[2.69E2,6.7E1,2.02E2,6.3E1,4E0,1.74E2,2.8E1],"tree_param":{"num_deleted":"0","num_feature":"24","num_nodes":"7","size_leaf_vector":"1"}},{"base_weights":[1.7904637E-2,1.4613296E-1,-1.9492576E0,-1.2216427E-3,5.230176E-2,-1.4355782E-1,-3.5417076E-2],"categories":[],"categories_nodes":[],"categories_segments":[],"categories_sizes":[],"default_left":[0,0,0,0,0,0,0],"id":46,"left_children":[1,3,5,-1,-1,-1,-1],"loss_changes":[7.41929E1,4.2389503E1,1.8558228E1,0E0,0E0,0E0,0E0],"parents":[2147483647,0,0,1,1,2,2],"right_children":[2,4,6,-1,-1,-1,-1],"split_conditions":[1.841168E0,1.2075131E0,-2.1313286E-1,-1.2216427E-3,5.230176E-2,-1.4355782E-1,-3.5417076E-2],"split_indices":[22,9,9,0,0,0,0],"split_type":[0,0,0,0,0,0,0],"sum_hessian":[2.92E2,2.75E2,1.7E1,2.32E2,4.3E1,9E0,8E0],"tree_param":{"num_deleted":"0","num_feature":"24","num_nodes":"7","size_leaf_vector":"1"}},{"base_weights":[-1.8910931E-2,2.3732173E-1,-1.0572306E0,5.100712E-2,2.7043005E-3,-7.099842E-2,1.955695E-2],"categories":[],"categories_nodes":[],"categories_segments":[],"categories_sizes":[],"default_left":[0,0,0,0,0,0,0],"id":47,"left_children":[1,3,5,-1,-1,-1,-1],"loss_changes":[7.5277405E1,3.2505867E1,2.99766E1,0E0,0E0,0E0,0E0],"parents":[2147483647,0,0,1,1,2,2],"right_children":[2,4,6,-1,-1,-1,-1],"split_conditions":[9.002736E-1,-9.740881E-1,7.399587E-1,5.100712E-2,2.7043005E-3,-7.099842E-2,1.955695E-2],"split_indices":[22,22,9,0,0,0,0],"split_type":[0,0,0,0,0,0,0],"sum_hessian":[2.81E2,2.26E2,5.5E1,4.2E1,1.84E2,4.4E1,1.1E1],"tree_param":{"num_deleted":"0","num_feature":"24","num_nodes":"7","size_leaf_vector":"1"}},{"base_weights":[1.8206835E-2,2.4874008E-1,-1.0627971E0,4.0074714E-2,1.6786441E-3,-3.1618264E-2,-1.1506977E-1],"categories":[],"categories_nodes":[],"categories_segments":[],"categories_sizes":[],"default_left":[0,0,0,0,0,0,0],"id":48,"left_children":[1,3,5,-1,-1,-1,-1],"loss_changes":[6.804875E1,2.6733368E1,2.4135025E1,0E0,0E0,0E0,0E0],"parents":[2147483647,0,0,1,1,2,2],"right_children":[2,4,6,-1,-1,-1,-1],"split_conditions":[8.8367295E-1,-8.5216916E-1,1.8272872E0,4.0074714E-2,1.6786441E-3,-3.1618264E-2,-1.1506977E-1],"split_indices":[22,22,17,0,0,0,0],"split_type":[0,0,0,0,0,0,0],"sum_hessian":[2.71E2,2.24E2,4.7E1,6.2E1,1.62E2,3.6E1,1.1E1],"tree_param":{"num_deleted":"0","num_feature":"24","num_nodes":"7","size_leaf_vector":"1"}},{"base_weights":[9.708141E-2,7.353938E-1,-8.128479E-2,4.0436722E-2,-1.3855228E-2,7.227342E-3,-3.3393685E-2],"categories":[],"categories_nodes":[],"categories_segments":[],"categories_sizes":[],"default_left":[0,0,0,0,0,0,0],"id":49,"left_children":[1,3,5,-1,-1,-1,-1],"loss_changes":[3.284954E1,4.902313E0,3.0034832E1,0E0,0E0,0E0,0E0],"parents":[2147483647,0,0,1,1,2,2],"right_children":[2,4,6,-1,-1,-1,-1],"split_conditions":[-8.5216916E-1,-5.4035795E-1,5.2074146E-1,4.0436722E-2,-1.3855228E-2,7.227342E-3,-3.3393685E-2],"split_indices":[22,19,18,0,0,0,0],"split_type":[0,0,0,0,0,0,0],"sum_hessian":[2.87E2,6.2E1,2.25E2,5.8E1,4E0,1.63E2,6.2E1],"tree_param":{"num_deleted":"0","num_feature":"24","num_nodes":"7","size_leaf_vector":"1"}}]},"name":"gbtree"},"learner_model_param":{"base_score":"[-2.7547E0]","boost_from_average":"1","num_class":"0","num_feature":"24","num_target":"1"},"objective":{"name":"reg:squarederror","reg_loss_param":{"scale_pos_weight":"1"}}},"version":[3,1,3]}