{"learner":{"attributes":{"scikit_learn":"{\"_estimator_type\": \"regressor\"}"},"feature_names":[],"feature_types":[],"gradient_booster":{"model":{"cats":{"enc":[],"feature_segments":[],"sorted_idx":[]},"gbtree_model_param":{"num_parallel_tree":"1","num_trees":"50"},"iteration_indptr":[0,1,2,3,4,5,6,7,8,9,10,11,12,13,14,15,16,17,18,19,20,21,22,23,24,25,26,27,28,29,30,31,32,33,34,35,36,37,38,39,40,41,42,43,44,45,46,47,48,49,50],"tree_info":[0,0,0,0,0,0,0,0,0,0,0,0,0,0,0,0,0,0,0,0,0,0,0,0,0,0,0,0,0,0,0,0,0,0,0,0,0,0,0,0,0,0,0,0,0,0,0,0,0,0],"trees":[{"base_weights":[-2.727296E-2,-2.4536185E0,1.7018431E0,-1.6098836E-1,2.0533655E-2,3.2794126E-3,1.2002684E-1],"categories":[],"categories_nodes":[],"categories_segments":[],"categories_sizes":[],"default_left":[0,0,0,0,0,0,0],"id":0,"left_children":[1,3,5,-1,-1,-1,-1],"loss_changes":[1.1998741E3,2.6246448E2,1.907638E2,0E0,0E0,0E0,0E0],"parents":[2147483647,0,0,1,1,2,2],"right_children":[2,4,6,-1,-1,-1,-1],"split_conditions":[-5.534042E-1,1.0207345E0,-5.303654E-1,-1.6098836E-1,2.0533655E-2,3.2794126E-3,1.2002684E-1],"split_indices":[21,9,9,0,0,0,0],"split_type":[0,0,0,0,0,0,0],"sum_hessian":[2.84E2,1.18E2,1.66E2,9.3E1,2.5E1,5E1,1.16E2],"tree_param":{"num_deleted":"0","num_feature":"24","num_nodes":"7","size_leaf_vector":"1"}},{"base_weights":[-1.429657E-1,-2.64578E0,1.4203113E0,5.3686523E-3,-1.5988019E-1,1.2212415E-1,7.2022337E-3],"categories":[],"categories_nodes":[],"categories_segments":[],"categories_sizes":[],"default_left":[0,0,0,0,0,0,0],"id":1,"left_children":[1,3,5,-1,-1,-1,-1],"loss_changes":[1.0992836E3,1.6442291E2,2.2533765E2,0E0,0E0,0E0,0E0],"parents":[2147483647,0,0,1,1,2,2],"right_children":[2,4,6,-1,-1,-1,-1],"split_conditions":[-4.0447307E-1,-6.0620457E-1,-4.6660462E-1,5.3686523E-3,-1.5988019E-1,1.2212415E-1,7.2022337E-3],"split_indices":[16,19,11,0,0,0,0],"split_type":[0,0,0,0,0,0,0],"sum_hessian":[2.79E2,1.07E2,1.72E2,1.8E1,8.9E1,9.5E1,7.7E1],"tree_param":{"num_deleted":"0","num_feature":"24","num_nodes":"7","size_leaf_vector":"1"}},{"base_weights":[-4.7621604E-2,1.635199E0,-1.8048813E0,1.3023393E-2,1.1490583E-1,-1.303089E-1,4.790141E-3],"categories":[],"categories_nodes":[],"categories_segments":[],"categories_sizes":[],"default_left":[0,0,0,0,0,0,0],"id":2,"left_children":[1,3,5,-1,-1,-1,-1],"loss_changes":[8.1616833E2,1.27899414E2,2.058562E2,0E0,0E0,0E0,0E0],"parents":[2147483647,0,0,1,1,2,2],"right_children":[2,4,6,-1,-1,-1,-1],"split_conditions":[-1.5309376E-1,-5.303654E-1,4.4830483E-1,1.3023393E-2,1.1490583E-1,-1.303089E-1,4.790141E-3],"split_indices":[12,9,9,0,0,0,0],"split_type":[0,0,0,0,0,0,0],"sum_hessian":[2.74E2,1.4E2,1.34E2,4.6E1,9.4E1,9.4E1,4E1],"tree_param":{"num_deleted":"0","num_feature":"24","num_nodes":"7","size_leaf_vector":"1"}},{"base_weights":[-5.0785102E-2,1.0799707E0,-2.5630116E0,1.0967079E-2,1.0754376E-1,-9.800867E-2,-2.6143137E-1],"categories":[],"categories_nodes":[],"categories_segments":[],"categories_sizes":[],"default_left":[0,0,0,0,0,0,0],"id":3,"left_children":[1,3,5,-1,-1,-1,-1],"loss_changes":[8.237345E2,1.8385854E2,1.3437512E2,0E0,0E0,0E0,0E0],"parents":[2147483647,0,0,1,1,2,2],"right_children":[2,4,6,-1,-1,-1,-1],"split_conditions":[5.944616E-1,7.2927576E-1,1.7813934E0,1.0967079E-2,1.0754376E-1,-9.800867E-2,-2.6143137E-1],"split_indices":[12,10,19,0,0,0,0],"split_type":[0,0,0,0,0,0,0],"sum_hessian":[2.88E2,1.99E2,8.9E1,1.11E2,8.8E1,7.4E1,1.5E1],"tree_param":{"num_deleted":"0","num_feature":"24","num_nodes":"7","size_leaf_vector":"1"}},{"base_weights":[-6.1383244E-2,-2.005559E0,1.2386535E0,-7.949692E-2,-2.3168491E-1,1.7183686E-2,1.0137518E-1],"categories":[],"categories_nodes":[],"categories_segments":[],"categories_sizes":[],"default_left":[0,0,0,0,0,0,0],"id":4,"left_children":[1,3,5,-1,-1,-1,-1],"loss_changes":[7.632616E2,1.2480206E2,1.2709009E2,0E0,0E0,0E0,0E0],"parents":[2147483647,0,0,1,1,2,2],"right_children":[2,4,6,-1,-1,-1,-1],"split_conditions":[-1.489713E-1,1.7846102E0,7.6070255E-1,-7.949692E-2,-2.3168491E-1,1.7183686E-2,1.0137518E-1],"split_indices":[21,17,21,0,0,0,0],"split_type":[0,0,0,0,0,0,0],"sum_hessian":[3E2,1.2E2,1.8E2,1.05E2,1.5E1,8.5E1,9.5E1],"tree_param":{"num_deleted":"0","num_feature":"24","num_nodes":"7","size_leaf_vector":"1"}},{"base_weights":[-1.1427355E-2,1.6748164E0,-1.5311903E0,4.733208E-2,1.4234488E-1,-4.472464E-2,-2.2228673E-1],"categories":[],"categories_nodes":[],"categories_segments":[],"categories_sizes":[],"default_left":[0,0,0,0,0,0,0],"id":5,"left_children":[1,3,5,-1,-1,-1,-1],"loss_changes":[7.406194E2,1.1423175E2,2.780872E2,0E0,0E0,0E0,0E0],"parents":[2147483647,0,0,1,1,2,2],"right_children":[2,4,6,-1,-1,-1,-1],"split_conditions":[-1.7027454E-1,9.7460784E-2,1.7345316E0,4.733208E-2,1.4234488E-1,-4.472464E-2,-2.2228673E-1],"split_indices":[12,9,12,0,0,0,0],"split_type":[0,0,0,0,0,0,0],"sum_hessian":[2.87E2,1.36E2,1.51E2,8.5E1,5.1E1,1.25E2,2.6E1],"tree_param":{"num_deleted":"0","num_feature":"24","num_nodes":"7","size_leaf_vector":"1"}},{"base_weights":[1.3105136E-2,-1.9876999E0,1.2798095E0,-7.212818E-2,-2.0757349E-1,9.315959E-2,8.028396E-3],"categories":[],"categories_nodes":[],"categories_segments":[],"categories_sizes":[],"default_left":[0,0,0,0,0,0,0],"id":6,"left_children":[1,3,5,-1,-1,-1,-1],"loss_changes":[6.995117E2,1.2022305E2,1.10048676E2,0E0,0E0,0E0,0E0],"parents":[2147483647,0,0,1,1,2,2],"right_children":[2,4,6,-1,-1,-1,-1],"split_conditions":[-5.749904E-1,1.7846102E0,-3.0830118E-1,-7.212818E-2,-2.0757349E-1,9.315959E-2,8.028396E-3],"split_indices":[10,17,22,0,0,0,0],"split_type":[0,0,0,0,0,0,0],"sum_hessian":[2.74E2,1.06E2,1.68E2,8.6E1,2E1,1.1E2,5.8E1],"tree_param":{"num_deleted":"0","num_feature":"24","num_nodes":"7","size_leaf_vector":"1"}},{"base_weights":[4.82582E-2,-1.5291367E0,1.2628464E0,3.173129E-2,-1.0010262E-1,9.288125E-2,1.4157886E-2],"categories":[],"categories_nodes":[],"categories_segments":[],"categories_sizes":[],"default_left":[0,0,0,0,0,0,0],"id":7,"left_children":[1,3,5,-1,-1,-1,-1],"loss_changes":[5.460425E2,1.2815692E2,9.328833E1,0E0,0E0,0E0,0E0],"parents":[2147483647,0,0,1,1,2,2],"right_children":[2,4,6,-1,-1,-1,-1],"split_conditions":[7.978404E-2,-4.4689438E-1,-3.5796535E-1,3.173129E-2,-1.0010262E-1,9.288125E-2,1.4157886E-2],"split_indices":[16,22,22,0,0,0,0],"split_type":[0,0,0,0,0,0,0],"sum_hessian":[2.83E2,1.23E2,1.6E2,2.2E1,1.01E2,9.9E1,6.1E1],"tree_param":{"num_deleted":"0","num_feature":"24","num_nodes":"7","size_leaf_vector":"1"}},{"base_weights":[-1.9601613E-1,8.053175E-1,-1.9885446E0,1.8694121E-2,1.297168E-1,-1.2523934E-1,3.548199E-2],"categories":[],"categories_nodes":[],"categories_segments":[],"categories_sizes":[],"default_left":[0,0,0,0,0,0,0],"id":8,"left_children":[1,3,5,-1,-1,-1,-1],"loss_changes":[5.0597366E2,1.3873401E2,1.4246216E2,0E0,0E0,0E0,0E0],"parents":[2147483647,0,0,1,1,2,2],"right_children":[2,4,6,-1,-1,-1,-1],"split_conditions":[4.2215204E-1,6.88356E-1,1.0207345E0,1.8694121E-2,1.297168E-1,-1.2523934E-1,3.548199E-2],"split_indices":[17,9,9,0,0,0,0],"split_type":[0,0,0,0,0,0,0],"sum_hessian":[2.8E2,1.8E2,1E2,1.46E2,3.4E1,8.4E1,1.6E1],"tree_param":{"num_deleted":"0","num_feature":"24","num_nodes":"7","size_leaf_vector":"1"}},{"base_weights":[1.2102901E-2,1.1808867E0,-1.5741998E0,2.9962955E-2,1.0057658E-1,4.9068827E-2,-9.641946E-2],"categories":[],"categories_nodes":[],"categories_segments":[],"categories_sizes":[],"default_left":[0,0,0,0,0,0,0],"id":9,"left_children":[1,3,5,-1,-1,-1,-1],"loss_changes":[5.5065625E2,8.140912E1,1.1594235E2,0E0,0E0,0E0,0E0],"parents":[2147483647,0,0,1,1,2,2],"right_children":[2,4,6,-1,-1,-1,-1],"split_conditions":[-2.8087875E-1,9.387788E-1,-1.0592922E0,2.9962955E-2,1.0057658E-1,4.9068827E-2,-9.641946E-2],"split_indices":[18,21,0,0,0,0,0],"split_type":[0,0,0,0,0,0,0],"sum_hessian":[2.95E2,1.7E2,1.25E2,1.01E2,6.9E1,1.5E1,1.1E2],"tree_param":{"num_deleted":"0","num_feature":"24","num_nodes":"7","size_leaf_vector":"1"}},{"base_weights":[1.8824115E-2,-1.2956462E0,1.1431371E0,-9.296604E-2,4.353581E-2,2.8999448E-2,1.20080434E-1],"categories":[],"categories_nodes":[],"categories_segments":[],"categories_sizes":[],"default_left":[0,0,0,0,0,0,0],"id":10,"left_children":[1,3,5,-1,-1,-1,-1],"loss_changes":[4.55189E2,1.7501846E2,1.1625224E2,0E0,0E0,0E0,0E0],"parents":[2147483647,0,0,1,1,2,2],"right_children":[2,4,6,-1,-1,-1,-1],"split_conditions":[9.0792775E-2,1.0207345E0,4.4830483E-1,-9.296604E-2,4.353581E-2,2.8999448E-2,1.20080434E-1],"split_indices":[16,9,9,0,0,0,0],"split_type":[0,0,0,0,0,0,0],"sum_hessian":[3.06E2,1.41E2,1.65E2,1.12E2,2.9E1,1.15E2,5E1],"tree_param":{"num_deleted":"0","num_feature":"24","num_nodes":"7","size_leaf_vector":"1"}},{"base_weights":[-8.15055E-2,9.1539925E-1,-1.5074079E0,-2.2176487E-2,7.609557E-2,-1.1033892E-1,3.8471323E-2],"categories":[],"categories_nodes":[],"categories_segments":[],"categories_sizes":[],"default_left":[0,0,0,0,0,0,0],"id":11,"left_children":[1,3,5,-1,-1,-1,-1],"loss_changes":[4.0081827E2,1.374934E2,1.8641061E2,0E0,0E0,0E0,0E0],"parents":[2147483647,0,0,1,1,2,2],"right_children":[2,4,6,-1,-1,-1,-1],"split_conditions":[3.9337158E-1,-5.303654E-1,1.0207345E0,-2.2176487E-2,7.609557E-2,-1.1033892E-1,3.8471323E-2],"split_indices":[17,9,9,0,0,0,0],"split_type":[0,0,0,0,0,0,0],"sum_hessian":[2.8E2,1.65E2,1.15E2,5.1E1,1.14E2,8.8E1,2.7E1],"tree_param":{"num_deleted":"0","num_feature":"24","num_nodes":"7","size_leaf_vector":"1"}},{"base_weights":[8.679147E-2,1.246315E0,-1.1619078E0,3.597326E-2,1.2355226E-1,-7.9054765E-2,2.9588794E-2],"categories":[],"categories_nodes":[],"categories_segments":[],"categories_sizes":[],"default_left":[0,0,0,0,0,0,0],"id":12,"left_children":[1,3,5,-1,-1,-1,-1],"loss_changes":[3.9382794E2,8.920227E1,9.723665E1,0E0,0E0,0E0,0E0],"parents":[2147483647,0,0,1,1,2,2],"right_children":[2,4,6,-1,-1,-1,-1],"split_conditions":[-1.5309376E-1,4.4830483E-1,1.0207345E0,3.597326E-2,1.2355226E-1,-7.9054765E-2,2.9588794E-2],"split_indices":[12,9,9,0,0,0,0],"split_type":[0,0,0,0,0,0,0],"sum_hessian":[2.7E2,1.4E2,1.3E2,9.9E1,4.1E1,1.05E2,2.5E1],"tree_param":{"num_deleted":"0","num_feature":"24","num_nodes":"7","size_leaf_vector":"1"}},{"base_weights":[3.2637943E-2,6.78324E-1,-1.636507E0,9.347423E-2,9.350833E-3,5.2816074E-2,-1.0270939E-1],"categories":[],"categories_nodes":[],"categories_segments":[],"categories_sizes":[],"default_left":[0,0,0,0,0,0,0],"id":13,"left_children":[1,3,5,-1,-1,-1,-1],"loss_changes":[2.9748956E2,1.1611032E2,8.877507E1,0E0,0E0,0E0,0E0],"parents":[2147483647,0,0,1,1,2,2],"right_children":[2,4,6,-1,-1,-1,-1],"split_conditions":[6.013866E-1,-1.0642778E0,-1.111151E0,9.347423E-2,9.350833E-3,5.2816074E-2,-1.0270939E-1],"split_indices":[12,12,0,0,0,0,0],"split_type":[0,0,0,0,0,0,0],"sum_hessian":[2.74E2,1.98E2,7.6E1,5.7E1,1.41E2,1E1,6.6E1],"tree_param":{"num_deleted":"0","num_feature":"24","num_nodes":"7","size_leaf_vector":"1"}},{"base_weights":[5.05837E-2,1.2233182E0,-1.0028281E0,3.1101508E-2,1.0830542E-1,-8.135567E-2,2.9831285E-2],"categories":[],"categories_nodes":[],"categories_segments":[],"categories_sizes":[],"default_left":[0,0,0,0,0,0,0],"id":14,"left_children":[1,3,5,-1,-1,-1,-1],"loss_changes":[3.4466028E2,7.34819E1,1.4775253E2,0E0,0E0,0E0,0E0],"parents":[2147483647,0,0,1,1,2,2],"right_children":[2,4,6,-1,-1,-1,-1],"split_conditions":[-3.1832385E-1,-5.0263025E-2,4.4830483E-1,3.1101508E-2,1.0830542E-1,-8.135567E-2,2.9831285E-2],"split_indices":[22,9,9,0,0,0,0],"split_type":[0,0,0,0,0,0,0],"sum_hessian":[2.77E2,1.31E2,1.46E2,8.1E1,5E1,1.05E2,4.1E1],"tree_param":{"num_deleted":"0","num_feature":"24","num_nodes":"7","size_leaf_vector":"1"}},{"base_weights":[-3.7227057E-2,-1.7505455E0,6.379046E-1,-5.6194495E-2,-1.8884794E-1,8.90484E-3,9.003328E-2],"categories":[],"categories_nodes":[],"categories_segments":[],"categories_sizes":[],"default_left":[0,0,0,0,0,0,0],"id":15,"left_children":[1,3,5,-1,-1,-1,-1],"loss_changes":[3.1921344E2,9.480443E1,1.05539314E2,0E0,0E0,0E0,0E0],"parents":[2147483647,0,0,1,1,2,2],"right_children":[2,4,6,-1,-1,-1,-1],"split_conditions":[-7.1338826E-1,1.7870104E0,3.00581E-1,-5.6194495E-2,-1.8884794E-1,8.90484E-3,9.003328E-2],"split_indices":[16,17,9,0,0,0,0],"split_type":[0,0,0,0,0,0,0],"sum_hessian":[2.74E2,7.7E1,1.97E2,6E1,1.7E1,1.42E2,5.5E1],"tree_param":{"num_deleted":"0","num_feature":"24","num_nodes":"7","size_leaf_vector":"1"}},{"base_weights":[1.9533165E-2,1.1732997E0,-1.0754244E0,3.7448134E-2,8.063453E-2,-3.480304E-2,-1.950429E-1],"categories":[],"categories_nodes":[],"categories_segments":[],"categories_sizes":[],"default_left":[0,0,0,0,0,0,0],"id":16,"left_children":[1,3,5,-1,-1,-1,-1],"loss_changes":[3.3730634E2,2.303064E1,1.441305E2,0E0,0E0,0E0,0E0],"parents":[2147483647,0,0,1,1,2,2],"right_children":[2,4,6,-1,-1,-1,-1],"split_conditions":[-1.945411E-1,8.989662E-1,1.8427457E0,3.7448134E-2,8.063453E-2,-3.480304E-2,-1.950429E-1],"split_indices":[22,10,12,0,0,0,0],"split_type":[0,0,0,0,0,0,0],"sum_hessian":[2.65E2,1.29E2,1.36E2,6.7E1,6.2E1,1.21E2,1.5E1],"tree_param":{"num_deleted":"0","num_feature":"24","num_nodes":"7","size_leaf_vector":"1"}},{"base_weights":[2.7087012E-2,-1.261654E0,8.695517E-1,-8.6609595E-2,3.7708063E-2,-1.9936228E-2,6.266787E-2],"categories":[],"categories_nodes":[],"categories_segments":[],"categories_sizes":[],"default_left":[0,0,0,0,0,0,0],"id":17,"left_children":[1,3,5,-1,-1,-1,-1],"loss_changes":[2.801268E2,9.8055145E1,7.6436104E1,0E0,0E0,0E0,0E0],"parents":[2147483647,0,0,1,1,2,2],"right_children":[2,4,6,-1,-1,-1,-1],"split_conditions":[-5.534042E-1,1.0207345E0,-8.0734754E-1,-8.6609595E-2,3.7708063E-2,-1.9936228E-2,6.266787E-2],"split_indices":[21,9,9,0,0,0,0],"split_type":[0,0,0,0,0,0,0],"sum_hessian":[2.56E2,1.01E2,1.55E2,8.2E1,1.9E1,3.6E1,1.19E2],"tree_param":{"num_deleted":"0","num_feature":"24","num_nodes":"7","size_leaf_vector":"1"}},{"base_weights":[-9.0426154E-2,9.535072E-1,-9.263316E-1,3.101675E-2,1.2869816E-1,-7.5086735E-2,1.9980589E-2],"categories":[],"categories_nodes":[],"categories_segments":[],"categories_sizes":[],"default_left":[0,0,0,0,0,0,0],"id":18,"left_children":[1,3,5,-1,-1,-1,-1],"loss_changes":[2.4521953E2,6.588963E1,1.19620636E2,0E0,0E0,0E0,0E0],"parents":[2147483647,0,0,1,1,2,2],"right_children":[2,4,6,-1,-1,-1,-1],"split_conditions":[-1.7027454E-1,9.0994173E-1,4.4830483E-1,3.101675E-2,1.2869816E-1,-7.5086735E-2,1.9980589E-2],"split_indices":[12,9,9,0,0,0,0],"split_type":[0,0,0,0,0,0,0],"sum_hessian":[2.79E2,1.24E2,1.55E2,1.04E2,2E1,1.08E2,4.7E1],"tree_param":{"num_deleted":"0","num_feature":"24","num_nodes":"7","size_leaf_vector":"1"}},{"base_weights":[-2.2935241E-2,1.0611559E0,-9.632863E-1,4.216573E-2,1.1140048E-1,-1.5728244E-1,-2.3136316E-2],"categories":[],"categories_nodes":[],"categories_segments":[],"categories_sizes":[],"default_left":[0,0,0,0,0,0,0],"id":19,"left_children":[1,3,5,-1,-1,-1,-1],"loss_changes":[2.8748096E2,3.1419846E1,1.6349733E2,0E0,0E0,0E0,0E0],"parents":[2147483647,0,0,1,1,2,2],"right_children":[2,4,6,-1,-1,-1,-1],"split_conditions":[-3.0647293E-1,1.2792512E0,-1.4142324E0,4.216573E-2,1.1140048E-1,-1.5728244E-1,-2.3136316E-2],"split_indices":[22,9,10,0,0,0,0],"split_type":[0,0,0,0,0,0,0],"sum_hessian":[2.8E2,1.3E2,1.5E2,1.11E2,1.9E1,2.7E1,1.23E2],"tree_param":{"num_deleted":"0","num_feature":"24","num_nodes":"7","size_leaf_vector":"1"}},{"base_weights":[-7.126737E-2,7.938337E-1,-1.2078819E0,-7.237217E-3,6.300726E-2,-3.8618833E-2,-1.5959674E-1],"categories":[],"categories_nodes":[],"categories_segments":[],"categories_sizes":[],"default_left":[0,0,0,0,0,0,0],"id":20,"left_children":[1,3,5,-1,-1,-1,-1],"loss_changes":[2.821788E2,7.152257E1,1.0467873E2,0E0,0E0,0E0,0E0],"parents":[2147483647,0,0,1,1,2,2],"right_children":[2,4,6,-1,-1,-1,-1],"split_conditions":[-8.769472E-2,-5.672963E-1,1.616268E0,-7.237217E-3,6.300726E-2,-3.8618833E-2,-1.5959674E-1],"split_indices":[22,9,17,0,0,0,0],"split_type":[0,0,0,0,0,0,0],"sum_hessian":[2.85E2,1.62E2,1.23E2,5.4E1,1.08E2,1.02E2,2.1E1],"tree_param":{"num_deleted":"0","num_feature":"24","num_nodes":"7","size_leaf_vector":"1"}},{"base_weights":[-2.973749E-2,9.559603E-1,-7.8294766E-1,7.8465685E-2,2.6263101E-2,-7.9690024E-2,2.9367039E-3],"categories":[],"categories_nodes":[],"categories_segments":[],"categories_sizes":[],"default_left":[0,0,0,0,0,0,0],"id":21,"left_children":[1,3,5,-1,-1,-1,-1],"loss_changes":[2.0566124E2,3.0876114E1,1.0724296E2,0E0,0E0,0E0,0E0],"parents":[2147483647,0,0,1,1,2,2],"right_children":[2,4,6,-1,-1,-1,-1],"split_conditions":[-3.1861502E-1,-1.0642778E0,-1.7952135E-1,7.8465685E-2,2.6263101E-2,-7.9690024E-2,2.9367039E-3],"split_indices":[22,12,9,0,0,0,0],"split_type":[0,0,0,0,0,0,0],"sum_hessian":[2.75E2,1.19E2,1.56E2,4.8E1,7.1E1,7.9E1,7.7E1],"tree_param":{"num_deleted":"0","num_feature":"24","num_nodes":"7","size_leaf_vector":"1"}},{"base_weights":[-3.615317E-2,8.064125E-1,-8.7230486E-1,7.299968E-2,2.1076106E-2,-2.7660776E-2,-1.4124505E-1],"categories":[],"categories_nodes":[],"categories_segments":[],"categories_sizes":[],"default_left":[0,0,0,0,0,0,0],"id":22,"left_children":[1,3,5,-1,-1,-1,-1],"loss_changes":[1.923309E2,3.3596344E1,8.379543E1,0E0,0E0,0E0,0E0],"parents":[2147483647,0,0,1,1,2,2],"right_children":[2,4,6,-1,-1,-1,-1],"split_conditions":[-1.8284807E-1,-8.5412514E-1,1.616268E0,7.299968E-2,2.1076106E-2,-2.7660776E-2,-1.4124505E-1],"split_indices":[22,17,17,0,0,0,0],"split_type":[0,0,0,0,0,0,0],"sum_hessian":[2.71E2,1.35E2,1.36E2,4.9E1,8.6E1,1.18E2,1.8E1],"tree_param":{"num_deleted":"0","num_feature":"24","num_nodes":"7","size_leaf_vector":"1"}},{"base_weights":[-6.0628902E-2,3.7523767E-1,-1.4698938E0,5.4178406E-2,-2.2662925E-3,-4.0346585E-2,-1.4576206E-1],"categories":[],"categories_nodes":[],"categories_segments":[],"categories_sizes":[],"default_left":[0,0,0,0,0,0,0],"id":23,"left_children":[1,3,5,-1,-1,-1,-1],"loss_changes":[1.7684174E2,6.5586655E1,6.280591E1,0E0,0E0,0E0,0E0],"parents":[2147483647,0,0,1,1,2,2],"right_children":[2,4,6,-1,-1,-1,-1],"split_conditions":[5.682068E-1,-6.3444144E-1,1.7345316E0,5.4178406E-2,-2.2662925E-3,-4.0346585E-2,-1.4576206E-1],"split_indices":[22,22,12,0,0,0,0],"split_type":[0,0,0,0,0,0,0],"sum_hessian":[2.86E2,2.19E2,6.7E1,8.1E1,1.38E2,4.7E1,2E1],"tree_param":{"num_deleted":"0","num_feature":"24","num_nodes":"7","size_leaf_vector":"1"}},{"base_weights":[-6.0736383E-3,5.651646E-1,-1.0949333E0,1.24312E-2,5.9708502E-2,-3.6337215E-2,-1.274409E-1],"categories":[],"categories_nodes":[],"categories_segments":[],"categories_sizes":[],"default_left":[0,0,0,0,0,0,0],"id":24,"left_children":[1,3,5,-1,-1,-1,-1],"loss_changes":[1.7353435E2,3.6139458E1,4.9536865E1,0E0,0E0,0E0,0E0],"parents":[2147483647,0,0,1,1,2,2],"right_children":[2,4,6,-1,-1,-1,-1],"split_conditions":[1.6134027E-1,1.0237578E0,1.7828127E0,1.24312E-2,5.9708502E-2,-3.6337215E-2,-1.274409E-1],"split_indices":[18,10,17,0,0,0,0],"split_type":[0,0,0,0,0,0,0],"sum_hessian":[2.77E2,1.82E2,9.5E1,1.22E2,6E1,7.7E1,1.8E1],"tree_param":{"num_deleted":"0","num_feature":"24","num_nodes":"7","size_leaf_vector":"1"}},{"base_weights":[-1.9508164E-2,-6.9705147E-1,8.1698674E-1,-5.9547585E-2,2.2980748E-2,7.5086155E-3,7.407274E-2],"categories":[],"categories_nodes":[],"categories_segments":[],"categories_sizes":[],"default_left":[0,0,0,0,0,0,0],"id":25,"left_children":[1,3,5,-1,-1,-1,-1],"loss_changes":[1.6209651E2,9.080929E1,5.649137E1,0E0,0E0,0E0,0E0],"parents":[2147483647,0,0,1,1,2,2],"right_children":[2,4,6,-1,-1,-1,-1],"split_conditions":[3.900682E-1,4.4830483E-1,-2.164523E-1,-5.9547585E-2,2.2980748E-2,7.5086155E-3,7.407274E-2],"split_indices":[10,9,9,0,0,0,0],"split_type":[0,0,0,0,0,0,0],"sum_hessian":[2.84E2,1.57E2,1.27E2,1.1E2,4.7E1,6.4E1,6.3E1],"tree_param":{"num_deleted":"0","num_feature":"24","num_nodes":"7","size_leaf_vector":"1"}},{"base_weights":[4.245584E-2,-8.2431346E-1,7.244133E-1,-7.610055E-2,-2.6758788E-3,2.2064133E-2,1.1650753E-1],"categories":[],"categories_nodes":[],"categories_segments":[],"categories_sizes":[],"default_left":[0,0,0,0,0,0,0],"id":26,"left_children":[1,3,5,-1,-1,-1,-1],"loss_changes":[1.6374068E2,6.552801E1,6.943991E1,0E0,0E0,0E0,0E0],"parents":[2147483647,0,0,1,1,2,2],"right_children":[2,4,6,-1,-1,-1,-1],"split_conditions":[7.655619E-2,2.3598878E-2,1.0207345E0,-7.610055E-2,-2.6758788E-3,2.2064133E-2,1.1650753E-1],"split_indices":[16,9,9,0,0,0,0],"split_type":[0,0,0,0,0,0,0],"sum_hessian":[2.75E2,1.21E2,1.54E2,6.3E1,5.8E1,1.32E2,2.2E1],"tree_param":{"num_deleted":"0","num_feature":"24","num_nodes":"7","size_leaf_vector":"1"}},{"base_weights":[1.0520703E-1,9.196544E-1,-4.9762803E-1,-1.2927525E-2,5.2526813E-2,-7.240056E-2,2.1802556E-2],"categories":[],"categories_nodes":[],"categories_segments":[],"categories_sizes":[],"default_left":[0,0,0,0,0,0,0],"id":27,"left_children":[1,3,5,-1,-1,-1,-1],"loss_changes":[1.4087718E2,1.908471E1,1.4704462E2,0E0,0E0,0E0,0E0],"parents":[2147483647,0,0,1,1,2,2],"right_children":[2,4,6,-1,-1,-1,-1],"split_conditions":[-4.1225374E-1,-1.1027951E0,-1.7952135E-1,-1.2927525E-2,5.2526813E-2,-7.240056E-2,2.1802556E-2],"split_indices":[22,9,9,0,0,0,0],"split_type":[0,0,0,0,0,0,0],"sum_hessian":[2.85E2,1.21E2,1.64E2,1.2E1,1.09E2,8.1E1,8.3E1],"tree_param":{"num_deleted":"0","num_feature":"24","num_nodes":"7","size_leaf_vector":"1"}},{"base_weights":[7.904736E-2,-3.4494874E-1,1.0333484E0,2.6863435E-2,-4.142471E-2,9.631002E-4,6.778602E-2],"categories":[],"categories_nodes":[],"categories_segments":[],"categories_sizes":[],"default_left":[0,0,0,0,0,0,0],"id":28,"left_children":[1,3,5,-1,-1,-1,-1],"loss_changes":[1.14459274E2,8.4057205E1,2.8415321E1,0E0,0E0,0E0,0E0],"parents":[2147483647,0,0,1,1,2,2],"right_children":[2,4,6,-1,-1,-1,-1],"split_conditions":[4.4830483E-1,-5.64112E-1,-7.186164E-1,2.6863435E-2,-4.142471E-2,9.631002E-4,6.778602E-2],"split_indices":[9,19,16,0,0,0,0],"split_type":[0,0,0,0,0,0,0],"sum_hessian":[2.81E2,1.95E2,8.6E1,6.9E1,1.26E2,2.1E1,6.5E1],"tree_param":{"num_deleted":"0","num_feature":"24","num_nodes":"7","size_leaf_vector":"1"}},{"base_weights":[-3.9351057E-2,6.31857E-1,-7.194235E-1,2.170882E-2,9.8077856E-2,-6.900766E-2,5.6191757E-3],"categories":[],"categories_nodes":[],"categories_segments":[],"categories_sizes":[],"default_left":[0,0,0,0,0,0,0],"id":29,"left_children":[1,3,5,-1,-1,-1,-1],"loss_changes":[1.3511327E2,3.831387E1,8.094625E1,0E0,0E0,0E0,0E0],"parents":[2147483647,0,0,1,1,2,2],"right_children":[2,4,6,-1,-1,-1,-1],"split_conditions":[-1.945411E-1,1.2792512E0,2.3598878E-2,2.170882E-2,9.8077856E-2,-6.900766E-2,5.6191757E-3],"split_indices":[22,9,9,0,0,0,0],"split_type":[0,0,0,0,0,0,0],"sum_hessian":[2.94E2,1.48E2,1.46E2,1.3E2,1.8E1,8.1E1,6.5E1],"tree_param":{"num_deleted":"0","num_feature":"24","num_nodes":"7","size_leaf_vector":"1"}},{"base_weights":[4.342408E-2,-1.0306139E0,4.201613E-1,-3.238223E-2,-1.2991476E-1,1.0934464E-2,9.110273E-2],"categories":[],"categories_nodes":[],"categories_segments":[],"categories_sizes":[],"default_left":[0,0,0,0,0,0,0],"id":30,"left_children":[1,3,5,-1,-1,-1,-1],"loss_changes":[1.1372945E2,4.2144516E1,5.8349533E1,0E0,0E0,0E0,0E0],"parents":[2147483647,0,0,1,1,2,2],"right_children":[2,4,6,-1,-1,-1,-1],"split_conditions":[-7.1338826E-1,1.7870104E0,1.5931643E0,-3.238223E-2,-1.2991476E-1,1.0934464E-2,9.110273E-2],"split_indices":[16,17,9,0,0,0,0],"split_type":[0,0,0,0,0,0,0],"sum_hessian":[2.79E2,7.2E1,2.07E2,5.9E1,1.3E1,1.82E2,2.5E1],"tree_param":{"num_deleted":"0","num_feature":"24","num_nodes":"7","size_leaf_vector":"1"}},{"base_weights":[2.0989297E-2,4.346794E-1,-1.1240298E0,-1.7512319E-4,6.2160254E-2,-7.1575763E-3,-9.0251714E-2],"categories":[],"categories_nodes":[],"categories_segments":[],"categories_sizes":[],"default_left":[0,0,0,0,0,0,0],"id":31,"left_children":[1,3,5,-1,-1,-1,-1],"loss_changes":[1.3027774E2,7.156918E1,4.8504326E1,0E0,0E0,0E0,0E0],"parents":[2147483647,0,0,1,1,2,2],"right_children":[2,4,6,-1,-1,-1,-1],"split_conditions":[6.095389E-1,4.4830483E-1,3.618944E-2,-1.7512319E-4,6.2160254E-2,-7.1575763E-3,-9.0251714E-2],"split_indices":[12,9,19,0,0,0,0],"split_type":[0,0,0,0,0,0,0],"sum_hessian":[2.73E2,2.01E2,7.2E1,1.31E2,7E1,3E1,4.2E1],"tree_param":{"num_deleted":"0","num_feature":"24","num_nodes":"7","size_leaf_vector":"1"}},{"base_weights":[-2.689039E-2,-1.3268939E0,2.9823053E-1,-2.4085985E-2,-1.07743196E-1,3.592745E-2,-8.822492E-3],"categories":[],"categories_nodes":[],"categories_segments":[],"categories_sizes":[],"default_left":[0,0,0,0,0,0,0],"id":32,"left_children":[1,3,5,-1,-1,-1,-1],"loss_changes":[1.18317406E2,3.8149574E1,4.481857E1,0E0,0E0,0E0,0E0],"parents":[2147483647,0,0,1,1,2,2],"right_children":[2,4,6,-1,-1,-1,-1],"split_conditions":[-1.0535238E0,4.500836E-1,-4.288057E-1,-2.4085985E-2,-1.07743196E-1,3.592745E-2,-8.822492E-3],"split_indices":[10,19,12,0,0,0,0],"split_type":[0,0,0,0,0,0,0],"sum_hessian":[2.78E2,5.5E1,2.23E2,2.8E1,2.7E1,1.18E2,1.05E2],"tree_param":{"num_deleted":"0","num_feature":"24","num_nodes":"7","size_leaf_vector":"1"}},{"base_weights":[-7.030053E-2,3.2977283E-1,-1.2582607E0,4.0584216E-3,8.1079535E-2,-1.0796864E-1,-1.3485315E-2],"categories":[],"categories_nodes":[],"categories_segments":[],"categories_sizes":[],"default_left":[0,0,0,0,0,0,0],"id":33,"left_children":[1,3,5,-1,-1,-1,-1],"loss_changes":[1.3396616E2,6.763137E1,6.266429E1,0E0,0E0,0E0,0E0],"parents":[2147483647,0,0,1,1,2,2],"right_children":[2,4,6,-1,-1,-1,-1],"split_conditions":[5.035933E-1,1.2792512E0,-1.7952135E-1,4.0584216E-3,8.1079535E-2,-1.0796864E-1,-1.3485315E-2],"split_indices":[22,9,9,0,0,0,0],"split_type":[0,0,0,0,0,0,0],"sum_hessian":[2.8E2,2.1E2,7E1,1.77E2,3.3E1,3.6E1,3.4E1],"tree_param":{"num_deleted":"0","num_feature":"24","num_nodes":"7","size_leaf_vector":"1"}},{"base_weights":[5.2728906E-2,6.9395137E-1,-3.9486903E-1,4.9668867E-2,1.911754E-2,-1.03723705E-2,-8.972725E-2],"categories":[],"categories_nodes":[],"categories_segments":[],"categories_sizes":[],"default_left":[0,0,0,0,0,0,0],"id":34,"left_children":[1,3,5,-1,-1,-1,-1],"loss_changes":[7.891472E1,1.0163227E1,4.2125114E1,0E0,0E0,0E0,0E0],"parents":[2147483647,0,0,1,1,2,2],"right_children":[2,4,6,-1,-1,-1,-1],"split_conditions":[-4.1225374E-1,-7.686083E-1,1.7345316E0,4.9668867E-2,1.911754E-2,-1.03723705E-2,-8.972725E-2],"split_indices":[22,19,12,0,0,0,0],"split_type":[0,0,0,0,0,0,0],"sum_hessian":[2.73E2,1.12E2,1.61E2,5.6E1,5.6E1,1.43E2,1.8E1],"tree_param":{"num_deleted":"0","num_feature":"24","num_nodes":"7","size_leaf_vector":"1"}},{"base_weights":[-3.9167535E-2,-3.8011616E-1,9.7449654E-1,-1.7881462E-3,-7.197414E-2,1.8249488E-2,7.248088E-2],"categories":[],"categories_nodes":[],"categories_segments":[],"categories_sizes":[],"default_left":[0,0,0,0,0,0,0],"id":35,"left_children":[1,3,5,-1,-1,-1,-1],"loss_changes":[9.610367E1,7.5826164E1,1.9742172E1,0E0,0E0,0E0,0E0],"parents":[2147483647,0,0,1,1,2,2],"right_children":[2,4,6,-1,-1,-1,-1],"split_conditions":[7.9914886E-1,5.57204E-1,9.795129E-2,-1.7881462E-3,-7.197414E-2,1.8249488E-2,7.248088E-2],"split_indices":[9,22,10,0,0,0,0],"split_type":[0,0,0,0,0,0,0],"sum_hessian":[2.76E2,2.07E2,6.9E1,1.57E2,5E1,3.1E1,3.8E1],"tree_param":{"num_deleted":"0","num_feature":"24","num_nodes":"7","size_leaf_vector":"1"}},{"base_weights":[-2.3569204E-3,5.358258E-1,-5.806849E-1,-1.1145177E-2,4.1489404E-2,-5.4542787E-2,4.316321E-3],"categories":[],"categories_nodes":[],"categories_segments":[],"categories_sizes":[],"default_left":[0,0,0,0,0,0,0],"id":36,"left_children":[1,3,5,-1,-1,-1,-1],"loss_changes":[8.652632E1,3.23024E1,4.5692997E1,0E0,0E0,0E0,0E0],"parents":[2147483647,0,0,1,1,2,2],"right_children":[2,4,6,-1,-1,-1,-1],"split_conditions":[-1.8284807E-1,-5.672963E-1,2.3598878E-2,-1.1145177E-2,4.1489404E-2,-5.4542787E-2,4.316321E-3],"split_indices":[22,9,9,0,0,0,0],"split_type":[0,0,0,0,0,0,0],"sum_hessian":[2.76E2,1.43E2,1.33E2,4E1,1.03E2,7.5E1,5.8E1],"tree_param":{"num_deleted":"0","num_feature":"24","num_nodes":"7","size_leaf_vector":"1"}},{"base_weights":[-2.746457E-2,-5.562495E-1,7.176713E-1,-4.0525936E-2,4.69785E-2,2.6927752E-2,9.379379E-2],"categories":[],"categories_nodes":[],"categories_segments":[],"categories_sizes":[],"default_left":[0,0,0,0,0,0,0],"id":37,"left_children":[1,3,5,-1,-1,-1,-1],"loss_changes":[1.0914778E2,6.2376755E1,2.2846855E1,0E0,0E0,0E0,0E0],"parents":[2147483647,0,0,1,1,2,2],"right_children":[2,4,6,-1,-1,-1,-1],"split_conditions":[4.665904E-1,1.5931643E0,1.2792512E0,-4.0525936E-2,4.69785E-2,2.6927752E-2,9.379379E-2],"split_indices":[16,9,9,0,0,0,0],"split_type":[0,0,0,0,0,0,0],"sum_hessian":[2.75E2,1.61E2,1.14E2,1.38E2,2.3E1,1E2,1.4E1],"tree_param":{"num_deleted":"0","num_feature":"24","num_nodes":"7","size_leaf_vector":"1"}},{"base_weights":[1.593892E-2,-4.6594346E-1,6.108699E-1,-4.7766723E-2,1.159068E-2,6.926898E-3,5.2669015E-2],"categories":[],"categories_nodes":[],"categories_segments":[],"categories_sizes":[],"default_left":[0,0,0,0,0,0,0],"id":38,"left_children":[1,3,5,-1,-1,-1,-1],"loss_changes":[8.457053E1,5.5882042E1,2.7443619E1,0E0,0E0,0E0,0E0],"parents":[2147483647,0,0,1,1,2,2],"right_children":[2,4,6,-1,-1,-1,-1],"split_conditions":[3.6694533E-1,2.3598878E-2,-2.164523E-1,-4.7766723E-2,1.159068E-2,6.926898E-3,5.2669015E-2],"split_indices":[10,9,9,0,0,0,0],"split_type":[0,0,0,0,0,0,0],"sum_hessian":[2.93E2,1.62E2,1.31E2,9.5E1,6.7E1,6.4E1,6.7E1],"tree_param":{"num_deleted":"0","num_feature":"24","num_nodes":"7","size_leaf_vector":"1"}},{"base_weights":[2.0400222E-2,8.1617206E-1,-3.362866E-1,-3.384791E-3,4.6993583E-2,-3.9769273E-2,1.8320097E-2],"categories":[],"categories_nodes":[],"categories_segments":[],"categories_sizes":[],"default_left":[0,0,0,0,0,0,0],"id":39,"left_children":[1,3,5,-1,-1,-1,-1],"loss_changes":[7.520858E1,9.029026E0,5.9327873E1,0E0,0E0,0E0,0E0],"parents":[2147483647,0,0,1,1,2,2],"right_children":[2,4,6,-1,-1,-1,-1],"split_conditions":[-6.3444144E-1,-9.920023E-1,1.5285721E-1,-3.384791E-3,4.6993583E-2,-3.9769273E-2,1.8320097E-2],"split_indices":[22,9,9,0,0,0,0],"split_type":[0,0,0,0,0,0,0],"sum_hessian":[2.63E2,8.1E1,1.82E2,1E1,7.1E1,1.1E2,7.2E1],"tree_param":{"num_deleted":"0","num_feature":"24","num_nodes":"7","size_leaf_vector":"1"}},{"base_weights":[-6.430422E-2,1.7957234E-1,-1.1437513E0,-2.3802415E-2,2.6078898E-2,3.5516653E-2,-7.274316E-2],"categories":[],"categories_nodes":[],"categories_segments":[],"categories_sizes":[],"default_left":[0,0,0,0,0,0,0],"id":40,"left_children":[1,3,5,-1,-1,-1,-1],"loss_changes":[7.28629E1,5.092336E1,3.0451653E1,0E0,0E0,0E0,0E0],"parents":[2147483647,0,0,1,1,2,2],"right_children":[2,4,6,-1,-1,-1,-1],"split_conditions":[1.4105992E0,-4.3803802E-1,-1.0395389E0,-2.3802415E-2,2.6078898E-2,3.5516653E-2,-7.274316E-2],"split_indices":[12,9,4,0,0,0,0],"split_type":[0,0,0,0,0,0,0],"sum_hessian":[2.75E2,2.25E2,5E1,7.7E1,1.48E2,7E0,4.3E1],"tree_param":{"num_deleted":"0","num_feature":"24","num_nodes":"7","size_leaf_vector":"1"}},{"base_weights":[6.700932E-2,-1.251229E0,2.2826774E-1,-3.2314282E-2,-1.0195644E-1,-2.051561E-2,2.6568994E-2],"categories":[],"categories_nodes":[],"categories_segments":[],"categories_sizes":[],"default_left":[0,0,0,0,0,0,0],"id":41,"left_children":[1,3,5,-1,-1,-1,-1],"loss_changes":[6.044492E1,1.3457817E1,4.918905E1,0E0,0E0,0E0,0E0],"parents":[2147483647,0,0,1,1,2,2],"right_children":[2,4,6,-1,-1,-1,-1],"split_conditions":[-1.4142324E0,1.3591707E0,-5.303654E-1,-3.2314282E-2,-1.0195644E-1,-2.051561E-2,2.6568994E-2],"split_indices":[10,22,9,0,0,0,0],"split_type":[0,0,0,0,0,0,0],"sum_hessian":[2.82E2,3E1,2.52E2,1.8E1,1.2E1,8.1E1,1.71E2],"tree_param":{"num_deleted":"0","num_feature":"24","num_nodes":"7","size_leaf_vector":"1"}},{"base_weights":[1.0425165E-2,-4.5731965E-1,3.8747928E-1,4.6773482E-2,-3.314036E-2,-2.1363882E-2,3.053627E-2],"categories":[],"categories_nodes":[],"categories_segments":[],"categories_sizes":[],"default_left":[0,0,0,0,0,0,0],"id":42,"left_children":[1,3,5,-1,-1,-1,-1],"loss_changes":[5.0970352E1,3.7539948E1,2.9363558E1,0E0,0E0,0E0,0E0],"parents":[2147483647,0,0,1,1,2,2],"right_children":[2,4,6,-1,-1,-1,-1],"split_conditions":[1.1680369E-1,-1.111151E0,-8.0734754E-1,4.6773482E-2,-3.314036E-2,-2.1363882E-2,3.053627E-2],"split_indices":[10,0,9,0,0,0,0],"split_type":[0,0,0,0,0,0,0],"sum_hessian":[2.87E2,1.28E2,1.59E2,1.6E1,1.12E2,3.4E1,1.25E2],"tree_param":{"num_deleted":"0","num_feature":"24","num_nodes":"7","size_leaf_vector":"1"}},{"base_weights":[9.965066E-3,3.042731E-1,-9.0432453E-1,6.407087E-3,6.0920406E-2,-8.369807E-2,9.309525E-4],"categories":[],"categories_nodes":[],"categories_segments":[],"categories_sizes":[],"default_left":[0,0,0,0,0,0,0],"id":43,"left_children":[1,3,5,-1,-1,-1,-1],"loss_changes":[7.292752E1,3.285048E1,4.691304E1,0E0,0E0,0E0,0E0],"parents":[2147483647,0,0,1,1,2,2],"right_children":[2,4,6,-1,-1,-1,-1],"split_conditions":[5.682068E-1,1.2792512E0,2.3598878E-2,6.407087E-3,6.0920406E-2,-8.369807E-2,9.309525E-4],"split_indices":[22,9,9,0,0,0,0],"split_type":[0,0,0,0,0,0,0],"sum_hessian":[2.69E2,2.04E2,6.5E1,1.72E2,3.2E1,3.5E1,3E1],"tree_param":{"num_deleted":"0","num_feature":"24","num_nodes":"7","size_leaf_vector":"1"}},{"base_weights":[4.9247425E-2,-1.411181E0,1.9755688E-1,2.4844168E-2,-8.537113E-2,2.6739456E-3,7.340087E-2],"categories":[],"categories_nodes":[],"categories_segments":[],"categories_sizes":[],"default_left":[0,0,0,0,0,0,0],"id":44,"left_children":[1,3,5,-1,-1,-1,-1],"loss_changes":[5.637698E1,1.4414349E1,4.31202E1,0E0,0E0,0E0,0E0],"parents":[2147483647,0,0,1,1,2,2],"right_children":[2,4,6,-1,-1,-1,-1],"split_conditions":[-1.5970942E0,-1.111151E0,1.7039572E0,2.4844168E-2,-8.537113E-2,2.6739456E-3,7.340087E-2],"split_indices":[10,0,9,0,0,0,0],"split_type":[0,0,0,0,0,0,0],"sum_hessian":[2.58E2,2.3E1,2.35E2,3E0,2E1,2.12E2,2.3E1],"tree_param":{"num_deleted":"0","num_feature":"24","num_nodes":"7","size_leaf_vector":"1"}},{"base_weights":[-4.7125917E-2,4.8588613E-1,-4.457212E-1,-2.8836483E-2,3.12801E-2,-4.232521E-2,1.1037389E-2],"categories":[],"categories_nodes":[],"categories_segments":[],"categories_sizes":[],"default_left":[0,0,0,0,0,0,0],"id":45,"left_children":[1,3,5,-1,-1,-1,-1],"loss_changes":[5.7579716E1,1.758266E1,4.158882E1,0E0,0E0,0E0,0E0],"parents":[2147483647,0,0,1,1,2,2],"right_children":[2,4,6,-1,-1,-1,-1],"split_conditions":[-3.5796535E-1,-1.1027951E0,1.5285721E-1,-2.8836483E-2,3.12801E-2,-4.232521E-2,1.1037389E-2],"split_indices":[22,9,9,0,0,0,0],"split_type":[0,0,0,0,0,0,0],"sum_hessian":[2.69E2,1.15E2,1.54E2,1.3E1,1.02E2,9.6E1,5.8E1],"tree_param":{"num_deleted":"0","num_feature":"24","num_nodes":"7","size_leaf_vector":"1"}},{"base_weights":[1.0172528E-2,-1.4841244E-1,1.0782666E0,3.2421347E-2,-1.8995564E-2,-7.941526E-3,5.944208E-2],"categories":[],"categories_nodes":[],"categories_segments":[],"categories_sizes":[],"default_left":[0,0,0,0,0,0,0],"id":46,"left_children":[1,3,5,-1,-1,-1,-1],"loss_changes":[4.9789444E1,4.7469997E1,5.386921E0,0E0,0E0,0E0,0E0],"parents":[2147483647,0,0,1,1,2,2],"right_children":[2,4,6,-1,-1,-1,-1],"split_conditions":[1.5931643E0,-8.666749E-1,-1.6037052E0,3.2421347E-2,-1.8995564E-2,-7.941526E-3,5.944208E-2],"split_indices":[9,22,10,0,0,0,0],"split_type":[0,0,0,0,0,0,0],"sum_hessian":[2.92E2,2.55E2,3.7E1,5.7E1,1.98E2,3E0,3.4E1],"tree_param":{"num_deleted":"0","num_feature":"24","num_nodes":"7","size_leaf_vector":"1"}},{"base_weights":[2.0058312E-2,5.826966E-1,-2.2566226E-1,-3.8507953E-3,3.2567345E-2,-3.35464E-2,1.725146E-2],"categories":[],"categories_nodes":[],"categories_segments":[],"categories_sizes":[],"default_left":[0,0,0,0,0,0,0],"id":47,"left_children":[1,3,5,-1,-1,-1,-1],"loss_changes":[3.9118504E1,3.9450493E0,5.0291023E1,0E0,0E0,0E0,0E0],"parents":[2147483647,0,0,1,1,2,2],"right_children":[2,4,6,-1,-1,-1,-1],"split_conditions":[-6.751094E-1,-1.3059154E0,2.3598878E-2,-3.8507953E-3,3.2567345E-2,-3.35464E-2,1.725146E-2],"split_indices":[22,9,9,0,0,0,0],"split_type":[0,0,0,0,0,0,0],"sum_hessian":[2.81E2,8.5E1,1.96E2,8E0,7.7E1,1.1E2,8.6E1],"tree_param":{"num_deleted":"0","num_feature":"24","num_nodes":"7","size_leaf_vector":"1"}},{"base_weights":[-5.5838986E-3,2.0563E-1,-9.474862E-1,-1.9157572E-2,2.304801E-2,-7.674553E-2,9.1048265E-3],"categories":[],"categories_nodes":[],"categories_segments":[],"categories_sizes":[],"default_left":[0,0,0,0,0,0,0],"id":48,"left_children":[1,3,5,-1,-1,-1,-1],"loss_changes":[5.430729E1,3.370102E1,3.345672E1,0E0,0E0,0E0,0E0],"parents":[2147483647,0,0,1,1,2,2],"right_children":[2,4,6,-1,-1,-1,-1],"split_conditions":[9.166572E-1,-5.672963E-1,2.0825364E-1,-1.9157572E-2,2.304801E-2,-7.674553E-2,9.1048265E-3],"split_indices":[22,9,9,0,0,0,0],"split_type":[0,0,0,0,0,0,0],"sum_hessian":[2.71E2,2.22E2,4.9E1,6.7E1,1.55E2,3.2E1,1.7E1],"tree_param":{"num_deleted":"0","num_feature":"24","num_nodes":"7","size_leaf_vector":"1"}},{"base_weights":[2.2459645E-3,2.3092481E-1,-7.2690755E-1,-2.0502119E-4,3.426808E-2,-2.1803936E-2,-7.346475E-2],"categories":[],"categories_nodes":[],"categories_segments":[],"categories_sizes":[],"default_left":[0,0,0,0,0,0,0],"id":49,"left_children":[1,3,5,-1,-1,-1,-1],"loss_changes":[4.818955E1,2.3499716E1,1.4256905E1,0E0,0E0,0E0,0E0],"parents":[2147483647,0,0,1,1,2,2],"right_children":[2,4,6,-1,-1,-1,-1],"split_conditions":[5.64909E-1,8.6717457E-1,1.7298309E0,-2.0502119E-4,3.426808E-2,-2.1803936E-2,-7.346475E-2],"split_indices":[22,16,12,0,0,0,0],"split_type":[0,0,0,0,0,0,0],"sum_hessian":[2.87E2,2.19E2,6.8E1,1.45E2,7.4E1,5E1,1.8E1],"tree_param":{"num_deleted":"0","num_feature":"24","num_nodes":"7","size_leaf_vector":"1"}}]},"name":"gbtree"},"learner_model_param":{"base_score":"[-5.183E-1]","boost_from_average":"1","num_class":"0","num_feature":"24","num_target":"1"},"objective":{"name":"reg:squarederror","reg_loss_param":{"scale_pos_weight":"1"}}},"version":[3,1,3]}