{"learner":{"attributes":{"scikit_learn":"{\"_estimator_type\": \"regressor\"}"},"feature_names":[],"feature_types":[],"gradient_booster":{"model":{"cats":{"enc":[],"feature_segments":[],"sorted_idx":[]},"gbtree_model_param":{"num_parallel_tree":"1","num_trees":"50"},"iteration_indptr":[0,1,2,3,4,5,6,7,8,9,10,11,12,13,14,15,16,17,18,19,20,21,22,23,24,25,26,27,28,29,30,31,32,33,34,35,36,37,38,39,40,41,42,43,44,45,46,47,48,49,50],"tree_info":[0,0,0,0,0,0,0,0,0,0,0,0,0,0,0,0,0,0,0,0,0,0,0,0,0,0,0,0,0,0,0,0,0,0,0,0,0,0,0,0,0,0,0,0,0,0,0,0,0,0],"trees":[{"base_weights":[2.302242E-2,-2.780202E0,1.1886057E0,8.821624E-3,-1.8235816E-1,2.0888694E-2,1.3677694E-1],"categories":[],"categories_nodes":[],"categories_segments":[],"categories_sizes":[],"default_left":[0,0,0,0,0,0,0],"id":0,"left_children":[1,3,5,-1,-1,-1,-1],"loss_changes":[9.3451105E2,2.1595966E2,2.3972705E2,0E0,0E0,0E0,0E0],"parents":[2147483647,0,0,1,1,2,2],"right_children":[2,4,6,-1,-1,-1,-1],"split_conditions":[-6.297011E-1,-9.457583E-1,1.0215101E0,8.821624E-3,-1.8235816E-1,2.0888694E-2,1.3677694E-1],"split_indices":[21,0,10,0,0,0,0],"split_type":[0,0,0,0,0,0,0],"sum_hessian":[2.84E2,8.3E1,2.01E2,1.9E1,6.4E1,1.35E2,6.6E1],"tree_param":{"num_deleted":"0","num_feature":"24","num_nodes":"7","size_leaf_vector":"1"}},{"base_weights":[1.0940234E-1,1.4967567E0,-1.9849931E0,2.638602E-2,1.2472302E-1,-3.1377766E-2,-1.7421311E-1],"categories":[],"categories_nodes":[],"categories_segments":[],"categories_sizes":[],"default_left":[0,0,0,0,0,0,0],"id":1,"left_children":[1,3,5,-1,-1,-1,-1],"loss_changes":[8.165583E2,1.620747E2,2.2575186E2,0E0,0E0,0E0,0E0],"parents":[2147483647,0,0,1,1,2,2],"right_children":[2,4,6,-1,-1,-1,-1],"split_conditions":[-7.2026365E-2,8.9718944E-1,-3.457937E-1,2.638602E-2,1.2472302E-1,-3.1377766E-2,-1.7421311E-1],"split_indices":[17,21,4,0,0,0,0],"split_type":[0,0,0,0,0,0,0],"sum_hessian":[2.79E2,1.68E2,1.11E2,8.6E1,8.2E1,5.9E1,5.2E1],"tree_param":{"num_deleted":"0","num_feature":"24","num_nodes":"7","size_leaf_vector":"1"}},{"base_weights":[2.996341E-2,1.2087536E0,-2.531201E0,2.1739272E-2,1.1644395E-1,-1.677382E-1,-2.884051E-2],"categories":[],"categories_nodes":[],"categories_segments":[],"categories_sizes":[],"default_left":[0,0,0,0,0,0,0],"id":2,"left_children":[1,3,5,-1,-1,-1,-1],"loss_changes":[8.333053E2,1.6283936E2,1.3809698E2,0E0,0E0,0E0,0E0],"parents":[2147483647,0,0,1,1,2,2],"right_children":[2,4,6,-1,-1,-1,-1],"split_conditions":[4.4742012E-1,-2.1597052E-2,4.0514883E-1,2.1739272E-2,1.1644395E-1,-1.677382E-1,-2.884051E-2],"split_indices":[12,9,9,0,0,0,0],"split_type":[0,0,0,0,0,0,0],"sum_hessian":[2.74E2,1.88E2,8.6E1,1.12E2,7.6E1,6E1,2.6E1],"tree_param":{"num_deleted":"0","num_feature":"24","num_nodes":"7","size_leaf_vector":"1"}},{"base_weights":[-3.2833442E-2,-2.1850216E0,1.2444696E0,1.7638417E-2,-1.457152E-1,3.3474162E-2,1.2468298E-1],"categories":[],"categories_nodes":[],"categories_segments":[],"categories_sizes":[],"default_left":[0,0,0,0,0,0,0],"id":3,"left_children":[1,3,5,-1,-1,-1,-1],"loss_changes":[7.9717926E2,2.0091077E2,1.2905515E2,0E0,0E0,0E0,0E0],"parents":[2147483647,0,0,1,1,2,2],"right_children":[2,4,6,-1,-1,-1,-1],"split_conditions":[-5.882316E-1,-9.457583E-1,1.0389034E0,1.7638417E-2,-1.457152E-1,3.3474162E-2,1.2468298E-1],"split_indices":[21,0,21,0,0,0,0],"split_type":[0,0,0,0,0,0,0],"sum_hessian":[2.88E2,1.07E2,1.81E2,2.4E1,8.3E1,1.25E2,5.6E1],"tree_param":{"num_deleted":"0","num_feature":"24","num_nodes":"7","size_leaf_vector":"1"}},{"base_weights":[-2.295695E-3,1.0539143E0,-2.1358168E0,9.325847E-2,9.552054E-3,-1.3836841E-2,-1.4274745E-1],"categories":[],"categories_nodes":[],"categories_segments":[],"categories_sizes":[],"default_left":[0,0,0,0,0,0,0],"id":4,"left_children":[1,3,5,-1,-1,-1,-1],"loss_changes":[6.805384E2,1.4104573E2,1.3290225E2,0E0,0E0,0E0,0E0],"parents":[2147483647,0,0,1,1,2,2],"right_children":[2,4,6,-1,-1,-1,-1],"split_conditions":[4.5476937E-1,-5.992604E-1,-1.4994782E-1,9.325847E-2,9.552054E-3,-1.3836841E-2,-1.4274745E-1],"split_indices":[12,18,19,0,0,0,0],"split_type":[0,0,0,0,0,0,0],"sum_hessian":[3E2,2.01E2,9.9E1,1.03E2,9.8E1,2.8E1,7.1E1],"tree_param":{"num_deleted":"0","num_feature":"24","num_nodes":"7","size_leaf_vector":"1"}},{"base_weights":[-2.9128894E-2,9.153358E-1,-2.0511987E0,1.4190046E-3,9.847561E-2,-1.6485548E-2,-1.4394294E-1],"categories":[],"categories_nodes":[],"categories_segments":[],"categories_sizes":[],"default_left":[0,0,0,0,0,0,0],"id":5,"left_children":[1,3,5,-1,-1,-1,-1],"loss_changes":[5.518923E2,1.8414062E2,1.3013303E2,0E0,0E0,0E0,0E0],"parents":[2147483647,0,0,1,1,2,2],"right_children":[2,4,6,-1,-1,-1,-1],"split_conditions":[4.5190525E-1,-9.581373E-2,2.7690163E-1,1.4190046E-3,9.847561E-2,-1.6485548E-2,-1.4394294E-1],"split_indices":[17,9,22,0,0,0,0],"split_type":[0,0,0,0,0,0,0],"sum_hessian":[2.87E2,1.96E2,9.1E1,1.07E2,8.9E1,3E1,6.1E1],"tree_param":{"num_deleted":"0","num_feature":"24","num_nodes":"7","size_leaf_vector":"1"}},{"base_weights":[-1.0354284E-1,9.213804E-1,-2.086867E0,1.8280402E-2,1.0089103E-1,2.6755705E-2,-1.2762015E-1],"categories":[],"categories_nodes":[],"categories_segments":[],"categories_sizes":[],"default_left":[0,0,0,0,0,0,0],"id":6,"left_children":[1,3,5,-1,-1,-1,-1],"loss_changes":[5.6093054E2,1.101678E2,1.16104614E2,0E0,0E0,0E0,0E0],"parents":[2147483647,0,0,1,1,2,2],"right_children":[2,4,6,-1,-1,-1,-1],"split_conditions":[4.6015453E-1,1.0215101E0,-7.793232E-1,1.8280402E-2,1.0089103E-1,2.6755705E-2,-1.2762015E-1],"split_indices":[17,10,19,0,0,0,0],"split_type":[0,0,0,0,0,0,0],"sum_hessian":[2.74E2,1.81E2,9.3E1,1.21E2,6E1,1.4E1,7.9E1],"tree_param":{"num_deleted":"0","num_feature":"24","num_nodes":"7","size_leaf_vector":"1"}},{"base_weights":[3.8173925E-3,-2.0589015E0,8.804539E-1,1.7822301E-2,-1.1748099E-1,1.0444466E-1,1.6755182E-2],"categories":[],"categories_nodes":[],"categories_segments":[],"categories_sizes":[],"default_left":[0,0,0,0,0,0,0],"id":7,"left_children":[1,3,5,-1,-1,-1,-1],"loss_changes":[5.153571E2,6.0523254E1,1.3110454E2,0E0,0E0,0E0,0E0],"parents":[2147483647,0,0,1,1,2,2],"right_children":[2,4,6,-1,-1,-1,-1],"split_conditions":[-6.6147363E-1,-1.100754E0,-1.0285194E0,1.7822301E-2,-1.1748099E-1,1.0444466E-1,1.6755182E-2],"split_indices":[10,0,12,0,0,0,0],"split_type":[0,0,0,0,0,0,0],"sum_hessian":[2.83E2,8.4E1,1.99E2,9E0,7.5E1,6.1E1,1.38E2],"tree_param":{"num_deleted":"0","num_feature":"24","num_nodes":"7","size_leaf_vector":"1"}},{"base_weights":[1.3094278E-1,-1.9952964E0,1.0020461E0,5.209584E-3,-1.3150646E-1,2.312593E-2,1.22610174E-1],"categories":[],"categories_nodes":[],"categories_segments":[],"categories_sizes":[],"default_left":[0,0,0,0,0,0,0],"id":8,"left_children":[1,3,5,-1,-1,-1,-1],"loss_changes":[5.2246027E2,1.0956558E2,1.5534578E2,0E0,0E0,0E0,0E0],"parents":[2147483647,0,0,1,1,2,2],"right_children":[2,4,6,-1,-1,-1,-1],"split_conditions":[-6.22768E-1,-1.9160828E-1,7.5767803E-1,5.209584E-3,-1.3150646E-1,2.312593E-2,1.22610174E-1],"split_indices":[21,19,9,0,0,0,0],"split_type":[0,0,0,0,0,0,0],"sum_hessian":[2.8E2,8.1E1,1.99E2,1.9E1,6.2E1,1.46E2,5.3E1],"tree_param":{"num_deleted":"0","num_feature":"24","num_nodes":"7","size_leaf_vector":"1"}},{"base_weights":[3.31748E-2,1.499127E0,-1.0773286E0,4.1294314E-2,9.67157E-2,-1.6679476E-1,-3.493392E-2],"categories":[],"categories_nodes":[],"categories_segments":[],"categories_sizes":[],"default_left":[0,0,0,0,0,0,0],"id":9,"left_children":[1,3,5,-1,-1,-1,-1],"loss_changes":[4.8348672E2,3.5904633E1,1.4219917E2,0E0,0E0,0E0,0E0],"parents":[2147483647,0,0,1,1,2,2],"right_children":[2,4,6,-1,-1,-1,-1],"split_conditions":[-4.581255E-1,1.0215101E0,-1.6343647E0,4.1294314E-2,9.67157E-2,-1.6679476E-1,-3.493392E-2],"split_indices":[18,10,10,0,0,0,0],"split_type":[0,0,0,0,0,0,0],"sum_hessian":[2.95E2,1.27E2,1.68E2,5.1E1,7.6E1,2.3E1,1.45E2],"tree_param":{"num_deleted":"0","num_feature":"24","num_nodes":"7","size_leaf_vector":"1"}},{"base_weights":[1.407543E-1,-1.6919706E0,7.8319836E-1,2.3252327E-2,-1.1192457E-1,1.0450396E-2,1.0121874E-1],"categories":[],"categories_nodes":[],"categories_segments":[],"categories_sizes":[],"default_left":[0,0,0,0,0,0,0],"id":10,"left_children":[1,3,5,-1,-1,-1,-1],"loss_changes":[3.6279407E2,9.534938E1,1.6206602E2,0E0,0E0,0E0,0E0],"parents":[2147483647,0,0,1,1,2,2],"right_children":[2,4,6,-1,-1,-1,-1],"split_conditions":[-6.297011E-1,-1.100754E0,4.0514883E-1,2.3252327E-2,-1.1192457E-1,1.0450396E-2,1.0121874E-1],"split_indices":[21,0,9,0,0,0,0],"split_type":[0,0,0,0,0,0,0],"sum_hessian":[3.06E2,7.9E1,2.27E2,1.6E1,6.3E1,1.56E2,7.1E1],"tree_param":{"num_deleted":"0","num_feature":"24","num_nodes":"7","size_leaf_vector":"1"}},{"base_weights":[2.5993435E-2,-1.3082919E0,1.0286179E0,-1.22324705E-1,-7.432112E-3,2.109355E-2,1.1461699E-1],"categories":[],"categories_nodes":[],"categories_segments":[],"categories_sizes":[],"default_left":[0,0,0,0,0,0,0],"id":11,"left_children":[1,3,5,-1,-1,-1,-1],"loss_changes":[3.772639E2,1.5934618E2,1.2248117E2,0E0,0E0,0E0,0E0],"parents":[2147483647,0,0,1,1,2,2],"right_children":[2,4,6,-1,-1,-1,-1],"split_conditions":[9.086174E-2,-2.1597052E-2,4.0514883E-1,-1.22324705E-1,-7.432112E-3,2.109355E-2,1.1461699E-1],"split_indices":[21,9,9,0,0,0,0],"split_type":[0,0,0,0,0,0,0],"sum_hessian":[2.8E2,1.2E2,1.6E2,6E1,6E1,1.09E2,5.1E1],"tree_param":{"num_deleted":"0","num_feature":"24","num_nodes":"7","size_leaf_vector":"1"}},{"base_weights":[-4.687727E-2,9.1167724E-1,-1.4581405E0,8.459085E-2,1.3438369E-2,-1.3737784E-1,1.644621E-3],"categories":[],"categories_nodes":[],"categories_segments":[],"categories_sizes":[],"default_left":[0,0,0,0,0,0,0],"id":12,"left_children":[1,3,5,-1,-1,-1,-1],"loss_changes":[3.6793073E2,8.079796E1,2.1157224E2,0E0,0E0,0E0,0E0],"parents":[2147483647,0,0,1,1,2,2],"right_children":[2,4,6,-1,-1,-1,-1],"split_conditions":[2.6401472E-1,-7.5051695E-1,-2.1597052E-2,8.459085E-2,1.3438369E-2,-1.3737784E-1,1.644621E-3],"split_indices":[22,12,9,0,0,0,0],"split_type":[0,0,0,0,0,0,0],"sum_hessian":[2.7E2,1.61E2,1.09E2,7.2E1,8.9E1,5.8E1,5.1E1],"tree_param":{"num_deleted":"0","num_feature":"24","num_nodes":"7","size_leaf_vector":"1"}},{"base_weights":[4.279735E-2,8.201675E-1,-1.3474785E0,7.04956E-2,6.763859E-3,2.8884692E-2,-8.768223E-2],"categories":[],"categories_nodes":[],"categories_segments":[],"categories_sizes":[],"default_left":[0,0,0,0,0,0,0],"id":13,"left_children":[1,3,5,-1,-1,-1,-1],"loss_changes":[2.9831387E2,7.130138E1,7.842508E1,0E0,0E0,0E0,0E0],"parents":[2147483647,0,0,1,1,2,2],"right_children":[2,4,6,-1,-1,-1,-1],"split_conditions":[4.522371E-1,-6.021887E-1,-7.793232E-1,7.04956E-2,6.763859E-3,2.8884692E-2,-8.768223E-2],"split_indices":[17,12,19,0,0,0,0],"split_type":[0,0,0,0,0,0,0],"sum_hessian":[2.74E2,1.76E2,9.8E1,9.4E1,8.2E1,1.7E1,8.1E1],"tree_param":{"num_deleted":"0","num_feature":"24","num_nodes":"7","size_leaf_vector":"1"}},{"base_weights":[3.2887377E-2,5.0010747E-1,-2.334399E0,-1.9539762E-3,9.778384E-2,1.5582027E-2,-1.4932264E-1],"categories":[],"categories_nodes":[],"categories_segments":[],"categories_sizes":[],"default_left":[0,0,0,0,0,0,0],"id":14,"left_children":[1,3,5,-1,-1,-1,-1],"loss_changes":[3.086476E2,1.8294044E2,8.029727E1,0E0,0E0,0E0,0E0],"parents":[2147483647,0,0,1,1,2,2],"right_children":[2,4,6,-1,-1,-1,-1],"split_conditions":[1.166067E0,6.46353E-1,-1.100754E0,-1.9539762E-3,9.778384E-2,1.5582027E-2,-1.4932264E-1],"split_indices":[17,9,0,0,0,0,0],"split_type":[0,0,0,0,0,0,0],"sum_hessian":[2.77E2,2.32E2,4.5E1,1.7E2,6.2E1,9E0,3.6E1],"tree_param":{"num_deleted":"0","num_feature":"24","num_nodes":"7","size_leaf_vector":"1"}},{"base_weights":[-1.9566804E-1,2.619689E-1,-2.740701E0,-1.1412197E-2,7.5662084E-2,-1.732429E-1,-3.2078534E-2],"categories":[],"categories_nodes":[],"categories_segments":[],"categories_sizes":[],"default_left":[0,0,0,0,0,0,0],"id":15,"left_children":[1,3,5,-1,-1,-1,-1],"loss_changes":[3.2101077E2,1.4387865E2,6.1621246E1,0E0,0E0,0E0,0E0],"parents":[2147483647,0,0,1,1,2,2],"right_children":[2,4,6,-1,-1,-1,-1],"split_conditions":[1.1881325E0,4.0514883E-1,4.0514883E-1,-1.1412197E-2,7.5662084E-2,-1.732429E-1,-3.2078534E-2],"split_indices":[17,9,9,0,0,0,0],"split_type":[0,0,0,0,0,0,0],"sum_hessian":[2.74E2,2.33E2,4.1E1,1.68E2,6.5E1,3E1,1.1E1],"tree_param":{"num_deleted":"0","num_feature":"24","num_nodes":"7","size_leaf_vector":"1"}},{"base_weights":[4.4525843E-2,-1.1148822E0,9.6241593E-1,8.243454E-3,-7.964929E-2,8.224466E-2,2.0736324E-2],"categories":[],"categories_nodes":[],"categories_segments":[],"categories_sizes":[],"default_left":[0,0,0,0,0,0,0],"id":16,"left_children":[1,3,5,-1,-1,-1,-1],"loss_changes":[2.8415265E2,7.2461365E1,5.501187E1,0E0,0E0,0E0,0E0],"parents":[2147483647,0,0,1,1,2,2],"right_children":[2,4,6,-1,-1,-1,-1],"split_conditions":[8.187309E-2,-1.8284325E-1,-5.686212E-1,8.243454E-3,-7.964929E-2,8.224466E-2,2.0736324E-2],"split_indices":[10,22,23,0,0,0,0],"split_type":[0,0,0,0,0,0,0],"sum_hessian":[2.65E2,1.17E2,1.48E2,3.2E1,8.5E1,6.5E1,8.3E1],"tree_param":{"num_deleted":"0","num_feature":"24","num_nodes":"7","size_leaf_vector":"1"}},{"base_weights":[-2.8866794E-2,9.922392E-1,-8.244262E-1,3.2601688E-2,9.77589E-2,-8.868488E-2,8.133207E-3],"categories":[],"categories_nodes":[],"categories_segments":[],"categories_sizes":[],"default_left":[0,0,0,0,0,0,0],"id":17,"left_children":[1,3,5,-1,-1,-1,-1],"loss_changes":[2.095921E2,3.574362E1,1.3615591E2,0E0,0E0,0E0,0E0],"parents":[2147483647,0,0,1,1,2,2],"right_children":[2,4,6,-1,-1,-1,-1],"split_conditions":[-4.581255E-1,2.5671548E-1,-2.1597052E-2,3.2601688E-2,9.77589E-2,-8.868488E-2,8.133207E-3],"split_indices":[18,9,9,0,0,0,0],"split_type":[0,0,0,0,0,0,0],"sum_hessian":[2.56E2,1.12E2,1.44E2,8.4E1,2.8E1,7.3E1,7.1E1],"tree_param":{"num_deleted":"0","num_feature":"24","num_nodes":"7","size_leaf_vector":"1"}},{"base_weights":[-3.631037E-2,-2.0075204E0,3.3970982E-1,-1.4817378E-1,-1.2934225E-2,-2.1320253E-3,7.569325E-2],"categories":[],"categories_nodes":[],"categories_segments":[],"categories_sizes":[],"default_left":[0,0,0,0,0,0,0],"id":18,"left_children":[1,3,5,-1,-1,-1,-1],"loss_changes":[2.082221E2,7.446477E1,1.06014046E2,0E0,0E0,0E0,0E0],"parents":[2147483647,0,0,1,1,2,2],"right_children":[2,4,6,-1,-1,-1,-1],"split_conditions":[-1.0469171E0,1.6394463E-1,6.46353E-1,-1.4817378E-1,-1.2934225E-2,-2.1320253E-3,7.569325E-2],"split_indices":[16,9,9,0,0,0,0],"split_type":[0,0,0,0,0,0,0],"sum_hessian":[2.79E2,4.4E1,2.35E2,2.8E1,1.6E1,1.78E2,5.7E1],"tree_param":{"num_deleted":"0","num_feature":"24","num_nodes":"7","size_leaf_vector":"1"}},{"base_weights":[-8.383894E-2,-1.8650336E0,4.6080312E-1,3.0683652E-2,-1.1087524E-1,3.936257E-3,7.889091E-2],"categories":[],"categories_nodes":[],"categories_segments":[],"categories_sizes":[],"default_left":[0,0,0,0,0,0,0],"id":19,"left_children":[1,3,5,-1,-1,-1,-1],"loss_changes":[2.7346133E2,5.902321E1,9.2061745E1,0E0,0E0,0E0,0E0],"parents":[2147483647,0,0,1,1,2,2],"right_children":[2,4,6,-1,-1,-1,-1],"split_conditions":[-7.8452724E-1,-7.793232E-1,7.5767803E-1,3.0683652E-2,-1.1087524E-1,3.936257E-3,7.889091E-2],"split_indices":[10,19,9,0,0,0,0],"split_type":[0,0,0,0,0,0,0],"sum_hessian":[2.8E2,6.5E1,2.15E2,8E0,5.7E1,1.61E2,5.4E1],"tree_param":{"num_deleted":"0","num_feature":"24","num_nodes":"7","size_leaf_vector":"1"}},{"base_weights":[1.2246702E-1,-7.7213836E-1,8.729211E-1,-6.4981334E-2,3.015459E-2,1.8103044E-2,8.421316E-2],"categories":[],"categories_nodes":[],"categories_segments":[],"categories_sizes":[],"default_left":[0,0,0,0,0,0,0],"id":20,"left_children":[1,3,5,-1,-1,-1,-1],"loss_changes":[1.9268304E2,9.58135E1,6.4049446E1,0E0,0E0,0E0,0E0],"parents":[2147483647,0,0,1,1,2,2],"right_children":[2,4,6,-1,-1,-1,-1],"split_conditions":[9.713715E-2,7.5767803E-1,-2.1597052E-2,-6.4981334E-2,3.015459E-2,1.8103044E-2,8.421316E-2],"split_indices":[10,9,9,0,0,0,0],"split_type":[0,0,0,0,0,0,0],"sum_hessian":[2.85E2,1.3E2,1.55E2,9.4E1,3.6E1,9.6E1,5.9E1],"tree_param":{"num_deleted":"0","num_feature":"24","num_nodes":"7","size_leaf_vector":"1"}},{"base_weights":[1.2350563E-2,6.625663E-1,-9.899301E-1,6.555202E-2,1.2544957E-2,-8.211159E-2,4.3307558E-2],"categories":[],"categories_nodes":[],"categories_segments":[],"categories_sizes":[],"default_left":[0,0,0,0,0,0,0],"id":21,"left_children":[1,3,5,-1,-1,-1,-1],"loss_changes":[1.8052472E2,4.4519585E1,1.3339142E2,0E0,0E0,0E0,0E0],"parents":[2147483647,0,0,1,1,2,2],"right_children":[2,4,6,-1,-1,-1,-1],"split_conditions":[1.06630646E-1,-1.025951E0,7.5767803E-1,6.555202E-2,1.2544957E-2,-8.211159E-2,4.3307558E-2],"split_indices":[22,12,9,0,0,0,0],"split_type":[0,0,0,0,0,0,0],"sum_hessian":[2.75E2,1.67E2,1.08E2,6.4E1,1.03E2,8E1,2.8E1],"tree_param":{"num_deleted":"0","num_feature":"24","num_nodes":"7","size_leaf_vector":"1"}},{"base_weights":[-1.1218776E-2,3.3522698E-1,-1.9164034E0,1.2386518E-3,6.199297E-2,2.3284938E-2,-1.12544775E-1],"categories":[],"categories_nodes":[],"categories_segments":[],"categories_sizes":[],"default_left":[0,0,0,0,0,0,0],"id":22,"left_children":[1,3,5,-1,-1,-1,-1],"loss_changes":[1.8017416E2,6.484488E1,3.451361E1,0E0,0E0,0E0,0E0],"parents":[2147483647,0,0,1,1,2,2],"right_children":[2,4,6,-1,-1,-1,-1],"split_conditions":[1.166067E0,1.0379596E0,-1.100754E0,1.2386518E-3,6.199297E-2,2.3284938E-2,-1.12544775E-1],"split_indices":[17,21,0,0,0,0,0],"split_type":[0,0,0,0,0,0,0],"sum_hessian":[2.71E2,2.3E2,4.1E1,1.72E2,5.8E1,5E0,3.6E1],"tree_param":{"num_deleted":"0","num_feature":"24","num_nodes":"7","size_leaf_vector":"1"}},{"base_weights":[3.9208615E-3,-8.4909487E-1,6.7677224E-1,2.5073174E-2,-6.0086418E-2,5.865208E-2,1.7706422E-2],"categories":[],"categories_nodes":[],"categories_segments":[],"categories_sizes":[],"default_left":[0,0,0,0,0,0,0],"id":23,"left_children":[1,3,5,-1,-1,-1,-1],"loss_changes":[1.6529912E2,6.108663E1,2.5363617E1,0E0,0E0,0E0,0E0],"parents":[2147483647,0,0,1,1,2,2],"right_children":[2,4,6,-1,-1,-1,-1],"split_conditions":[8.187309E-2,-4.3139902E-1,-1.0285194E0,2.5073174E-2,-6.0086418E-2,5.865208E-2,1.7706422E-2],"split_indices":[10,22,12,0,0,0,0],"split_type":[0,0,0,0,0,0,0],"sum_hessian":[2.86E2,1.26E2,1.6E2,2.6E1,1E2,6.2E1,9.8E1],"tree_param":{"num_deleted":"0","num_feature":"24","num_nodes":"7","size_leaf_vector":"1"}},{"base_weights":[2.9253392E-2,3.453157E-1,-2.1049798E0,-1.7501354E-4,6.0371973E-2,1.7531525E-2,-1.21144414E-1],"categories":[],"categories_nodes":[],"categories_segments":[],"categories_sizes":[],"default_left":[0,0,0,0,0,0,0],"id":24,"left_children":[1,3,5,-1,-1,-1,-1],"loss_changes":[1.8825197E2,7.307979E1,2.8953278E1,0E0,0E0,0E0,0E0],"parents":[2147483647,0,0,1,1,2,2],"right_children":[2,4,6,-1,-1,-1,-1],"split_conditions":[1.1921903E0,1.0215101E0,-1.0786413E0,-1.7501354E-4,6.0371973E-2,1.7531525E-2,-1.21144414E-1],"split_indices":[17,10,19,0,0,0,0],"split_type":[0,0,0,0,0,0,0],"sum_hessian":[2.77E2,2.42E2,3.5E1,1.73E2,6.9E1,4E0,3.1E1],"tree_param":{"num_deleted":"0","num_feature":"24","num_nodes":"7","size_leaf_vector":"1"}},{"base_weights":[4.1264696E-3,5.6281924E-1,-9.8854256E-1,6.154274E-2,1.2150198E-2,-1.144131E-1,-2.8070654E-3],"categories":[],"categories_nodes":[],"categories_segments":[],"categories_sizes":[],"default_left":[0,0,0,0,0,0,0],"id":25,"left_children":[1,3,5,-1,-1,-1,-1],"loss_changes":[1.5861652E2,3.879847E1,1.2469312E2,0E0,0E0,0E0,0E0],"parents":[2147483647,0,0,1,1,2,2],"right_children":[2,4,6,-1,-1,-1,-1],"split_conditions":[2.7740768E-1,-1.0285194E0,-2.6280126E-1,6.154274E-2,1.2150198E-2,-1.144131E-1,-2.8070654E-3],"split_indices":[22,12,9,0,0,0,0],"split_type":[0,0,0,0,0,0,0],"sum_hessian":[2.84E2,1.82E2,1.02E2,5.8E1,1.24E2,4.2E1,6E1],"tree_param":{"num_deleted":"0","num_feature":"24","num_nodes":"7","size_leaf_vector":"1"}},{"base_weights":[2.5519637E-2,-1.4831586E0,3.0264634E-1,-1.0518762E-1,-1.5221113E-2,3.8408544E-3,9.178623E-2],"categories":[],"categories_nodes":[],"categories_segments":[],"categories_sizes":[],"default_left":[0,0,0,0,0,0,0],"id":26,"left_children":[1,3,5,-1,-1,-1,-1],"loss_changes":[1.15843094E2,3.0814781E1,8.087305E1,0E0,0E0,0E0,0E0],"parents":[2147483647,0,0,1,1,2,2],"right_children":[2,4,6,-1,-1,-1,-1],"split_conditions":[-1.0469171E0,1.6394463E-1,1.2400864E0,-1.0518762E-1,-1.5221113E-2,3.8408544E-3,9.178623E-2],"split_indices":[16,9,9,0,0,0,0],"split_type":[0,0,0,0,0,0,0],"sum_hessian":[2.75E2,4.2E1,2.33E2,2.7E1,1.5E1,2.04E2,2.9E1],"tree_param":{"num_deleted":"0","num_feature":"24","num_nodes":"7","size_leaf_vector":"1"}},{"base_weights":[2.0811059E-2,-3.5229623E-1,1.1346618E0,1.1682018E-2,-6.8197735E-2,2.174624E-2,7.603552E-2],"categories":[],"categories_nodes":[],"categories_segments":[],"categories_sizes":[],"default_left":[0,0,0,0,0,0,0],"id":27,"left_children":[1,3,5,-1,-1,-1,-1],"loss_changes":[1.19257286E2,1.2776373E2,1.8788155E1,0E0,0E0,0E0,0E0],"parents":[2147483647,0,0,1,1,2,2],"right_children":[2,4,6,-1,-1,-1,-1],"split_conditions":[7.5767803E-1,2.7690163E-1,-6.1864626E-1,1.1682018E-2,-6.8197735E-2,2.174624E-2,7.603552E-2],"split_indices":[9,22,21,0,0,0,0],"split_type":[0,0,0,0,0,0,0],"sum_hessian":[2.85E2,2.14E2,7.1E1,1.36E2,7.8E1,2.6E1,4.5E1],"tree_param":{"num_deleted":"0","num_feature":"24","num_nodes":"7","size_leaf_vector":"1"}},{"base_weights":[-2.3056699E-2,8.325706E-1,-5.431082E-1,1.2459542E-2,7.72225E-2,-4.6830628E-2,3.2934573E-2],"categories":[],"categories_nodes":[],"categories_segments":[],"categories_sizes":[],"default_left":[0,0,0,0,0,0,0],"id":28,"left_children":[1,3,5,-1,-1,-1,-1],"loss_changes":[1.25933784E2,4.405181E1,8.3849686E1,0E0,0E0,0E0,0E0],"parents":[2147483647,0,0,1,1,2,2],"right_children":[2,4,6,-1,-1,-1,-1],"split_conditions":[-5.931977E-1,-2.2569291E-1,7.5767803E-1,1.2459542E-2,7.72225E-2,-4.6830628E-2,3.2934573E-2],"split_indices":[18,9,9,0,0,0,0],"split_type":[0,0,0,0,0,0,0],"sum_hessian":[2.81E2,1.06E2,1.75E2,5.9E1,4.7E1,1.32E2,4.3E1],"tree_param":{"num_deleted":"0","num_feature":"24","num_nodes":"7","size_leaf_vector":"1"}},{"base_weights":[-1.5283521E-3,3.8702586E-1,-8.110004E-1,-5.513322E-3,4.145306E-2,-6.989977E-2,4.138063E-3],"categories":[],"categories_nodes":[],"categories_segments":[],"categories_sizes":[],"default_left":[0,0,0,0,0,0,0],"id":29,"left_children":[1,3,5,-1,-1,-1,-1],"loss_changes":[9.30984E1,4.405557E1,5.048052E1,0E0,0E0,0E0,0E0],"parents":[2147483647,0,0,1,1,2,2],"right_children":[2,4,6,-1,-1,-1,-1],"split_conditions":[4.6015453E-1,-2.4424708E-1,1.6394463E-1,-5.513322E-3,4.145306E-2,-6.989977E-2,4.138063E-3],"split_indices":[17,9,9,0,0,0,0],"split_type":[0,0,0,0,0,0,0],"sum_hessian":[2.94E2,1.99E2,9.5E1,9.4E1,1.05E2,5.7E1,3.8E1],"tree_param":{"num_deleted":"0","num_feature":"24","num_nodes":"7","size_leaf_vector":"1"}},{"base_weights":[5.290024E-3,-5.0412154E-1,6.5022814E-1,-5.9995662E-2,9.902569E-3,1.7233471E-3,5.623758E-2],"categories":[],"categories_nodes":[],"categories_segments":[],"categories_sizes":[],"default_left":[0,0,0,0,0,0,0],"id":30,"left_children":[1,3,5,-1,-1,-1,-1],"loss_changes":[9.23187E1,7.694252E1,3.619318E1,0E0,0E0,0E0,0E0],"parents":[2147483647,0,0,1,1,2,2],"right_children":[2,4,6,-1,-1,-1,-1],"split_conditions":[3.18782E-1,-3.0428837E-3,-2.6280126E-1,-5.9995662E-2,9.902569E-3,1.7233471E-3,5.623758E-2],"split_indices":[16,9,9,0,0,0,0],"split_type":[0,0,0,0,0,0,0],"sum_hessian":[2.79E2,1.56E2,1.23E2,7.8E1,7.8E1,5.4E1,6.9E1],"tree_param":{"num_deleted":"0","num_feature":"24","num_nodes":"7","size_leaf_vector":"1"}},{"base_weights":[-1.1496613E-2,-6.93498E-1,5.165787E-1,1.656255E-2,-6.455662E-2,-7.000809E-2,3.29212E-2],"categories":[],"categories_nodes":[],"categories_segments":[],"categories_sizes":[],"default_left":[0,0,0,0,0,0,0],"id":31,"left_children":[1,3,5,-1,-1,-1,-1],"loss_changes":[9.903882E1,7.39187E1,4.3063396E1,0E0,0E0,0E0,0E0],"parents":[2147483647,0,0,1,1,2,2],"right_children":[2,4,6,-1,-1,-1,-1],"split_conditions":[-2.4424708E-1,-3.7944487E-1,-1.7176989E0,1.656255E-2,-6.455662E-2,-7.000809E-2,3.29212E-2],"split_indices":[9,19,10,0,0,0,0],"split_type":[0,0,0,0,0,0,0],"sum_hessian":[2.73E2,1.19E2,1.54E2,4.4E1,7.5E1,1E1,1.44E2],"tree_param":{"num_deleted":"0","num_feature":"24","num_nodes":"7","size_leaf_vector":"1"}},{"base_weights":[-1.5986351E-2,7.150519E-1,-4.4787267E-1,6.5486364E-2,2.8335799E-2,-1.2663461E-2,-1.02129094E-1],"categories":[],"categories_nodes":[],"categories_segments":[],"categories_sizes":[],"default_left":[0,0,0,0,0,0,0],"id":32,"left_children":[1,3,5,-1,-1,-1,-1],"loss_changes":[8.840764E1,8.431778E0,5.4101788E1,0E0,0E0,0E0,0E0],"parents":[2147483647,0,0,1,1,2,2],"right_children":[2,4,6,-1,-1,-1,-1],"split_conditions":[-6.021887E-1,-1.1783992E0,1.778926E0,6.5486364E-2,2.8335799E-2,-1.2663461E-2,-1.02129094E-1],"split_indices":[12,12,12,0,0,0,0],"split_type":[0,0,0,0,0,0,0],"sum_hessian":[2.78E2,1.03E2,1.75E2,1.9E1,8.4E1,1.57E2,1.8E1],"tree_param":{"num_deleted":"0","num_feature":"24","num_nodes":"7","size_leaf_vector":"1"}},{"base_weights":[-3.028467E-2,4.4595847E-1,-8.5763645E-1,1.3604948E-2,8.066746E-2,-6.750974E-2,2.2289747E-2],"categories":[],"categories_nodes":[],"categories_segments":[],"categories_sizes":[],"default_left":[0,0,0,0,0,0,0],"id":33,"left_children":[1,3,5,-1,-1,-1,-1],"loss_changes":[1.11102264E2,3.58912E1,6.672957E1,0E0,0E0,0E0,0E0],"parents":[2147483647,0,0,1,1,2,2],"right_children":[2,4,6,-1,-1,-1,-1],"split_conditions":[2.7740768E-1,1.6668323E0,4.0514883E-1,1.3604948E-2,8.066746E-2,-6.750974E-2,2.2289747E-2],"split_indices":[22,9,9,0,0,0,0],"split_type":[0,0,0,0,0,0,0],"sum_hessian":[2.8E2,1.78E2,1.02E2,1.56E2,2.2E1,7.4E1,2.8E1],"tree_param":{"num_deleted":"0","num_feature":"24","num_nodes":"7","size_leaf_vector":"1"}},{"base_weights":[-7.119311E-2,2.6351818E-1,-8.314153E-1,3.4992598E-2,-3.1815705E-4,-7.921724E-2,-1.3063751E-2],"categories":[],"categories_nodes":[],"categories_segments":[],"categories_sizes":[],"default_left":[0,0,0,0,0,0,0],"id":34,"left_children":[1,3,5,-1,-1,-1,-1],"loss_changes":[6.993976E1,2.2496294E1,3.5645184E1,0E0,0E0,0E0,0E0],"parents":[2147483647,0,0,1,1,2,2],"right_children":[2,4,6,-1,-1,-1,-1],"split_conditions":[4.6161646E-1,-7.146719E-1,-9.7474223E-1,3.4992598E-2,-3.1815705E-4,-7.921724E-2,-1.3063751E-2],"split_indices":[22,22,16,0,0,0,0],"split_type":[0,0,0,0,0,0,0],"sum_hessian":[2.73E2,1.9E2,8.3E1,7.2E1,1.18E2,3.5E1,4.8E1],"tree_param":{"num_deleted":"0","num_feature":"24","num_nodes":"7","size_leaf_vector":"1"}},{"base_weights":[4.3400295E-2,-5.7381535E-1,4.983256E-1,3.7694857E-3,-7.2912104E-2,1.32897515E-2,7.9252414E-2],"categories":[],"categories_nodes":[],"categories_segments":[],"categories_sizes":[],"default_left":[0,0,0,0,0,0,0],"id":35,"left_children":[1,3,5,-1,-1,-1,-1],"loss_changes":[7.806394E1,6.7862495E1,4.0010098E1,0E0,0E0,0E0,0E0],"parents":[2147483647,0,0,1,1,2,2],"right_children":[2,4,6,-1,-1,-1,-1],"split_conditions":[-2.6280126E-1,5.1517505E-2,1.6668323E0,3.7694857E-3,-7.2912104E-2,1.32897515E-2,7.9252414E-2],"split_indices":[9,22,9,0,0,0,0],"split_type":[0,0,0,0,0,0,0],"sum_hessian":[2.76E2,1.17E2,1.59E2,6.8E1,4.9E1,1.32E2,2.7E1],"tree_param":{"num_deleted":"0","num_feature":"24","num_nodes":"7","size_leaf_vector":"1"}},{"base_weights":[-2.9832926E-2,3.2342723E-1,-7.554353E-1,-1.6098687E-2,2.7430793E-2,-7.7592395E-2,-7.757117E-3],"categories":[],"categories_nodes":[],"categories_segments":[],"categories_sizes":[],"default_left":[0,0,0,0,0,0,0],"id":36,"left_children":[1,3,5,-1,-1,-1,-1],"loss_changes":[7.124674E1,2.735465E1,4.3264603E1,0E0,0E0,0E0,0E0],"parents":[2147483647,0,0,1,1,2,2],"right_children":[2,4,6,-1,-1,-1,-1],"split_conditions":[3.0113333E-1,-8.5653466E-1,-2.6280126E-1,-1.6098687E-2,2.7430793E-2,-7.7592395E-2,-7.757117E-3],"split_indices":[22,9,9,0,0,0,0],"split_type":[0,0,0,0,0,0,0],"sum_hessian":[2.76E2,1.86E2,9E1,4.8E1,1.38E2,3.8E1,5.2E1],"tree_param":{"num_deleted":"0","num_feature":"24","num_nodes":"7","size_leaf_vector":"1"}},{"base_weights":[8.8180736E-2,-1.3034223E0,2.6958123E-1,-4.2342503E-2,-1.2836416E-1,5.958453E-3,8.581022E-2],"categories":[],"categories_nodes":[],"categories_segments":[],"categories_sizes":[],"default_left":[0,0,0,0,0,0,0],"id":37,"left_children":[1,3,5,-1,-1,-1,-1],"loss_changes":[7.0024124E1,1.6291302E1,5.3104973E1,0E0,0E0,0E0,0E0],"parents":[2147483647,0,0,1,1,2,2],"right_children":[2,4,6,-1,-1,-1,-1],"split_conditions":[-1.119982E0,1.4180831E0,1.6668323E0,-4.2342503E-2,-1.2836416E-1,5.958453E-3,8.581022E-2],"split_indices":[16,19,9,0,0,0,0],"split_type":[0,0,0,0,0,0,0],"sum_hessian":[2.75E2,3.1E1,2.44E2,2.4E1,7E0,2.22E2,2.2E1],"tree_param":{"num_deleted":"0","num_feature":"24","num_nodes":"7","size_leaf_vector":"1"}},{"base_weights":[-5.3441577E-2,-9.0963084E-1,2.081978E-1,2.0599594E-2,-6.581923E-2,-2.378807E-3,5.2199014E-2],"categories":[],"categories_nodes":[],"categories_segments":[],"categories_sizes":[],"default_left":[0,0,0,0,0,0,0],"id":38,"left_children":[1,3,5,-1,-1,-1,-1],"loss_changes":[6.604916E1,3.7635033E1,4.8362E1,0E0,0E0,0E0,0E0],"parents":[2147483647,0,0,1,1,2,2],"right_children":[2,4,6,-1,-1,-1,-1],"split_conditions":[-8.5653466E-1,-9.586746E-1,1.0215101E0,2.0599594E-2,-6.581923E-2,-2.378807E-3,5.2199014E-2],"split_indices":[9,0,10,0,0,0,0],"split_type":[0,0,0,0,0,0,0],"sum_hessian":[2.93E2,6.8E1,2.25E2,1.6E1,5.2E1,1.73E2,5.2E1],"tree_param":{"num_deleted":"0","num_feature":"24","num_nodes":"7","size_leaf_vector":"1"}},{"base_weights":[-1.2566363E-2,4.1578388E-1,-5.976112E-1,1.3015724E-2,1.1104285E-1,-4.528562E-2,2.2816384E-2],"categories":[],"categories_nodes":[],"categories_segments":[],"categories_sizes":[],"default_left":[0,0,0,0,0,0,0],"id":39,"left_children":[1,3,5,-1,-1,-1,-1],"loss_changes":[6.640796E1,4.2358833E1,3.6781918E1,0E0,0E0,0E0,0E0],"parents":[2147483647,0,0,1,1,2,2],"right_children":[2,4,6,-1,-1,-1,-1],"split_conditions":[5.093835E-2,1.6668323E0,7.5767803E-1,1.3015724E-2,1.1104285E-1,-4.528562E-2,2.2816384E-2],"split_indices":[12,9,9,0,0,0,0],"split_type":[0,0,0,0,0,0,0],"sum_hessian":[2.63E2,1.52E2,1.11E2,1.41E2,1.1E1,8.6E1,2.5E1],"tree_param":{"num_deleted":"0","num_feature":"24","num_nodes":"7","size_leaf_vector":"1"}},{"base_weights":[-1.8994061E-2,-2.9143733E-1,7.4261445E-1,-2.3431783E-3,-7.355201E-2,2.5543941E-2,8.023001E-2],"categories":[],"categories_nodes":[],"categories_segments":[],"categories_sizes":[],"default_left":[0,0,0,0,0,0,0],"id":40,"left_children":[1,3,5,-1,-1,-1,-1],"loss_changes":[5.7485073E1,5.8785046E1,1.3762199E1,0E0,0E0,0E0,0E0],"parents":[2147483647,0,0,1,1,2,2],"right_children":[2,4,6,-1,-1,-1,-1],"split_conditions":[7.5767803E-1,1.0204773E0,9.6223134E-1,-2.3431783E-3,-7.355201E-2,2.5543941E-2,8.023001E-2],"split_indices":[9,11,4,0,0,0,0],"split_type":[0,0,0,0,0,0,0],"sum_hessian":[2.75E2,2.03E2,7.2E1,1.69E2,3.4E1,5.8E1,1.4E1],"tree_param":{"num_deleted":"0","num_feature":"24","num_nodes":"7","size_leaf_vector":"1"}},{"base_weights":[-3.5798352E-3,-1.6443747E-1,1.263286E0,8.169261E-3,-4.9313173E-2,3.8774062E-2,8.513116E-2],"categories":[],"categories_nodes":[],"categories_segments":[],"categories_sizes":[],"default_left":[0,0,0,0,0,0,0],"id":41,"left_children":[1,3,5,-1,-1,-1,-1],"loss_changes":[5.78789E1,6.805327E1,5.53759E0,0E0,0E0,0E0,0E0],"parents":[2147483647,0,0,1,1,2,2],"right_children":[2,4,6,-1,-1,-1,-1],"split_conditions":[1.5555073E0,4.1035104E-1,-6.744899E-2,8.169261E-3,-4.9313173E-2,3.8774062E-2,8.513116E-2],"split_indices":[9,22,0,0,0,0,0],"split_type":[0,0,0,0,0,0,0],"sum_hessian":[2.82E2,2.51E2,3.1E1,1.8E2,7.1E1,1.6E1,1.5E1],"tree_param":{"num_deleted":"0","num_feature":"24","num_nodes":"7","size_leaf_vector":"1"}},{"base_weights":[-4.2413566E-3,2.0052259E-1,-1.2083473E0,3.7101207E-3,7.4453026E-2,-8.4113024E-2,-7.0179924E-3],"categories":[],"categories_nodes":[],"categories_segments":[],"categories_sizes":[],"default_left":[0,0,0,0,0,0,0],"id":42,"left_children":[1,3,5,-1,-1,-1,-1],"loss_changes":[7.125085E1,4.0093285E1,2.1021477E1,0E0,0E0,0E0,0E0],"parents":[2147483647,0,0,1,1,2,2],"right_children":[2,4,6,-1,-1,-1,-1],"split_conditions":[1.166067E0,1.6668323E0,1.6394463E-1,3.7101207E-3,7.4453026E-2,-8.4113024E-2,-7.0179924E-3],"split_indices":[17,9,9,0,0,0,0],"split_type":[0,0,0,0,0,0,0],"sum_hessian":[2.87E2,2.46E2,4.1E1,2.25E2,2.1E1,2.8E1,1.3E1],"tree_param":{"num_deleted":"0","num_feature":"24","num_nodes":"7","size_leaf_vector":"1"}},{"base_weights":[2.711148E-2,-7.025738E-1,2.714045E-1,-1.0656705E-4,-6.625651E-2,4.237681E-2,1.894621E-6],"categories":[],"categories_nodes":[],"categories_segments":[],"categories_sizes":[],"default_left":[0,0,0,0,0,0,0],"id":43,"left_children":[1,3,5,-1,-1,-1,-1],"loss_changes":[4.8320076E1,2.964959E1,3.1737576E1,0E0,0E0,0E0,0E0],"parents":[2147483647,0,0,1,1,2,2],"right_children":[2,4,6,-1,-1,-1,-1],"split_conditions":[-6.1533046E-1,-2.3250014E-1,-5.3883785E-1,-1.0656705E-4,-6.625651E-2,4.237681E-2,1.894621E-6],"split_indices":[9,22,11,0,0,0,0],"split_type":[0,0,0,0,0,0,0],"sum_hessian":[2.69E2,6.7E1,2.02E2,3.2E1,3.5E1,6.4E1,1.38E2],"tree_param":{"num_deleted":"0","num_feature":"24","num_nodes":"7","size_leaf_vector":"1"}},{"base_weights":[4.9670584E-2,6.7562133E-1,-2.2880569E-1,9.538758E-3,5.3398896E-2,-2.8540907E-2,1.583985E-2],"categories":[],"categories_nodes":[],"categories_segments":[],"categories_sizes":[],"default_left":[0,0,0,0,0,0,0],"id":44,"left_children":[1,3,5,-1,-1,-1,-1],"loss_changes":[4.5301502E1,1.5014866E1,3.376936E1,0E0,0E0,0E0,0E0],"parents":[2147483647,0,0,1,1,2,2],"right_children":[2,4,6,-1,-1,-1,-1],"split_conditions":[-7.5299716E-1,-2.6280126E-1,1.6394463E-1,9.538758E-3,5.3398896E-2,-2.8540907E-2,1.583985E-2],"split_indices":[11,9,9,0,0,0,0],"split_type":[0,0,0,0,0,0,0],"sum_hessian":[2.58E2,7.9E1,1.79E2,3.6E1,4.3E1,1.1E2,6.9E1],"tree_param":{"num_deleted":"0","num_feature":"24","num_nodes":"7","size_leaf_vector":"1"}},{"base_weights":[-7.2571253E-3,-1.5534548E-1,1.2781975E0,-1.9363252E-3,-8.51707E-2,3.5436343E-2,9.892155E-2],"categories":[],"categories_nodes":[],"categories_segments":[],"categories_sizes":[],"default_left":[0,0,0,0,0,0,0],"id":45,"left_children":[1,3,5,-1,-1,-1,-1],"loss_changes":[5.1595993E1,4.3803837E1,9.76318E0,0E0,0E0,0E0,0E0],"parents":[2147483647,0,0,1,1,2,2],"right_children":[2,4,6,-1,-1,-1,-1],"split_conditions":[1.6668323E0,1.778926E0,1.00463085E-1,-1.9363252E-3,-8.51707E-2,3.5436343E-2,9.892155E-2],"split_indices":[9,12,0,0,0,0,0],"split_type":[0,0,0,0,0,0,0],"sum_hessian":[2.69E2,2.42E2,2.7E1,2.26E2,1.6E1,1.6E1,1.1E1],"tree_param":{"num_deleted":"0","num_feature":"24","num_nodes":"7","size_leaf_vector":"1"}},{"base_weights":[-5.3628113E-2,6.584939E-2,-1.4590532E0,-2.8634986E-2,1.3302094E-2,-3.3902738E-3,-9.2087194E-2],"categories":[],"categories_nodes":[],"categories_segments":[],"categories_sizes":[],"default_left":[0,0,0,0,0,0,0],"id":46,"left_children":[1,3,5,-1,-1,-1,-1],"loss_changes":[4.9295662E1,3.4795033E1,1.212072E1,0E0,0E0,0E0,0E0],"parents":[2147483647,0,0,1,1,2,2],"right_children":[2,4,6,-1,-1,-1,-1],"split_conditions":[1.778926E0,-8.5653466E-1,2.6131845E-1,-2.8634986E-2,1.3302094E-2,-3.3902738E-3,-9.2087194E-2],"split_indices":[12,9,19,0,0,0,0],"split_type":[0,0,0,0,0,0,0],"sum_hessian":[2.92E2,2.7E2,2.2E1,6.4E1,2.06E2,5E0,1.7E1],"tree_param":{"num_deleted":"0","num_feature":"24","num_nodes":"7","size_leaf_vector":"1"}},{"base_weights":[1.8021666E-2,-2.443451E-1,5.804524E-1,2.2646317E-2,-3.505724E-2,6.885966E-2,1.5900338E-2],"categories":[],"categories_nodes":[],"categories_segments":[],"categories_sizes":[],"default_left":[0,0,0,0,0,0,0],"id":47,"left_children":[1,3,5,-1,-1,-1,-1],"loss_changes":[4.1754635E1,6.1790638E1,1.8381147E1,0E0,0E0,0E0,0E0],"parents":[2147483647,0,0,1,1,2,2],"right_children":[2,4,6,-1,-1,-1,-1],"split_conditions":[4.0514883E-1,-4.5081052E-1,-7.1389663E-1,2.2646317E-2,-3.505724E-2,6.885966E-2,1.5900338E-2],"split_indices":[9,22,17,0,0,0,0],"split_type":[0,0,0,0,0,0,0],"sum_hessian":[2.81E2,1.92E2,8.9E1,7.6E1,1.16E2,2.1E1,6.8E1],"tree_param":{"num_deleted":"0","num_feature":"24","num_nodes":"7","size_leaf_vector":"1"}},{"base_weights":[-5.613541E-2,4.5740587E-1,-3.255027E-1,6.238541E-3,3.0568952E-2,-3.526646E-2,1.9252805E-2],"categories":[],"categories_nodes":[],"categories_segments":[],"categories_sizes":[],"default_left":[0,0,0,0,0,0,0],"id":48,"left_children":[1,3,5,-1,-1,-1,-1],"loss_changes":[3.7774982E1,4.738104E0,4.8581734E1,0E0,0E0,0E0,0E0],"parents":[2147483647,0,0,1,1,2,2],"right_children":[2,4,6,-1,-1,-1,-1],"split_conditions":[-5.866446E-1,-6.818879E-1,1.6394463E-1,6.238541E-3,3.0568952E-2,-3.526646E-2,1.9252805E-2],"split_indices":[22,15,9,0,0,0,0],"split_type":[0,0,0,0,0,0,0],"sum_hessian":[2.71E2,9.3E1,1.78E2,3E1,6.3E1,1.16E2,6.2E1],"tree_param":{"num_deleted":"0","num_feature":"24","num_nodes":"7","size_leaf_vector":"1"}},{"base_weights":[3.3975616E-2,5.384609E-1,-1.6603293E-1,2.2454968E-2,6.066913E-2,-6.4381726E-2,-3.2667618E-3],"categories":[],"categories_nodes":[],"categories_segments":[],"categories_sizes":[],"default_left":[0,0,0,0,0,0,0],"id":49,"left_children":[1,3,5,-1,-1,-1,-1],"loss_changes":[2.9148996E1,4.4006615E0,2.3295012E1,0E0,0E0,0E0,0E0],"parents":[2147483647,0,0,1,1,2,2],"right_children":[2,4,6,-1,-1,-1,-1],"split_conditions":[-7.146719E-1,-5.170795E-1,-1.6673635E0,2.2454968E-2,6.066913E-2,-6.4381726E-2,-3.2667618E-3],"split_indices":[22,19,21,0,0,0,0],"split_type":[0,0,0,0,0,0,0],"sum_hessian":[2.87E2,8.1E1,2.06E2,7.3E1,8E0,1.6E1,1.9E2],"tree_param":{"num_deleted":"0","num_feature":"24","num_nodes":"7","size_leaf_vector":"1"}}]},"name":"gbtree"},"learner_model_param":{"base_score":"[1.165E-2]","boost_from_average":"1","num_class":"0","num_feature":"24","num_target":"1"},"objective":{"name":"reg:squarederror","reg_loss_param":{"scale_pos_weight":"1"}}},"version":[3,1,3]}