{"learner":{"attributes":{"scikit_learn":"{\"_estimator_type\": \"regressor\"}"},"feature_names":[],"feature_types":[],"gradient_booster":{"model":{"cats":{"enc":[],"feature_segments":[],"sorted_idx":[]},"gbtree_model_param":{"num_parallel_tree":"1","num_trees":"50"},"iteration_indptr":[0,1,2,3,4,5,6,7,8,9,10,11,12,13,14,15,16,17,18,19,20,21,22,23,24,25,26,27,28,29,30,31,32,33,34,35,36,37,38,39,40,41,42,43,44,45,46,47,48,49,50],"tree_info":[0,0,0,0,0,0,0,0,0,0,0,0,0,0,0,0,0,0,0,0,0,0,0,0,0,0,0,0,0,0,0,0,0,0,0,0,0,0,0,0,0,0,0,0,0,0,0,0,0,0],"trees":[{"base_weights":[1.2566632E-1,2.2837648E0,-1.5746217E0,1.8599342E-1,7.7364646E-2,-1.4149418E-1,-7.499589E-3],"categories":[],"categories_nodes":[],"categories_segments":[],"categories_sizes":[],"default_left":[0,0,0,0,0,0,0],"id":0,"left_children":[1,3,5,-1,-1,-1,-1],"loss_changes":[1.049372E3,1.2750818E2,2.8570093E2,0E0,0E0,0E0,0E0],"parents":[2147483647,0,0,1,1,2,2],"right_children":[2,4,6,-1,-1,-1,-1],"split_conditions":[-3.8339815E-1,-1.0315397E0,-2.0064357E-1,1.8599342E-1,7.7364646E-2,-1.4149418E-1,-7.499589E-3],"split_indices":[22,22,10,0,0,0,0],"split_type":[0,0,0,0,0,0,0],"sum_hessian":[2.84E2,1.25E2,1.59E2,4.1E1,8.4E1,8.4E1,7.5E1],"tree_param":{"num_deleted":"0","num_feature":"24","num_nodes":"7","size_leaf_vector":"1"}},{"base_weights":[-1.2763281E-2,2.280506E0,-1.8239263E0,1.71311E-1,7.3003724E-2,-1.4756197E-1,-1.3278859E-2],"categories":[],"categories_nodes":[],"categories_segments":[],"categories_sizes":[],"default_left":[0,0,0,0,0,0,0],"id":1,"left_children":[1,3,5,-1,-1,-1,-1],"loss_changes":[1.167135E3,1.1155499E2,2.7502545E2,0E0,0E0,0E0,0E0],"parents":[2147483647,0,0,1,1,2,2],"right_children":[2,4,6,-1,-1,-1,-1],"split_conditions":[-3.3812818E-1,-9.8243433E-1,-1.8132688E-1,1.71311E-1,7.3003724E-2,-1.4756197E-1,-1.3278859E-2],"split_indices":[22,22,21,0,0,0,0],"split_type":[0,0,0,0,0,0,0],"sum_hessian":[2.79E2,1.23E2,1.56E2,5E1,7.3E1,9E1,6.6E1],"tree_param":{"num_deleted":"0","num_feature":"24","num_nodes":"7","size_leaf_vector":"1"}},{"base_weights":[5.100983E-3,1.7849257E0,-2.1137784E0,1.6977762E-1,4.849566E-2,-5.705316E-2,-1.9196545E-1],"categories":[],"categories_nodes":[],"categories_segments":[],"categories_sizes":[],"default_left":[0,0,0,0,0,0,0],"id":2,"left_children":[1,3,5,-1,-1,-1,-1],"loss_changes":[1.0408623E3,1.9360873E2,2.071037E2,0E0,0E0,0E0,0E0],"parents":[2147483647,0,0,1,1,2,2],"right_children":[2,4,6,-1,-1,-1,-1],"split_conditions":[-6.2373053E-2,-1.0167758E0,1.1891757E0,1.6977762E-1,4.849566E-2,-5.705316E-2,-1.9196545E-1],"split_indices":[22,22,22,0,0,0,0],"split_type":[0,0,0,0,0,0,0],"sum_hessian":[2.74E2,1.49E2,1.25E2,4.9E1,1E2,8.1E1,4.4E1],"tree_param":{"num_deleted":"0","num_feature":"24","num_nodes":"7","size_leaf_vector":"1"}},{"base_weights":[6.0217963E-3,-1.7426325E0,1.3494633E0,9.0203755E-2,-1.1190851E-1,1.6154434E-1,4.7754437E-2],"categories":[],"categories_nodes":[],"categories_segments":[],"categories_sizes":[],"default_left":[0,0,0,0,0,0,0],"id":3,"left_children":[1,3,5,-1,-1,-1,-1],"loss_changes":[6.8127466E2,2.2548633E2,1.1859985E2,0E0,0E0,0E0,0E0],"parents":[2147483647,0,0,1,1,2,2],"right_children":[2,4,6,-1,-1,-1,-1],"split_conditions":[9.375376E-2,-7.597543E-1,-9.6596265E-1,9.0203755E-2,-1.1190851E-1,1.6154434E-1,4.7754437E-2],"split_indices":[10,19,19,0,0,0,0],"split_type":[0,0,0,0,0,0,0],"sum_hessian":[2.88E2,1.25E2,1.63E2,1.5E1,1.1E2,2.7E1,1.36E2],"tree_param":{"num_deleted":"0","num_feature":"24","num_nodes":"7","size_leaf_vector":"1"}},{"base_weights":[9.818604E-3,1.5943701E0,-1.3779552E0,1.589477E-1,5.104043E-2,-1.2674192E-1,1.4148376E-2],"categories":[],"categories_nodes":[],"categories_segments":[],"categories_sizes":[],"default_left":[0,0,0,0,0,0,0],"id":4,"left_children":[1,3,5,-1,-1,-1,-1],"loss_changes":[6.6409576E2,1.2490369E2,3.1007767E2,0E0,0E0,0E0,0E0],"parents":[2147483647,0,0,1,1,2,2],"right_children":[2,4,6,-1,-1,-1,-1],"split_conditions":[-2.596807E-1,-9.850957E-1,9.83595E-2,1.589477E-1,5.104043E-2,-1.2674192E-1,1.4148376E-2],"split_indices":[19,19,21,0,0,0,0],"split_type":[0,0,0,0,0,0,0],"sum_hessian":[3E2,1.4E2,1.6E2,3.6E1,1.04E2,9.4E1,6.6E1],"tree_param":{"num_deleted":"0","num_feature":"24","num_nodes":"7","size_leaf_vector":"1"}},{"base_weights":[-6.550556E-2,9.2779243E-1,-2.4888458E0,9.963944E-2,-8.359111E-3,-1.670941E-1,-4.209924E-2],"categories":[],"categories_nodes":[],"categories_segments":[],"categories_sizes":[],"default_left":[0,0,0,0,0,0,0],"id":5,"left_children":[1,3,5,-1,-1,-1,-1],"loss_changes":[6.9555365E2,2.3939267E2,1.1519202E2,0E0,0E0,0E0,0E0],"parents":[2147483647,0,0,1,1,2,2],"right_children":[2,4,6,-1,-1,-1,-1],"split_conditions":[4.6570054E-1,-5.0996137E-1,6.815023E-1,9.963944E-2,-8.359111E-3,-1.670941E-1,-4.209924E-2],"split_indices":[22,22,9,0,0,0,0],"split_type":[0,0,0,0,0,0,0],"sum_hessian":[2.87E2,2.04E2,8.3E1,1.03E2,1.01E2,5.4E1,2.9E1],"tree_param":{"num_deleted":"0","num_feature":"24","num_nodes":"7","size_leaf_vector":"1"}},{"base_weights":[-1.9752473E-1,1.8501006E0,-1.359826E0,1.3975681E-1,6.1290126E-2,-1.6150748E-2,-1.2083794E-1],"categories":[],"categories_nodes":[],"categories_segments":[],"categories_sizes":[],"default_left":[0,0,0,0,0,0,0],"id":6,"left_children":[1,3,5,-1,-1,-1,-1],"loss_changes":[6.570041E2,5.5572113E1,1.920871E2,0E0,0E0,0E0,0E0],"parents":[2147483647,0,0,1,1,2,2],"right_children":[2,4,6,-1,-1,-1,-1],"split_conditions":[-4.8567364E-1,-1.0167758E0,4.7680053E-1,1.3975681E-1,6.1290126E-2,-1.6150748E-2,-1.2083794E-1],"split_indices":[22,22,22,0,0,0,0],"split_type":[0,0,0,0,0,0,0],"sum_hessian":[2.74E2,9.9E1,1.75E2,3.8E1,6.1E1,8.9E1,8.6E1],"tree_param":{"num_deleted":"0","num_feature":"24","num_nodes":"7","size_leaf_vector":"1"}},{"base_weights":[1.7066287E-2,1.3851163E0,-1.6850516E0,1.2292168E-1,3.514486E-2,-1.1812126E-1,-2.9732386E-2],"categories":[],"categories_nodes":[],"categories_segments":[],"categories_sizes":[],"default_left":[0,0,0,0,0,0,0],"id":7,"left_children":[1,3,5,-1,-1,-1,-1],"loss_changes":[6.636514E2,1.13965546E2,9.239874E1,0E0,0E0,0E0,0E0],"parents":[2147483647,0,0,1,1,2,2],"right_children":[2,4,6,-1,-1,-1,-1],"split_conditions":[-6.2373053E-2,-9.045385E-1,-6.3026994E-1,1.2292168E-1,3.514486E-2,-1.1812126E-1,-2.9732386E-2],"split_indices":[22,22,10,0,0,0,0],"split_type":[0,0,0,0,0,0,0],"sum_hessian":[2.83E2,1.57E2,1.26E2,6E1,9.7E1,7.7E1,4.9E1],"tree_param":{"num_deleted":"0","num_feature":"24","num_nodes":"7","size_leaf_vector":"1"}},{"base_weights":[7.038337E-2,1.627959E0,-1.0507405E0,1.288638E-1,5.445037E-2,-1.0730692E-2,-9.738269E-2],"categories":[],"categories_nodes":[],"categories_segments":[],"categories_sizes":[],"default_left":[0,0,0,0,0,0,0],"id":8,"left_children":[1,3,5,-1,-1,-1,-1],"loss_changes":[4.9240262E2,5.7566345E1,1.22571045E2,0E0,0E0,0E0,0E0],"parents":[2147483647,0,0,1,1,2,2],"right_children":[2,4,6,-1,-1,-1,-1],"split_conditions":[-3.8339815E-1,-1.0167758E0,4.6570054E-1,1.288638E-1,5.445037E-2,-1.0730692E-2,-9.738269E-2],"split_indices":[22,22,22,0,0,0,0],"split_type":[0,0,0,0,0,0,0],"sum_hessian":[2.8E2,1.17E2,1.63E2,4.1E1,7.6E1,8.5E1,7.8E1],"tree_param":{"num_deleted":"0","num_feature":"24","num_nodes":"7","size_leaf_vector":"1"}},{"base_weights":[8.489116E-3,1.2881595E0,-1.2288643E0,1.14594065E-1,4.9883083E-2,1.08718134E-1,-7.6915555E-2],"categories":[],"categories_nodes":[],"categories_segments":[],"categories_sizes":[],"default_left":[0,0,0,0,0,0,0],"id":9,"left_children":[1,3,5,-1,-1,-1,-1],"loss_changes":[4.7027072E2,4.0284027E1,1.6236555E2,0E0,0E0,0E0,0E0],"parents":[2147483647,0,0,1,1,2,2],"right_children":[2,4,6,-1,-1,-1,-1],"split_conditions":[-3.772353E-1,-8.9138615E-1,-1.1490887E0,1.14594065E-1,4.9883083E-2,1.08718134E-1,-7.6915555E-2],"split_indices":[18,19,0,0,0,0,0],"split_type":[0,0,0,0,0,0,0],"sum_hessian":[2.95E2,1.45E2,1.5E2,3.1E1,1.14E2,1.2E1,1.38E2],"tree_param":{"num_deleted":"0","num_feature":"24","num_nodes":"7","size_leaf_vector":"1"}},{"base_weights":[3.6467644E-3,1.482521E0,-1.0909079E0,1.3237649E-1,5.1509995E-2,-9.619854E-2,-2.838488E-3],"categories":[],"categories_nodes":[],"categories_segments":[],"categories_sizes":[],"default_left":[0,0,0,0,0,0,0],"id":10,"left_children":[1,3,5,-1,-1,-1,-1],"loss_changes":[4.985609E2,6.630405E1,1.5237663E2,0E0,0E0,0E0,0E0],"parents":[2147483647,0,0,1,1,2,2],"right_children":[2,4,6,-1,-1,-1,-1],"split_conditions":[-3.3812818E-1,-1.1312758E0,-6.3026994E-1,1.3237649E-1,5.1509995E-2,-9.619854E-2,-2.838488E-3],"split_indices":[22,22,10,0,0,0,0],"split_type":[0,0,0,0,0,0,0],"sum_hessian":[3.06E2,1.3E2,1.76E2,3.5E1,9.5E1,9.7E1,7.9E1],"tree_param":{"num_deleted":"0","num_feature":"24","num_nodes":"7","size_leaf_vector":"1"}},{"base_weights":[-8.685147E-2,9.748569E-1,-1.2588364E0,1.252672E-2,8.4789686E-2,-1.966484E-3,-9.806918E-2],"categories":[],"categories_nodes":[],"categories_segments":[],"categories_sizes":[],"default_left":[0,0,0,0,0,0,0],"id":11,"left_children":[1,3,5,-1,-1,-1,-1],"loss_changes":[3.5087726E2,7.685939E1,1.1472882E2,0E0,0E0,0E0,0E0],"parents":[2147483647,0,0,1,1,2,2],"right_children":[2,4,6,-1,-1,-1,-1],"split_conditions":[-1.7258537E-1,-7.608323E-2,-5.850842E-1,1.252672E-2,8.4789686E-2,-1.966484E-3,-9.806918E-2],"split_indices":[17,9,4,0,0,0,0],"split_type":[0,0,0,0,0,0,0],"sum_hessian":[2.8E2,1.47E2,1.33E2,7.4E1,7.3E1,4.9E1,8.4E1],"tree_param":{"num_deleted":"0","num_feature":"24","num_nodes":"7","size_leaf_vector":"1"}},{"base_weights":[5.4379508E-2,1.6297807E0,-8.6186755E-1,1.0909317E-1,5.4951545E-2,-7.2685964E-2,2.4721783E-2],"categories":[],"categories_nodes":[],"categories_segments":[],"categories_sizes":[],"default_left":[0,0,0,0,0,0,0],"id":12,"left_children":[1,3,5,-1,-1,-1,-1],"loss_changes":[3.9258145E2,2.6903809E1,1.3878839E2,0E0,0E0,0E0,0E0],"parents":[2147483647,0,0,1,1,2,2],"right_children":[2,4,6,-1,-1,-1,-1],"split_conditions":[-5.376419E-1,-9.8243433E-1,6.815023E-1,1.0909317E-1,5.4951545E-2,-7.2685964E-2,2.4721783E-2],"split_indices":[22,22,9,0,0,0,0],"split_type":[0,0,0,0,0,0,0],"sum_hessian":[2.7E2,9.9E1,1.71E2,4.7E1,5.2E1,1.19E2,5.2E1],"tree_param":{"num_deleted":"0","num_feature":"24","num_nodes":"7","size_leaf_vector":"1"}},{"base_weights":[3.945612E-2,8.507667E-1,-1.222948E0,1.0728848E-1,2.5915796E-2,-2.5036207E-3,-9.5606916E-2],"categories":[],"categories_nodes":[],"categories_segments":[],"categories_sizes":[],"default_left":[0,0,0,0,0,0,0],"id":13,"left_children":[1,3,5,-1,-1,-1,-1],"loss_changes":[2.8269595E2,7.121598E1,8.720439E1,0E0,0E0,0E0,0E0],"parents":[2147483647,0,0,1,1,2,2],"right_children":[2,4,6,-1,-1,-1,-1],"split_conditions":[7.500745E-2,-9.163366E-1,-3.970146E-1,1.0728848E-1,2.5915796E-2,-2.5036207E-3,-9.5606916E-2],"split_indices":[12,19,0,0,0,0,0],"split_type":[0,0,0,0,0,0,0],"sum_hessian":[2.74E2,1.67E2,1.07E2,3.3E1,1.34E2,4E1,6.7E1],"tree_param":{"num_deleted":"0","num_feature":"24","num_nodes":"7","size_leaf_vector":"1"}},{"base_weights":[1.61664E-2,7.3841643E-1,-1.6606779E0,8.0948494E-2,5.5889743E-3,-1.2030033E-1,-4.2045913E-3],"categories":[],"categories_nodes":[],"categories_segments":[],"categories_sizes":[],"default_left":[0,0,0,0,0,0,0],"id":14,"left_children":[1,3,5,-1,-1,-1,-1],"loss_changes":[3.379123E2,1.0741756E2,9.850394E1,0E0,0E0,0E0,0E0],"parents":[2147483647,0,0,1,1,2,2],"right_children":[2,4,6,-1,-1,-1,-1],"split_conditions":[4.7680053E-1,-7.060813E-1,6.815023E-1,8.0948494E-2,5.5889743E-3,-1.2030033E-1,-4.2045913E-3],"split_indices":[22,22,9,0,0,0,0],"split_type":[0,0,0,0,0,0,0],"sum_hessian":[2.77E2,1.94E2,8.3E1,8E1,1.14E2,5.6E1,2.7E1],"tree_param":{"num_deleted":"0","num_feature":"24","num_nodes":"7","size_leaf_vector":"1"}},{"base_weights":[-7.983288E-2,-1.0288649E0,6.9490266E-1,8.597375E-2,-6.425153E-2,-5.903799E-3,7.33852E-2],"categories":[],"categories_nodes":[],"categories_segments":[],"categories_sizes":[],"default_left":[0,0,0,0,0,0,0],"id":15,"left_children":[1,3,5,-1,-1,-1,-1],"loss_changes":[2.0290839E2,8.950931E1,9.567048E1,0E0,0E0,0E0,0E0],"parents":[2147483647,0,0,1,1,2,2],"right_children":[2,4,6,-1,-1,-1,-1],"split_conditions":[1.04608014E-1,-1.034332E0,-7.608323E-2,8.597375E-2,-6.425153E-2,-5.903799E-3,7.33852E-2],"split_indices":[21,4,9,0,0,0,0],"split_type":[0,0,0,0,0,0,0],"sum_hessian":[2.74E2,1.23E2,1.51E2,1E1,1.13E2,7.4E1,7.7E1],"tree_param":{"num_deleted":"0","num_feature":"24","num_nodes":"7","size_leaf_vector":"1"}},{"base_weights":[-2.2475969E-2,1.1098697E0,-8.922086E-1,9.3182996E-2,3.1166805E-2,5.1023215E-2,-6.045143E-2],"categories":[],"categories_nodes":[],"categories_segments":[],"categories_sizes":[],"default_left":[0,0,0,0,0,0,0],"id":16,"left_children":[1,3,5,-1,-1,-1,-1],"loss_changes":[2.6295712E2,4.138066E1,9.273571E1,0E0,0E0,0E0,0E0],"parents":[2147483647,0,0,1,1,2,2],"right_children":[2,4,6,-1,-1,-1,-1],"split_conditions":[-3.8339815E-1,-9.8243433E-1,-9.974325E-1,9.3182996E-2,3.1166805E-2,5.1023215E-2,-6.045143E-2],"split_indices":[22,22,11,0,0,0,0],"split_type":[0,0,0,0,0,0,0],"sum_hessian":[2.65E2,1.15E2,1.5E2,4.4E1,7.1E1,2.1E1,1.29E2],"tree_param":{"num_deleted":"0","num_feature":"24","num_nodes":"7","size_leaf_vector":"1"}},{"base_weights":[-4.6071287E-2,8.522589E-1,-9.4404435E-1,1.5446904E-2,9.2979625E-2,-3.5091914E-2,-1.6235337E-1],"categories":[],"categories_nodes":[],"categories_segments":[],"categories_sizes":[],"default_left":[0,0,0,0,0,0,0],"id":17,"left_children":[1,3,5,-1,-1,-1,-1],"loss_changes":[2.0812038E2,7.002787E1,6.967808E1,0E0,0E0,0E0,0E0],"parents":[2147483647,0,0,1,1,2,2],"right_children":[2,4,6,-1,-1,-1,-1],"split_conditions":[-3.2567212E-1,5.018102E-2,2.2555335E0,1.5446904E-2,9.2979625E-2,-3.5091914E-2,-1.6235337E-1],"split_indices":[18,9,19,0,0,0,0],"split_type":[0,0,0,0,0,0,0],"sum_hessian":[2.56E2,1.28E2,1.28E2,8.4E1,4.4E1,1.17E2,1.1E1],"tree_param":{"num_deleted":"0","num_feature":"24","num_nodes":"7","size_leaf_vector":"1"}},{"base_weights":[2.3505054E-2,8.1498337E-1,-8.829472E-1,4.4098175E-3,7.5143486E-2,1.7516574E-2,-6.509049E-2],"categories":[],"categories_nodes":[],"categories_segments":[],"categories_sizes":[],"default_left":[0,0,0,0,0,0,0],"id":18,"left_children":[1,3,5,-1,-1,-1,-1],"loss_changes":[2.0160205E2,7.48595E1,6.81273E1,0E0,0E0,0E0,0E0],"parents":[2147483647,0,0,1,1,2,2],"right_children":[2,4,6,-1,-1,-1,-1],"split_conditions":[-9.083213E-2,-7.608323E-2,-7.594398E-1,4.4098175E-3,7.5143486E-2,1.7516574E-2,-6.509049E-2],"split_indices":[12,9,4,0,0,0,0],"split_type":[0,0,0,0,0,0,0],"sum_hessian":[2.79E2,1.49E2,1.3E2,7.3E1,7.6E1,3.3E1,9.7E1],"tree_param":{"num_deleted":"0","num_feature":"24","num_nodes":"7","size_leaf_vector":"1"}},{"base_weights":[2.6783736E-2,1.1073111E0,-7.7377224E-1,9.633296E-2,3.666128E-2,-7.620581E-2,9.266296E-3],"categories":[],"categories_nodes":[],"categories_segments":[],"categories_sizes":[],"default_left":[0,0,0,0,0,0,0],"id":19,"left_children":[1,3,5,-1,-1,-1,-1],"loss_changes":[2.4392818E2,3.5368073E1,1.168663E2,0E0,0E0,0E0,0E0],"parents":[2147483647,0,0,1,1,2,2],"right_children":[2,4,6,-1,-1,-1,-1],"split_conditions":[-3.8339815E-1,-1.1490887E0,5.018102E-2,9.633296E-2,3.666128E-2,-7.620581E-2,9.266296E-3],"split_indices":[22,0,9,0,0,0,0],"split_type":[0,0,0,0,0,0,0],"sum_hessian":[2.8E2,1.19E2,1.61E2,3.6E1,8.3E1,9E1,7.1E1],"tree_param":{"num_deleted":"0","num_feature":"24","num_nodes":"7","size_leaf_vector":"1"}},{"base_weights":[6.9610246E-2,4.7962084E-1,-1.8290586E0,6.1106857E-2,-3.2931347E-3,-1.4515653E-1,-3.4231912E-2],"categories":[],"categories_nodes":[],"categories_segments":[],"categories_sizes":[],"default_left":[0,0,0,0,0,0,0],"id":20,"left_children":[1,3,5,-1,-1,-1,-1],"loss_changes":[2.2352092E2,9.566766E1,6.070108E1,0E0,0E0,0E0,0E0],"parents":[2147483647,0,0,1,1,2,2],"right_children":[2,4,6,-1,-1,-1,-1],"split_conditions":[8.624187E-1,-6.440054E-1,5.018102E-2,6.1106857E-2,-3.2931347E-3,-1.4515653E-1,-3.4231912E-2],"split_indices":[22,22,9,0,0,0,0],"split_type":[0,0,0,0,0,0,0],"sum_hessian":[2.85E2,2.35E2,5E1,9.9E1,1.36E2,2.5E1,2.5E1],"tree_param":{"num_deleted":"0","num_feature":"24","num_nodes":"7","size_leaf_vector":"1"}},{"base_weights":[5.618581E-2,1.0509872E0,-6.9341904E-1,4.224276E-2,1.1190411E-1,-6.445923E-2,2.2286354E-2],"categories":[],"categories_nodes":[],"categories_segments":[],"categories_sizes":[],"default_left":[0,0,0,0,0,0,0],"id":21,"left_children":[1,3,5,-1,-1,-1,-1],"loss_changes":[2.0654419E2,2.7228226E1,1.0780353E2,0E0,0E0,0E0,0E0],"parents":[2147483647,0,0,1,1,2,2],"right_children":[2,4,6,-1,-1,-1,-1],"split_conditions":[-3.8339815E-1,8.979553E-1,6.815023E-1,4.224276E-2,1.1190411E-1,-6.445923E-2,2.2286354E-2],"split_indices":[22,9,9,0,0,0,0],"split_type":[0,0,0,0,0,0,0],"sum_hessian":[2.75E2,1.18E2,1.57E2,1.02E2,1.6E1,1.03E2,5.4E1],"tree_param":{"num_deleted":"0","num_feature":"24","num_nodes":"7","size_leaf_vector":"1"}},{"base_weights":[4.146865E-2,5.502154E-1,-1.4632533E0,8.357441E-2,1.1570933E-2,-4.497304E-2,-1.20977476E-1],"categories":[],"categories_nodes":[],"categories_segments":[],"categories_sizes":[],"default_left":[0,0,0,0,0,0,0],"id":22,"left_children":[1,3,5,-1,-1,-1,-1],"loss_changes":[2.0902722E2,7.253463E1,3.5025223E1,0E0,0E0,0E0,0E0],"parents":[2147483647,0,0,1,1,2,2],"right_children":[2,4,6,-1,-1,-1,-1],"split_conditions":[4.7680053E-1,-9.8243433E-1,1.2230097E0,8.357441E-2,1.1570933E-2,-4.497304E-2,-1.20977476E-1],"split_indices":[22,22,17,0,0,0,0],"split_type":[0,0,0,0,0,0,0],"sum_hessian":[2.71E2,2.03E2,6.8E1,4.4E1,1.59E2,4.4E1,2.4E1],"tree_param":{"num_deleted":"0","num_feature":"24","num_nodes":"7","size_leaf_vector":"1"}},{"base_weights":[-7.4261175E-3,5.9729797E-1,-9.040219E-1,8.057553E-2,2.1097122E-2,-1.1640257E-1,-2.1223325E-2],"categories":[],"categories_nodes":[],"categories_segments":[],"categories_sizes":[],"default_left":[0,0,0,0,0,0,0],"id":23,"left_children":[1,3,5,-1,-1,-1,-1],"loss_changes":[1.5614938E2,2.9909855E1,7.8228325E1,0E0,0E0,0E0,0E0],"parents":[2147483647,0,0,1,1,2,2],"right_children":[2,4,6,-1,-1,-1,-1],"split_conditions":[5.3026825E-2,-1.1490887E0,-1.1518373E0,8.057553E-2,2.1097122E-2,-1.1640257E-1,-2.1223325E-2],"split_indices":[22,0,16,0,0,0,0],"split_type":[0,0,0,0,0,0,0],"sum_hessian":[2.86E2,1.71E2,1.15E2,2.4E1,1.47E2,2.8E1,8.7E1],"tree_param":{"num_deleted":"0","num_feature":"24","num_nodes":"7","size_leaf_vector":"1"}},{"base_weights":[2.6216736E-2,-9.142312E-1,4.9629974E-1,-2.6404087E-2,-1.0682186E-1,7.080952E-2,1.172875E-2],"categories":[],"categories_nodes":[],"categories_segments":[],"categories_sizes":[],"default_left":[0,0,0,0,0,0,0],"id":24,"left_children":[1,3,5,-1,-1,-1,-1],"loss_changes":[1.2335437E2,4.2763535E1,4.4448822E1,0E0,0E0,0E0,0E0],"parents":[2147483647,0,0,1,1,2,2],"right_children":[2,4,6,-1,-1,-1,-1],"split_conditions":[-6.3104475E-1,1.2463533E0,-8.625257E-1,-2.6404087E-2,-1.0682186E-1,7.080952E-2,1.172875E-2],"split_indices":[10,17,19,0,0,0,0],"split_type":[0,0,0,0,0,0,0],"sum_hessian":[2.77E2,9.2E1,1.85E2,7.1E1,2.1E1,4E1,1.45E2],"tree_param":{"num_deleted":"0","num_feature":"24","num_nodes":"7","size_leaf_vector":"1"}},{"base_weights":[5.496637E-2,4.9421087E-1,-1.0767753E0,5.052458E-3,6.2831216E-2,-9.438317E-2,1.6881365E-2],"categories":[],"categories_nodes":[],"categories_segments":[],"categories_sizes":[],"default_left":[0,0,0,0,0,0,0],"id":25,"left_children":[1,3,5,-1,-1,-1,-1],"loss_changes":[1.4220888E2,6.162188E1,9.239113E1,0E0,0E0,0E0,0E0],"parents":[2147483647,0,0,1,1,2,2],"right_children":[2,4,6,-1,-1,-1,-1],"split_conditions":[4.7680053E-1,5.018102E-2,6.815023E-1,5.052458E-3,6.2831216E-2,-9.438317E-2,1.6881365E-2],"split_indices":[22,9,9,0,0,0,0],"split_type":[0,0,0,0,0,0,0],"sum_hessian":[2.84E2,2.05E2,7.9E1,1.36E2,6.9E1,5E1,2.9E1],"tree_param":{"num_deleted":"0","num_feature":"24","num_nodes":"7","size_leaf_vector":"1"}},{"base_weights":[2.65005E-2,-4.477651E-1,8.9249074E-1,6.646204E-2,-3.212231E-2,2.0577513E-2,7.7553876E-2],"categories":[],"categories_nodes":[],"categories_segments":[],"categories_sizes":[],"default_left":[0,0,0,0,0,0,0],"id":26,"left_children":[1,3,5,-1,-1,-1,-1],"loss_changes":[1.13755424E2,6.277893E1,3.0402267E1,0E0,0E0,0E0,0E0],"parents":[2147483647,0,0,1,1,2,2],"right_children":[2,4,6,-1,-1,-1,-1],"split_conditions":[7.697421E-1,-1.0766946E0,-3.9322297E-3,6.646204E-2,-3.212231E-2,2.0577513E-2,7.7553876E-2],"split_indices":[16,19,9,0,0,0,0],"split_type":[0,0,0,0,0,0,0],"sum_hessian":[2.75E2,1.78E2,9.7E1,1.7E1,1.61E2,5.7E1,4E1],"tree_param":{"num_deleted":"0","num_feature":"24","num_nodes":"7","size_leaf_vector":"1"}},{"base_weights":[-5.521631E-3,4.308653E-1,-1.1346037E0,1.0835963E-2,9.2523955E-2,-8.678352E-2,5.477585E-3],"categories":[],"categories_nodes":[],"categories_segments":[],"categories_sizes":[],"default_left":[0,0,0,0,0,0,0],"id":27,"left_children":[1,3,5,-1,-1,-1,-1],"loss_changes":[1.4140584E2,6.2527924E1,6.001577E1,0E0,0E0,0E0,0E0],"parents":[2147483647,0,0,1,1,2,2],"right_children":[2,4,6,-1,-1,-1,-1],"split_conditions":[4.7680053E-1,1.4571255E0,6.815023E-1,1.0835963E-2,9.2523955E-2,-8.678352E-2,5.477585E-3],"split_indices":[22,9,9,0,0,0,0],"split_type":[0,0,0,0,0,0,0],"sum_hessian":[2.85E2,2.06E2,7.9E1,1.8E2,2.6E1,5.3E1,2.6E1],"tree_param":{"num_deleted":"0","num_feature":"24","num_nodes":"7","size_leaf_vector":"1"}},{"base_weights":[4.6368644E-2,2.6705888E-1,-1.7491251E0,-4.879884E-3,5.9002787E-2,-4.946319E-2,-1.3625717E-1],"categories":[],"categories_nodes":[],"categories_segments":[],"categories_sizes":[],"default_left":[0,0,0,0,0,0,0],"id":28,"left_children":[1,3,5,-1,-1,-1,-1],"loss_changes":[1.1220902E2,8.401361E1,2.0294914E1,0E0,0E0,0E0,0E0],"parents":[2147483647,0,0,1,1,2,2],"right_children":[2,4,6,-1,-1,-1,-1],"split_conditions":[1.2233081E0,6.815023E-1,1.09448574E-1,-4.879884E-3,5.9002787E-2,-4.946319E-2,-1.3625717E-1],"split_indices":[17,9,4,0,0,0,0],"split_type":[0,0,0,0,0,0,0],"sum_hessian":[2.81E2,2.51E2,3E1,1.8E2,7.1E1,1.8E1,1.2E1],"tree_param":{"num_deleted":"0","num_feature":"24","num_nodes":"7","size_leaf_vector":"1"}},{"base_weights":[-8.300032E-2,4.0853915E-1,-1.1221206E0,5.5475116E-2,2.0904925E-3,-9.651117E-2,-1.6205069E-2],"categories":[],"categories_nodes":[],"categories_segments":[],"categories_sizes":[],"default_left":[0,0,0,0,0,0,0],"id":29,"left_children":[1,3,5,-1,-1,-1,-1],"loss_changes":[1.5113518E2,5.162342E1,6.0638153E1,0E0,0E0,0E0,0E0],"parents":[2147483647,0,0,1,1,2,2],"right_children":[2,4,6,-1,-1,-1,-1],"split_conditions":[3.3364505E-1,-7.834791E-1,-7.608323E-2,5.5475116E-2,2.0904925E-3,-9.651117E-2,-1.6205069E-2],"split_indices":[22,22,9,0,0,0,0],"split_type":[0,0,0,0,0,0,0],"sum_hessian":[2.94E2,2E2,9.4E1,6.8E1,1.32E2,4.6E1,4.8E1],"tree_param":{"num_deleted":"0","num_feature":"24","num_nodes":"7","size_leaf_vector":"1"}},{"base_weights":[-4.641438E-2,-8.377825E-1,4.4049826E-1,5.53878E-3,-6.5021284E-2,1.1030189E-2,9.37281E-2],"categories":[],"categories_nodes":[],"categories_segments":[],"categories_sizes":[],"default_left":[0,0,0,0,0,0,0],"id":30,"left_children":[1,3,5,-1,-1,-1,-1],"loss_changes":[1.0826064E2,4.7100357E1,5.4456104E1,0E0,0E0,0E0,0E0],"parents":[2147483647,0,0,1,1,2,2],"right_children":[2,4,6,-1,-1,-1,-1],"split_conditions":[-6.3026994E-1,-5.581733E-1,1.4571255E0,5.53878E-3,-6.5021284E-2,1.1030189E-2,9.37281E-2],"split_indices":[10,0,9,0,0,0,0],"split_type":[0,0,0,0,0,0,0],"sum_hessian":[2.79E2,1.06E2,1.73E2,3.5E1,7.1E1,1.51E2,2.2E1],"tree_param":{"num_deleted":"0","num_feature":"24","num_nodes":"7","size_leaf_vector":"1"}},{"base_weights":[6.759985E-3,3.7254688E-1,-9.0084755E-1,-4.493374E-3,5.5192865E-2,3.7709966E-2,-5.8983345E-2],"categories":[],"categories_nodes":[],"categories_segments":[],"categories_sizes":[],"default_left":[0,0,0,0,0,0,0],"id":31,"left_children":[1,3,5,-1,-1,-1,-1],"loss_changes":[9.1301125E1,6.638022E1,3.734497E1,0E0,0E0,0E0,0E0],"parents":[2147483647,0,0,1,1,2,2],"right_children":[2,4,6,-1,-1,-1,-1],"split_conditions":[5.0769335E-1,5.018102E-2,-1.0013598E0,-4.493374E-3,5.5192865E-2,3.7709966E-2,-5.8983345E-2],"split_indices":[18,9,0,0,0,0,0],"split_type":[0,0,0,0,0,0,0],"sum_hessian":[2.73E2,1.95E2,7.8E1,1.2E2,7.5E1,1.1E1,6.7E1],"tree_param":{"num_deleted":"0","num_feature":"24","num_nodes":"7","size_leaf_vector":"1"}},{"base_weights":[-1.2132204E-1,2.816071E-1,-6.346436E-1,6.497942E-2,5.743151E-3,-8.6632565E-2,-2.2110114E-2],"categories":[],"categories_nodes":[],"categories_segments":[],"categories_sizes":[],"default_left":[0,0,0,0,0,0,0],"id":32,"left_children":[1,3,5,-1,-1,-1,-1],"loss_changes":[5.7884907E1,2.6500275E1,2.5223965E1,0E0,0E0,0E0,0E0],"parents":[2147483647,0,0,1,1,2,2],"right_children":[2,4,6,-1,-1,-1,-1],"split_conditions":[-3.3273385E-3,-1.1490887E0,-1.6623422E0,6.497942E-2,5.743151E-3,-8.6632565E-2,-2.2110114E-2],"split_indices":[19,0,10,0,0,0,0],"split_type":[0,0,0,0,0,0,0],"sum_hessian":[2.78E2,1.56E2,1.22E2,2.1E1,1.35E2,1.7E1,1.05E2],"tree_param":{"num_deleted":"0","num_feature":"24","num_nodes":"7","size_leaf_vector":"1"}},{"base_weights":[-8.7313585E-2,4.3915904E-1,-6.59937E-1,1.6403788E-3,4.368324E-2,-5.6390997E-2,2.8203761E-2],"categories":[],"categories_nodes":[],"categories_segments":[],"categories_sizes":[],"default_left":[0,0,0,0,0,0,0],"id":33,"left_children":[1,3,5,-1,-1,-1,-1],"loss_changes":[8.500304E1,2.5925955E1,7.7949936E1,0E0,0E0,0E0,0E0],"parents":[2147483647,0,0,1,1,2,2],"right_children":[2,4,6,-1,-1,-1,-1],"split_conditions":[-5.4662727E-2,-7.608323E-2,6.815023E-1,1.6403788E-3,4.368324E-2,-5.6390997E-2,2.8203761E-2],"split_indices":[22,9,9,0,0,0,0],"split_type":[0,0,0,0,0,0,0],"sum_hessian":[2.8E2,1.46E2,1.34E2,7.6E1,7E1,9.7E1,3.7E1],"tree_param":{"num_deleted":"0","num_feature":"24","num_nodes":"7","size_leaf_vector":"1"}},{"base_weights":[4.3805614E-2,3.070552E-1,-1.3775365E0,4.9571108E-2,-3.553149E-4,-4.7492046E-2,-1.3469742E-1],"categories":[],"categories_nodes":[],"categories_segments":[],"categories_sizes":[],"default_left":[0,0,0,0,0,0,0],"id":34,"left_children":[1,3,5,-1,-1,-1,-1],"loss_changes":[1.0294495E2,4.988746E1,2.1651192E1,0E0,0E0,0E0,0E0],"parents":[2147483647,0,0,1,1,2,2],"right_children":[2,4,6,-1,-1,-1,-1],"split_conditions":[1.1891757E0,-7.834791E-1,2.2990923E0,4.9571108E-2,-3.553149E-4,-4.7492046E-2,-1.3469742E-1],"split_indices":[22,22,22,0,0,0,0],"split_type":[0,0,0,0,0,0,0],"sum_hessian":[2.73E2,2.31E2,4.2E1,7.2E1,1.59E2,3.3E1,9E0],"tree_param":{"num_deleted":"0","num_feature":"24","num_nodes":"7","size_leaf_vector":"1"}},{"base_weights":[-5.1703653E-3,6.517943E-1,-5.040981E-1,2.0940734E-2,6.1438885E-2,-6.414935E-2,3.4307726E-3],"categories":[],"categories_nodes":[],"categories_segments":[],"categories_sizes":[],"default_left":[0,0,0,0,0,0,0],"id":35,"left_children":[1,3,5,-1,-1,-1,-1],"loss_changes":[9.112304E1,1.5616417E1,7.056871E1,0E0,0E0,0E0,0E0],"parents":[2147483647,0,0,1,1,2,2],"right_children":[2,4,6,-1,-1,-1,-1],"split_conditions":[-3.8339815E-1,6.815023E-1,-2.744985E-1,2.0940734E-2,6.1438885E-2,-6.414935E-2,3.4307726E-3],"split_indices":[22,9,9,0,0,0,0],"split_type":[0,0,0,0,0,0,0],"sum_hessian":[2.76E2,1.19E2,1.57E2,8.6E1,3.3E1,6.6E1,9.1E1],"tree_param":{"num_deleted":"0","num_feature":"24","num_nodes":"7","size_leaf_vector":"1"}},{"base_weights":[-3.209833E-2,2.9244125E-1,-9.1009086E-1,-5.760123E-3,3.7854023E-2,-7.726693E-2,7.5415573E-3],"categories":[],"categories_nodes":[],"categories_segments":[],"categories_sizes":[],"default_left":[0,0,0,0,0,0,0],"id":36,"left_children":[1,3,5,-1,-1,-1,-1],"loss_changes":[7.919546E1,3.8536892E1,5.0779213E1,0E0,0E0,0E0,0E0],"parents":[2147483647,0,0,1,1,2,2],"right_children":[2,4,6,-1,-1,-1,-1],"split_conditions":[4.7680053E-1,-7.608323E-2,5.732758E-1,-5.760123E-3,3.7854023E-2,-7.726693E-2,7.5415573E-3],"split_indices":[22,9,9,0,0,0,0],"split_type":[0,0,0,0,0,0,0],"sum_hessian":[2.76E2,2.02E2,7.4E1,1.08E2,9.4E1,4.6E1,2.8E1],"tree_param":{"num_deleted":"0","num_feature":"24","num_nodes":"7","size_leaf_vector":"1"}},{"base_weights":[6.792643E-2,7.7065957E-1,-2.1779223E-1,5.895991E-2,2.576159E-2,-3.1170338E-2,3.2741938E-2],"categories":[],"categories_nodes":[],"categories_segments":[],"categories_sizes":[],"default_left":[0,0,0,0,0,0,0],"id":37,"left_children":[1,3,5,-1,-1,-1,-1],"loss_changes":[5.5584217E1,7.740608E0,7.0136734E1,0E0,0E0,0E0,0E0],"parents":[2147483647,0,0,1,1,2,2],"right_children":[2,4,6,-1,-1,-1,-1],"split_conditions":[-6.7079765E-1,-1.1490887E0,5.732758E-1,5.895991E-2,2.576159E-2,-3.1170338E-2,3.2741938E-2],"split_indices":[19,0,9,0,0,0,0],"split_type":[0,0,0,0,0,0,0],"sum_hessian":[2.75E2,7.9E1,1.96E2,2.9E1,5E1,1.34E2,6.2E1],"tree_param":{"num_deleted":"0","num_feature":"24","num_nodes":"7","size_leaf_vector":"1"}},{"base_weights":[-2.963298E-2,-4.6993855E-1,4.3228212E-1,5.5265572E-2,-3.8081326E-2,3.789777E-2,-1.5052125E-2],"categories":[],"categories_nodes":[],"categories_segments":[],"categories_sizes":[],"default_left":[0,0,0,0,0,0,0],"id":38,"left_children":[1,3,5,-1,-1,-1,-1],"loss_changes":[5.999798E1,7.022354E1,3.4618866E1,0E0,0E0,0E0,0E0],"parents":[2147483647,0,0,1,1,2,2],"right_children":[2,4,6,-1,-1,-1,-1],"split_conditions":[-7.608323E-2,-1.1356589E0,6.8070996E-1,5.5265572E-2,-3.8081326E-2,3.789777E-2,-1.5052125E-2],"split_indices":[9,0,17,0,0,0,0],"split_type":[0,0,0,0,0,0,0],"sum_hessian":[2.93E2,1.5E2,1.43E2,2.3E1,1.27E2,9.9E1,4.4E1],"tree_param":{"num_deleted":"0","num_feature":"24","num_nodes":"7","size_leaf_vector":"1"}},{"base_weights":[5.9283925E-3,-2.9426527E-1,7.806725E-1,2.4872594E-2,-3.7305858E-2,-2.3065202E-2,5.2645918E-2],"categories":[],"categories_nodes":[],"categories_segments":[],"categories_sizes":[],"default_left":[0,0,0,0,0,0,0],"id":39,"left_children":[1,3,5,-1,-1,-1,-1],"loss_changes":[6.1629066E1,6.8699295E1,2.550681E1,0E0,0E0,0E0,0E0],"parents":[2147483647,0,0,1,1,2,2],"right_children":[2,4,6,-1,-1,-1,-1],"split_conditions":[6.815023E-1,-6.440054E-1,-1.2438105E0,2.4872594E-2,-3.7305858E-2,-2.3065202E-2,5.2645918E-2],"split_indices":[9,22,10,0,0,0,0],"split_type":[0,0,0,0,0,0,0],"sum_hessian":[2.63E2,1.9E2,7.3E1,6.9E1,1.21E2,1.3E1,6E1],"tree_param":{"num_deleted":"0","num_feature":"24","num_nodes":"7","size_leaf_vector":"1"}},{"base_weights":[-7.838694E-2,-3.2747656E-1,6.73628E-1,2.9195515E-2,-3.5045154E-2,5.099556E-2,-3.1641137E-3],"categories":[],"categories_nodes":[],"categories_segments":[],"categories_sizes":[],"default_left":[0,0,0,0,0,0,0],"id":40,"left_children":[1,3,5,-1,-1,-1,-1],"loss_changes":[5.1920677E1,7.119916E1,1.7671932E1,0E0,0E0,0E0,0E0],"parents":[2147483647,0,0,1,1,2,2],"right_children":[2,4,6,-1,-1,-1,-1],"split_conditions":[6.815023E-1,-6.798247E-1,7.8105634E-1,2.9195515E-2,-3.5045154E-2,5.099556E-2,-3.1641137E-3],"split_indices":[9,19,12,0,0,0,0],"split_type":[0,0,0,0,0,0,0],"sum_hessian":[2.75E2,2.07E2,6.8E1,6E1,1.47E2,4.6E1,2.2E1],"tree_param":{"num_deleted":"0","num_feature":"24","num_nodes":"7","size_leaf_vector":"1"}},{"base_weights":[1.1399134E-2,5.932981E-1,-2.8115007E-1,5.1870503E-2,1.6437681E-2,-3.1194089E-2,2.5185367E-2],"categories":[],"categories_nodes":[],"categories_segments":[],"categories_sizes":[],"default_left":[0,0,0,0,0,0,0],"id":41,"left_children":[1,3,5,-1,-1,-1,-1],"loss_changes":[4.8343052E1,1.0820244E1,5.1154404E1,0E0,0E0,0E0,0E0],"parents":[2147483647,0,0,1,1,2,2],"right_children":[2,4,6,-1,-1,-1,-1],"split_conditions":[-6.440054E-1,-1.1490887E0,6.815023E-1,5.1870503E-2,1.6437681E-2,-3.1194089E-2,2.5185367E-2],"split_indices":[22,0,9,0,0,0,0],"split_type":[0,0,0,0,0,0,0],"sum_hessian":[2.82E2,9.4E1,1.88E2,3.4E1,6E1,1.31E2,5.7E1],"tree_param":{"num_deleted":"0","num_feature":"24","num_nodes":"7","size_leaf_vector":"1"}},{"base_weights":[1.4492664E-2,-4.10466E-1,4.19254E-1,5.2494973E-2,-3.0957216E-2,3.5790484E-2,-1.6077021E-2],"categories":[],"categories_nodes":[],"categories_segments":[],"categories_sizes":[],"default_left":[0,0,0,0,0,0,0],"id":42,"left_children":[1,3,5,-1,-1,-1,-1],"loss_changes":[4.9710064E1,4.3619316E1,3.274381E1,0E0,0E0,0E0,0E0],"parents":[2147483647,0,0,1,1,2,2],"right_children":[2,4,6,-1,-1,-1,-1],"split_conditions":[-7.608323E-2,-1.1490887E0,6.8070996E-1,5.2494973E-2,-3.0957216E-2,3.5790484E-2,-1.6077021E-2],"split_indices":[9,0,17,0,0,0,0],"split_type":[0,0,0,0,0,0,0],"sum_hessian":[2.87E2,1.4E2,1.47E2,1.7E1,1.23E2,1.05E2,4.2E1],"tree_param":{"num_deleted":"0","num_feature":"24","num_nodes":"7","size_leaf_vector":"1"}},{"base_weights":[-1.7357055E-2,8.7522E-2,-2.2795503E0,-5.0172407E-2,1.1472097E-2,-1.2968932E-1,-2.3612292E-2],"categories":[],"categories_nodes":[],"categories_segments":[],"categories_sizes":[],"default_left":[0,0,0,0,0,0,0],"id":43,"left_children":[1,3,5,-1,-1,-1,-1],"loss_changes":[6.425881E1,4.0331303E1,5.5901527E0,0E0,0E0,0E0,0E0],"parents":[2147483647,0,0,1,1,2,2],"right_children":[2,4,6,-1,-1,-1,-1],"split_conditions":[1.9222966E0,-1.0861973E0,-1.086795E0,-5.0172407E-2,1.1472097E-2,-1.2968932E-1,-2.3612292E-2],"split_indices":[22,9,16,0,0,0,0],"split_type":[0,0,0,0,0,0,0],"sum_hessian":[2.69E2,2.58E2,1.1E1,2.9E1,2.29E2,9E0,2E0],"tree_param":{"num_deleted":"0","num_feature":"24","num_nodes":"7","size_leaf_vector":"1"}},{"base_weights":[6.805239E-2,6.183709E-1,-1.9039103E-1,5.0342884E-2,1.8370518E-2,-3.0105088E-2,1.6994204E-2],"categories":[],"categories_nodes":[],"categories_segments":[],"categories_sizes":[],"default_left":[0,0,0,0,0,0,0],"id":44,"left_children":[1,3,5,-1,-1,-1,-1],"loss_changes":[3.6954315E1,7.7221413E0,3.884727E1,0E0,0E0,0E0,0E0],"parents":[2147483647,0,0,1,1,2,2],"right_children":[2,4,6,-1,-1,-1,-1],"split_conditions":[-7.060813E-1,-1.1490887E0,5.018102E-2,5.0342884E-2,1.8370518E-2,-3.0105088E-2,1.6994204E-2],"split_indices":[22,0,9,0,0,0,0],"split_type":[0,0,0,0,0,0,0],"sum_hessian":[2.58E2,8.2E1,1.76E2,3.1E1,5.1E1,9.9E1,7.7E1],"tree_param":{"num_deleted":"0","num_feature":"24","num_nodes":"7","size_leaf_vector":"1"}},{"base_weights":[7.1694544E-3,1.0785907E-1,-1.9916837E0,-1.9121038E-3,4.4102944E-2,-1.23721816E-1,-3.621961E-2],"categories":[],"categories_nodes":[],"categories_segments":[],"categories_sizes":[],"default_left":[0,0,0,0,0,0,0],"id":45,"left_children":[1,3,5,-1,-1,-1,-1],"loss_changes":[5.4556034E1,2.9216494E1,6.1607895E0,0E0,0E0,0E0,0E0],"parents":[2147483647,0,0,1,1,2,2],"right_children":[2,4,6,-1,-1,-1,-1],"split_conditions":[1.7878959E0,1.1504837E0,5.018102E-2,-1.9121038E-3,4.4102944E-2,-1.23721816E-1,-3.621961E-2],"split_indices":[22,9,9,0,0,0,0],"split_type":[0,0,0,0,0,0,0],"sum_hessian":[2.69E2,2.57E2,1.2E1,2.17E2,4E1,8E0,4E0],"tree_param":{"num_deleted":"0","num_feature":"24","num_nodes":"7","size_leaf_vector":"1"}},{"base_weights":[2.368457E-2,2.0625995E-1,-9.870922E-1,4.170194E-3,4.9034547E-2,-9.305662E-2,-2.2034306E-2],"categories":[],"categories_nodes":[],"categories_segments":[],"categories_sizes":[],"default_left":[0,0,0,0,0,0,0],"id":46,"left_children":[1,3,5,-1,-1,-1,-1],"loss_changes":[5.4274685E1,2.3608948E1,2.0670967E1,0E0,0E0,0E0,0E0],"parents":[2147483647,0,0,1,1,2,2],"right_children":[2,4,6,-1,-1,-1,-1],"split_conditions":[1.2074386E0,1.4571255E0,-7.608323E-2,4.170194E-3,4.9034547E-2,-9.305662E-2,-2.2034306E-2],"split_indices":[22,9,9,0,0,0,0],"split_type":[0,0,0,0,0,0,0],"sum_hessian":[2.92E2,2.48E2,4.4E1,2.15E2,3.3E1,1.6E1,2.8E1],"tree_param":{"num_deleted":"0","num_feature":"24","num_nodes":"7","size_leaf_vector":"1"}},{"base_weights":[3.1225407E-2,1.9952089E-1,-8.8363475E-1,5.1208017E-3,6.288492E-2,-8.815484E-2,-2.2897702E-2],"categories":[],"categories_nodes":[],"categories_segments":[],"categories_sizes":[],"default_left":[0,0,0,0,0,0,0],"id":47,"left_children":[1,3,5,-1,-1,-1,-1],"loss_changes":[4.359495E1,2.4429436E1,1.566486E1,0E0,0E0,0E0,0E0],"parents":[2147483647,0,0,1,1,2,2],"right_children":[2,4,6,-1,-1,-1,-1],"split_conditions":[1.1891757E0,1.6194652E0,-1.6623422E0,5.1208017E-3,6.288492E-2,-8.815484E-2,-2.2897702E-2],"split_indices":[22,9,10,0,0,0,0],"split_type":[0,0,0,0,0,0,0],"sum_hessian":[2.81E2,2.38E2,4.3E1,2.19E2,1.9E1,1.3E1,3E1],"tree_param":{"num_deleted":"0","num_feature":"24","num_nodes":"7","size_leaf_vector":"1"}},{"base_weights":[3.4673773E-2,2.6801857E-1,-6.0510206E-1,6.991913E-3,6.0109045E-2,-4.667307E-2,-5.5511924E-4],"categories":[],"categories_nodes":[],"categories_segments":[],"categories_sizes":[],"default_left":[0,0,0,0,0,0,0],"id":48,"left_children":[1,3,5,-1,-1,-1,-1],"loss_changes":[4.076861E1,2.3780132E1,1.4227945E1,0E0,0E0,0E0,0E0],"parents":[2147483647,0,0,1,1,2,2],"right_children":[2,4,6,-1,-1,-1,-1],"split_conditions":[4.7680053E-1,1.4571255E0,5.732758E-1,6.991913E-3,6.0109045E-2,-4.667307E-2,-5.5511924E-4],"split_indices":[22,9,9,0,0,0,0],"split_type":[0,0,0,0,0,0,0],"sum_hessian":[2.71E2,1.99E2,7.2E1,1.76E2,2.3E1,4.6E1,2.6E1],"tree_param":{"num_deleted":"0","num_feature":"24","num_nodes":"7","size_leaf_vector":"1"}},{"base_weights":[-3.86358E-2,7.503956E-1,-2.452002E-1,4.6187535E-2,2.0448774E-2,-3.3970416E-2,3.3852053E-3],"categories":[],"categories_nodes":[],"categories_segments":[],"categories_sizes":[],"default_left":[0,0,0,0,0,0,0],"id":49,"left_children":[1,3,5,-1,-1,-1,-1],"loss_changes":[4.712391E1,3.1734238E0,3.1159218E1,0E0,0E0,0E0,0E0],"parents":[2147483647,0,0,1,1,2,2],"right_children":[2,4,6,-1,-1,-1,-1],"split_conditions":[-8.678542E-1,1.088977E0,-6.117592E-1,4.6187535E-2,2.0448774E-2,-3.3970416E-2,3.3852053E-3],"split_indices":[22,21,21,0,0,0,0],"split_type":[0,0,0,0,0,0,0],"sum_hessian":[2.87E2,5.9E1,2.28E2,3.8E1,2.1E1,9.5E1,1.33E2],"tree_param":{"num_deleted":"0","num_feature":"24","num_nodes":"7","size_leaf_vector":"1"}}]},"name":"gbtree"},"learner_model_param":{"base_score":"[-3.305475E0]","boost_from_average":"1","num_class":"0","num_feature":"24","num_target":"1"},"objective":{"name":"reg:squarederror","reg_loss_param":{"scale_pos_weight":"1"}}},"version":[3,1,3]}