tree
version=v4
num_class=1
num_tree_per_iteration=1
label_index=0
max_feature_idx=23
objective=regression
feature_names=Column_0 Column_1 Column_2 Column_3 Column_4 Column_5 Column_6 Column_7 Column_8 Column_9 Column_10 Column_11 Column_12 Column_13 Column_14 Column_15 Column_16 Column_17 Column_18 Column_19 Column_20 Column_21 Column_22 Column_23
feature_infos=[-1.9054170223481182:1.6302345414089321] [-1.3661834804602113:2.726018717623274] [-1.4379626652899244:2.4771465499716614] [-1.2174174871534931:5.4007241678522995] [-1.2275786518828211:4.9289370178860246] [-1.3911981743793012:2.2634380105050282] none none none [-1.543966480940929:2.4704494921170279] [-1.9168117265434277:1.3934351039450439] [-1.5112698899789045:2.038005171601331] [-1.3227909822220814:1.8151050711548156] none none [-1.1086995979849315:2.5935358155715109] [-2.5466130195706196:1.1287217308429844] [-1.1574973188232398:2.4726975905913084] [-0.93551654486266134:2.6258061535764168] [-1.2626526859254805:4.3083425297492246] none [-1.9530292053419513:1.3586963772770633] [-1.2509222685824155:3.414240707476806] [-1.7094017782036919:1.5638643143628881]
tree_sizes=1121 1056 1061 1139 1059 1146 1143 1226 1062 1228 1153 1147 1067 1070 1152 1319 1322 1161 1325 1158 1153 1069 1160 1163 1160 1155 1238 1160 1154 1153 1165 1073 1242 1162 1162 1078 1073 1076 1244 1075 1250 1162 1165 1160 1249 1337 1247 1159 1254 1075 1259 1338 1264 1328 1337 1248 1171 1253 1254 1162 1087 1089 1083 1173 1091 1270 1253 1170 1168 1171 1261 1091 1270 1013 1095 1262 1179 1262 1179 1271 1082 1174 1087 1262 1262 1184 1271 1183 1196 1098 1190 1277 1272 1279 1193 1174 1187 1272 1188 1274 1439 1262 1179 1275 1359 1180 1265 1292 1277 1266 1285 1285 1277 1198 1275 1368 1279 1198 1277 1194 1182 1190 1188 1102 1278 1375 1366 1282 1372 1289 1184 1192 1283 1194 1197 1288 1203 1103 1187 1289 1194 1195 1278 1190 1285 1188 1271 1197 1282 1287

Tree=0
num_leaves=12
num_cat=0
split_feature=22 22 0 22 12 10 12 11 0 22 17
split_gain=1929.85 340.036 247.617 79.7433 70.9211 33.214 21.5034 11.2581 8.45538 2.45025 1.90096
threshold=-0.24772806509955297 0.89383756437684114 -1.5654505258330169 -0.71020842452855948 -0.2380525926316221 -1.3839818234795989 0.65012863767240603 -0.79601993173592611 -0.26677850914533136 -0.95704410666452644 0.31291574159306829
decision_type=2 2 2 2 2 2 2 2 2 2 2
left_child=2 4 -1 8 -2 -3 10 -5 9 -4 -6
right_child=1 5 3 7 6 -7 -8 -9 -10 -11 -12
leaf_value=-4.1317524914004871 -4.3923618689365691 -4.6530350965188578 -4.2256024927087132 -4.3057048746703996 -4.4477524960227317 -4.5752377832823381 -4.5152007670424368 -4.3522672004745733 -4.2771572567354008 -4.2503524929471315 -4.4695524949021639
leaf_weight=31 32 23 20 21 20 34 29 34 21 20 20
leaf_count=31 32 23 20 21 20 34 29 34 21 20 20
internal_value=-4.38768 -4.50899 -4.25728 -4.29083 -4.45389 -4.60663 -4.48242 -4.33449 -4.25147 -4.23798 -4.45865
internal_weight=305 158 147 116 101 57 69 55 61 40 40
internal_count=305 158 147 116 101 57 69 55 61 40 40
is_linear=0
shrinkage=1


Tree=1
num_leaves=11
num_cat=0
split_feature=17 0 0 9 0 0 9 17 17 12
split_gain=1092.01 532.219 308.257 168.382 136.097 112.074 82.0803 51.7219 36.0306 27.8226
threshold=-0.06010414436336909 -0.86511954301190908 -0.23958118942412329 0.19622759912317442 0.222773245836414 -1.5654505258330169 -0.60481412027140979 -0.67323678632147899 0.83790320016960862 -0.82923979574694817
decision_type=2 2 2 2 2 2 2 2 2 2
left_child=2 -2 5 7 8 -1 -6 -4 -3 -7
right_child=1 4 3 -5 6 9 -8 -9 -10 -11
leaf_value=0.2519626247882843 0.12484920591115951 -0.060552054393137322 0.0052761421264971011 0.1061684400633429 -0.29085193872451781 0.14933812579801006 -0.16513003586111843 -0.089461750075221058 -0.14246146625280381 0.082349187862728879
leaf_weight=20 20 29 34 33 20 31 37 25 25 31
leaf_count=20 20 29 34 33 20 31 37 25 25 31
internal_value=-0.00353918 -0.112576 0.0785515 0.0157218 -0.155355 0.149043 -0.209243 -0.034867 -0.0984731 0.115844
internal_weight=305 131 174 92 111 82 57 59 54 62
internal_count=305 131 174 92 111 82 57 59 54 62
is_linear=0
shrinkage=0.05


Tree=2
num_leaves=11
num_cat=0
split_feature=22 22 4 9 9 9 22 22 12 4
split_gain=1582.51 278.319 206.122 88.4095 71.0842 63.2195 52.3692 42.0795 29.145 12.7604
threshold=-0.24772806509955297 0.89383756437684114 -1.1583276628671364 0.509278386013021 -0.24572645295659198 0.31592348822812055 -0.88273392675422391 -0.5907732704200116 -0.2380525926316221 -0.41088176352333999
decision_type=2 2 2 2 2 2 2 2 2 2
left_child=2 3 -1 8 6 -3 -4 -6 -2 -10
right_child=1 5 4 -5 7 -7 -8 -9 9 -11
leaf_value=0.22924473016492783 -0.045964390098709951 -0.24486302733421328 0.10473490655422212 0.0086007711275791123 0.15754459108625141 -0.13753095955952355 0.0062885039273117274 0.071585550445888657 -0.085775916420278098 -0.13733572342566081
leaf_weight=31 22 34 22 30 35 23 35 24 21 28
leaf_count=31 22 34 22 30 35 23 35 24 21 28
internal_value=-0.00336222 -0.113218 0.114714 -0.0633652 0.0841067 -0.201554 0.0442854 0.122578 -0.0937734 -0.115239
internal_weight=305 158 147 101 116 57 57 59 71 49
internal_count=305 158 147 101 116 57 57 59 71 49
is_linear=0
shrinkage=0.05


Tree=3
num_leaves=12
num_cat=0
split_feature=16 0 0 9 0 0 9 10 10 9 16
split_gain=907.674 344.217 293.695 125.921 115.065 86.613 73.739 65.1632 43.6168 23.86 21.8361
threshold=-0.15554705852590292 -0.76992892398768065 0.032392007787957498 0.31592348822812055 -1.5654505258330169 0.222773245836414 0.31592348822812055 0.5479686884913243 0.76844654925343925 -0.24572645295659198 -0.78644351610047247
decision_type=2 2 2 2 2 2 2 2 2 2 2
left_child=1 -1 4 7 -2 10 -7 -4 -6 -10 -3
right_child=2 5 3 -5 8 6 -8 -9 9 -11 -12
leaf_value=0.075351505442744215 0.22692322622645988 -0.13363638150951138 -0.10692005027895389 0.090893685473845562 0.050170906720062095 -0.24087816861367997 -0.1211863937703046 0.00082116915533939994 0.094660241961479194 0.16695462351753598 -0.066130075082182882
leaf_weight=21 22 23 23 26 30 31 22 36 25 21 25
leaf_count=21 22 23 23 26 30 31 22 36 25 21 25
internal_value=-0.00319411 -0.108835 0.0672329 -0.000780744 0.126224 -0.147131 -0.191195 -0.0411796 0.0970747 0.127664 -0.0984768
internal_weight=305 122 183 85 98 101 53 59 76 46 48
internal_count=305 122 183 85 98 101 53 59 76 46 48
is_linear=0
shrinkage=0.05


Tree=4
num_leaves=11
num_cat=0
split_feature=19 12 19 16 17 0 0 21 12 4
split_gain=1033.09 270.778 266.358 89.1176 64.0154 62.8051 29.3043 18.1438 14.0617 3.95743
threshold=-0.12524692853719899 -0.2040838223414789 -0.70679533286230944 0.17725221387862186 0.99472682669672696 -1.5654505258330169 0.92990355858782414 0.99549696515154296 -0.69386272827565554 -0.4825294209469228
decision_type=2 2 2 2 2 2 2 2 2 2
left_child=2 8 5 -4 6 -1 -3 -5 -2 -7
right_child=1 4 3 7 -6 9 -8 -9 -10 -11
leaf_value=0.20863657074589886 0.027609971262838529 -0.083601299999281772 -0.034973246097474153 0.028577443300968126 -0.19847918687722621 0.098092660158872608 -0.15506544972841557 0.087057944614854124 -0.028980331330205358 0.12954670995473863
leaf_weight=31 23 32 36 21 39 20 26 36 21 20
leaf_count=31 23 32 36 21 39 20 26 36 21 20
internal_value=-0.0030344 -0.102278 0.0822908 0.0266148 -0.148945 0.155219 -0.115637 0.0655125 0.000600963 0.11382
internal_weight=305 141 164 93 97 71 58 57 44 40
internal_count=305 141 164 93 97 71 58 57 44 40
is_linear=0
shrinkage=0.05


Tree=5
num_leaves=12
num_cat=0
split_feature=22 22 22 0 18 12 16 22 22 22 0
split_gain=1163.22 184.262 164.849 56.7359 38.9176 29.4489 20.6394 12.5063 10.6512 7.08652 1.90979
threshold=-0.2057030337455111 -0.78419565865434671 0.89383756437684114 -1.5654505258330169 0.051333836381386631 1.3694334816789244 0.16420094181071651 0.11721272866111361 0.47383544551861095 -0.49572434153070116 -0.62714299545133823
decision_type=2 2 2 2 2 2 2 2 2 2 2
left_child=1 3 4 -1 7 -4 -3 -2 -6 -8 -5
right_child=2 6 5 10 8 -7 9 -9 -10 -11 -12
leaf_value=0.19657826324303945 0.00034180709525294926 -0.00013226805520909175 -0.1282434213658174 0.12398074045777321 -0.065828889161348353 -0.20094620952239406 0.07642588931377288 -0.047120600002152582 -0.11681331821850367 0.040830017780435497 0.10423444637656212
leaf_weight=36 23 21 30 24 20 26 27 35 21 29 25
leaf_count=36 23 21 30 24 20 26 27 35 21 29 25
internal_value=0.00447977 0.0981667 -0.0934382 0.14892 -0.0546567 -0.161998 0.0421402 -0.0282993 -0.0919429 0.0579923 0.113906
internal_weight=317 162 155 85 99 56 77 58 41 56 49
internal_count=317 162 155 85 99 56 77 58 41 56 49
is_linear=0
shrinkage=0.05


Tree=6
num_leaves=12
num_cat=0
split_feature=22 22 22 9 9 9 0 22 9 22 22
split_gain=1049.8 166.296 148.777 89.1535 68.0773 53.0411 51.2042 20.5872 20.5037 10.5161 4.17161
threshold=-0.2057030337455111 -0.78419565865434671 0.89383756437684114 0.68421853162793278 0.19622759912317442 -0.24572645295659198 -1.5654505258330169 0.47383544551861095 -0.24572645295659198 -0.45718045032002447 0.055546986989898607
decision_type=2 2 2 2 2 2 2 2 2 2 2
left_child=1 6 3 7 9 -4 -1 10 -8 -3 -2
right_child=2 4 5 -5 -6 -7 8 -9 -10 -11 -12
leaf_value=0.18674934738212162 -0.046511687622183849 0.026408165504372767 -0.21671961631093706 0.020035181442896524 0.09730270030878245 -0.11620563370840892 0.070863601902411102 -0.11944314768910409 0.13622119022267207 -0.021450461175603175 -0.07733466769366161
leaf_weight=36 21 22 21 30 31 35 21 25 28 24 23
leaf_count=36 21 22 21 30 31 35 21 25 28 24 23
internal_value=0.00425578 0.0932584 -0.0887663 -0.0519239 0.0400331 -0.153898 0.141474 -0.0832105 0.108211 0.00143845 -0.0626237
internal_weight=317 162 155 99 77 56 85 69 49 46 44
internal_count=317 162 155 99 77 56 85 69 49 46 44
is_linear=0
shrinkage=0.05


Tree=7
num_leaves=13
num_cat=0
split_feature=22 22 9 10 9 4 10 22 9 9 18 21
split_gain=947.448 150.082 135.652 88.9887 62.6742 46.2118 45.0817 32.9943 18.5046 18.1222 7.93512 4.21112
threshold=-0.2057030337455111 -0.78419565865434671 0.68421853162793278 -1.4686622808882566 -0.070786307341680219 -1.1583276628671364 -0.54962657564614281 0.47383544551861095 -0.24572645295659198 -0.26414120512658051 -0.66986908906719833 0.19420495440907545
decision_type=2 2 2 2 2 2 2 2 2 2 2 2
left_child=1 5 3 -2 -3 -1 -4 11 -7 -9 -6 -5
right_child=2 4 6 7 10 8 -8 9 -10 -11 -12 -13
leaf_value=0.17741188092364207 -0.20534400145212808 -0.0088712375082478333 -0.057497125864028935 -0.07605293504311704 0.10368633590638639 0.067320421692870919 0.04739368411712349 -0.15296519994735719 0.12941013234002249 -0.092323626817337107 0.05914668775163591 -0.044682249977030672
leaf_weight=36 21 37 21 20 20 21 20 22 28 28 20 23
leaf_count=36 21 37 21 20 20 21 20 22 28 28 20 23
internal_value=0.00404299 0.0885955 -0.084328 -0.11238 0.0380315 0.1344 -0.00633088 -0.0913876 0.1028 -0.119006 0.0814165 -0.0592733
internal_weight=317 162 155 114 77 85 41 93 49 50 40 43
internal_count=317 162 155 114 77 85 41 93 49 50 40 43
is_linear=0
shrinkage=0.05


Tree=8
num_leaves=11
num_cat=0
split_feature=22 22 22 9 9 9 0 9 9 18
split_gain=855.071 135.449 125.393 72.8549 56.5634 44.2438 41.7061 19.0976 16.7004 7.16145
threshold=-0.2057030337455111 -0.78419565865434671 0.89383756437684114 0.68421853162793278 -0.070786307341680219 -0.070786307341680219 -1.5654505258330169 -0.74292476154634446 -0.24572645295659198 -0.66986908906719833
decision_type=2 2 2 2 2 2 2 2 2 2
left_child=1 6 3 7 -3 -4 -1 -2 -8 -6
right_child=2 4 5 -5 9 -7 8 -9 -10 -11
leaf_value=0.16854128672016994 -0.10369435656935938 -0.0084276753880486287 -0.19122470244765283 0.018761554211378099 0.098502018675208095 -0.10141778280958534 0.063954400874319528 -0.050811952705446042 0.12293962495667594 0.05618935453414451
leaf_weight=36 31 37 24 30 20 32 21 38 28 20
leaf_count=36 31 37 24 30 20 32 21 38 28 20
internal_value=0.00384084 0.0841657 -0.0801116 -0.0462882 0.0361299 -0.139906 0.12768 -0.0745707 0.0976602 0.0773457
internal_weight=317 162 155 99 77 56 85 69 49 40
internal_count=317 162 155 99 77 56 85 69 49 40
is_linear=0
shrinkage=0.05


Tree=9
num_leaves=13
num_cat=0
split_feature=19 18 19 9 9 9 0 10 19 23 23 16
split_gain=613.289 158.665 157.501 83.6815 59.7848 48.0881 40.0738 30.8369 15.533 11.7073 11.61 6.74523
threshold=-0.13669166448163919 0.051333836381386631 -0.70679533286230944 0.509278386013021 -0.24572645295659198 -0.60481412027140979 -1.5654505258330169 0.24172006508561031 0.60193141897238567 0.14933339103309351 1.0000000180025095e-35 0.92309255830356285
decision_type=2 2 2 2 2 2 2 2 2 2 2 2
left_child=2 3 6 9 10 -3 -1 -6 -7 -2 -4 -8
right_child=1 5 4 -5 7 8 11 -9 -10 -11 -12 -13
leaf_value=0.16011422442065346 -0.029068719644261443 -0.18623834082058499 0.01067331911996007 0.060554579548213798 0.016307832353881429 -0.062105253040790558 0.066866587447002537 0.095865390520414415 -0.11763678714632989 -0.078040467517880296 -0.040907838744654632 0.10793126937001946
leaf_weight=36 23 21 20 23 21 20 20 29 34 26 24 20
leaf_count=36 23 21 20 23 21 20 20 29 34 26 24 20
internal_value=0.0036488 -0.0711404 0.0683195 -0.0181233 0.0250451 -0.122037 0.121843 0.0624512 -0.0970696 -0.0550537 -0.0174619 0.0873989
internal_weight=317 147 170 72 94 75 76 50 54 49 44 40
internal_count=317 147 170 72 94 75 76 50 54 49 44 40
is_linear=0
shrinkage=0.05


Tree=10
num_leaves=12
num_cat=0
split_feature=22 22 22 9 9 9 16 22 9 22 15
split_gain=659.571 120.324 105.986 63.2453 44.6746 40.7098 25.0625 14.5254 12.0877 8.54175 5.29912
threshold=-0.2057030337455111 0.89383756437684114 -1.0055464524535149 -0.070786307341680219 -0.17206744427662754 -0.24572645295659198 -0.58737788561936466 0.079231031988975117 0.74867016422289268 -0.73954071732158433 -0.32466350505287145
decision_type=2 2 2 2 2 2 2 2 2 2 2
left_child=2 4 10 9 7 -3 -6 -2 -5 -4 -1
right_child=1 5 3 8 6 -7 -8 -9 -10 -11 -12
leaf_value=0.11861622881889344 -0.041157464561983943 -0.184416309540922 0.03273129335471562 0.058849258504807947 -0.045841451193250365 -0.096608652039007703 0.026988728716969491 -0.097376819182601243 0.10629195631321134 -0.0080605923395716799 0.15150853618979454
leaf_weight=25 20 22 21 25 21 33 27 27 29 33 24
leaf_count=25 20 22 21 25 21 33 27 27 29 33 24
internal_value=0.00210138 -0.072877 0.0737367 0.0460653 -0.0388031 -0.131732 -0.00487447 -0.0734537 0.0843277 0.00780292 0.134727
internal_weight=307 150 157 108 95 55 48 47 54 54 49
internal_count=307 150 157 108 95 55 48 47 54 54 49
is_linear=0
shrinkage=0.05


Tree=11
num_leaves=12
num_cat=0
split_feature=22 22 22 18 18 10 22 0 16 0 23
split_gain=595.263 108.593 95.6526 27.6009 22.8428 15.9493 15.5052 11.81 14.3786 9.13588 6.3359
threshold=-0.2057030337455111 0.89383756437684114 -1.0055464524535149 0.96801058214262148 0.039270762917347671 0.17955674539568267 0.12320607535477714 0.26356922541822619 0.84246906553971179 0.032392007787957498 -0.49158987806127913
decision_type=2 2 2 2 2 2 2 2 2 2 2
left_child=2 4 10 -3 6 -4 -2 8 -7 -6 -1
right_child=1 3 5 -5 9 7 -8 -9 -10 -11 -12
leaf_value=0.11037422466278075 0.016796819148990123 -0.098370001560875359 0.0034573554806411264 -0.17200160413980484 -0.041745383925735957 0.043772877131899202 -0.039561302859622699 0.029275138498368589 0.095115601643919953 -0.086480079378400534 0.14634060114622116
leaf_weight=25 23 35 20 20 25 30 26 33 25 21 24
leaf_count=25 23 35 20 20 25 30 26 33 25 21 24
internal_value=0.00199631 -0.0692331 0.0700499 -0.125145 -0.036863 0.0437621 -0.0131075 0.0529222 0.0671105 -0.0621677 0.12799
internal_weight=307 150 157 55 95 108 49 88 55 46 49
internal_count=307 150 157 55 95 108 49 88 55 46 49
is_linear=0
shrinkage=0.05


Tree=12
num_leaves=11
num_cat=0
split_feature=22 22 22 9 9 9 16 19 21 22
split_gain=537.225 98.005 87.2086 54.1253 40.2323 36.2508 21.444 16.2427 12.6814 11.9111
threshold=-0.2057030337455111 0.89383756437684114 -1.0721408649479744 -0.070786307341680219 -0.17206744427662754 -0.24572645295659198 -0.58737788561936466 -0.58889361597104284 0.9147632000774587 0.079231031988975117
decision_type=2 2 2 2 2 2 2 2 2 2
left_child=2 4 -1 7 9 -3 -6 -4 -5 -2
right_child=1 5 3 8 6 -7 -8 -9 -10 -11
leaf_value=0.13249234133645107 -0.03865675171953626 -0.16860354813662443 0.04081145580976564 0.054258599573815319 -0.040716530688639202 -0.085744088261642246 0.026651183598571354 -0.011480615220286629 0.10078753831330688 -0.08956607157985369
leaf_weight=38 20 22 27 27 21 33 27 33 32 27
leaf_count=38 20 22 27 27 21 33 27 33 32 27
internal_value=0.0018965 -0.0657714 0.0665474 0.0454893 -0.0350198 -0.118888 -0.00282219 0.0120508 0.0794946 -0.0679025
internal_weight=307 150 157 119 95 55 48 60 59 47
internal_count=307 150 157 119 95 55 48 60 59 47
is_linear=0
shrinkage=0.05


Tree=13
num_leaves=11
num_cat=0
split_feature=22 22 22 9 9 9 4 18 22 9
split_gain=484.845 88.4495 78.7083 50.626 36.3097 32.7164 27.1058 19.7618 10.7497 8.10915
threshold=-0.2057030337455111 0.89383756437684114 -0.8427984257213964 0.68421853162793278 -0.17206744427662754 -0.24572645295659198 -0.65713564902616362 1.0000000180025095e-35 0.079231031988975117 -0.24572645295659198
decision_type=2 2 2 2 2 2 2 2 2 2
left_child=2 4 6 9 8 -3 -1 -6 -2 -4
right_child=1 5 3 -5 7 -7 -8 -9 -10 -11
leaf_value=0.13124912630867314 -0.036723914062604307 -0.16017337089235134 -0.0098567665063750906 0.088192609009834444 0.035278935432434086 -0.081456884019302608 0.070308040160064908 -0.029795379520926091 -0.085087767133006351 0.029044274560042788
leaf_weight=37 20 22 37 26 20 33 36 28 27 21
leaf_count=37 20 22 37 26 20 33 36 28 27 21
internal_value=0.00180167 -0.0624829 0.06322 0.0302171 -0.0332688 -0.112943 0.101196 -0.00268108 -0.0645074 0.00422809
internal_weight=307 150 157 84 95 55 73 48 47 58
internal_count=307 150 157 84 95 55 73 48 47 58
is_linear=0
shrinkage=0.05


Tree=14
num_leaves=12
num_cat=0
split_feature=22 22 22 9 9 16 9 21 19 23 22
split_gain=437.573 81.7744 71.3686 47.127 40.9693 25.4615 13.8462 10.1328 8.80484 4.77027 4.16161
threshold=-0.2057030337455111 1.4257731019635613 -1.0055464524535149 -0.070786307341680219 -0.74292476154634446 -0.30831747128058323 0.067324333933234018 0.9147632000774587 -0.48664170108424348 -0.49158987806127913 0.35016526258063119
decision_type=2 2 2 2 2 2 2 2 2 2 2
left_child=2 4 9 8 -2 10 -7 -5 -4 -1 -6
right_child=1 -3 3 7 5 6 -8 -9 -10 -11 -12
leaf_value=0.09482165718078614 -0.090401970138472898 -0.13319386872152489 0.02377867438190151 0.047904243205602354 -0.030954425707459449 -0.02307744627552373 0.035052917143329976 0.091251918952912098 -0.016628826603006859 0.12602950980265934 -0.060817001227821625
leaf_weight=25 31 30 28 26 20 21 20 28 26 24 28
leaf_count=25 31 30 28 26 20 21 20 28 26 24 28
internal_value=0.00171159 -0.0593587 0.060059 0.037352 -0.0408999 -0.0236577 0.00527883 0.0703808 0.00432321 0.110107 -0.0483743
internal_weight=307 150 157 108 120 89 41 54 54 49 48
internal_count=307 150 157 108 120 89 41 54 54 49 48
is_linear=0
shrinkage=0.05


Tree=15
num_leaves=14
num_cat=0
split_feature=22 22 22 18 0 18 0 11 12 22 11 11 11
split_gain=435.783 86.4814 70.7805 25.3657 23.7696 17.0907 5.4652 5.25788 4.12907 3.72448 3.11454 2.33958 1.45249
threshold=0.038135545583132931 -0.78419565865434671 1.7068347238480244 0.02332607745706252 -1.1370927402239897 0.051333836381386631 0.1547799465333938 0.46528779840060996 1.3205888720915027 0.42891257609271655 -1.1350358375001217 -0.096992969034262647 -0.17301885026909525
decision_type=2 2 2 2 2 2 2 2 2 2 2 2 2
left_child=1 4 3 9 11 6 12 -5 -9 -2 -6 -1 -3
right_child=2 5 -4 7 10 -7 -8 8 -10 -11 -12 -13 -14
leaf_value=0.12215673267841339 -0.012158159146328337 0.047929236807283906 -0.14991603847593069 -0.094583438065919012 0.042934555076949654 -0.019760773255041355 0.01187877382817013 -0.050400296365842229 -0.079729856302340835 -0.040934389626437973 0.06985488412055102 0.098261774579683936 0.029332716612234001
leaf_weight=20 23 21 24 22 21 27 35 24 24 22 22 21 21
leaf_count=20 23 21 24 22 21 27 35 24 24 22 22 21 21
internal_value=-0.0046861 0.0449457 -0.0718139 -0.0555144 0.0826793 0.0144684 0.0264709 -0.0743423 -0.0650651 -0.0262265 0.0567077 0.109918 0.038631
internal_weight=327 188 139 115 84 104 77 70 48 45 43 41 42
internal_count=327 188 139 115 84 104 77 70 48 45 43 41 42
is_linear=0
shrinkage=0.05


Tree=16
num_leaves=14
num_cat=0
split_feature=22 22 22 18 0 18 19 0 18 4 11 22 11
split_gain=393.294 78.0494 64.2582 24.6578 21.452 15.4244 6.30209 5.06578 4.20017 3.39791 2.81087 2.41682 2.11147
threshold=0.038135545583132931 -0.78419565865434671 1.8287375334256599 0.28113180885784766 -1.1370927402239897 0.051333836381386631 0.62949954365621219 0.059589327509165603 -0.43266553341682407 0.77936984285464861 -1.1350358375001217 0.56437467192298885 -0.096992969034262647
decision_type=2 2 2 2 2 2 2 2 2 2 2 2 2
left_child=1 4 3 8 12 7 11 -3 -2 -9 -6 -5 -1
right_child=2 5 -4 6 10 -7 -8 9 -10 -11 -12 -13 -14
leaf_value=0.1160488985478878 -0.011518410393702133 0.039196111559867859 -0.14880899361866926 -0.050685793496668345 0.040787827285627527 -0.018772734732677543 -0.095824958254461703 -0.00011982800946994262 -0.040122877219409658 0.02835587524226867 0.066362139921296734 -0.074971961717875235 0.093348684197380433
leaf_weight=20 21 35 21 20 21 27 23 22 33 20 22 21 21
leaf_count=20 21 35 21 20 21 27 23 22 33 20 22 21 21
internal_value=-0.0044518 0.0426984 -0.0682232 -0.0538817 0.0785454 0.013745 -0.0748766 0.0251473 -0.0289989 0.01344 0.0538724 -0.0631251 0.104422
internal_weight=327 188 139 118 84 104 64 77 54 42 43 41 41
internal_count=327 188 139 118 84 104 64 77 54 42 43 41 41
is_linear=0
shrinkage=0.05


Tree=17
num_leaves=12
num_cat=0
split_feature=22 9 22 10 9 9 4 9 18 22 19
split_gain=354.982 75.5937 64.4392 58.6913 33.5822 23.2663 19.0722 14.5478 8.97346 6.90353 1.21835
threshold=-0.034694340601264563 0.68421853162793278 -0.78419565865434671 -1.3839818234795989 0.74867016422289268 -0.88103540282127912 -0.93954338808225291 -0.24572645295659198 0.16336193893759685 -0.45718045032002447 -0.24230869688845674
decision_type=2 2 2 2 2 2 2 2 2 2 2
left_child=2 3 6 -2 9 -5 -1 -8 -7 -4 -11
right_child=1 -3 4 5 -6 8 7 -9 -10 10 -12
leaf_value=0.10423634431578897 -0.15195188025633496 0.00065624618178440467 0.016025829607193978 -0.10532200348873932 0.057723323069982263 -0.028319642248172919 0.030276156779102704 0.083777732277909911 -0.066363463622908445 -0.025709882514043287 -0.0086586758587509395
leaf_weight=33 24 36 24 24 31 31 27 24 31 22 20
leaf_count=33 24 36 24 24 31 31 27 24 31 22 20
internal_value=-0.00422921 -0.0622337 0.042559 -0.0828159 0.0147964 -0.0635221 0.0746181 0.0554534 -0.0473416 -0.00536623 -0.0175903
internal_weight=327 146 181 110 97 86 84 51 62 66 42
internal_count=327 146 181 110 97 86 84 51 62 66 42
is_linear=0
shrinkage=0.05


Tree=18
num_leaves=14
num_cat=0
split_feature=22 22 9 22 9 0 9 0 9 12 22 9 1
split_gain=321.884 67.0451 65.1087 47.0507 35.7888 17.6883 14.5044 10.0937 7.56362 5.06505 4.7692 2.5621 2.01927
threshold=0.055546986989898607 -0.78419565865434671 0.68421853162793278 1.7068347238480244 0.19622759912317442 -1.1370927402239897 -0.74292476154634446 -0.15798923026049896 -0.33780021380654507 0.49297286960693004 -0.45718045032002447 -0.44828872682649684 -0.052407423594930884
decision_type=2 2 2 2 2 2 2 2 2 2 2 2 2
left_child=1 5 3 6 10 12 -2 -6 -7 -8 -3 -12 -1
right_child=2 4 -4 -5 7 8 9 -9 -10 -11 11 -13 -14
leaf_value=0.10521317692030044 -0.094104009469350186 0.0081904656742699446 -0.0025792839287808451 -0.15215312823653224 0.020036021033301949 0.025994984002318235 -0.036008495398397955 0.068131093184153238 0.068037650701792338 -0.067675270885229108 -0.032822499926323481 -0.0089554156684740031 0.083014138266444215
leaf_weight=21 30 20 33 20 20 20 28 24 23 23 23 22 20
leaf_count=21 30 20 33 20 20 20 28 24 23 23 23 22 20
internal_value=-0.00401775 0.0373174 -0.0635527 -0.0834748 0.0114471 0.0708872 -0.0665172 0.0462697 0.0484829 -0.0502896 -0.012125 -0.0211541 0.0943844
internal_weight=327 193 134 101 109 84 81 44 43 51 65 45 41
internal_count=327 193 134 101 109 84 81 44 43 51 65 45 41
is_linear=0
shrinkage=0.05


Tree=19
num_leaves=12
num_cat=0
split_feature=22 9 19 9 17 9 10 4 18 18 15
split_gain=290.767 58.7847 57.0647 41.1853 25.7155 21.3269 19.3538 12.9937 9.93783 5.15141 3.9537
threshold=0.038135545583132931 -0.60481412027140979 -0.70679533286230944 -0.24572645295659198 0.99472682669672696 0.68421853162793278 -0.70408943392166723 -0.9839739932563728 -0.45315294289299973 0.16336193893759685 -0.23486088069012476
decision_type=2 2 2 2 2 2 2 2 2 2 2
left_child=2 6 7 10 5 9 -2 -1 -5 -3 -4
right_child=1 4 3 8 -6 -7 -8 -9 -10 -11 -12
leaf_value=0.093892073105363294 -0.14458347499370575 -0.0242471654266119 -0.0054155454921879266 0.061512425744107792 -0.074019570784135305 0.021644121115761146 -0.075024477913975721 0.051603230299093784 0.018627178753641518 -0.058292235657572744 -0.032880507428199056
leaf_weight=34 20 25 38 35 33 21 20 39 22 20 20
leaf_count=34 20 25 38 35 33 21 20 39 22 20 20
internal_value=-0.00381686 -0.0586497 0.0367244 0.0147768 -0.0379812 -0.0199621 -0.109804 0.0712994 0.0449602 -0.0393783 -0.0148862
internal_weight=327 139 188 115 99 66 40 73 57 45 58
internal_count=327 139 188 115 99 66 40 73 57 45 58
is_linear=0
shrinkage=0.05


Tree=20
num_leaves=12
num_cat=0
split_feature=22 17 22 9 9 4 18 0 9 9 4
split_gain=252.121 51.1476 40.5409 34.5024 29.8246 17.2522 10.8061 10.0618 5.35487 3.85149 0.171056
threshold=-0.2057030337455111 0.99472682669672696 -0.85510564753749718 0.68421853162793278 0.68421853162793278 0.15357519446913001 0.039270762917347671 -1.5654505258330169 -0.24572645295659198 -0.60481412027140979 0.20504814263129892
decision_type=2 2 2 2 2 2 2 2 2 2 2
left_child=2 3 7 6 8 -3 9 -1 -4 -2 -9
right_child=1 5 4 -5 -6 -7 -8 10 -10 -11 -12
leaf_value=0.093349671589605734 -0.043253337761217897 -0.060034720525145538 -0.011639196207226419 0.022211593813780281 0.063268306440320513 -0.12570852637290955 -0.062972171292514409 0.052782325046136981 0.020019107464362276 -0.015509985323096144 0.05932174883782864
leaf_weight=33 22 20 34 27 29 20 37 20 22 29 20
leaf_count=33 22 20 34 27 29 20 37 20 22 29 20
internal_value=0.00113611 -0.0441709 0.0455828 -0.0272315 0.0221114 -0.0928716 -0.0424015 0.0729126 0.000797995 -0.0274777 0.056052
internal_weight=313 155 158 115 85 40 88 73 56 51 40
internal_count=313 155 158 115 85 40 88 73 56 51 40
is_linear=0
shrinkage=0.05


Tree=21
num_leaves=11
num_cat=0
split_feature=19 18 9 9 0 9 9 19 12 0
split_gain=176.745 91.2606 51.4084 35.3268 17.319 11.1546 10.5541 10.0206 6.08528 5.28696
threshold=-0.60867360111496127 0.051333836381386631 0.68421853162793278 -0.60481412027140979 -1.5654505258330169 -0.24572645295659198 0.80391442073285846 0.58907651009208706 -1.2373793862018485 0.30436520500003833
decision_type=2 2 2 2 2 2 2 2 2 2
left_child=4 2 5 -3 -1 9 7 -5 -6 -2
right_child=1 3 -4 6 8 -7 -8 -9 -10 -11
leaf_value=0.088682187484069308 -0.010698660371987068 -0.1134913372186323 0.052743321794428324 -0.035735274865650216 0.060664754857619609 0.0065319419509786026 -0.013423979797101179 -0.082810674896463765 0.028196310002597109 -0.041387753188610078
leaf_weight=33 23 24 38 26 27 34 21 20 31 36
leaf_count=33 23 24 38 26 27 34 21 20 31 36
internal_value=0.00107931 -0.0229762 0.00374278 -0.0614398 0.0597642 -0.0162789 -0.0427945 -0.0562028 0.0433109 -0.0294242
internal_weight=313 222 131 91 91 93 67 46 58 59
internal_count=313 222 131 91 91 93 67 46 58 59
is_linear=0
shrinkage=0.05


Tree=22
num_leaves=12
num_cat=0
split_feature=22 17 22 4 18 0 22 10 3 1 4
split_gain=208.793 42.0958 33.7046 14.8346 9.80438 8.01141 6.73903 6.28916 1.99959 1.6006 0.131495
threshold=-0.19009646407703887 0.99472682669672696 -0.85510564753749718 0.15357519446913001 0.53477326754652232 -1.5654505258330169 0.63518118169830085 0.97476402470687629 -0.22612102720294849 -0.073801397899590643 0.20504814263129892
decision_type=2 2 2 2 2 2 2 2 2 2 2
left_child=2 4 5 -3 6 -1 9 8 -4 -2 -7
right_child=1 3 7 -5 -6 10 -8 -9 -10 -11 -12
leaf_value=0.084248078151634251 0.00051142282543643837 -0.054367429465055461 0.018034709139416617 -0.11526605412364006 -0.052072624360712673 0.048100091014057406 -0.036760248115350461 0.037134853149340917 -0.0013282265494732807 -0.016140447529377763 0.053833664916455748
leaf_weight=33 31 20 30 20 26 20 29 33 24 27 20
leaf_count=33 31 20 30 20 26 20 29 33 24 27 20
internal_value=0.00102534 -0.0407356 0.0409592 -0.0848167 -0.0251316 0.0660118 -0.0170803 0.0199381 0.00942896 -0.00724031 0.0509669
internal_weight=313 153 160 40 113 73 87 87 54 58 40
internal_count=313 153 160 40 113 73 87 87 54 58 40
is_linear=0
shrinkage=0.05


Tree=23
num_leaves=12
num_cat=0
split_feature=19 18 19 4 12 11 19 19 23 15 19
split_gain=146.204 56.0352 30.6695 22.705 19.5356 11.8253 6.69759 3.98867 2.72721 1.80017 1.67444
threshold=-0.30978569125676553 0.28113180885784766 -0.98469317335675544 0.15357519446913001 -0.60061669212768132 -1.0047697555058812 0.079805611202439189 -0.58889361597104284 -0.97502255087953649 -0.17233355197910075 0.12972228470642097
decision_type=2 2 2 2 2 2 2 2 2 2 2
left_child=2 5 -1 10 8 -2 -7 -6 -4 -8 -3
right_child=1 3 4 -5 7 6 9 -9 -10 -11 -12
leaf_value=0.077961483556363328 0.026218054477464073 -0.034011054460121239 0.03405004277486693 -0.10274908941984179 0.017239818349480629 0.0019964306324254722 -0.01840297132730484 -0.011814651928014225 0.055477268717907091 -0.038650844778333394 -0.053090048648174043
leaf_weight=36 22 23 33 25 21 32 23 27 27 21 23
leaf_count=36 22 23 33 25 21 32 23 27 27 21 23
internal_value=0.000974077 -0.0305699 0.0379944 -0.0643951 0.024672 -0.00606381 -0.0154086 0.000896679 0.0436923 -0.0280667 -0.0435506
internal_weight=313 169 144 71 108 98 76 48 60 44 46
internal_count=313 169 144 71 108 98 76 48 60 44 46
is_linear=0
shrinkage=0.05


Tree=24
num_leaves=12
num_cat=0
split_feature=22 9 17 22 9 9 21 0 9 18 4
split_gain=171.147 38.0477 32.9865 27.6253 24.6856 8.80101 7.6823 6.46048 4.67645 4.02552 0.151918
threshold=-0.19009646407703887 0.68421853162793278 0.99472682669672696 -0.85510564753749718 0.68421853162793278 -0.74292476154634446 -0.91739906878801614 -1.5654505258330169 -0.74292476154634446 1.0000000180025095e-35 0.20504814263129892
decision_type=2 2 2 2 2 2 2 2 2 2 2
left_child=3 2 5 7 8 -2 -3 -1 -5 -7 -9
right_child=1 6 -4 4 -6 9 -8 10 -10 -11 -12
leaf_value=0.076137600302922007 -0.058435257126887644 -0.016887912172824145 -0.099931709440769984 -0.01962909189806808 0.055715005228231695 -0.010474622944513193 0.026936440635472538 0.043169593205675483 0.009912352243790756 -0.037354520074150063 0.049332343786954884
leaf_weight=33 30 20 27 21 29 26 20 20 37 30 20
leaf_count=33 30 20 27 21 29 26 20 20 37 30 20
internal_value=0.000925373 -0.0368838 -0.0517185 0.0370804 0.0180492 -0.0365818 0.00502426 0.0597614 -0.000783688 -0.0248746 0.046251
internal_weight=313 153 113 160 87 86 40 73 58 56 40
internal_count=313 153 113 160 87 86 40 73 58 56 40
is_linear=0
shrinkage=0.05


Tree=25
num_leaves=12
num_cat=0
split_feature=19 19 10 16 18 0 0 10 4 0 3
split_gain=124.281 53.75 28.4112 26.6032 10.5514 9.076 6.57917 12.3904 4.94617 4.69986 2.89912
threshold=0.16092906262441406 -0.73248154991349845 -0.5221705953880994 -1.4159091343788253 -0.42773637827218552 -1.5654505258330169 0.98429819803024043 0.99362472461601004 -0.53278377607178407 0.97069953816963639 -0.22612102720294849
decision_type=2 2 2 2 2 2 2 2 2 2 2
left_child=1 5 8 -2 -5 -1 7 10 -3 -6 -4
right_child=3 2 6 4 9 -7 -8 -9 -10 -11 -12
leaf_value=0.076889285829759416 -0.093358166826268046 -0.015034105459397491 0.021293744817376139 -0.0055035575293004516 -0.028366723213167418 0.040643862720865474 -0.006094992711124095 0.052847424951883465 -0.049390119593590499 -0.059905259718221651 -0.0033681150176562372
leaf_weight=31 24 22 26 24 21 39 22 26 20 27 22
leaf_count=31 24 22 26 24 21 39 22 26 20 27 22
internal_value=-0.000711239 0.0210077 0.00290529 -0.047769 -0.0325726 0.0566954 0.0179113 0.0250483 -0.0313941 -0.0461071 0.00999039
internal_weight=304 208 138 96 72 70 96 74 42 48 48
internal_count=304 208 138 96 72 70 96 74 42 48 48
is_linear=0
shrinkage=0.05


Tree=26
num_leaves=13
num_cat=0
split_feature=16 0 0 0 16 18 11 0 3 0 1 1
split_gain=110.899 35.2521 33.8382 15.8627 15.1135 12.1821 11.6983 8.2441 4.00955 1.67748 1.14656 0.643507
threshold=-0.17052370267386083 0.30436520500003833 -0.62714299545133823 -1.5654505258330169 -1.4159091343788253 -0.66474064003619426 -0.8088771978971836 0.97069953816963639 -0.16022456831295609 1.0386928374726565 1.0000000180025095e-35 -0.96788348927519763
decision_type=2 2 2 2 2 2 2 2 2 2 2 2
left_child=2 3 -1 -2 -4 9 11 10 -8 -3 -6 -5
right_child=1 5 4 6 7 -7 8 -9 -10 -11 -12 -13
leaf_value=0.012751670150707165 0.076705623709637183 0.022519255168735982 -0.090103199620815852 0.04364645563066006 -0.037412332012676276 -0.029916725105381223 0.025514908558265732 -0.068297565939082275 -0.002856699814437889 0.002912536441969375 -0.021488591488450767 0.056038560853763068
leaf_weight=24 23 20 22 20 26 29 33 21 20 24 20 22
leaf_count=24 23 20 22 20 26 29 33 21 20 24 20 22
internal_value=-0.000675677 0.0225527 -0.0399378 0.039448 -0.0541462 -0.00475752 0.0304277 -0.0423394 0.0148086 0.0118247 -0.030489 0.0501376
internal_weight=304 191 113 118 89 73 95 67 53 44 46 42
internal_count=304 191 113 118 89 73 95 67 53 44 46 42
is_linear=0
shrinkage=0.05


Tree=27
num_leaves=12
num_cat=0
split_feature=22 22 10 22 10 4 0 17 22 3 4
split_gain=137.884 28.6911 21.6543 10.9409 9.16089 6.22843 4.86098 5.7583 3.97712 2.21454 0.653671
threshold=0.038135545583132931 -0.95704410666452644 -0.64734364239333531 1.4257731019635613 -0.5221705953880994 -0.70169084714485785 0.1547799465333938 -0.79776092671016274 0.49660569837835039 -0.22291525352721939 -0.10151257580067412
decision_type=2 2 2 2 2 2 2 2 2 2 2
left_child=1 5 3 10 -3 -1 7 -6 -4 -9 -2
right_child=2 4 8 -5 6 -7 -8 9 -10 -11 -12
leaf_value=0.070932739882758167 -0.051372852995991702 -0.015370844541625543 -0.0058309150153192987 -0.086870470046997078 0.050859647616744046 0.037037985707106799 0.0060381798024632428 0.028742712751651807 -0.032016987681131939 0.0062149804583168586 -0.038742459330353002
leaf_weight=33 20 22 29 25 20 23 38 24 29 20 21
leaf_count=33 20 22 29 25 20 23 38 24 29 20 21
internal_value=-0.000641894 0.027307 -0.0412129 -0.0608002 0.013892 0.0570117 0.0202036 0.0286143 -0.018924 0.0185028 -0.0449036
internal_weight=304 180 124 66 124 56 102 64 58 44 41
internal_count=304 180 124 66 124 56 102 64 58 44 41
is_linear=0
shrinkage=0.05


Tree=28
num_leaves=12
num_cat=0
split_feature=19 19 10 16 11 18 0 0 4 3 4
split_gain=92.0158 41.0134 21.3275 20.2894 8.04713 7.75404 6.61173 3.779 3.75277 2.78987 3.18333
threshold=0.16092906262441406 -0.73248154991349845 -0.5221705953880994 -1.4159091343788253 -1.0047697555058812 -0.42773637827218552 -1.5654505258330169 0.97069953816963639 -0.53278377607178407 -0.21116075004954468 0.42549974753908631
decision_type=2 2 2 2 2 2 2 2 2 2 2
left_child=1 6 8 -2 -4 -5 -1 -7 -3 10 -6
right_child=3 2 4 5 9 7 -8 -9 -10 -11 -12
leaf_value=0.06648811476845895 -0.080914390583833068 -0.01320150721479546 0.037826489364462243 -0.0046247733446458973 0.02435951184194822 -0.023524569436198191 0.035552163952245162 -0.051805091914893298 -0.04312722429633141 -0.0097119267703965322 -0.0014829218514602295
leaf_weight=31 24 22 28 24 26 21 39 27 20 20 22
leaf_count=31 24 22 28 24 26 21 39 27 20 20 22
internal_value=-0.000609799 0.0180784 0.00226557 -0.041101 0.0152669 -0.0278298 0.0492524 -0.0394324 -0.0274518 0.00597771 0.0125151
internal_weight=304 208 138 96 96 72 70 48 42 68 48
internal_count=304 208 138 96 96 72 70 48 42 68 48
is_linear=0
shrinkage=0.05


Tree=29
num_leaves=12
num_cat=0
split_feature=22 22 22 10 12 4 4 10 18 10 22
split_gain=113 23.4608 18.0354 7.50319 6.24295 5.07995 2.97766 6.79222 2.71993 2.30619 1.9541
threshold=0.038135545583132931 -0.95704410666452644 1.4257731019635613 -0.5221705953880994 0.41138545491680206 -0.70169084714485785 0.70853099521215557 0.93156619104946781 0.536349380323346 0.23537803479518399 0.42891257609271655
decision_type=2 2 2 2 2 2 2 2 2 2 2
left_child=1 5 4 -3 10 -1 7 9 -6 -5 -2
right_child=2 3 -4 6 8 -7 -8 -9 -10 -11 -12
leaf_value=0.064155443148179489 -0.0015997959212178275 -0.013891782577742229 -0.070335365032717104 0.023058737007280193 -0.027031709845177831 0.033544779277366141 0.0056683486909605563 0.0449755926784128 -0.050596905096123614 0.00037011697090097835 -0.022695602946307347
leaf_weight=33 21 22 31 24 25 23 32 25 24 21 23
leaf_count=33 21 22 31 24 25 23 32 25 24 21 23
internal_value=-0.000579309 0.0247222 -0.0373073 0.0125915 -0.026298 0.0515832 0.0183035 0.0240796 -0.0385738 0.0124707 -0.0126271
internal_weight=304 180 124 124 93 56 102 70 49 45 44
internal_count=304 180 124 124 93 56 102 70 49 45 44
is_linear=0
shrinkage=0.05


Tree=30
num_leaves=12
num_cat=0
split_feature=22 9 9 19 10 9 9 16 9 19 15
split_gain=100.629 35.6477 34.3477 36.2685 14.9835 8.53397 7.42502 5.373 4.63176 4.19025 2.63282
threshold=0.42891257609271655 -0.60481412027140979 -0.24572645295659198 -0.74174272854312429 0.17955674539568267 0.90519555766781601 0.68421853162793278 -0.61165847495508274 -1.1112198049461566 -0.60867360111496127 0.040722531036240822
decision_type=2 2 2 2 2 2 2 2 2 2 2
left_child=2 -2 3 -1 -4 9 7 -3 -5 -6 -10
right_child=1 6 4 8 5 -7 -8 -9 10 -11 -12
leaf_value=0.040833634961276288 -0.090634117301168118 -0.049715001662743508 0.0082595906768213306 -0.043047771073708482 0.052653232961893087 0.069527071894242842 -0.00082735885781320669 -0.016946768608282915 -0.0058066990098048906 0.022688063280656937 -0.029387827366590503
leaf_weight=31 29 29 34 22 20 29 22 22 29 28 20
leaf_count=31 29 29 34 22 20 29 22 22 29 28 20
internal_value=-0.00289864 -0.0437368 0.0166577 -0.00428783 0.0359049 0.0481119 -0.0251064 -0.0355797 -0.0239888 0.0351736 -0.0154316
internal_weight=315 102 213 102 111 77 73 51 71 48 49
internal_count=315 102 213 102 111 77 73 51 71 48 49
is_linear=0
shrinkage=0.05


Tree=31
num_leaves=11
num_cat=0
split_feature=19 9 16 9 16 12 9 19 0 19
split_gain=74.0945 54.3964 24.1045 18.0053 13.8696 9.13096 6.84058 11.1361 6.35241 1.53287
threshold=-0.61568237803091008 0.68421853162793278 -1.4159091343788253 -0.74292476154634446 -0.17052370267386083 -0.2380525926316221 0.31592348822812055 -0.84964581277723661 0.7939169599817838 0.53578313873837302
decision_type=2 2 2 2 2 2 2 2 2 2
left_child=6 2 -2 8 -3 -5 7 -1 -4 -7
right_child=1 4 3 5 -6 9 -8 -9 -10 -11
leaf_value=0.047272646569592118 -0.083896967545151718 -0.0045758234370233755 -0.034672007156768818 0.010510310760388773 0.042344626711888447 -0.016519389879938805 0.06002039304779222 0.0038030934448425586 -0.070062991492782861 -0.032274944320894207
leaf_weight=34 20 28 32 30 36 38 24 26 21 26
leaf_count=34 20 28 32 30 36 38 24 26 21 26
internal_value=-0.00275371 -0.0173769 -0.0323973 -0.0253905 0.0218169 -0.0122508 0.03746 0.0284358 -0.0486949 -0.0229201
internal_weight=315 231 167 147 64 94 84 60 53 64
internal_count=315 231 167 147 64 94 84 60 53 64
is_linear=0
shrinkage=0.05


Tree=32
num_leaves=13
num_cat=0
split_feature=22 22 10 23 4 4 10 0 23 10 23 0
split_gain=83.1947 24.4633 10.8307 4.80595 4.4263 3.83477 4.12728 3.54934 3.28064 2.76425 1.21393 1.04273
threshold=0.42891257609271655 -0.95704410666452644 -1.4718750135160914 0.14356450472261326 -0.83800436033197157 0.70853099521215557 0.16940121012719486 0.86191025928480391 -0.54639429801084272 -0.5462268677173282 0.88400106267277323 -0.10359459081808289
decision_type=2 2 2 2 2 2 2 2 2 2 2 2
left_child=1 8 -2 5 -5 6 -3 -4 -1 -9 -6 -8
right_child=2 3 7 4 10 -7 11 9 -10 -11 -12 -13
leaf_value=0.030538318449488056 -0.06834227728098631 0.0013080967869609596 -0.017734593013301492 0.011142287839204075 -0.024387367131421343 -0.0015792894148034975 0.037199350129812958 -0.053372119162231682 0.054804209868113199 -0.028433088481426241 -0.0069666255614720292 0.02105368978343904
leaf_weight=26 25 20 32 25 20 32 20 20 30 25 20 20
leaf_count=26 25 20 32 25 20 32 20 20 30 25 20 20
internal_value=-0.00261603 0.0151657 -0.0397484 0.00504562 -0.00536189 0.0123988 0.0198537 -0.0304646 0.0435379 -0.0395171 -0.015677 0.0291265
internal_weight=315 213 102 157 65 92 60 77 56 45 40 40
internal_count=315 213 102 157 65 92 60 77 56 45 40 40
is_linear=0
shrinkage=0.05


Tree=33
num_leaves=12
num_cat=0
split_feature=22 9 9 19 10 9 9 0 15 9 15
split_gain=75.0832 29.8706 27.441 28.0193 12.4168 7.25924 5.86783 4.4585 4.30168 3.81654 2.14649
threshold=0.42891257609271655 -0.60481412027140979 -0.24572645295659198 -0.74174272854312429 0.17955674539568267 0.90519555766781601 0.68421853162793278 -0.42996242747257968 -0.40674670611796077 -1.1112198049461566 0.040722531036240822
decision_type=2 2 2 2 2 2 2 2 2 2 2
left_child=2 -2 3 -1 -4 7 8 -6 -3 -5 -11
right_child=1 6 4 9 5 -7 -8 -9 -10 10 -12
leaf_value=0.035345331951975825 -0.080690312488325713 -0.048096136748790742 0.0064447015564998286 -0.038930942092768178 0.048820862164720896 0.062474461731195842 0.00087664831768382689 0.017911423473352835 -0.018353590104849108 -0.0051720049168015349 -0.026464084070175888
leaf_weight=31 29 20 34 22 20 29 22 28 31 29 20
leaf_count=31 29 20 34 22 20 29 22 28 31 29 20
internal_value=-0.00248522 -0.0377609 0.0144074 -0.00431417 0.031611 0.0427233 -0.0207068 0.0307904 -0.0300173 -0.0216303 -0.0138626
internal_weight=315 102 213 102 111 77 73 48 51 71 49
internal_count=315 102 213 102 111 77 73 48 51 71 49
is_linear=0
shrinkage=0.05


Tree=34
num_leaves=12
num_cat=0
split_feature=22 9 9 19 10 9 9 16 0 9 15
split_gain=67.7626 26.9582 24.7655 25.2875 11.2061 6.55147 5.29572 4.03167 4.0238 3.44443 1.9372
threshold=0.42891257609271655 -0.60481412027140979 -0.24572645295659198 -0.74174272854312429 0.17955674539568267 0.90519555766781601 0.68421853162793278 -0.61165847495508274 -0.42996242747257968 -1.1112198049461566 0.040722531036240822
decision_type=2 2 2 2 2 2 2 2 2 2 2
left_child=2 -2 3 -1 -4 8 7 -3 -6 -5 -11
right_child=1 6 4 9 5 -7 -8 -9 -10 10 -12
leaf_value=0.033578065860896338 -0.076655796684067828 -0.040760931629559093 0.0061224663947702061 -0.036984395405108277 0.046379819326102738 0.059350739088078065 0.00083281548524444758 -0.012376037045297298 0.017015852635293933 -0.0049134045839309692 -0.025140879787504674
leaf_weight=31 29 29 34 22 20 29 22 22 28 29 20
leaf_count=31 29 29 34 22 20 29 22 22 28 29 20
internal_value=-0.00236096 -0.0358729 0.013687 -0.00409846 0.0300304 0.0405872 -0.0196715 -0.0285165 0.0292508 -0.0205488 -0.0131695
internal_weight=315 102 213 102 111 77 73 51 48 71 49
internal_count=315 102 213 102 111 77 73 51 48 71 49
is_linear=0
shrinkage=0.05


Tree=35
num_leaves=11
num_cat=0
split_feature=22 9 9 22 9 9 10 0 9 15
split_gain=67.5141 26.1398 25.3194 27.0934 7.53056 6.87762 6.58068 5.20751 2.27868 0.808075
threshold=0.42891257609271655 -0.60481412027140979 0.74867016422289268 -0.97109313868241842 -0.24572645295659198 0.19622759912317442 0.93156619104946781 -0.26677850914533136 -0.88103540282127912 -0.48059585566554891
decision_type=2 2 2 2 2 2 2 2 2 2
left_child=2 -2 3 9 7 -3 -4 -5 -9 -1
right_child=1 5 6 4 -6 -7 -8 8 -10 -11
leaf_value=0.030357708896044645 -0.076394249167707234 -0.036917959498586478 0.029252426567915324 -0.0017587498974587239 0.011181516410480883 -0.0037287937175180461 0.062076160540947549 -0.038979972560297366 -0.016222962855615402 0.043725913218580763
leaf_weight=20 27 27 37 35 37 37 26 22 22 26
leaf_count=20 27 27 37 35 37 37 26 22 22 26
internal_value=0.00120458 -0.0351362 0.0159024 0.00544274 -0.00743366 -0.0177305 0.0427987 -0.0161522 -0.0276015 0.0379137
internal_weight=316 91 225 162 116 64 63 79 44 46
internal_count=316 91 225 162 116 64 63 79 44 46
is_linear=0
shrinkage=0.05


Tree=36
num_leaves=11
num_cat=0
split_feature=22 9 9 22 9 9 21 10 0 23
split_gain=60.9315 23.5912 22.8508 24.4518 6.80919 6.20705 6.16826 5.93906 5.66162 1.04366
threshold=0.42891257609271655 -0.60481412027140979 0.74867016422289268 -0.97109313868241842 -0.54036248767644979 0.19622759912317442 0.25365309619204701 0.93156619104946781 -0.23958118942412329 -0.49158987806127913
decision_type=2 2 2 2 2 2 2 2 2 2
left_child=2 -2 3 9 8 -3 -6 -4 -5 -1
right_child=1 5 7 4 6 -7 -8 -9 -10 -11
leaf_value=0.02911542209982872 -0.072574536640335016 -0.035072061812712087 0.027789805285833982 -0.0016057265962919464 -0.014016421566958781 -0.0035423543436352064 0.017598247691057622 0.058972353172989989 -0.034578377256790797 0.044235284271694368
leaf_weight=25 27 27 37 23 27 37 36 26 30 21
leaf_count=25 27 27 37 23 27 37 36 26 30 21
internal_value=0.00114435 -0.0333794 0.0151073 0.0051706 -0.00706198 -0.0168439 0.0040491 0.0406588 -0.0202695 0.036018
internal_weight=316 91 225 162 116 64 63 63 53 46
internal_count=316 91 225 162 116 64 63 63 53 46
is_linear=0
shrinkage=0.05


Tree=37
num_leaves=11
num_cat=0
split_feature=22 9 9 22 9 18 9 16 3 0
split_gain=54.9907 21.291 20.6228 22.2141 7.18488 8.00098 5.60186 5.36812 2.51187 1.29265
threshold=0.42891257609271655 -0.60481412027140979 0.74867016422289268 -1.0721408649479744 -1.2585378223060752 -0.66856269331761042 0.19622759912317442 0.83970649079107296 -0.3689560543104472 -0.67473830496345244
decision_type=2 2 2 2 2 2 2 2 2 2
left_child=2 -2 3 -1 -5 8 -3 -4 -6 -7
right_child=1 6 7 4 5 9 -8 -9 -10 -11
leaf_value=0.041519119748563482 -0.06894581022637862 -0.033318458594105864 0.026391061043014398 -0.031212590701345889 0.0050648241295237787 -0.0015959069988457485 -0.0033652368483032928 0.056036904325278906 0.027550600615390781 -0.017300191678498923
leaf_weight=33 27 27 37 21 27 20 37 26 23 38
leaf_count=33 27 27 37 21 27 20 37 26 23 38
internal_value=0.00108714 -0.0317104 0.0143519 0.00491207 -0.00445253 0.000750821 -0.0160018 0.0386259 0.0154083 -0.0118849
internal_weight=316 91 225 162 129 108 64 63 50 58
internal_count=316 91 225 162 129 108 64 63 50 58
is_linear=0
shrinkage=0.05


Tree=38
num_leaves=13
num_cat=0
split_feature=22 22 22 19 18 2 10 3 15 3 2 23
split_gain=49.6291 17.012 8.2455 4.42685 2.73988 2.35322 3.20576 2.25836 1.62589 1.56512 1.40364 0.660167
threshold=0.42891257609271655 -0.5907732704200116 1.4257731019635613 -0.98469317335675544 -0.37221097959315091 -1.3120896073097918 0.93156619104946781 -0.37109323676093348 -0.1782517765073047 -0.19263850214533065 -0.22048366339174355 0.39768394669927459
decision_type=2 2 2 2 2 2 2 2 2 2 2 2
left_child=1 3 8 10 7 -5 -7 -3 -2 -9 -1 -6
right_child=2 4 -4 5 11 6 -8 9 -10 -11 -12 -13
leaf_value=0.049241833104973751 -0.011607332646963188 -0.0071808181436998509 -0.05106375129825827 0.0055887481264237857 -0.0041469139289110899 0.0098690146842272952 0.035544874131559365 0.021356731839478019 -0.02810555816561516 0.0024180667754262687 0.030960713185015178 -0.016172222899539131
leaf_weight=21 32 21 31 21 25 20 31 24 28 20 21 21
leaf_count=21 32 21 31 21 25 20 31 24 28 20 21 21
internal_value=0.00103278 0.0136343 -0.0301249 0.0272008 -0.000298773 0.0196755 0.0254759 0.00630963 -0.0193065 0.0127482 0.0401013 -0.00963673
internal_weight=316 225 91 114 111 72 51 65 60 44 42 46
internal_count=316 225 91 114 111 72 51 65 60 44 42 46
is_linear=0
shrinkage=0.05


Tree=39
num_leaves=11
num_cat=0
split_feature=22 9 9 22 9 9 10 0 3 9
split_gain=44.7903 19.3004 18.3133 18.7265 5.89775 5.0083 4.62751 4.3198 2.09176 0.409574
threshold=0.42891257609271655 -0.60481412027140979 0.74867016422289268 -0.97109313868241842 -0.24572645295659198 0.19622759912317442 0.93156619104946781 -0.26677850914533136 -0.27385143526380823 -0.26414120512658051
decision_type=2 2 2 2 2 2 2 2 2 2
left_child=2 -2 3 9 7 -3 -4 -5 -9 -1
right_child=1 5 6 4 -6 -7 -8 8 -10 -11
leaf_value=0.035376574818044904 -0.064070606093715746 -0.030035971736328472 0.024467512038913935 -0.0012543740728870037 0.0098258520740814315 -0.0017140711480720173 0.051992442106040052 -0.034743557156374054 -0.012849215716123581 0.025904713340458421
leaf_weight=25 27 27 37 35 37 37 26 24 20 21
leaf_count=25 27 27 37 35 37 37 26 24 20 21
internal_value=0.00098114 -0.0286187 0.0129526 0.00405702 -0.00664807 -0.0136624 0.035827 -0.0143637 -0.0247916 0.0310525
internal_weight=316 91 225 162 116 64 63 79 44 46
internal_count=316 91 225 162 116 64 63 79 44 46
is_linear=0
shrinkage=0.05


Tree=40
num_leaves=13
num_cat=0
split_feature=22 9 22 9 16 21 0 18 9 9 0 16
split_gain=29.1213 15.0475 15.5317 10.1527 6.29115 6.27907 4.02672 3.91618 2.10899 1.93167 1.77211 1.21009
threshold=0.42891257609271655 -0.17206744427662754 -1.0721408649479744 -0.070786307341680219 -0.60637174348134948 -0.45888377852577539 -0.81072490356949289 0.36531300462422539 0.68421853162793278 -0.92707228324625057 0.032392007787957498 0.54102532873272768
decision_type=2 2 2 2 2 2 2 2 2 2 2 2
left_child=1 2 -1 4 -2 -3 -4 -5 -7 -8 -10 -11
right_child=3 5 6 7 -6 8 9 -9 10 11 -12 -13
leaf_value=0.038953633531928065 -0.055461647540020448 0.00027270080809969281 0.0086121938333077273 0.011885076276957989 -0.019258660341923438 0.021107825828450069 -0.025988205563690928 -0.016319082456902834 0.044666655541908358 -0.016569024683364356 0.02634911458817837 8.368006994714962e-05
leaf_weight=20 24 21 23 20 24 35 27 32 31 24 23 20
leaf_count=20 24 21 23 20 24 35 27 32 31 24 23 20
internal_value=0.00165706 0.0116727 -0.00105712 -0.020778 -0.0373602 0.0248654 -0.00957004 -0.00547133 0.0306682 -0.0154601 0.0368647 -0.00899961
internal_weight=324 224 114 100 48 110 94 52 89 71 54 44
internal_count=324 224 114 100 48 110 94 52 89 71 54 44
is_linear=0
shrinkage=0.05


Tree=41
num_leaves=12
num_cat=0
split_feature=19 9 0 9 12 10 12 9 12 2 0
split_gain=21.7287 12.0782 14.5616 10.4059 6.28634 4.91096 4.81149 3.70578 3.68166 1.87378 0.750403
threshold=0.079805611202439189 0.68421853162793278 -1.0826981007815735 -0.070786307341680219 0.49297286960693004 -1.0591989336022856 -0.19967166224826854 -1.000731291926215 -0.22422996560539757 0.15981128857480345 -0.11719325067868701
decision_type=2 2 2 2 2 2 2 2 2 2 2
left_child=1 2 9 4 -2 -5 -3 -4 10 -1 -9
right_child=3 6 7 5 -6 -7 -8 8 -10 -11 -12
leaf_value=0.038523822616447101 -0.017396036280053005 0.041067852268583685 -0.022976204022765161 -0.018736759022526122 -0.051046027858620106 0.011005175765603781 0.010769648844143376 0.015523101429044756 -0.012670176515255023 0.017643231812066267 0.0025809007075925667
leaf_weight=22 35 38 25 23 23 35 20 21 37 21 24
leaf_count=22 35 38 25 23 23 35 20 21 37 21 24
internal_value=0.00157421 0.0112439 0.00375171 -0.0157645 -0.03074 -0.00078904 0.0306202 -0.00612406 -0.000986217 0.0283263 0.00862059
internal_weight=324 208 150 116 58 58 58 107 82 43 45
internal_count=324 208 150 116 58 58 58 107 82 43 45
is_linear=0
shrinkage=0.05


Tree=42
num_leaves=12
num_cat=0
split_feature=19 9 4 9 12 18 12 9 10 3 4
split_gain=19.6102 10.9006 12.9325 9.39132 5.67342 5.17617 4.34237 3.93057 3.5213 1.12085 0.661898
threshold=0.079805611202439189 0.68421853162793278 -1.1583276628671364 -0.070786307341680219 0.49297286960693004 0.36045305538637534 -0.19967166224826854 -1.000731291926215 1.0179308509748477 -0.14526429115955161 -0.46553226737525327
decision_type=2 2 2 2 2 2 2 2 2 2 2
left_child=1 2 -1 4 -2 -5 -3 -4 9 10 -9
right_child=3 6 7 5 -6 -7 -8 8 -10 -11 -12
leaf_value=0.033552945411667742 -0.016526234607611386 0.039014459440582683 -0.019674198982980232 0.014711565281530576 -0.048493726717551117 -0.015179997334877652 0.010231166315497831 0.0058846392690958017 0.015854053416064589 -0.014304979124360465 -0.0068249926902353769
leaf_weight=29 35 38 29 28 23 30 20 21 29 22 20
leaf_count=29 35 38 29 28 23 30 20 21 29 22 20
internal_value=0.0014955 0.0106817 0.00356413 -0.0149763 -0.029203 -0.000749588 0.0290892 -0.00362327 0.00143626 -0.00520051 -0.000315181
internal_weight=324 208 150 116 58 58 58 121 92 63 41
internal_count=324 208 150 116 58 58 58 121 92 63 41
is_linear=0
shrinkage=0.05


Tree=43
num_leaves=12
num_cat=0
split_feature=22 0 17 10 0 2 11 21 22 19 22
split_gain=21.8924 7.62627 5.18454 3.28702 3.89794 2.57085 2.28664 1.97376 1.73395 1.3372 0.590099
threshold=0.42891257609271655 -1.0826981007815735 0.99472682669672696 -0.5221705953880994 0.30436520500003833 0.15981128857480345 -1.0970924434804008 0.2241116859662001 -0.35927743436269144 0.77543333355052357 0.72735767484041769
decision_type=2 2 2 2 2 2 2 2 2 2 2
left_child=1 5 9 -3 6 -1 -5 -8 -6 10 -2
right_child=2 3 -4 4 8 -7 7 -9 -10 -11 -12
leaf_value=0.035788302979762515 -0.008788750335086316 -0.0090532486395472119 -0.032887193228344658 0.028618797092981964 -0.012466279803977713 0.01399097857065499 0.021786843900653451 0.0027774365981005963 0.0056529892067755426 0.00063776360316710043 -0.020789261348545553
leaf_weight=31 21 34 37 23 23 24 22 36 31 22 20
leaf_count=31 21 34 37 23 23 24 22 36 31 22 20
internal_value=0.00142073 0.0101047 -0.0180314 0.00484165 0.0083411 0.0262767 0.0152782 0.0099879 -0.00206448 -0.00930664 -0.0146427
internal_weight=324 224 100 169 135 55 81 58 54 63 41
internal_count=324 224 100 169 135 55 81 58 54 63 41
is_linear=0
shrinkage=0.05


Tree=44
num_leaves=13
num_cat=0
split_feature=19 0 17 21 15 1 19 0 2 11 3 4
split_gain=16.0908 7.07584 6.82897 4.47088 2.82326 3.7975 2.60674 3.1415 2.23119 2.13288 0.673545 0.591948
threshold=0.079805611202439189 -1.0826981007815735 0.99472682669672696 -0.45888377852577539 0.22007046565181212 -0.11714745018642304 -0.18346191217966021 0.30436520500003833 0.15981128857480345 -0.40972519260802093 -0.36575028063471759 -0.61994747220680579
decision_type=2 2 2 2 2 2 2 2 2 2 2 2
left_child=1 8 4 11 5 -2 7 9 -1 10 -5 -3
right_child=2 3 -4 6 -6 -7 -8 -9 -10 -11 -12 -13
leaf_value=0.033998887811697298 -0.0096800691261887551 -0.0037772119801957162 -0.03129785189049545 0.010810937701414031 -0.018025261493000603 0.018042499093072758 0.024363951334405855 -0.011430338087181252 0.013445150495871253 -0.0021928179162469777 0.022784753305756529 -0.015796511265493574
leaf_weight=31 30 20 37 24 28 21 23 21 23 22 23 21
leaf_count=31 30 20 37 24 28 21 23 21 23 22 23 21
internal_value=0.00134969 0.00967085 -0.013571 0.00420995 -0.00526857 0.00173511 0.00934162 0.00550259 0.0252445 0.0106561 0.0166705 -0.00993344
internal_weight=324 208 116 154 79 51 113 90 54 69 47 41
internal_count=324 208 116 154 79 51 113 90 54 69 47 41
is_linear=0
shrinkage=0.05


Tree=45
num_leaves=14
num_cat=0
split_feature=22 22 4 21 4 16 19 15 15 4 2 15 12
split_gain=28.6763 10.0126 3.78915 3.21365 2.26144 1.5151 1.48353 1.38692 1.0927 1.29947 0.985285 0.489174 0.476676
threshold=-0.45718045032002447 1.7068347238480244 0.74143463417130306 0.99549696515154296 -1.1583276628671364 -0.17052370267386083 -0.78319764677432868 -0.33186830013068497 -0.31385631243615125 -0.022590560610808965 1.7129889420037008 1.786598766856401 1.3532850791182089
decision_type=2 2 2 2 2 2 2 2 2 2 2 2 2
left_child=2 5 3 4 -1 7 -5 12 -7 11 -9 -10 -2
right_child=1 -3 -4 6 -6 8 -8 10 9 -11 -12 -13 -14
leaf_value=0.025249994933605198 -0.0019735027209389958 -0.045686766682636173 0.00041444503988784096 0.023588634111608067 0.0051796218724120997 0.0043545390069484715 0.042027060668915511 -0.028375817108899356 0.002869546352885664 -0.017788706736808473 -0.013042039898308842 -0.0081890881061553959 -0.012240868704751709
leaf_weight=25 20 21 26 24 32 25 20 20 20 22 22 20 26
leaf_count=25 20 21 26 24 32 25 20 20 20 22 22 20 26
internal_value=-0.00107131 -0.0130636 0.0174365 0.0218185 0.0139824 -0.00914887 0.0319697 -0.0137747 -0.00446987 -0.0080281 -0.0203438 -0.00265977 -0.0077768
internal_weight=323 196 127 101 57 175 44 88 87 62 42 40 46
internal_count=323 196 127 101 57 175 44 88 87 62 42 40 46
is_linear=0
shrinkage=0.05


Tree=46
num_leaves=13
num_cat=0
split_feature=22 9 10 9 4 21 10 0 0 4 12 19
split_gain=25.8803 20.6072 8.71498 5.20642 3.41971 2.90032 2.68706 2.37224 2.04095 1.78011 1.39375 1.33889
threshold=-0.45718045032002447 1.3747717380025655 -1.4718750135160914 -0.74292476154634446 0.74143463417130306 0.99549696515154296 0.23537803479518399 0.1547799465333938 -1.5654505258330169 -0.55475783055913064 0.4996593258357499 -0.78319764677432868
decision_type=2 2 2 2 2 2 2 2 2 2 2 2
left_child=4 2 -2 7 5 8 9 -4 -1 -5 -11 -7
right_child=1 -3 3 6 -6 11 -8 -9 -10 10 -12 -13
leaf_value=0.023987495347857477 -0.047985089588804514 0.029990826703608038 -0.016208256053782646 -0.023676042661070824 0.00039372264694135926 0.022409202920971441 0.0061627001427114018 -0.039219522165755437 0.0049206405506993182 0.0014425042551010848 -0.014723148662790966 0.0399257081001997
leaf_weight=25 22 25 21 25 26 24 25 24 32 24 30 20
leaf_count=25 22 25 21 25 26 24 25 24 32 24 30 20
internal_value=-0.00101774 -0.0124105 -0.0186095 -0.0142721 0.0165647 0.0207276 -0.00812411 -0.0284809 0.0132833 -0.0126453 -0.00753841 0.0303713
internal_weight=323 196 171 149 127 101 104 45 57 79 54 44
internal_count=323 196 171 149 127 101 104 45 57 79 54 44
is_linear=0
shrinkage=0.05


Tree=47
num_leaves=12
num_cat=0
split_feature=22 9 10 9 9 0 10 0 11 4 19
split_gain=23.357 18.598 7.86527 4.6988 3.1386 3.93312 2.42507 2.14095 1.74755 1.60655 1.29489
threshold=-0.45718045032002447 1.3747717380025655 -1.4718750135160914 -0.74292476154634446 0.68421853162793278 -1.5654505258330169 0.23537803479518399 0.1547799465333938 -1.0047697555058812 -0.55475783055913064 0.62949954365621219
decision_type=2 2 2 2 2 2 2 2 2 2 2
left_child=4 2 -2 7 5 -1 9 -4 -7 -5 -11
right_child=1 -3 3 6 -6 8 -8 -9 -10 10 -12
leaf_value=0.027060201432969833 -0.045585835284807467 0.028491285679861908 -0.015397843505655016 -0.022492240473628047 0.028736335041877982 0.012793605138722342 0.0058545651771128183 -0.037258545883620785 -0.0034859555013313451 -0.013099824338603547 0.0029336693137884139
leaf_weight=27 22 25 21 25 34 32 25 24 34 34 20
leaf_count=27 22 25 21 25 34 32 25 24 34 34 20
internal_value=-0.000966857 -0.0117899 -0.017679 -0.0135585 0.0157365 0.0109839 -0.00771791 -0.0270569 0.00440716 -0.012013 -0.00716149
internal_weight=323 196 171 149 127 93 104 45 66 79 54
internal_count=323 196 171 149 127 93 104 45 66 79 54
is_linear=0
shrinkage=0.05


Tree=48
num_leaves=13
num_cat=0
split_feature=22 9 21 9 4 21 21 0 9 15 19 15
split_gain=21.0797 16.7847 7.0984 4.36593 3.00079 2.62949 2.57746 1.63596 1.43205 1.32086 1.22865 0.952753
threshold=-0.45718045032002447 1.3747717380025655 -1.4942845991968807 -0.24572645295659198 0.74143463417130306 -0.0084147767202304019 0.99549696515154296 -1.5654505258330169 -1.000731291926215 -0.15020453852581656 -0.78319764677432868 0.20591818960610708
decision_type=2 2 2 2 2 2 2 2 2 2 2 2
left_child=4 2 -2 8 6 9 7 -1 -4 -5 -8 -10
right_child=1 -3 3 5 -6 -7 10 -9 11 -11 -12 -13
leaf_value=0.021414996534585954 -0.04330654378811067 0.027066721264272932 -0.030627512924659712 -0.0031126528004692361 -0.00019849546683522372 0.0080144973571545305 0.020313046864854793 0.0043443805590868577 -0.0092223310414701713 -0.020643867286188264 0.037092984486371279 -0.022768294342138149
leaf_weight=25 22 25 26 22 26 28 24 32 25 21 20 27
leaf_count=25 22 25 26 22 26 28 24 32 25 21 20 27
internal_value=-0.000918514 -0.0112004 -0.0167951 -0.0128806 0.0149497 -0.00390977 0.0188492 0.0118315 -0.0210464 -0.0116744 0.0279403 -0.0162558
internal_weight=323 196 171 149 127 71 101 57 78 43 44 52
internal_count=323 196 171 149 127 71 101 57 78 43 44 52
is_linear=0
shrinkage=0.05


Tree=49
num_leaves=11
num_cat=0
split_feature=22 9 22 9 4 9 10 3 15 2
split_gain=19.0244 15.1482 6.67836 2.7977 3.39571 2.56222 2.90519 1.7449 1.50323 1.12444
threshold=-0.45718045032002447 1.3747717380025655 1.5389779294426684 0.68421853162793278 -1.1583276628671364 -0.24572645295659198 -0.031002639862365167 -0.26209693178613375 0.20591818960610708 -0.96880958470498424
decision_type=2 2 2 2 2 2 2 2 2 2
left_child=3 2 5 4 -1 7 -7 -2 -9 -6
right_child=1 -3 -4 -5 9 6 -8 8 -10 -11
leaf_value=0.024652766601906885 -0.027463232204318046 0.025713385544717311 -0.039834157794713977 0.026475746746120212 -0.0023534547453487502 -0.013495984057394359 0.0076137726195156579 -0.0032138389201463724 -0.020732664532959463 0.0107533653290011
leaf_weight=27 30 25 25 34 36 39 28 24 25 30
leaf_count=27 30 25 25 34 36 39 28 24 25 30
internal_value=-0.000872589 -0.0106404 -0.0159553 0.0142022 0.00971507 -0.0118665 -0.004674 -0.0179664 -0.012152 0.00360419
internal_weight=323 196 171 127 93 146 67 79 49 66
internal_count=323 196 171 127 93 146 67 79 49 66
is_linear=0
shrinkage=0.05


Tree=50
num_leaves=13
num_cat=0
split_feature=9 19 10 9 0 12 2 12 0 4 9 2
split_gain=14.6226 14.0928 9.2122 5.18006 3.55814 3.36777 2.22149 2.063 0.868241 0.841443 0.932721 0.954872
threshold=1.3747717380025655 -0.74174272854312429 -1.4718750135160914 -0.74292476154634446 0.14118128667278981 -0.24382333242193729 -0.84550081399991217 -0.079887999192973694 -1.0826981007815735 -0.57539996106430502 -0.17206744427662754 0.025018970507504876
decision_type=2 2 2 2 2 2 2 2 2 2 2 2
left_child=1 8 -3 4 -4 6 -5 -2 -1 -7 -11 -12
right_child=7 2 3 5 -6 9 -8 -9 -10 10 11 -13
leaf_value=0.021871491865469859 0.037906770605001264 -0.039797328258662119 -0.0057016342479203437 -0.001890390867797228 -0.030107992331613789 -0.015211930296694241 0.018406190750205758 0.015997247728297397 0.0092612383266290031 -0.012026371282020894 -0.0072835213318467144 0.0081669833138585095
leaf_weight=39 22 23 28 26 32 24 28 21 21 24 20 20
leaf_count=39 22 23 28 26 32 24 28 21 21 24 20 20
internal_value=2.77392e-05 -0.00407296 -0.00981452 -0.00640064 -0.0187184 -0.00119596 0.00863376 0.0272068 0.0174579 -0.00722784 -0.00423381 0.000441731
internal_weight=328 285 225 202 60 142 54 43 60 88 64 40
internal_count=328 285 225 202 60 142 54 43 60 88 64 40
is_linear=0
shrinkage=0.05


Tree=51
num_leaves=14
num_cat=0
split_feature=9 0 10 9 12 21 1 9 1 2 0 10 2
split_gain=13.1969 11.212 11.5 4.65377 5.14876 2.28323 2.25618 1.35932 1.48588 1.34243 1.30134 0.989334 0.702886
threshold=1.3747717380025655 -1.0826981007815735 -1.4718750135160914 -1.2585378223060752 -0.25619017909943437 0.20741994076449827 1.8235650710849742 -0.17206744427662754 0.0086119118131421906 -1.2013792914778418 -0.11719325067868701 1.0061949050819912 0.032042887826148184
decision_type=2 2 2 2 2 2 2 2 2 2 2 2 2
left_child=1 12 -3 -4 9 -2 7 10 -9 -5 -6 -11 -1
right_child=5 2 3 4 6 -7 -8 8 -10 11 -12 -13 -14
leaf_value=0.025954125511149569 0.014053770587668711 -0.043458601519731542 -0.027728763632476328 -0.00099488410546823779 -0.00096424375237389056 0.037103064171969895 -0.024038320516701791 -0.0072724379301071177 0.011012082435190678 0.0068745527482990711 -0.016244756851933505 0.021434778042603284 0.013301950693130494
leaf_weight=21 21 21 20 27 22 22 20 25 20 28 38 20 23
leaf_count=21 21 21 20 27 22 22 20 25 20 28 38 20 23
internal_value=2.63522e-05 -0.00386931 -0.00810678 -0.00473229 -0.00243264 0.0258464 -0.0086468 -0.00571508 0.000854016 0.00792428 -0.0106419 0.0129413 0.0193405
internal_weight=328 285 241 220 200 43 125 105 45 75 60 48 44
internal_count=328 285 241 220 200 43 125 105 45 75 60 48 44
is_linear=0
shrinkage=0.05


Tree=52
num_leaves=13
num_cat=0
split_feature=22 10 0 12 0 1 2 19 2 0 19 1
split_gain=12.7543 4.89934 3.10827 1.49346 1.39863 1.22234 1.04102 1.03781 0.899628 0.728167 0.696629 0.167372
threshold=0.11721272866111361 -1.4718750135160914 -1.1370927402239897 -0.22422996560539757 0.98429819803024043 0.05670184535883397 -0.19785104092055947 -0.23774789062992374 -0.90091171729143193 0.98429819803024043 0.33598552451346708 -0.088684162633267005
decision_type=2 2 2 2 2 2 2 2 2 2 2 2
left_child=2 -2 5 4 7 -1 -3 8 -4 10 -8 -5
right_child=1 6 3 11 -6 -7 9 -9 -10 -11 -12 -13
leaf_value=0.026893986500799657 -0.031160163513764189 -0.016569197963437306 0.012520178549579883 -0.0058917908281411815 -0.0040738528594374658 0.010310047268867494 -0.006024367034273303 0.020270897900419579 0.00070874740236571857 -0.0097284113367398575 0.0067349131591618074 7.7056108663479489e-05
leaf_weight=25 27 23 38 23 20 20 23 21 28 36 20 24
leaf_count=25 27 23 38 23 20 20 23 21 28 36 20 24
internal_value=2.50345e-05 -0.0122209 0.00796338 0.00458547 0.00784882 0.0195233 -0.00720761 0.0105897 0.00750927 -0.00448209 -8.98181e-05 -0.00284387
internal_weight=328 129 199 154 107 45 102 87 66 79 43 47
internal_count=328 129 199 154 107 45 102 87 66 79 43 47
is_linear=0
shrinkage=0.05


Tree=53
num_leaves=14
num_cat=0
split_feature=9 22 22 9 11 4 3 21 0 4 0 9 1
split_gain=11.9377 13.8174 6.17108 2.1683 2.30771 1.9138 2.26023 1.8501 1.72423 0.903494 0.691426 0.496996 0.477275
threshold=1.3747717380025655 -0.45718045032002447 1.7068347238480244 -0.74292476154634446 0.50069441968994 0.74143463417130306 -0.5502603655266981 0.20741994076449827 0.14118128667278981 -0.95327519630980373 1.0386928374726565 0.31592348822812055 0.73572798633281777
decision_type=2 2 2 2 2 2 2 2 2 2 2 2 2
left_child=1 5 3 8 10 6 -1 -2 -3 -8 11 -5 -6
right_child=7 2 -4 4 12 -7 9 -9 -10 -11 -12 -13 -14
leaf_value=0.02739413802957405 0.013965751088800885 -0.0068714473650536749 -0.037564214017419592 -0.0068311075250116681 -0.0081350754946470268 -0.0031828953046351676 0.016636533290147783 0.034713968820869925 -0.025576652197300327 0.0042448313710720916 0.0088629030529409659 0.003652812475338578 -0.018696189947102381
leaf_weight=23 21 22 21 26 20 20 24 22 28 38 20 20 23
leaf_count=23 21 22 21 26 20 20 24 22 28 38 20 20 23
internal_value=2.37829e-05 -0.00368136 -0.0120899 -0.00872532 -0.00477072 0.0107332 0.0140076 0.0245811 -0.0173464 0.00904162 0.0011016 -0.00227288 -0.013784
internal_weight=328 285 180 159 109 105 85 43 50 62 66 46 43
internal_count=328 285 180 159 109 105 85 43 50 62 66 46 43
is_linear=0
shrinkage=0.05


Tree=54
num_leaves=14
num_cat=0
split_feature=22 17 0 3 0 0 22 3 21 12 1 22 22
split_gain=10.3847 4.37551 2.53215 1.3542 2.50001 1.5661 1.31754 1.31111 1.20835 1.34375 1.06728 0.910759 1.07389
threshold=0.11721272866111361 1.6664364011544264 -1.1370927402239897 -0.4170426594463878 0.92990355858782414 1.1746794360786972 0.61784213235549268 -0.19263850214533065 1.2203744148872715 -0.22808388729380272 0.05670184535883397 -0.45718045032002447 -0.75672555880244385
decision_type=2 2 2 2 2 2 2 2 2 2 2 2 2
left_child=2 3 10 -2 6 -6 -5 8 9 11 -1 12 -4
right_child=1 -3 7 4 5 -7 -8 -9 -10 -11 -12 -13 -14
leaf_value=0.024506728435153492 0.0039998427160422905 -0.03252488346770406 0.0093745353720372637 -0.0095898181128387279 -0.028966474048793319 -0.0091795049048960225 0.0072487052263958121 -0.0040670981756537354 -0.0041330440945568534 -0.00059859287710143977 0.0090103380917571484 0.0057279549073427916 0.025364806503057481
leaf_weight=25 22 20 21 26 20 20 21 37 21 26 20 28 21
leaf_count=25 22 20 21 26 20 20 21 37 21 26 20 28 21
internal_value=2.25937e-05 -0.0110274 0.00718565 -0.00708289 -0.00988543 -0.019073 -0.00206622 0.00413681 0.00673121 0.00910777 0.0176194 0.012713 0.0173697
internal_weight=328 129 199 109 87 40 47 154 117 96 45 70 42
internal_count=328 129 199 109 87 40 47 154 117 96 45 70 42
is_linear=0
shrinkage=0.05


Tree=55
num_leaves=13
num_cat=0
split_feature=22 9 9 3 9 16 17 0 10 0 4 0
split_gain=10.8291 13.94 5.88858 6.61237 1.54333 1.32221 1.57156 1.26131 1.14241 1.4179 0.550008 0.335049
threshold=-0.45718045032002447 1.5865413879574544 -1.1112198049461566 1.1762268573911208 -0.88103540282127912 -0.61165847495508274 0.98053482305054229 1.1746794360786972 0.93156619104946781 -0.62714299545133823 -0.29263308820338879 -1.5654505258330169
decision_type=2 2 2 2 2 2 2 2 2 2 2 2
left_child=4 2 -2 5 -1 6 -4 10 11 -10 -7 -6
right_child=1 -3 3 -5 8 7 -8 -9 9 -11 -12 -13
leaf_value=0.0024622245536496242 -0.034523051944763766 0.032173714130407288 -0.019977085434255148 -0.033371960828524262 0.013650867585092784 0.0021275554389621203 -0.0015868273133841848 0.010355027780557673 0.029567321713851846 0.01358614232125027 -0.0076629877323284752 0.0046083119343079274
leaf_weight=30 23 21 21 21 20 26 26 24 23 35 32 21
leaf_count=30 23 21 21 21 20 26 26 24 23 35 32 21
internal_value=0.00116989 -0.00629561 -0.0109653 -0.00735311 0.0123971 -0.00311748 -0.00980375 0.000714896 0.0154076 0.0199235 -0.00327412 0.00901931
internal_weight=323 194 173 150 129 129 47 82 99 58 58 41
internal_count=323 194 173 150 129 129 47 82 99 58 58 41
is_linear=0
shrinkage=0.05


Tree=56
num_leaves=12
num_cat=0
split_feature=22 9 9 22 10 9 9 22 1 22 15
split_gain=9.87938 7.24838 3.22849 4.86093 2.95843 2.22425 1.69622 2.11162 1.28356 0.782571 0.845927
threshold=0.11721272866111361 -1.000731291926215 1.5865413879574544 -0.45718045032002447 -1.4686622808882566 -0.070786307341680219 0.68421853162793278 -1.0721408649479744 -0.7825930683409269 -0.29701123462493112 0.021166658682175741
decision_type=2 2 2 2 2 2 2 2 2 2 2
left_child=2 -2 3 6 -3 -6 7 -1 -9 -5 -11
right_child=1 4 -4 9 5 -7 -8 8 -10 10 -12
leaf_value=0.019174087827559562 -0.037206879770383242 -0.021253898189890954 0.025280342139708607 -0.012622131953906754 -0.0090521653768207352 0.0084180049475674566 0.024165704135190359 -0.0021657653994714985 0.012727097146536992 0.0051653513374427954 -0.0084083561806685535
leaf_weight=32 21 21 23 23 35 38 22 39 23 24 22
leaf_count=32 21 21 23 23 35 38 22 39 23 24 22
internal_value=0.00111139 -0.0106489 0.00761345 0.00541703 -0.00471568 4.18959e-05 0.0116679 0.00874286 0.00335901 -0.00509166 -0.00132642
internal_weight=323 115 208 185 94 73 116 94 62 69 46
internal_count=323 115 208 185 94 73 116 94 62 69 46
is_linear=0
shrinkage=0.05


Tree=57
num_leaves=13
num_cat=0
split_feature=22 9 22 9 12 1 0 22 15 9 0 10
split_gain=9.14137 6.11139 7.42364 2.15524 2.75938 3.65018 2.14099 0.906844 0.805789 0.684097 0.968801 0.538173
threshold=1.4257731019635613 1.6694077727224232 -0.8427984257213964 -0.74292476154634446 -0.25925541499648591 -0.7825930683409269 -0.15798923026049896 0.47383544551861095 -0.21942203409481031 0.12256859044319972 -1.5654505258330169 -0.059605452465572896
decision_type=2 2 2 2 2 2 2 2 2 2 2 2
left_child=1 2 9 6 5 -5 -4 11 -8 10 -1 -6
right_child=-2 -3 3 4 7 -7 8 -9 -10 -11 -12 -13
leaf_value=0.020335679556730959 -0.026246917833174978 0.02729779183166102 0.0021692880063450765 -0.0046805269084870815 -0.013285031446045446 0.024151804358900891 -0.010468673655255275 0.0012594027716356019 -0.024001373155889186 0.022910676843353683 0.0062342306550849103 -0.0031905688861708931
leaf_weight=21 28 25 21 21 31 23 22 36 22 21 29 23
leaf_count=21 28 25 21 21 31 23 22 36 22 21 29 23
internal_value=0.00105582 0.00364727 0.00145741 -0.0034948 0.000129253 0.0103909 -0.0109659 -0.00488756 -0.017235 0.0153376 0.0121568 -0.00898554
internal_weight=323 295 270 199 134 44 65 90 44 71 50 54
internal_count=323 295 270 199 134 44 65 90 44 71 50 54
is_linear=0
shrinkage=0.05


Tree=58
num_leaves=13
num_cat=0
split_feature=10 22 11 4 22 21 3 11 12 1 4 4
split_gain=8.487 5.03483 2.87191 1.65053 1.1151 1.23751 1.3192 0.942511 0.941459 0.923082 0.67587 0.684
threshold=-0.66241690887059235 1.3637861533834765 -0.79601993173592611 -0.45535262607603683 -0.79374141915358154 -0.47675524034852701 -0.19263850214533065 -1.1350358375001217 -0.25574761944318253 0.29073332079589465 -0.58487255845363617 -0.14818282923682433
decision_type=2 2 2 2 2 2 2 2 2 2 2 2
left_child=1 10 3 -2 -4 -6 8 -5 -7 -8 -1 -12
right_child=2 -3 4 7 5 6 9 -9 -10 -11 11 -13
leaf_value=0.0021828954700719226 0.024043287194333973 -0.032038590514465524 0.01124773488380015 0.0026204939728843111 0.010570119276997589 -0.0038210059740339166 -0.01680402282314996 0.014675003380569466 0.0097893140950570043 -0.0021484317787160926 -0.013890716318900771 -0.0019117166796191174
leaf_weight=22 25 23 25 31 21 27 21 34 24 22 26 22
leaf_count=22 25 23 25 31 21 27 21 34 24 22 26 22
internal_value=0.00100303 -0.0117428 0.00615678 0.0131252 0.00167709 -0.000403488 -0.00285504 0.00892593 0.00258385 -0.00930581 -0.00507418 -0.00840034
internal_weight=323 93 230 90 140 115 94 65 51 43 70 48
internal_count=323 93 230 90 140 115 94 65 51 43 70 48
is_linear=0
shrinkage=0.05


Tree=59
num_leaves=12
num_cat=0
split_feature=9 10 9 3 4 9 0 9 1 18 3
split_gain=8.32806 6.97 3.35473 5.67062 2.22952 2.16041 1.6475 1.63066 1.15562 0.823279 0.462691
threshold=-1.378233711411011 0.93156619104946781 1.5865413879574544 1.1762268573911208 -0.67470642825664373 0.74867016422289268 -0.44356108733318383 -0.070786307341680219 0.1158608351751975 0.039270762917347671 -0.10572641582555607
decision_type=2 2 2 2 2 2 2 2 2 2 2
left_child=-1 2 3 4 10 6 -3 9 -9 -6 -2
right_child=1 5 -4 -5 7 -7 -8 8 -10 -11 -12
leaf_value=-0.026766194432973862 0.013073155425674353 0.019571835468350739 0.016527799326602532 -0.025884901406243443 -0.004079418347894468 0.02816203402665754 0.0029178125304028845 -0.0034425366669893266 0.011475424009508321 -0.015523905189086994 0.0031775015539356639
leaf_weight=25 27 27 23 25 33 24 33 34 21 30 21
leaf_count=25 27 27 23 25 33 24 33 34 21 30 21
internal_value=0.000952881 0.00327831 -0.00151253 -0.00368492 -0.000341552 0.0154835 0.0104121 -0.00403729 0.00225341 -0.00952917 0.00874381
internal_weight=323 298 214 191 166 84 60 118 55 63 48
internal_count=323 298 214 191 166 84 60 118 55 63 48
is_linear=0
shrinkage=0.05


Tree=60
num_leaves=11
num_cat=0
split_feature=9 9 22 3 16 17 1 12 17 3
split_gain=13.4056 6.68369 4.81207 4.37382 1.38393 1.78017 1.63237 1.42116 0.576563 0.574468
threshold=-1.378233711411011 1.6694077727224232 -0.8427984257213964 1.1762268573911208 -0.61165847495508274 0.98053482305054229 -0.7986850577092145 -0.25619017909943437 0.32265032114597686 -0.37964196656287802
decision_type=2 2 2 2 2 2 2 2 2 2
left_child=-1 2 9 4 5 -4 -6 -8 -9 -2
right_child=1 -3 3 -5 6 -7 7 8 -10 -11
leaf_value=-0.036943509178641053 0.017900906442182847 0.026904131314502311 -0.015947068399139518 -0.02494856273489339 -0.0088135988881381661 0.0011566766768737579 0.013323851211794786 -0.0030678450062527861 0.0072554397263697211 0.008031992909188072
leaf_weight=23 29 26 29 21 26 32 35 38 21 30
leaf_count=23 29 26 29 21 26 32 35 38 21 30
internal_value=-0.000214552 0.00272888 0.000320622 -0.00334853 -0.000842453 -0.00697461 0.00227473 0.00534171 0.000606544 0.0128828
internal_weight=310 287 261 202 181 61 120 94 59 59
internal_count=310 287 261 202 181 61 120 94 59 59
is_linear=0
shrinkage=0.05


Tree=61
num_leaves=11
num_cat=0
split_feature=9 9 22 10 4 12 0 19 18 19
split_gain=12.0985 6.03203 4.34289 2.08127 1.86158 1.5693 1.22932 0.563238 0.587455 0.390439
threshold=-1.378233711411011 1.6694077727224232 -0.8427984257213964 -0.47918101887847436 1.0013696614729926 -0.25619017909943437 0.86191025928480391 0.37549338088839945 0.9385231244613309 -0.8272611387325749
decision_type=2 2 2 2 2 2 2 2 2 2
left_child=-1 2 9 6 5 -5 7 8 -4 -2
right_child=1 -3 3 4 -6 -7 -8 -9 -10 -11
leaf_value=-0.035096334163909372 0.0093259222280138582 0.025558924533498402 -0.01428386134945828 0.012785591776721561 -0.0099413490891456617 -0.0015890301478951162 -0.017874224945902826 -4.5290272464626471e-05 -0.0027171496601243105 0.017918540053069594
leaf_weight=23 39 26 23 39 25 37 25 32 21 20
leaf_count=23 39 26 23 39 25 37 25 32 21 20
internal_value=-0.000203824 0.00259244 0.000304591 -0.00318111 0.00189416 0.00578742 -0.00825637 -0.00509261 -0.00876339 0.0122387
internal_weight=310 287 261 202 101 76 101 76 44 59
internal_count=310 287 261 202 101 76 101 76 44 59
is_linear=0
shrinkage=0.05


Tree=62
num_leaves=11
num_cat=0
split_feature=22 23 4 1 3 18 21 10 1 2
split_gain=7.32842 2.00987 1.30626 1.87042 1.4688 1.8587 1.49642 1.15026 0.842335 0.262881
threshold=1.4257731019635613 -1.1876060114207394 -0.83800436033197157 0.6905215884542758 -0.32443141992531649 -0.66474064003619426 1.1355915380665411 0.97476402470687629 -0.088684162633267005 1.0505108990294343
decision_type=2 2 2 2 2 2 2 2 2 2
left_child=1 -1 3 -3 5 6 -4 8 -6 -10
right_child=-2 2 4 -5 7 -7 -8 -9 9 -11
leaf_value=0.01511807182936796 -0.022852680480355048 0.014884426769068732 0.0088314831683722634 -0.0030221123918890954 -0.0058385520178957711 -0.015320238411412435 -0.0094448185947147156 0.013497234499081971 0.0015194875691589473 0.0086344236880540864
leaf_weight=28 32 35 24 25 35 33 21 20 37 20
leaf_count=28 32 35 24 25 35 33 21 20 37 20
internal_value=-0.000193633 0.0024146 0.000991814 0.00742337 -0.0010392 -0.0063071 0.000302542 0.00262951 0.000266959 0.00401596
internal_weight=310 278 250 60 190 78 45 112 92 57
internal_count=310 278 250 60 190 78 45 112 92 57
is_linear=0
shrinkage=0.05


Tree=63
num_leaves=12
num_cat=0
split_feature=9 9 3 17 4 12 3 9 4 4 16
split_gain=10.8117 5.35808 3.8964 2.24898 1.33353 1.21277 1.17239 1.30202 0.990419 0.51693 0.505952
threshold=-1.378233711411011 1.6694077727224232 1.1762268573911208 -0.80215648812755458 -0.83800436033197157 -1.2377305889078796 -0.30875874862175096 -0.17206744427662754 0.75334594442709613 0.23360582386824461 -0.61165847495508274
decision_type=2 2 2 2 2 2 2 2 2 2 2
left_child=-1 2 3 5 -5 8 7 -6 -2 10 -8
right_child=1 -3 -4 4 6 -7 9 -9 -10 -11 -12
leaf_value=-0.033168626455185209 0.012378570246731953 0.024104895077359217 -0.018894571135751905 0.0082506272038727103 -0.017170223021106722 0.018767015799880028 -0.0018155955015039392 -5.4304692894220353e-05 -0.003168437546119094 -0.0048789145010232461 0.0073027433369134091
leaf_weight=23 21 26 24 33 25 25 29 20 20 32 32
leaf_count=23 21 26 24 33 25 25 29 20 20 32 32
internal_value=-0.000183951 0.00245942 0.000303165 0.00224724 -0.000778718 0.0100872 -0.00293791 -0.00956315 0.00479466 0.000267852 0.0029678
internal_weight=310 287 261 237 171 66 138 45 41 93 61
internal_count=310 287 261 237 171 66 138 45 41 93 61
is_linear=0
shrinkage=0.05


Tree=64
num_leaves=11
num_cat=0
split_feature=22 23 11 4 1 19 19 16 16 1
split_gain=6.30539 1.74634 1.25091 1.0837 1.33678 1.02451 0.632281 0.519909 0.441463 0.406651
threshold=1.4257731019635613 -1.1876060114207394 -0.82837396735263213 -0.83800436033197157 0.6905215884542758 0.11368022390586389 -0.30978569125676553 1.0143083801379644 0.17725221387862186 0.88492770278792321
decision_type=2 2 2 2 2 2 2 2 2 2
left_child=1 -1 7 4 -4 6 -5 -3 -8 -7
right_child=-2 2 3 5 -6 9 8 -9 -10 -11
leaf_value=0.014085990270333632 -0.021192802328732798 0.011926747579127551 0.013480376455932856 -0.0020108384012832848 -0.0028706289827823642 -0.0017875566090824026 -0.015022394021686453 0.0024533013746674574 -0.0051415366542642005 0.0066665567599702635
leaf_weight=28 32 30 25 38 25 33 26 28 20 25
leaf_count=28 32 30 25 38 25 33 26 28 20 25
internal_value=-0.000174754 0.00224459 0.000918353 -0.00102556 0.00530487 -0.00325458 -0.00678363 0.00735336 -0.0107264 0.00185646
internal_weight=310 278 250 192 50 142 84 58 46 58
internal_count=310 278 250 192 50 142 84 58 46 58
is_linear=0
shrinkage=0.05


Tree=65
num_leaves=13
num_cat=0
split_feature=22 0 21 12 21 23 15 22 3 15 0 0
split_gain=5.81679 3.11068 2.59717 1.53673 0.895595 0.752356 0.877146 0.971891 0.901795 1.14848 1.27181 0.52645
threshold=1.8287375334256599 0.86191025928480391 1.1021230763988241 -0.2413185608346082 1.1725185358352903 -1.0756896169974195 -0.5760593904465775 -0.93053620714744389 -0.49041925691308252 -0.33495606944974782 -0.62714299545133823 0.032392007787957498
decision_type=2 2 2 2 2 2 2 2 2 2 2 2
left_child=1 2 5 -3 -4 -1 -7 -8 -9 -10 -11 -12
right_child=-2 3 4 -5 -6 6 7 8 9 10 11 -13
leaf_value=0.010345188510559855 -0.025290330033749343 -0.0017627530802900974 0.022226518144210183 -0.017115794168785215 0.0083436710885367721 -0.0085435708276539422 0.011455078245225278 0.0094801608295667743 0.007413368130102755 -0.015414458429551728 0.0040383220477788534 -0.0056636836448009931
leaf_weight=21 22 39 21 28 26 24 22 21 25 21 27 29
leaf_count=21 22 39 21 28 26 24 22 21 25 21 27 29
internal_value=-0.000463091 0.00133362 0.00402282 -0.00817895 0.0145466 0.00141956 0.000310461 0.00177596 4.47303e-05 -0.00189786 -0.00492098 -0.000985931
internal_weight=326 304 237 67 47 190 169 145 123 102 77 56
internal_count=326 304 237 67 47 190 169 145 123 102 77 56
is_linear=0
shrinkage=0.05


Tree=66
num_leaves=13
num_cat=0
split_feature=22 0 1 15 22 0 0 0 0 15 12 19
split_gain=5.24965 2.83067 2.44468 1.06138 1.20219 0.944778 0.820803 1.14055 1.28019 0.776801 0.58158 0.540702
threshold=1.8287375334256599 0.34516118458185058 -0.589024109523549 -0.5760593904465775 -0.93053620714744389 -0.49115639684529794 1.3242646945453413 1.0522914973332607 0.82111427970299189 -0.57811790332595281 0.38775200895304518 0.30138462615031575
decision_type=2 2 2 2 2 2 2 2 2 2 2 2
left_child=1 2 9 -4 -5 -6 7 8 11 -1 -7 -3
right_child=-2 6 3 4 5 10 -8 -9 -10 -11 -12 -13
leaf_value=0.018734174678402563 -0.024025813155722889 -0.007074863203920161 -0.009228825249842235 0.013793577839221275 -0.0055924796776191613 0.010559430757227045 -0.013672595437277446 0.0057076454093610805 -0.017035146700218322 0.0075408539626814972 -0.00023419232859921 0.0040220348785320915
leaf_weight=31 22 23 21 21 37 24 22 27 20 31 26 21
leaf_count=31 22 23 21 21 37 24 22 27 20 31 26 21
internal_value=-0.000439937 0.00126694 0.00497802 0.0010564 0.0030563 0.000464547 -0.00500578 -0.0029105 -0.00654628 0.0131375 0.00494675 -0.00177862
internal_weight=326 304 191 129 108 87 113 91 64 62 50 44
internal_count=326 304 191 129 108 87 113 91 64 62 50 44
is_linear=0
shrinkage=0.05


Tree=67
num_leaves=12
num_cat=0
split_feature=9 9 3 0 9 17 21 3 3 21 11
split_gain=8.11344 4.5113 4.95031 1.92818 2.81477 1.34484 1.18559 1.01623 0.818541 0.560243 0.269071
threshold=-1.378233711411011 1.3747717380025655 1.1762268573911208 -0.11719325067868701 -0.024749426916708818 0.31902250204966093 0.99549696515154296 -0.22612102720294849 -0.2991414275945618 0.2241116859662001 0.48658410570016958
decision_type=2 2 2 2 2 2 2 2 2 2 2
left_child=-1 2 3 6 7 -3 9 -5 -6 10 -2
right_child=1 5 -4 4 8 -7 -8 -9 -10 -11 -12
leaf_value=-0.030478971695438742 0.0095993609561656548 0.023579203394743113 -0.022541289169263717 -0.015089287362187296 0.011425091697160028 0.0063334046676754956 0.015176554272017842 -0.0032894427306018772 -0.00045462682329375166 -0.0033757438781954678 0.0024729210986859269
leaf_weight=21 26 26 24 37 29 20 28 36 29 23 27
leaf_count=21 26 26 24 37 29 20 28 36 29 23 27
internal_value=-0.00041794 0.00165184 -0.000910878 0.00129819 -0.00273725 0.016081 0.00638129 -0.00927019 0.00548523 0.00314092 0.00596891
internal_weight=326 305 259 235 131 46 104 73 58 76 53
internal_count=326 305 259 235 131 46 104 73 58 76 53
is_linear=0
shrinkage=0.05


Tree=68
num_leaves=12
num_cat=0
split_feature=9 9 22 10 4 9 3 0 1 9 4
split_gain=7.32238 4.12808 3.57762 3.00268 2.42702 1.73578 1.27533 1.05798 1.16749 0.647993 0.534882
threshold=-1.378233711411011 0.31592348822812055 0.67997166784718144 -0.64734364239333531 -0.061982991087307544 1.6694077727224232 -0.32443141992531649 -0.29397582886653933 -0.10105546081813542 -0.24572645295659198 0.11509471778460505
decision_type=2 2 2 2 2 2 2 2 2 2 2
left_child=-1 2 7 4 -3 6 -5 8 -2 10 -9
right_child=1 3 -4 5 -6 -7 -8 9 -10 -11 -12
leaf_value=-0.028955023185837838 0.010531324695031612 -0.01442816276336089 -0.017192548274114313 0.017910418242940474 0.0099092295659439916 0.027054853719614802 0.002680343609037144 -0.012093625633046031 -0.0017832203743685235 0.0038174795079976322 -0.0021910133243848882
leaf_weight=21 39 20 36 27 21 21 28 25 38 20 30
leaf_count=21 39 20 36 27 21 21 28 25 38 20 30
internal_value=-0.000397043 0.00156924 -0.00301965 0.00894285 -0.00196267 0.0148261 0.0101569 0.000337091 0.00445402 -0.00388962 -0.0066922
internal_weight=326 305 188 117 41 76 55 152 77 75 55
internal_count=326 305 188 117 41 76 55 152 77 75 55
is_linear=0
shrinkage=0.05


Tree=69
num_leaves=12
num_cat=0
split_feature=9 9 22 10 4 9 3 0 1 19 3
split_gain=6.60844 3.72559 3.2288 2.70992 2.19039 1.56654 1.15099 0.961456 1.33656 1.22795 0.388444
threshold=-1.378233711411011 0.31592348822812055 0.67997166784718144 -0.64734364239333531 -0.061982991087307544 1.6694077727224232 -0.32443141992531649 -0.44356108733318383 -0.10105546081813542 0.20404320648427413 -0.30448438372077807
decision_type=2 2 2 2 2 2 2 2 2 2 2
left_child=-1 2 7 4 -3 6 -5 8 -2 10 -9
right_child=1 3 -4 5 -6 -7 -8 9 -10 -11 -12
leaf_value=-0.027507272522364346 0.011967454515097691 -0.013706754851154985 -0.016332920606590858 0.017014897387923191 0.0094137677601316867 0.025702111352057685 0.0025463267146343636 -0.010469054490386043 -0.0021580723059528013 0.0076238114747684453 -0.0027376382851578072
leaf_weight=21 33 20 36 27 21 21 28 32 34 20 33
leaf_count=21 33 20 36 27 21 21 28 32 34 20 33
internal_value=-0.000377191 0.00149078 -0.00286867 0.00849571 -0.00186454 0.0140848 0.00964908 0.000320237 0.00479928 -0.0032103 -0.00654387
internal_weight=326 305 188 117 41 76 55 152 67 85 65
internal_count=326 305 188 117 41 76 55 152 67 85 65
is_linear=0
shrinkage=0.05


Tree=70
num_leaves=13
num_cat=0
split_feature=9 9 17 0 9 3 9 1 0 4 18 11
split_gain=6.52006 4.09879 3.70607 1.52622 1.38171 1.15777 0.861673 1.66047 0.907778 0.480222 0.424245 0.388379
threshold=-1.2585378223060752 1.6694077727224232 -0.89554718048732129 -1.0826981007815735 0.31592348822812055 1.1762268573911208 -0.070786307341680219 0.1158608351751975 -0.11719325067868701 0.55111838328712992 0.039270762917347671 0.22006303083792919
decision_type=2 2 2 2 2 2 2 2 2 2 2 2
left_child=-1 2 4 -4 9 6 8 11 -5 -2 -10 -8
right_child=1 -3 3 5 -6 -7 7 -9 10 -11 -12 -13
leaf_value=-0.021913447889188926 0.011510833104451498 0.021937111496925357 0.0084775804971846253 0.0005669727008789778 0.022131759934127332 -0.015524717899305479 -0.0088622632902115583 0.010963865630149556 -0.0067832791853858071 0.00081790806559313618 -0.016740400025155394 0.00016425431663678452
leaf_weight=30 21 25 26 25 20 21 26 26 23 21 20 22
leaf_count=30 21 25 26 25 20 21 26 26 23 21 20 22
internal_value=0.000224076 0.00263033 0.000707342 -0.00277246 0.0113151 -0.00456695 -0.00294644 0.000787233 -0.00700955 0.00616437 -0.0114145 -0.00472511
internal_weight=306 276 251 189 62 163 142 74 68 42 43 48
internal_count=306 276 251 189 62 163 142 74 68 42 43 48
is_linear=0
shrinkage=0.05


Tree=71
num_leaves=11
num_cat=0
split_feature=9 9 17 0 4 9 0 22 10 1
split_gain=5.88436 3.69915 3.34473 1.37741 1.25354 0.767057 1.22865 0.874483 0.837409 0.62083
threshold=-1.2585378223060752 1.6694077727224232 -0.89554718048732129 -1.0826981007815735 0.57247065666626262 -0.070786307341680219 -0.11719325067868701 0.038135545583132931 -0.47636785414232513 0.0086119118131421906
decision_type=2 2 2 2 2 2 2 2 2 2
left_child=-1 2 4 -4 -2 6 -5 -7 -8 -9
right_child=1 -3 3 5 -6 7 8 9 -10 -11
leaf_value=-0.02081777522340417 0.017201212240444661 0.020840255580842498 0.0080537012276741173 0.00046658710510070838 0.0029150218486652842 -0.0084859753924387479 -0.019085937366820873 -0.0037497774309789146 -0.0061444605831056836 0.0067535070942112202
leaf_weight=30 34 25 26 28 28 27 25 24 25 34
leaf_count=30 34 25 26 28 28 27 25 24 25 34
internal_value=0.000212872 0.00249881 0.000671975 -0.00263384 0.0107494 -0.0043386 -0.00791917 -0.0010529 -0.0126152 0.00240732
internal_weight=306 276 251 189 62 163 78 85 50 58
internal_count=306 276 251 189 62 163 78 85 50 58
is_linear=0
shrinkage=0.05


Tree=72
num_leaves=13
num_cat=0
split_feature=9 9 17 9 22 3 17 16 12 9 23 23
split_gain=5.31063 3.33849 3.01862 1.24671 1.20571 1.08242 1.15129 1.61111 1.01999 0.369541 0.264518 0.234722
threshold=-1.2585378223060752 1.6694077727224232 -0.89554718048732129 0.31592348822812055 -0.93053620714744389 1.1762268573911208 0.98053482305054229 -0.61165847495508274 1.0000000180025095e-35 -0.33780021380654507 -0.56658540009752423 0.93419037357395218
decision_type=2 2 2 2 2 2 2 2 2 2 2 2
left_child=-1 2 3 9 -4 6 7 -6 10 -2 -9 -12
right_child=1 -3 4 -5 5 -7 -8 8 -10 -11 11 -13
leaf_value=-0.019776886717105906 0.0097910117823630585 0.019798243135213854 0.0087933572363995387 0.020486550731584431 -0.015680762083054738 -0.0145325528723853 0.0059912046373938217 -0.00050156077458744959 0.0065786137607776463 0.00040027329465374355 -0.011094221172832132 -0.0035256508830934768
leaf_weight=30 22 25 21 20 26 21 32 21 27 20 21 20
leaf_count=30 22 25 21 20 26 21 32 21 27 20 21 20
internal_value=0.000202229 0.00237387 0.000638376 0.0102119 -0.00250215 -0.00391409 -0.00239716 -0.00473132 -0.00153261 0.00531923 -0.00506491 -0.00740224
internal_weight=306 276 251 62 189 168 147 115 89 42 62 41
internal_count=306 276 251 62 189 168 147 115 89 42 62 41
is_linear=0
shrinkage=0.05


Tree=73
num_leaves=10
num_cat=0
split_feature=9 9 17 4 3 5 19 23 9
split_gain=4.79284 3.01298 2.72431 1.13489 0.849165 0.897726 0.625507 0.776976 0.417911
threshold=-1.2585378223060752 1.6694077727224232 -0.89554718048732129 0.48320397325881642 0.81789259985959084 1.0000000180025095e-35 -0.33951175726519683 0.72535668913456164 0.067324333933234018
decision_type=2 2 2 2 2 2 2 2 2
left_child=-1 2 3 -2 5 6 7 -4 -8
right_child=1 -3 4 -5 -6 -7 8 -9 -10
leaf_value=-0.018788042371161284 0.016687923048933347 0.018808331366628409 0.0070447249131070245 0.0031513782188994813 -0.010092701697722077 0.0059009100914605567 -0.0095203952887692525 -0.0051880140826106071 -0.0017427530770580614
leaf_weight=30 30 25 27 32 30 37 39 25 31
leaf_count=30 30 25 27 32 30 37 39 25 31
internal_value=0.000192117 0.00225518 0.000606458 0.00970132 -0.00237704 -0.000921257 -0.00299027 0.0011636 -0.00607601
internal_weight=306 276 251 62 189 159 122 52 70
internal_count=306 276 251 62 189 159 122 52 70
is_linear=0
shrinkage=0.05


Tree=74
num_leaves=11
num_cat=0
split_feature=9 9 17 4 0 3 5 23 2 9
split_gain=4.34636 2.79044 2.29309 1.50461 1.2551 0.954596 0.730583 0.406836 0.750156 0.457906
threshold=-1.378233711411011 1.6694077727224232 -0.89554718048732129 0.57247065666626262 -1.0826981007815735 0.81789259985959084 1.0000000180025095e-35 -0.59773738617411809 -0.19785104092055947 -0.17206744427662754
decision_type=2 2 2 2 2 2 2 2 2 2
left_child=-1 2 3 -2 -4 6 7 -6 -9 -10
right_child=1 -3 4 -5 5 -7 -8 8 9 -11
leaf_value=-0.020243862131610516 0.015549756647752863 0.017867914448375814 0.007437932291733367 0.00014912927491140778 0.001618086951582328 -0.012423443138998534 0.0044600104868051512 -0.011463570006723916 -0.0061448209160180007 0.0036995328519315949
leaf_weight=24 35 25 28 29 23 28 31 35 27 21
leaf_count=24 35 25 28 29 23 28 31 35 27 21
internal_value=0.000182511 0.00192093 0.000369663 0.00857135 -0.00235007 -0.00401106 -0.00229174 -0.00426631 -0.00589693 -0.00183792
internal_weight=306 282 257 64 193 165 137 106 83 48
internal_count=306 282 257 64 193 165 137 106 83 48
is_linear=0
shrinkage=0.05


Tree=75
num_leaves=13
num_cat=0
split_feature=0 9 4 17 9 0 4 4 4 21 23 9
split_gain=5.55676 5.37963 2.65765 1.29339 1.57987 1.13578 0.993048 0.993956 0.911281 0.90367 0.740956 0.341604
threshold=0.30436520500003833 -1.000731291926215 0.77936984285464861 0.50656259798299819 0.74867016422289268 -1.5654505258330169 0.31547701051247917 -0.19312189708367652 -0.42549303858338755 1.1239219206390747 -0.048539409416384231 -0.54036248767644979
decision_type=2 2 2 2 2 2 2 2 2 2 2 2
left_child=3 -2 6 4 5 -1 7 -3 11 -10 -5 -7
right_child=1 2 -4 10 -6 8 -8 -9 9 -11 -12 -13
leaf_value=0.013974900819037274 -0.030033717257902028 0.0051128913015127189 -0.015044765435159209 -0.0087765666716934556 0.016422306911221575 0.00080753249232657265 0.011245917440392078 -0.0089864406548440454 0.014279171582311394 -0.00057136672548949716 0.0037821620616644703 -0.0083230513813240189
leaf_weight=23 24 25 35 23 35 20 20 25 20 21 24 21
leaf_count=23 24 25 35 23 35 20 20 25 20 21 24 21
internal_value=-0.000693768 -0.00867672 -0.00379512 0.00481319 0.00722253 0.00415594 0.00182971 -0.00193677 0.00140185 0.0066728 -0.0023636 -0.00386911
internal_weight=316 129 105 187 140 105 70 50 82 41 47 41
internal_count=316 129 105 187 140 105 70 50 82 41 47 41
is_linear=0
shrinkage=0.05


Tree=76
num_leaves=12
num_cat=0
split_feature=4 10 16 15 4 9 9 4 19 4 1
split_gain=3.91501 2.54968 2.23783 1.92903 0.947151 1.82786 0.871546 0.815911 0.758248 0.563486 1.19824
threshold=0.74143463417130306 1.1200348721400935 -0.61165847495508274 -0.33649995410927941 -0.58487255845363617 1.0000000180025095e-35 -0.17206744427662754 -0.67470642825664373 -0.78319764677432868 -0.91666517644308632 -0.088684162633267005
decision_type=2 2 2 2 2 2 2 2 2 2 2
left_child=2 -2 4 8 -1 -6 7 -5 -4 -8 -11
right_child=1 -3 3 6 5 -7 9 -9 -10 10 -12
leaf_value=0.0040989814281818414 -0.026021118123422973 -0.0039093413372029316 0.0075033174340867195 0.0040777595025278503 -0.016679609983017849 0.0007841477857035554 -0.0010704829668005309 -0.0071915664244443182 0.020630737436427314 0.00084529779991135011 0.016176274719719701
leaf_weight=21 22 32 22 29 31 29 21 36 22 25 26
leaf_count=21 22 32 22 29 31 29 21 36 22 25 26
internal_value=-0.00065908 -0.0129178 0.00186754 0.0049588 -0.00504011 -0.00823879 0.00203353 -0.00216371 0.014067 0.00582271 0.00866109
internal_weight=316 54 262 181 81 60 137 65 44 72 51
internal_count=316 54 262 181 81 60 137 65 44 72 51
is_linear=0
shrinkage=0.05


Tree=77
num_leaves=13
num_cat=0
split_feature=0 17 1 18 1 0 15 11 3 15 0 3
split_gain=4.89476 4.80917 1.09098 1.0445 0.740711 0.916935 0.836597 0.936247 0.674383 0.427065 0.468885 0.296064
threshold=0.86191025928480391 0.50656259798299819 -0.76826840728476353 0.96801058214262148 0.76837705146732027 0.30436520500003833 -0.55959128741157527 -0.87824610283738247 -0.14526429115955161 0.435442375656451 -1.1370927402239897 -0.32158184332466783
decision_type=2 2 2 2 2 2 2 2 2 2 2 2
left_child=3 2 -2 4 5 6 7 -1 -4 10 -8 -12
right_child=1 -3 8 -5 -6 -7 9 -9 -10 -11 11 -13
leaf_value=0.017537532543318104 -0.012835740493313137 -0.031604704663567691 0.0073563870135694744 -0.0056916702057010146 0.011185835788766032 -0.0043764192498091494 0.0066261069383472208 0.0031098632790169424 -0.005329526410522787 0.0083513140018718953 -0.0060982267208880966 0.0017828483811833642
leaf_weight=23 23 21 20 29 34 33 20 22 22 21 26 22
leaf_count=23 23 21 20 29 34 33 20 22 22 21 26 22
internal_value=-0.000626126 -0.0108028 -0.00408221 0.00317907 0.00445893 0.00308938 0.00492798 0.010484 0.000711385 0.00211875 0.000193984 -0.00248607
internal_weight=316 86 65 230 201 167 134 45 42 89 68 48
internal_count=316 86 65 230 201 167 134 45 42 89 68 48
is_linear=0
shrinkage=0.05


Tree=78
num_leaves=12
num_cat=0
split_feature=0 9 18 9 0 22 15 1 19 15 1
split_gain=4.41752 4.64836 0.94529 1.91825 2.15925 1.66383 0.747451 0.711568 0.366431 0.761764 0.529199
threshold=0.86191025928480391 -0.54036248767644979 1.5907188436468835 0.509278386013021 -0.67473830496345244 -1.0721408649479744 -0.49680664459062934 0.76130773821882414 -0.37191791328531448 -0.29249924131263266 -0.12058908953108564
decision_type=2 2 2 2 2 2 2 2 2 2 2
left_child=2 -2 3 5 -5 -1 -3 8 9 -7 -10
right_child=1 6 -4 4 -6 7 -8 -9 10 -11 -12
leaf_value=0.011698112403973938 -0.02744631145011496 -0.010257719170767815 -0.0063709840372515219 -0.0011615460179746151 0.019328819101469386 0.0047310744757733999 0.0016311345230907394 0.0071425695717334745 -0.011608931204924983 -0.006999608348822222 -0.00059644561260938653
leaf_weight=30 27 20 24 20 36 31 39 20 24 25 20
leaf_count=30 27 20 24 20 36 31 39 20 24 25 20
internal_value=-0.00059482 -0.0102627 0.00302012 0.00411423 0.0120108 0.00116616 -0.00239899 -0.00146682 -0.0031887 -0.000505837 -0.00660326
internal_weight=316 86 230 206 56 150 59 120 100 56 44
internal_count=316 86 230 206 56 150 59 120 100 56 44
is_linear=0
shrinkage=0.05


Tree=79
num_leaves=13
num_cat=0
split_feature=0 17 2 18 4 12 15 4 15 15 1 11
split_gain=3.98681 4.36934 1.03379 0.853124 0.647107 0.575798 0.493334 0.56013 0.957246 0.950278 0.598283 0.305473
threshold=0.86191025928480391 0.50656259798299819 -0.19785104092055947 1.5907188436468835 -0.83800436033197157 0.35820877999680528 1.0000000180025095e-35 0.74143463417130306 -0.57811790332595281 -0.36274599332131413 -0.41164015735404397 -0.40972519260802093
decision_type=2 2 2 2 2 2 2 2 2 2 2 2
left_child=3 2 -2 4 5 11 7 8 -6 -10 -11 -1
right_child=1 -3 -4 -5 6 -7 -8 -9 9 10 -12 -13
leaf_value=0.0089144846779249977 -0.0097470209790117227 -0.02957740684616424 0.0028657333050487624 -0.0060524349585951622 0.012882085857147882 0.014635591698937456 -0.0039194502468620036 -0.0038878069747061957 -0.0072445797361433504 0.00046131670436200993 0.012017496548859138 0.00038619611212717636
leaf_weight=21 32 21 33 24 28 22 28 21 20 24 21 21
leaf_count=21 32 21 33 24 28 22 28 21 20 24 21 21
internal_value=-0.000565079 -0.00974955 -0.00334362 0.00286911 0.00390852 0.00808277 0.00202716 0.00348774 0.00515318 0.00182381 0.0058542 0.00465034
internal_weight=316 86 65 230 206 64 142 114 93 65 45 42
internal_count=316 86 65 230 206 64 142 114 93 65 45 42
is_linear=0
shrinkage=0.05


Tree=80
num_leaves=11
num_cat=0
split_feature=9 9 11 12 11 11 9 21 0 18
split_gain=2.88417 1.77518 1.5235 1.83101 0.844367 1.15294 0.72354 0.824999 0.46158 0.410177
threshold=1.6694077727224232 -1.378233711411011 -0.82837396735263213 -1.251765662238602 0.94629352968277403 0.21329603318873061 -0.24572645295659198 0.25365309619204701 0.521943762769703 0.36531300462422539
decision_type=2 2 2 2 2 2 2 2 2 2
left_child=1 -1 3 -3 5 6 -4 -8 -7 -6
right_child=-2 2 4 -5 9 8 7 -9 -10 -11
leaf_value=-0.012512561989327273 0.020141994059085847 -0.0015591937762040359 -0.0071138075928991809 0.015853791021638447 -0.0019217136650695466 0.0028030784361274732 -0.0048118894337676466 0.0079288395570108177 0.011659526352637582 -0.010568781417653857
leaf_weight=24 20 26 39 36 32 31 24 27 28 24
leaf_count=24 20 26 39 36 32 31 24 27 28 24
internal_value=0.00177526 0.000512946 0.00168378 0.00855157 -0.00039331 0.00157394 -0.00198717 0.0019332 0.00700614 -0.0056276
internal_weight=311 291 267 62 205 149 90 51 59 56
internal_count=311 291 267 62 205 149 90 51 59 56
is_linear=0
shrinkage=0.05


Tree=81
num_leaves=12
num_cat=0
split_feature=9 9 0 2 16 23 12 19 0 19 12
split_gain=2.60296 1.63007 4.17287 1.58095 1.36582 0.559202 0.619275 0.545061 0.893376 1.22841 0.934438
threshold=1.6694077727224232 -0.74292476154634446 -0.52515304649680805 0.18088304053073362 -0.61165847495508274 1.0000000180025095e-35 1.3441770833266908 0.37549338088839945 0.38595716416366249 -0.45295218529675818 -1.2373793862018485
decision_type=2 2 2 2 2 2 2 2 2 2 2
left_child=1 2 -1 -4 5 -3 -7 8 9 10 -6
right_child=-2 4 3 -5 7 6 -8 -9 -10 -11 -12
leaf_value=0.011350057566260847 0.019134894362650812 -0.0098181775815430142 -0.0066082384008424068 -0.023702636254685269 0.010736000095633139 -0.0058330818989568139 0.0060304922813718973 0.012043222655645676 -0.0034353586821014 0.017563982047140599 -0.0015012216909478108
leaf_weight=26 20 21 38 21 26 22 22 27 29 20 39
leaf_count=26 20 21 38 21 26 22 22 27 29 20 39
internal_value=0.0016865 0.000487299 -0.00533843 -0.0126927 0.00289112 -0.00310521 9.87052e-05 0.00565539 0.00414248 0.00672786 0.00339367
internal_weight=311 291 85 59 206 65 44 141 114 85 65
internal_count=311 291 85 59 206 65 44 141 114 85 65
is_linear=0
shrinkage=0.05


Tree=82
num_leaves=11
num_cat=0
split_feature=9 9 11 11 11 11 3 9 21 0
split_gain=2.34918 1.50532 1.28998 1.66888 0.705287 0.998594 0.825095 0.621687 0.728482 0.394724
threshold=1.6694077727224232 -1.378233711411011 -0.82837396735263213 -1.2474384458995049 0.94629352968277403 0.21329603318873061 0.61165449338766609 -0.24572645295659198 0.25365309619204701 0.521943762769703
decision_type=2 2 2 2 2 2 2 2 2 2
left_child=1 -1 3 -3 5 7 -6 -4 -9 -7
right_child=-2 2 4 -5 6 9 -8 8 -10 -11
leaf_value=-0.011531707753116887 0.018178149739978836 -0.00089006445466958256 -0.0066385335957583717 0.015550710176202385 -0.00027198159163269929 0.0025965252372946953 -0.012698948933658276 -0.0045907050502137286 0.0073815812960405045 0.010786507434854035
leaf_weight=24 20 29 39 33 34 31 22 24 27 28
leaf_count=24 20 29 39 33 34 31 22 24 27 28
internal_value=0.00160218 0.000462934 0.0015411 0.00786067 -0.000370179 0.00142777 -0.005154 -0.00188641 0.00174756 0.0064833
internal_weight=311 291 267 62 205 149 56 90 51 59
internal_count=311 291 267 62 205 149 56 90 51 59
is_linear=0
shrinkage=0.05


Tree=83
num_leaves=13
num_cat=0
split_feature=9 9 18 2 18 17 0 22 0 23 12 15
split_gain=2.12013 1.35855 1.1508 1.34385 0.7509 0.889539 0.86173 0.535036 0.473684 0.375062 0.527199 0.30753
threshold=1.6694077727224232 -1.378233711411011 -0.66856269331761042 -0.63823950772438853 -0.38134294088028781 0.50656259798299819 1.0114955177514484 -0.32263035238096782 0.38595716416366249 1.0000000180025095e-35 1.3441770833266908 -0.43453662998952702
decision_type=2 2 2 2 2 2 2 2 2 2 2 2
left_child=1 -1 3 8 7 6 -6 -4 11 -7 -11 -3
right_child=-2 2 4 -5 5 9 -8 -9 -10 10 -12 -13
