{"learner":{"attributes":{"scikit_learn":"{\"_estimator_type\": \"regressor\"}"},"feature_names":[],"feature_types":[],"gradient_booster":{"model":{"cats":{"enc":[],"feature_segments":[],"sorted_idx":[]},"gbtree_model_param":{"num_parallel_tree":"1","num_trees":"50"},"iteration_indptr":[0,1,2,3,4,5,6,7,8,9,10,11,12,13,14,15,16,17,18,19,20,21,22,23,24,25,26,27,28,29,30,31,32,33,34,35,36,37,38,39,40,41,42,43,44,45,46,47,48,49,50],"tree_info":[0,0,0,0,0,0,0,0,0,0,0,0,0,0,0,0,0,0,0,0,0,0,0,0,0,0,0,0,0,0,0,0,0,0,0,0,0,0,0,0,0,0,0,0,0,0,0,0,0,0],"trees":[{"base_weights":[-5.8075618E-2,-1.9227525E0,2.0280302E0,-1.6155644E-1,-4.746784E-2,4.408166E-2,1.3678163E-1],"categories":[],"categories_nodes":[],"categories_segments":[],"categories_sizes":[],"default_left":[0,0,0,0,0,0,0],"id":0,"left_children":[1,3,5,-1,-1,-1,-1],"loss_changes":[1.1125247E3,1.8924133E2,1.07099304E2,0E0,0E0,0E0,0E0],"parents":[2147483647,0,0,1,1,2,2],"right_children":[2,4,6,-1,-1,-1,-1],"split_conditions":[1.8763244E-1,-9.002773E-1,-2.4564075E-1,-1.6155644E-1,-4.746784E-2,4.408166E-2,1.3678163E-1],"split_indices":[21,16,9,0,0,0,0],"split_type":[0,0,0,0,0,0,0],"sum_hessian":[2.84E2,1.5E2,1.34E2,6.3E1,8.7E1,5.2E1,8.2E1],"tree_param":{"num_deleted":"0","num_feature":"24","num_nodes":"7","size_leaf_vector":"1"}},{"base_weights":[-1.6363762E-1,-2.4139361E0,1.3286527E0,-1.9197327E-1,-8.150115E-2,2.1587943E-3,1.0968474E-1],"categories":[],"categories_nodes":[],"categories_segments":[],"categories_sizes":[],"default_left":[0,0,0,0,0,0,0],"id":1,"left_children":[1,3,5,-1,-1,-1,-1],"loss_changes":[9.4347504E2,1.18900635E2,1.8783191E2,0E0,0E0,0E0,0E0],"parents":[2147483647,0,0,1,1,2,2],"right_children":[2,4,6,-1,-1,-1,-1],"split_conditions":[-5.628481E-1,-1.087277E0,3.879311E-1,-1.9197327E-1,-8.150115E-2,2.1587943E-3,1.0968474E-1],"split_indices":[21,16,16,0,0,0,0],"split_type":[0,0,0,0,0,0,0],"sum_hessian":[2.79E2,1.11E2,1.68E2,3.8E1,7.3E1,6.8E1,1E2],"tree_param":{"num_deleted":"0","num_feature":"24","num_nodes":"7","size_leaf_vector":"1"}},{"base_weights":[1.8340465E-2,-2.298369E0,1.2538168E0,-1.9225778E-1,-7.135566E-2,1.0597148E-1,4.734485E-3],"categories":[],"categories_nodes":[],"categories_segments":[],"categories_sizes":[],"default_left":[0,0,0,0,0,0,0],"id":2,"left_children":[1,3,5,-1,-1,-1,-1],"loss_changes":[7.899977E2,1.2388663E2,1.8040326E2,0E0,0E0,0E0,0E0],"parents":[2147483647,0,0,1,1,2,2],"right_children":[2,4,6,-1,-1,-1,-1],"split_conditions":[-6.060208E-1,-1.1973845E0,-3.9396408E-1,-1.9225778E-1,-7.135566E-2,1.0597148E-1,4.734485E-3],"split_indices":[10,10,12,0,0,0,0],"split_type":[0,0,0,0,0,0,0],"sum_hessian":[2.74E2,9.5E1,1.79E2,3.3E1,6.2E1,1.02E2,7.7E1],"tree_param":{"num_deleted":"0","num_feature":"24","num_nodes":"7","size_leaf_vector":"1"}},{"base_weights":[1.18154526E-1,1.6585147E0,-1.6269456E0,2.932756E-2,1.1872747E-1,-1.4530568E-1,-4.9179073E-2],"categories":[],"categories_nodes":[],"categories_segments":[],"categories_sizes":[],"default_left":[0,0,0,0,0,0,0],"id":3,"left_children":[1,3,5,-1,-1,-1,-1],"loss_changes":[7.7955426E2,1.1681195E2,1.0906558E2,0E0,0E0,0E0,0E0],"parents":[2147483647,0,0,1,1,2,2],"right_children":[2,4,6,-1,-1,-1,-1],"split_conditions":[-3.097784E-2,7.489298E-1,-1.0567725E0,2.932756E-2,1.1872747E-1,-1.4530568E-1,-4.9179073E-2],"split_indices":[12,10,10,0,0,0,0],"split_type":[0,0,0,0,0,0,0],"sum_hessian":[2.88E2,1.53E2,1.35E2,6.2E1,9.1E1,4.4E1,9.1E1],"tree_param":{"num_deleted":"0","num_feature":"24","num_nodes":"7","size_leaf_vector":"1"}},{"base_weights":[-1.0229578E-1,1.4743629E0,-1.5772308E0,2.346956E-2,1.0563612E-1,3.4305137E-2,-1.01758756E-1],"categories":[],"categories_nodes":[],"categories_segments":[],"categories_sizes":[],"default_left":[0,0,0,0,0,0,0],"id":4,"left_children":[1,3,5,-1,-1,-1,-1],"loss_changes":[7.022915E2,9.267218E1,1.6308734E2,0E0,0E0,0E0,0E0],"parents":[2147483647,0,0,1,1,2,2],"right_children":[2,4,6,-1,-1,-1,-1],"split_conditions":[-1.4839642E-1,6.9682497E-1,-5.7186806E-1,2.346956E-2,1.0563612E-1,3.4305137E-2,-1.01758756E-1],"split_indices":[12,21,19,0,0,0,0],"split_type":[0,0,0,0,0,0,0],"sum_hessian":[3E2,1.45E2,1.55E2,5.7E1,8.8E1,2.6E1,1.29E2],"tree_param":{"num_deleted":"0","num_feature":"24","num_nodes":"7","size_leaf_vector":"1"}},{"base_weights":[5.467979E-2,1.6813282E0,-1.3716333E0,4.912421E-2,1.3720106E-1,-1.1367178E-1,1.5965926E-4],"categories":[],"categories_nodes":[],"categories_segments":[],"categories_sizes":[],"default_left":[0,0,0,0,0,0,0],"id":5,"left_children":[1,3,5,-1,-1,-1,-1],"loss_changes":[6.704978E2,9.756268E1,1.9093976E2,0E0,0E0,0E0,0E0],"parents":[2147483647,0,0,1,1,2,2],"right_children":[2,4,6,-1,-1,-1,-1],"split_conditions":[-2.008807E-1,2.587167E-1,5.323773E-2,4.912421E-2,1.3720106E-1,-1.1367178E-1,1.5965926E-4],"split_indices":[12,9,9,0,0,0,0],"split_type":[0,0,0,0,0,0,0],"sum_hessian":[2.87E2,1.34E2,1.53E2,8.2E1,5.2E1,9.2E1,6.1E1],"tree_param":{"num_deleted":"0","num_feature":"24","num_nodes":"7","size_leaf_vector":"1"}},{"base_weights":[2.7709872E-2,1.2520293E0,-1.6118679E0,7.0836046E-3,9.386319E-2,4.8591E-2,-9.8450825E-2],"categories":[],"categories_nodes":[],"categories_segments":[],"categories_sizes":[],"default_left":[0,0,0,0,0,0,0],"id":6,"left_children":[1,3,5,-1,-1,-1,-1],"loss_changes":[5.54044E2,1.0942297E2,1.10799194E2,0E0,0E0,0E0,0E0],"parents":[2147483647,0,0,1,1,2,2],"right_children":[2,4,6,-1,-1,-1,-1],"split_conditions":[4.6781925E-3,5.3992903E-1,-6.0059035E-1,7.0836046E-3,9.386319E-2,4.8591E-2,-9.8450825E-2],"split_indices":[17,10,22,0,0,0,0],"split_type":[0,0,0,0,0,0,0],"sum_hessian":[2.74E2,1.57E2,1.17E2,5.7E1,1E2,1.4E1,1.03E2],"tree_param":{"num_deleted":"0","num_feature":"24","num_nodes":"7","size_leaf_vector":"1"}},{"base_weights":[-1.2317219E-2,-1.786975E0,1.0545406E0,3.874325E-2,-1.0747576E-1,8.552771E-2,4.3763607E-3],"categories":[],"categories_nodes":[],"categories_segments":[],"categories_sizes":[],"default_left":[0,0,0,0,0,0,0],"id":7,"left_children":[1,3,5,-1,-1,-1,-1],"loss_changes":[5.395838E2,1.01043945E2,1.1276886E2,0E0,0E0,0E0,0E0],"parents":[2147483647,0,0,1,1,2,2],"right_children":[2,4,6,-1,-1,-1,-1],"split_conditions":[-6.060208E-1,-8.900748E-1,-3.9396408E-1,3.874325E-2,-1.0747576E-1,8.552771E-2,4.3763607E-3],"split_indices":[10,4,12,0,0,0,0],"split_type":[0,0,0,0,0,0,0],"sum_hessian":[2.83E2,1.06E2,1.77E2,1.3E1,9.3E1,1.05E2,7.2E1],"tree_param":{"num_deleted":"0","num_feature":"24","num_nodes":"7","size_leaf_vector":"1"}},{"base_weights":[-2.8946256E-2,-1.1152487E0,1.5721744E0,-2.597566E-2,-1.5043072E-1,4.7340143E-2,1.291373E-1],"categories":[],"categories_nodes":[],"categories_segments":[],"categories_sizes":[],"default_left":[0,0,0,0,0,0,0],"id":8,"left_children":[1,3,5,-1,-1,-1,-1],"loss_changes":[4.90497E2,1.8793176E2,6.960071E1,0E0,0E0,0E0,0E0],"parents":[2147483647,0,0,1,1,2,2],"right_children":[2,4,6,-1,-1,-1,-1],"split_conditions":[4.2750794E-1,1.1435672E0,2.587167E-1,-2.597566E-2,-1.5043072E-1,4.7340143E-2,1.291373E-1],"split_indices":[10,17,9,0,0,0,0],"split_type":[0,0,0,0,0,0,0],"sum_hessian":[2.8E2,1.67E2,1.13E2,1.28E2,3.9E1,7.1E1,4.2E1],"tree_param":{"num_deleted":"0","num_feature":"24","num_nodes":"7","size_leaf_vector":"1"}},{"base_weights":[-5.1584277E-2,-9.5381325E-1,1.5509866E0,-1.2634556E-1,-2.021334E-2,9.202085E-2,4.645216E-2],"categories":[],"categories_nodes":[],"categories_segments":[],"categories_sizes":[],"default_left":[0,0,0,0,0,0,0],"id":9,"left_children":[1,3,5,-1,-1,-1,-1],"loss_changes":[4.2946158E2,1.6323161E2,1.7551178E1,0E0,0E0,0E0,0E0],"parents":[2147483647,0,0,1,1,2,2],"right_children":[2,4,6,-1,-1,-1,-1],"split_conditions":[5.3992903E-1,-1.0567725E0,-3.1346118E-1,-1.2634556E-1,-2.021334E-2,9.202085E-2,4.645216E-2],"split_indices":[10,10,19,0,0,0,0],"split_type":[0,0,0,0,0,0,0],"sum_hessian":[2.95E2,1.89E2,1.06E2,4.8E1,1.41E2,7.1E1,3.5E1],"tree_param":{"num_deleted":"0","num_feature":"24","num_nodes":"7","size_leaf_vector":"1"}},{"base_weights":[-7.208916E-2,1.1375549E0,-1.3624336E0,3.022751E-2,1.096079E-1,-1.2573239E-1,-6.4210477E-3],"categories":[],"categories_nodes":[],"categories_segments":[],"categories_sizes":[],"default_left":[0,0,0,0,0,0,0],"id":10,"left_children":[1,3,5,-1,-1,-1,-1],"loss_changes":[4.8073312E2,8.804999E1,2.1153223E2,0E0,0E0,0E0,0E0],"parents":[2147483647,0,0,1,1,2,2],"right_children":[2,4,6,-1,-1,-1,-1],"split_conditions":[-1.9522959E-1,4.0815595E-1,-9.620152E-2,3.022751E-2,1.096079E-1,-1.2573239E-1,-6.4210477E-3],"split_indices":[22,9,9,0,0,0,0],"split_type":[0,0,0,0,0,0,0],"sum_hessian":[3.06E2,1.58E2,1.48E2,1.06E2,5.2E1,7.6E1,7.2E1],"tree_param":{"num_deleted":"0","num_feature":"24","num_nodes":"7","size_leaf_vector":"1"}},{"base_weights":[1.5121125E-2,-1.4679686E0,8.42618E-1,-1.0117461E-1,2.5197953E-2,1.0049588E-2,1.0507693E-1],"categories":[],"categories_nodes":[],"categories_segments":[],"categories_sizes":[],"default_left":[0,0,0,0,0,0,0],"id":11,"left_children":[1,3,5,-1,-1,-1,-1],"loss_changes":[3.460948E2,1.1166046E2,1.4578152E2,0E0,0E0,0E0,0E0],"parents":[2147483647,0,0,1,1,2,2],"right_children":[2,4,6,-1,-1,-1,-1],"split_conditions":[-5.579654E-1,7.81754E-1,4.0815595E-1,-1.0117461E-1,2.5197953E-2,1.0049588E-2,1.0507693E-1],"split_indices":[21,9,9,0,0,0,0],"split_type":[0,0,0,0,0,0,0],"sum_hessian":[2.8E2,1E2,1.8E2,7.8E1,2.2E1,1.2E2,6E1],"tree_param":{"num_deleted":"0","num_feature":"24","num_nodes":"7","size_leaf_vector":"1"}},{"base_weights":[-8.5425325E-4,9.643153E-1,-1.3589171E0,2.0586189E-2,1.0155872E-1,-9.5500186E-2,1.1471122E-2],"categories":[],"categories_nodes":[],"categories_segments":[],"categories_sizes":[],"default_left":[0,0,0,0,0,0,0],"id":12,"left_children":[1,3,5,-1,-1,-1,-1],"loss_changes":[3.5652667E2,9.290015E1,9.934851E1,0E0,0E0,0E0,0E0],"parents":[2147483647,0,0,1,1,2,2],"right_children":[2,4,6,-1,-1,-1,-1],"split_conditions":[3.9968532E-1,4.0815595E-1,6.509947E-1,2.0586189E-2,1.0155872E-1,-9.5500186E-2,1.1471122E-2],"split_indices":[12,9,9,0,0,0,0],"split_type":[0,0,0,0,0,0,0],"sum_hessian":[2.7E2,1.58E2,1.12E2,1.05E2,5.3E1,8.3E1,2.9E1],"tree_param":{"num_deleted":"0","num_feature":"24","num_nodes":"7","size_leaf_vector":"1"}},{"base_weights":[-4.2942435E-2,-1.2855092E0,9.273384E-1,4.5114275E-2,-7.7860475E-2,7.872371E-2,1.0803369E-2],"categories":[],"categories_nodes":[],"categories_segments":[],"categories_sizes":[],"default_left":[0,0,0,0,0,0,0],"id":13,"left_children":[1,3,5,-1,-1,-1,-1],"loss_changes":[3.3274277E2,7.333038E1,7.100458E1,0E0,0E0,0E0,0E0],"parents":[2147483647,0,0,1,1,2,2],"right_children":[2,4,6,-1,-1,-1,-1],"split_conditions":[-3.1942416E-2,-9.4320613E-1,-6.047466E-1,4.5114275E-2,-7.7860475E-2,7.872371E-2,1.0803369E-2],"split_indices":[16,4,11,0,0,0,0],"split_type":[0,0,0,0,0,0,0],"sum_hessian":[2.74E2,1.2E2,1.54E2,1.3E1,1.07E2,8E1,7.4E1],"tree_param":{"num_deleted":"0","num_feature":"24","num_nodes":"7","size_leaf_vector":"1"}},{"base_weights":[5.80436E-2,8.7726206E-1,-1.2395897E0,2.9799147E-2,1.2876321E-1,-9.938197E-2,-3.1296478E-3],"categories":[],"categories_nodes":[],"categories_segments":[],"categories_sizes":[],"default_left":[0,0,0,0,0,0,0],"id":14,"left_children":[1,3,5,-1,-1,-1,-1],"loss_changes":[2.96614E2,8.013693E1,9.496437E1,0E0,0E0,0E0,0E0],"parents":[2147483647,0,0,1,1,2,2],"right_children":[2,4,6,-1,-1,-1,-1],"split_conditions":[9.302964E-2,1.56631E0,-2.8019857E-3,2.9799147E-2,1.2876321E-1,-9.938197E-2,-3.1296478E-3],"split_indices":[22,9,9,0,0,0,0],"split_type":[0,0,0,0,0,0,0],"sum_hessian":[2.77E2,1.7E2,1.07E2,1.47E2,2.3E1,6.5E1,4.2E1],"tree_param":{"num_deleted":"0","num_feature":"24","num_nodes":"7","size_leaf_vector":"1"}},{"base_weights":[-1.3982469E-1,-1.1863812E0,7.2745603E-1,-9.2009045E-2,9.899655E-3,-8.000097E-3,7.1860716E-2],"categories":[],"categories_nodes":[],"categories_segments":[],"categories_sizes":[],"default_left":[0,0,0,0,0,0,0],"id":15,"left_children":[1,3,5,-1,-1,-1,-1],"loss_changes":[2.5046907E2,1.1350224E2,9.534192E1,0E0,0E0,0E0,0E0],"parents":[2147483647,0,0,1,1,2,2],"right_children":[2,4,6,-1,-1,-1,-1],"split_conditions":[-3.1942416E-2,2.587167E-1,-2.2696085E-1,-9.2009045E-2,9.899655E-3,-8.000097E-3,7.1860716E-2],"split_indices":[16,9,9,0,0,0,0],"split_type":[0,0,0,0,0,0,0],"sum_hessian":[2.74E2,1.24E2,1.5E2,8.4E1,4E1,6.7E1,8.3E1],"tree_param":{"num_deleted":"0","num_feature":"24","num_nodes":"7","size_leaf_vector":"1"}},{"base_weights":[1.786523E-2,1.2715552E0,-6.9758064E-1,8.506622E-2,4.334609E-2,-1.6568897E-2,-1.2333282E-1],"categories":[],"categories_nodes":[],"categories_segments":[],"categories_sizes":[],"default_left":[0,0,0,0,0,0,0],"id":16,"left_children":[1,3,5,-1,-1,-1,-1],"loss_changes":[2.39475E2,1.539328E1,1.0931547E2,0E0,0E0,0E0,0E0],"parents":[2147483647,0,0,1,1,2,2],"right_children":[2,4,6,-1,-1,-1,-1],"split_conditions":[-5.709444E-1,-2.0253861E-1,1.4753362E0,8.506622E-2,4.334609E-2,-1.6568897E-2,-1.2333282E-1],"split_indices":[22,5,12,0,0,0,0],"split_type":[0,0,0,0,0,0,0],"sum_hessian":[2.65E2,9.6E1,1.69E2,4.5E1,5.1E1,1.41E2,2.8E1],"tree_param":{"num_deleted":"0","num_feature":"24","num_nodes":"7","size_leaf_vector":"1"}},{"base_weights":[1.1298632E-1,-5.4382014E-1,1.4484514E0,-4.113258E-2,7.56781E-2,5.641515E-2,1.331337E-1],"categories":[],"categories_nodes":[],"categories_segments":[],"categories_sizes":[],"default_left":[0,0,0,0,0,0,0],"id":17,"left_children":[1,3,5,-1,-1,-1,-1],"loss_changes":[2.2621323E2,1.00488785E2,3.0037857E1,0E0,0E0,0E0,0E0],"parents":[2147483647,0,0,1,1,2,2],"right_children":[2,4,6,-1,-1,-1,-1],"split_conditions":[6.489639E-1,1.56631E0,1.2487516E0,-4.113258E-2,7.56781E-2,5.641515E-2,1.331337E-1],"split_indices":[10,9,9,0,0,0,0],"split_type":[0,0,0,0,0,0,0],"sum_hessian":[2.56E2,1.72E2,8.4E1,1.52E2,2E1,6.8E1,1.6E1],"tree_param":{"num_deleted":"0","num_feature":"24","num_nodes":"7","size_leaf_vector":"1"}},{"base_weights":[1.1790556E-2,-9.4217324E-1,8.8131E-1,-7.945261E-2,5.4231943E-3,-2.6238099E-2,5.9388902E-2],"categories":[],"categories_nodes":[],"categories_segments":[],"categories_sizes":[],"default_left":[0,0,0,0,0,0,0],"id":18,"left_children":[1,3,5,-1,-1,-1,-1],"loss_changes":[2.3308755E2,9.1243454E1,6.3967987E1,0E0,0E0,0E0,0E0],"parents":[2147483647,0,0,1,1,2,2],"right_children":[2,4,6,-1,-1,-1,-1],"split_conditions":[1.7866032E-1,5.323773E-2,-8.6207765E-1,-7.945261E-2,5.4231943E-3,-2.6238099E-2,5.9388902E-2],"split_indices":[16,9,9,0,0,0,0],"split_type":[0,0,0,0,0,0,0],"sum_hessian":[2.79E2,1.33E2,1.46E2,8.2E1,5.1E1,2.6E1,1.2E2],"tree_param":{"num_deleted":"0","num_feature":"24","num_nodes":"7","size_leaf_vector":"1"}},{"base_weights":[-1.8276483E-2,9.0845686E-1,-9.318285E-1,1.8516818E-2,6.78369E-2,-9.693872E-2,2.3250382E-3],"categories":[],"categories_nodes":[],"categories_segments":[],"categories_sizes":[],"default_left":[0,0,0,0,0,0,0],"id":19,"left_children":[1,3,5,-1,-1,-1,-1],"loss_changes":[2.387465E2,3.326967E1,1.3997784E2,0E0,0E0,0E0,0E0],"parents":[2147483647,0,0,1,1,2,2],"right_children":[2,4,6,-1,-1,-1,-1],"split_conditions":[-1.9522959E-1,-2.2696085E-1,-9.620152E-2,1.8516818E-2,6.78369E-2,-9.693872E-2,2.3250382E-3],"split_indices":[22,9,9,0,0,0,0],"split_type":[0,0,0,0,0,0,0],"sum_hessian":[2.8E2,1.39E2,1.41E2,6.4E1,7.5E1,6.9E1,7.2E1],"tree_param":{"num_deleted":"0","num_feature":"24","num_nodes":"7","size_leaf_vector":"1"}},{"base_weights":[2.6266158E-2,1.0351369E0,-5.6470937E-1,1.4214227E-2,6.198897E-2,-6.693735E-2,1.8267207E-2],"categories":[],"categories_nodes":[],"categories_segments":[],"categories_sizes":[],"default_left":[0,0,0,0,0,0,0],"id":20,"left_children":[1,3,5,-1,-1,-1,-1],"loss_changes":[1.7110289E2,1.5935112E1,1.3079037E2,0E0,0E0,0E0,0E0],"parents":[2147483647,0,0,1,1,2,2],"right_children":[2,4,6,-1,-1,-1,-1],"split_conditions":[-5.436514E-1,-6.1923885E-1,-2.8019857E-3,1.4214227E-2,6.198897E-2,-6.693735E-2,1.8267207E-2],"split_indices":[22,9,9,0,0,0,0],"split_type":[0,0,0,0,0,0,0],"sum_hessian":[2.85E2,1.05E2,1.8E2,2.3E1,8.2E1,9.8E1,8.2E1],"tree_param":{"num_deleted":"0","num_feature":"24","num_nodes":"7","size_leaf_vector":"1"}},{"base_weights":[-2.8608559E-2,-1.5211389E0,4.0192863E-1,-1.9367E-2,-1.0065561E-1,6.8939016E-3,1.08024254E-1],"categories":[],"categories_nodes":[],"categories_segments":[],"categories_sizes":[],"default_left":[0,0,0,0,0,0,0],"id":21,"left_children":[1,3,5,-1,-1,-1,-1],"loss_changes":[1.7796619E2,3.3803757E1,9.95369E1,0E0,0E0,0E0,0E0],"parents":[2147483647,0,0,1,1,2,2],"right_children":[2,4,6,-1,-1,-1,-1],"split_conditions":[-9.002773E-1,-1.06694005E-1,1.2487516E0,-1.9367E-2,-1.0065561E-1,6.8939016E-3,1.08024254E-1],"split_indices":[16,19,9,0,0,0,0],"split_type":[0,0,0,0,0,0,0],"sum_hessian":[2.75E2,6.1E1,2.14E2,1.9E1,4.2E1,1.87E2,2.7E1],"tree_param":{"num_deleted":"0","num_feature":"24","num_nodes":"7","size_leaf_vector":"1"}},{"base_weights":[-8.5925974E-2,8.9910626E-1,-7.8106797E-1,3.269486E-2,7.9340935E-2,-9.3154594E-2,-2.1438645E-2],"categories":[],"categories_nodes":[],"categories_segments":[],"categories_sizes":[],"default_left":[0,0,0,0,0,0,0],"id":22,"left_children":[1,3,5,-1,-1,-1,-1],"loss_changes":[1.8695079E2,1.8017952E1,6.019182E1,0E0,0E0,0E0,0E0],"parents":[2147483647,0,0,1,1,2,2],"right_children":[2,4,6,-1,-1,-1,-1],"split_conditions":[-3.2421213E-1,1.1969968E0,-1.2115934E0,3.269486E-2,7.9340935E-2,-9.3154594E-2,-2.1438645E-2],"split_indices":[17,21,21,0,0,0,0],"split_type":[0,0,0,0,0,0,0],"sum_hessian":[2.71E2,1.12E2,1.59E2,8.4E1,2.8E1,3.8E1,1.21E2],"tree_param":{"num_deleted":"0","num_feature":"24","num_nodes":"7","size_leaf_vector":"1"}},{"base_weights":[5.786801E-2,9.3839735E-1,-4.5528573E-1,3.660914E-2,8.462405E-2,-9.777224E-3,-9.695753E-2],"categories":[],"categories_nodes":[],"categories_segments":[],"categories_sizes":[],"default_left":[0,0,0,0,0,0,0],"id":23,"left_children":[1,3,5,-1,-1,-1,-1],"loss_changes":[1.3010732E2,1.5244118E1,6.976741E1,0E0,0E0,0E0,0E0],"parents":[2147483647,0,0,1,1,2,2],"right_children":[2,4,6,-1,-1,-1,-1],"split_conditions":[-5.436514E-1,1.2455884E0,1.1700803E0,3.660914E-2,8.462405E-2,-9.777224E-3,-9.695753E-2],"split_indices":[22,10,17,0,0,0,0],"split_type":[0,0,0,0,0,0,0],"sum_hessian":[2.86E2,1.05E2,1.81E2,8.4E1,2.1E1,1.55E2,2.6E1],"tree_param":{"num_deleted":"0","num_feature":"24","num_nodes":"7","size_leaf_vector":"1"}},{"base_weights":[2.2286618E-2,-9.092717E-1,5.6733334E-1,5.8208432E-2,-5.3629346E-2,5.5157024E-2,1.2565421E-2],"categories":[],"categories_nodes":[],"categories_segments":[],"categories_sizes":[],"default_left":[0,0,0,0,0,0,0],"id":24,"left_children":[1,3,5,-1,-1,-1,-1],"loss_changes":[1.4166838E2,3.6126953E1,2.952457E1,0E0,0E0,0E0,0E0],"parents":[2147483647,0,0,1,1,2,2],"right_children":[2,4,6,-1,-1,-1,-1],"split_conditions":[-5.455207E-1,-9.3533146E-1,-8.5271585E-1,5.8208432E-2,-5.3629346E-2,5.5157024E-2,1.2565421E-2],"split_indices":[21,19,18,0,0,0,0],"split_type":[0,0,0,0,0,0,0],"sum_hessian":[2.77E2,1.02E2,1.75E2,7E0,9.5E1,6.4E1,1.11E2],"tree_param":{"num_deleted":"0","num_feature":"24","num_nodes":"7","size_leaf_vector":"1"}},{"base_weights":[-5.425209E-2,5.3021014E-1,-1.061237E0,7.9271495E-3,6.2937975E-2,-9.416916E-2,-1.0953364E-2],"categories":[],"categories_nodes":[],"categories_segments":[],"categories_sizes":[],"default_left":[0,0,0,0,0,0,0],"id":25,"left_children":[1,3,5,-1,-1,-1,-1],"loss_changes":[1.682979E2,4.881123E1,7.228801E1,0E0,0E0,0E0,0E0],"parents":[2147483647,0,0,1,1,2,2],"right_children":[2,4,6,-1,-1,-1,-1],"split_conditions":[9.302964E-2,4.0815595E-1,-2.2696085E-1,7.9271495E-3,6.2937975E-2,-9.416916E-2,-1.0953364E-2],"split_indices":[22,9,9,0,0,0,0],"split_type":[0,0,0,0,0,0,0],"sum_hessian":[2.84E2,1.8E2,1.04E2,1.2E2,6E1,5.2E1,5.2E1],"tree_param":{"num_deleted":"0","num_feature":"24","num_nodes":"7","size_leaf_vector":"1"}},{"base_weights":[3.1877633E-3,4.8083016E-1,-9.7312737E-1,1.1329178E-2,8.9767985E-2,4.583528E-2,-6.088787E-2],"categories":[],"categories_nodes":[],"categories_segments":[],"categories_sizes":[],"default_left":[0,0,0,0,0,0,0],"id":26,"left_children":[1,3,5,-1,-1,-1,-1],"loss_changes":[1.2917484E2,6.1757133E1,4.318653E1,0E0,0E0,0E0,0E0],"parents":[2147483647,0,0,1,1,2,2],"right_children":[2,4,6,-1,-1,-1,-1],"split_conditions":[5.623968E-1,1.2487516E0,-9.126494E-1,1.1329178E-2,8.9767985E-2,4.583528E-2,-6.088787E-2],"split_indices":[17,9,4,0,0,0,0],"split_type":[0,0,0,0,0,0,0],"sum_hessian":[2.75E2,1.85E2,9E1,1.56E2,2.9E1,1E1,8E1],"tree_param":{"num_deleted":"0","num_feature":"24","num_nodes":"7","size_leaf_vector":"1"}},{"base_weights":[2.9636934E-2,-1.9604176E-1,1.7657809E0,1.5783561E-2,-4.9361825E-2,5.7493735E-2,1.07954346E-1],"categories":[],"categories_nodes":[],"categories_segments":[],"categories_sizes":[],"default_left":[0,0,0,0,0,0,0],"id":27,"left_children":[1,3,5,-1,-1,-1,-1],"loss_changes":[1.1240404E2,1.0314726E2,5.5112305E0,0E0,0E0,0E0,0E0],"parents":[2147483647,0,0,1,1,2,2],"right_children":[2,4,6,-1,-1,-1,-1],"split_conditions":[1.56631E0,9.302964E-2,-5.516305E-1,1.5783561E-2,-4.9361825E-2,5.7493735E-2,1.07954346E-1],"split_indices":[9,22,19,0,0,0,0],"split_type":[0,0,0,0,0,0,0],"sum_hessian":[2.85E2,2.53E2,3.2E1,1.54E2,9.9E1,1.4E1,1.8E1],"tree_param":{"num_deleted":"0","num_feature":"24","num_nodes":"7","size_leaf_vector":"1"}},{"base_weights":[2.3071874E-2,-1.1416384E0,3.4300095E-1,-6.585612E-2,3.4324273E-2,-5.799173E-4,5.8175784E-2],"categories":[],"categories_nodes":[],"categories_segments":[],"categories_sizes":[],"default_left":[0,0,0,0,0,0,0],"id":28,"left_children":[1,3,5,-1,-1,-1,-1],"loss_changes":[1.0547175E2,2.0473381E1,6.4605286E1,0E0,0E0,0E0,0E0],"parents":[2147483647,0,0,1,1,2,2],"right_children":[2,4,6,-1,-1,-1,-1],"split_conditions":[-9.002773E-1,1.56631E0,4.0815595E-1,-6.585612E-2,3.4324273E-2,-5.799173E-4,5.8175784E-2],"split_indices":[16,9,9,0,0,0,0],"split_type":[0,0,0,0,0,0,0],"sum_hessian":[2.81E2,6E1,2.21E2,5.5E1,5E0,1.55E2,6.6E1],"tree_param":{"num_deleted":"0","num_feature":"24","num_nodes":"7","size_leaf_vector":"1"}},{"base_weights":[-1.0416408E-2,-7.1252096E-1,6.548038E-1,1.5394746E-2,-6.732873E-2,1.5676536E-2,8.351862E-2],"categories":[],"categories_nodes":[],"categories_segments":[],"categories_sizes":[],"default_left":[0,0,0,0,0,0,0],"id":29,"left_children":[1,3,5,-1,-1,-1,-1],"loss_changes":[1.3824753E2,9.3582375E1,5.2157394E1,0E0,0E0,0E0,0E0],"parents":[2147483647,0,0,1,1,2,2],"right_children":[2,4,6,-1,-1,-1,-1],"split_conditions":[-2.2696085E-1,-4.6014556E-1,1.56631E0,1.5394746E-2,-6.732873E-2,1.5676536E-2,8.351862E-2],"split_indices":[9,22,9,0,0,0,0],"split_type":[0,0,0,0,0,0,0],"sum_hessian":[2.94E2,1.43E2,1.51E2,5.5E1,8.8E1,1.14E2,3.7E1],"tree_param":{"num_deleted":"0","num_feature":"24","num_nodes":"7","size_leaf_vector":"1"}},{"base_weights":[-6.101092E-3,-8.6681616E-1,3.7352762E-1,-6.501766E-2,6.4351945E-3,-1.1838979E-2,4.092504E-2],"categories":[],"categories_nodes":[],"categories_segments":[],"categories_sizes":[],"default_left":[0,0,0,0,0,0,0],"id":30,"left_children":[1,3,5,-1,-1,-1,-1],"loss_changes":[9.1814384E1,3.7284523E1,5.3150024E1,0E0,0E0,0E0,0E0],"parents":[2147483647,0,0,1,1,2,2],"right_children":[2,4,6,-1,-1,-1,-1],"split_conditions":[-5.904684E-1,4.0815595E-1,-2.4564075E-1,-6.501766E-2,6.4351945E-3,-1.1838979E-2,4.092504E-2],"split_indices":[21,9,9,0,0,0,0],"split_type":[0,0,0,0,0,0,0],"sum_hessian":[2.79E2,8.5E1,1.94E2,5.9E1,2.6E1,8.2E1,1.12E2],"tree_param":{"num_deleted":"0","num_feature":"24","num_nodes":"7","size_leaf_vector":"1"}},{"base_weights":[1.7941063E-2,-7.614398E-1,4.9184558E-1,4.9075197E-2,-4.6844624E-2,4.9565057E-3,5.8174934E-2],"categories":[],"categories_nodes":[],"categories_segments":[],"categories_sizes":[],"default_left":[0,0,0,0,0,0,0],"id":31,"left_children":[1,3,5,-1,-1,-1,-1],"loss_changes":[1.01576996E2,3.2723186E1,4.4989082E1,0E0,0E0,0E0,0E0],"parents":[2147483647,0,0,1,1,2,2],"right_children":[2,4,6,-1,-1,-1,-1],"split_conditions":[-5.579654E-1,-1.03284E0,2.587167E-1,4.9075197E-2,-4.6844624E-2,4.9565057E-3,5.8174934E-2],"split_indices":[21,0,9,0,0,0,0],"split_type":[0,0,0,0,0,0,0],"sum_hessian":[2.73E2,1.03E2,1.7E2,9E0,9.4E1,1.08E2,6.2E1],"tree_param":{"num_deleted":"0","num_feature":"24","num_nodes":"7","size_leaf_vector":"1"}},{"base_weights":[9.010009E-3,-6.880167E-1,3.9619702E-1,-1.9657394E-2,-8.0269344E-2,4.1365918E-2,7.849185E-3],"categories":[],"categories_nodes":[],"categories_segments":[],"categories_sizes":[],"default_left":[0,0,0,0,0,0,0],"id":32,"left_children":[1,3,5,-1,-1,-1,-1],"loss_changes":[7.556902E1,2.6419228E1,1.8433517E1,0E0,0E0,0E0,0E0],"parents":[2147483647,0,0,1,1,2,2],"right_children":[2,4,6,-1,-1,-1,-1],"split_conditions":[-6.0244817E-1,1.6963307E0,-8.509512E-1,-1.9657394E-2,-8.0269344E-2,4.1365918E-2,7.849185E-3],"split_indices":[10,12,18,0,0,0,0],"split_type":[0,0,0,0,0,0,0],"sum_hessian":[2.78E2,9.9E1,1.79E2,7.6E1,2.3E1,6.3E1,1.16E2],"tree_param":{"num_deleted":"0","num_feature":"24","num_nodes":"7","size_leaf_vector":"1"}},{"base_weights":[-6.58589E-2,5.379562E-1,-6.440577E-1,1.8831937E-2,6.857096E-2,-4.5194592E-2,7.4555464E-2],"categories":[],"categories_nodes":[],"categories_segments":[],"categories_sizes":[],"default_left":[0,0,0,0,0,0,0],"id":33,"left_children":[1,3,5,-1,-1,-1,-1],"loss_changes":[9.845064E1,1.803786E1,8.123747E1,0E0,0E0,0E0,0E0],"parents":[2147483647,0,0,1,1,2,2],"right_children":[2,4,6,-1,-1,-1,-1],"split_conditions":[-2.4516201E-1,1.2487516E0,1.56631E0,1.8831937E-2,6.857096E-2,-4.5194592E-2,7.4555464E-2],"split_indices":[22,9,9,0,0,0,0],"split_type":[0,0,0,0,0,0,0],"sum_hessian":[2.8E2,1.37E2,1.43E2,1.16E2,2.1E1,1.28E2,1.5E1],"tree_param":{"num_deleted":"0","num_feature":"24","num_nodes":"7","size_leaf_vector":"1"}},{"base_weights":[1.1352501E-3,-4.0249932E-1,8.17263E-1,-8.1668325E-2,-8.555207E-3,2.576316E-2,5.947156E-2],"categories":[],"categories_nodes":[],"categories_segments":[],"categories_sizes":[],"default_left":[0,0,0,0,0,0,0],"id":34,"left_children":[1,3,5,-1,-1,-1,-1],"loss_changes":[9.058932E1,5.21268E1,9.615051E0,0E0,0E0,0E0,0E0],"parents":[2147483647,0,0,1,1,2,2],"right_children":[2,4,6,-1,-1,-1,-1],"split_conditions":[6.694732E-1,-1.6272496E0,1.1588012E0,-8.1668325E-2,-8.555207E-3,2.576316E-2,5.947156E-2],"split_indices":[10,16,21,0,0,0,0],"split_type":[0,0,0,0,0,0,0],"sum_hessian":[2.73E2,1.83E2,9E1,2.8E1,1.55E2,5.1E1,3.9E1],"tree_param":{"num_deleted":"0","num_feature":"24","num_nodes":"7","size_leaf_vector":"1"}},{"base_weights":[7.89858E-3,-6.458012E-1,4.6225145E-1,1.9039776E-2,-5.2553404E-2,1.1193297E-2,7.821289E-2],"categories":[],"categories_nodes":[],"categories_segments":[],"categories_sizes":[],"default_left":[0,0,0,0,0,0,0],"id":35,"left_children":[1,3,5,-1,-1,-1,-1],"loss_changes":[8.25704E1,4.782945E1,4.2732998E1,0E0,0E0,0E0,0E0],"parents":[2147483647,0,0,1,1,2,2],"right_children":[2,4,6,-1,-1,-1,-1],"split_conditions":[-2.4564075E-1,-6.681185E-1,1.6783895E0,1.9039776E-2,-5.2553404E-2,1.1193297E-2,7.821289E-2],"split_indices":[9,22,9,0,0,0,0],"split_type":[0,0,0,0,0,0,0],"sum_hessian":[2.76E2,1.13E2,1.63E2,3.2E1,8.1E1,1.35E2,2.8E1],"tree_param":{"num_deleted":"0","num_feature":"24","num_nodes":"7","size_leaf_vector":"1"}},{"base_weights":[3.277003E-2,7.273005E-1,-3.8253996E-1,5.6635577E-2,2.480068E-2,-2.9978594E-2,8.285413E-2],"categories":[],"categories_nodes":[],"categories_segments":[],"categories_sizes":[],"default_left":[0,0,0,0,0,0,0],"id":36,"left_children":[1,3,5,-1,-1,-1,-1],"loss_changes":[8.017761E1,9.18985E0,7.801693E1,0E0,0E0,0E0,0E0],"parents":[2147483647,0,0,1,1,2,2],"right_children":[2,4,6,-1,-1,-1,-1],"split_conditions":[-5.725496E-1,-1.2707653E0,1.56631E0,5.6635577E-2,2.480068E-2,-2.9978594E-2,8.285413E-2],"split_indices":[22,12,9,0,0,0,0],"split_type":[0,0,0,0,0,0,0],"sum_hessian":[2.76E2,1.03E2,1.73E2,3.6E1,6.7E1,1.57E2,1.6E1],"tree_param":{"num_deleted":"0","num_feature":"24","num_nodes":"7","size_leaf_vector":"1"}},{"base_weights":[3.5004232E-2,-1.4012339E0,2.2245164E-1,-4.778409E-3,-9.1623686E-2,4.069183E-2,-1.6637363E-3],"categories":[],"categories_nodes":[],"categories_segments":[],"categories_sizes":[],"default_left":[0,0,0,0,0,0,0],"id":37,"left_children":[1,3,5,-1,-1,-1,-1],"loss_changes":[7.461618E1,1.7842636E1,3.7079094E1,0E0,0E0,0E0,0E0],"parents":[2147483647,0,0,1,1,2,2],"right_children":[2,4,6,-1,-1,-1,-1],"split_conditions":[-1.1050847E0,-3.424645E-1,-6.3499284E-1,-4.778409E-3,-9.1623686E-2,4.069183E-2,-1.6637363E-3],"split_indices":[16,4,11,0,0,0,0],"split_type":[0,0,0,0,0,0,0],"sum_hessian":[2.75E2,3.1E1,2.44E2,8E0,2.3E1,7.3E1,1.71E2],"tree_param":{"num_deleted":"0","num_feature":"24","num_nodes":"7","size_leaf_vector":"1"}},{"base_weights":[-3.0837808E-2,-5.82516E-1,5.026567E-1,2.7911127E-2,-4.066958E-2,5.6440897E-2,7.9444675E-3],"categories":[],"categories_nodes":[],"categories_segments":[],"categories_sizes":[],"default_left":[0,0,0,0,0,0,0],"id":38,"left_children":[1,3,5,-1,-1,-1,-1],"loss_changes":[8.682208E1,3.8642506E1,3.210872E1,0E0,0E0,0E0,0E0],"parents":[2147483647,0,0,1,1,2,2],"right_children":[2,4,6,-1,-1,-1,-1],"split_conditions":[-2.2696085E-1,-9.303198E-1,-6.3499284E-1,2.7911127E-2,-4.066958E-2,5.6440897E-2,7.9444675E-3],"split_indices":[9,0,11,0,0,0,0],"split_type":[0,0,0,0,0,0,0],"sum_hessian":[2.93E2,1.44E2,1.49E2,2.4E1,1.2E2,5.2E1,9.7E1],"tree_param":{"num_deleted":"0","num_feature":"24","num_nodes":"7","size_leaf_vector":"1"}},{"base_weights":[2.151613E-2,2.8471398E-1,-9.1819894E-1,-1.5384868E-2,2.3766994E-2,-6.8519734E-2,8.140676E-3],"categories":[],"categories_nodes":[],"categories_segments":[],"categories_sizes":[],"default_left":[0,0,0,0,0,0,0],"id":39,"left_children":[1,3,5,-1,-1,-1,-1],"loss_changes":[6.555681E1,2.3522549E1,2.8575218E1,0E0,0E0,0E0,0E0],"parents":[2147483647,0,0,1,1,2,2],"right_children":[2,4,6,-1,-1,-1,-1],"split_conditions":[7.4130213E-1,-6.1923885E-1,4.0815595E-1,-1.5384868E-2,2.3766994E-2,-6.8519734E-2,8.140676E-3],"split_indices":[22,9,9,0,0,0,0],"split_type":[0,0,0,0,0,0,0],"sum_hessian":[2.63E2,2.06E2,5.7E1,5E1,1.56E2,4E1,1.7E1],"tree_param":{"num_deleted":"0","num_feature":"24","num_nodes":"7","size_leaf_vector":"1"}},{"base_weights":[1.0082403E-2,-1.052847E0,2.0536394E-1,2.8347662E-2,-7.4914634E-2,2.3692768E-2,-1.907807E-2],"categories":[],"categories_nodes":[],"categories_segments":[],"categories_sizes":[],"default_left":[0,0,0,0,0,0,0],"id":40,"left_children":[1,3,5,-1,-1,-1,-1],"loss_changes":[5.7505672E1,3.187539E1,3.7055553E1,0E0,0E0,0E0,0E0],"parents":[2147483647,0,0,1,1,2,2],"right_children":[2,4,6,-1,-1,-1,-1],"split_conditions":[-9.554772E-1,-7.738928E-1,2.0986176E-1,2.8347662E-2,-7.4914634E-2,2.3692768E-2,-1.907807E-2],"split_indices":[9,19,18,0,0,0,0],"split_type":[0,0,0,0,0,0,0],"sum_hessian":[2.75E2,4.2E1,2.33E2,9E0,3.3E1,1.6E2,7.3E1],"tree_param":{"num_deleted":"0","num_feature":"24","num_nodes":"7","size_leaf_vector":"1"}},{"base_weights":[5.3031597E-2,-4.6015096E-1,5.0468886E-1,6.8139904E-3,-5.2485686E-2,1.2804355E-2,6.318649E-2],"categories":[],"categories_nodes":[],"categories_segments":[],"categories_sizes":[],"default_left":[0,0,0,0,0,0,0],"id":41,"left_children":[1,3,5,-1,-1,-1,-1],"loss_changes":[6.582671E1,4.69103E1,2.816991E1,0E0,0E0,0E0,0E0],"parents":[2147483647,0,0,1,1,2,2],"right_children":[2,4,6,-1,-1,-1,-1],"split_conditions":[-2.2696085E-1,-2.3269658E-1,1.56631E0,6.8139904E-3,-5.2485686E-2,1.2804355E-2,6.318649E-2],"split_indices":[9,22,9,0,0,0,0],"split_type":[0,0,0,0,0,0,0],"sum_hessian":[2.82E2,1.32E2,1.5E2,6.6E1,6.6E1,1.14E2,3.6E1],"tree_param":{"num_deleted":"0","num_feature":"24","num_nodes":"7","size_leaf_vector":"1"}},{"base_weights":[-3.634096E-3,1.6281793E-1,-1.2947881E0,5.1907555E-5,5.92156E-2,-8.346578E-2,-2.5012782E-2],"categories":[],"categories_nodes":[],"categories_segments":[],"categories_sizes":[],"default_left":[0,0,0,0,0,0,0],"id":42,"left_children":[1,3,5,-1,-1,-1,-1],"loss_changes":[6.210639E1,4.230459E1,8.984867E0,0E0,0E0,0E0,0E0],"parents":[2147483647,0,0,1,1,2,2],"right_children":[2,4,6,-1,-1,-1,-1],"split_conditions":[1.1761658E0,1.2487516E0,-2.1481892E-2,5.1907555E-5,5.92156E-2,-8.346578E-2,-2.5012782E-2],"split_indices":[17,9,9,0,0,0,0],"split_type":[0,0,0,0,0,0,0],"sum_hessian":[2.87E2,2.55E2,3.2E1,2.21E2,3.4E1,2.1E1,1.1E1],"tree_param":{"num_deleted":"0","num_feature":"24","num_nodes":"7","size_leaf_vector":"1"}},{"base_weights":[-2.1336358E-2,-1.4648764E0,1.1262638E-1,7.6223835E-3,-9.066947E-2,-2.3194226E-3,5.574244E-2],"categories":[],"categories_nodes":[],"categories_segments":[],"categories_sizes":[],"default_left":[0,0,0,0,0,0,0],"id":43,"left_children":[1,3,5,-1,-1,-1,-1],"loss_changes":[5.237774E1,1.3240593E1,3.9575035E1,0E0,0E0,0E0,0E0],"parents":[2147483647,0,0,1,1,2,2],"right_children":[2,4,6,-1,-1,-1,-1],"split_conditions":[-1.6231824E0,6.925241E-2,1.2487516E0,7.6223835E-3,-9.066947E-2,-2.3194226E-3,5.574244E-2],"split_indices":[10,0,9,0,0,0,0],"split_type":[0,0,0,0,0,0,0],"sum_hessian":[2.69E2,2.2E1,2.47E2,4E0,1.8E1,2.14E2,3.3E1],"tree_param":{"num_deleted":"0","num_feature":"24","num_nodes":"7","size_leaf_vector":"1"}},{"base_weights":[2.2019463E-2,-9.9310935E-1,1.8506686E-1,2.6633353E-3,-6.719371E-2,-1.3830784E-2,2.3469038E-2],"categories":[],"categories_nodes":[],"categories_segments":[],"categories_sizes":[],"default_left":[0,0,0,0,0,0,0],"id":44,"left_children":[1,3,5,-1,-1,-1,-1],"loss_changes":[4.305195E1,1.3284737E1,2.95327E1,0E0,0E0,0E0,0E0],"parents":[2147483647,0,0,1,1,2,2],"right_children":[2,4,6,-1,-1,-1,-1],"split_conditions":[-9.554772E-1,-6.4706814E-1,-5.630563E-1,2.6633353E-3,-6.719371E-2,-1.3830784E-2,2.3469038E-2],"split_indices":[9,22,10,0,0,0,0],"split_type":[0,0,0,0,0,0,0],"sum_hessian":[2.58E2,3.5E1,2.23E2,9E0,2.6E1,8.5E1,1.38E2],"tree_param":{"num_deleted":"0","num_feature":"24","num_nodes":"7","size_leaf_vector":"1"}},{"base_weights":[8.447363E-3,-1.52225E-1,1.1281798E0,3.234705E-2,-2.0739341E-2,2.4000699E-2,8.388299E-2],"categories":[],"categories_nodes":[],"categories_segments":[],"categories_sizes":[],"default_left":[0,0,0,0,0,0,0],"id":45,"left_children":[1,3,5,-1,-1,-1,-1],"loss_changes":[4.874745E1,4.999816E1,1.1303936E1,0E0,0E0,0E0,0E0],"parents":[2147483647,0,0,1,1,2,2],"right_children":[2,4,6,-1,-1,-1,-1],"split_conditions":[1.56631E0,-7.653102E-1,-1.2297301E-1,3.234705E-2,-2.0739341E-2,2.4000699E-2,8.388299E-2],"split_indices":[9,22,0,0,0,0,0],"split_type":[0,0,0,0,0,0,0],"sum_hessian":[2.69E2,2.36E2,3.3E1,5.8E1,1.78E2,1.6E1,1.7E1],"tree_param":{"num_deleted":"0","num_feature":"24","num_nodes":"7","size_leaf_vector":"1"}},{"base_weights":[-1.8254323E-2,3.0899304E-1,-5.274632E-1,9.655925E-3,4.634954E-2,-6.611066E-2,-8.161622E-3],"categories":[],"categories_nodes":[],"categories_segments":[],"categories_sizes":[],"default_left":[0,0,0,0,0,0,0],"id":46,"left_children":[1,3,5,-1,-1,-1,-1],"loss_changes":[4.89877E1,1.2639206E1,3.3073498E1,0E0,0E0,0E0,0E0],"parents":[2147483647,0,0,1,1,2,2],"right_children":[2,4,6,-1,-1,-1,-1],"split_conditions":[6.7355365E-2,1.56631E0,-4.8847952E-1,9.655925E-3,4.634954E-2,-6.611066E-2,-8.161622E-3],"split_indices":[22,9,9,0,0,0,0],"split_type":[0,0,0,0,0,0,0],"sum_hessian":[2.92E2,1.78E2,1.14E2,1.51E2,2.7E1,3.5E1,7.9E1],"tree_param":{"num_deleted":"0","num_feature":"24","num_nodes":"7","size_leaf_vector":"1"}},{"base_weights":[5.7585847E-2,-6.5784276E-1,2.6639792E-1,2.5269954E-2,-4.544031E-2,4.9636453E-2,1.9997717E-3],"categories":[],"categories_nodes":[],"categories_segments":[],"categories_sizes":[],"default_left":[0,0,0,0,0,0,0],"id":47,"left_children":[1,3,5,-1,-1,-1,-1],"loss_changes":[4.230326E1,1.9142902E1,3.597335E1,0E0,0E0,0E0,0E0],"parents":[2147483647,0,0,1,1,2,2],"right_children":[2,4,6,-1,-1,-1,-1],"split_conditions":[-6.1923885E-1,-9.41432E-1,-8.174106E-1,2.5269954E-2,-4.544031E-2,4.9636453E-2,1.9997717E-3],"split_indices":[9,22,17,0,0,0,0],"split_type":[0,0,0,0,0,0,0],"sum_hessian":[2.81E2,6.3E1,2.18E2,1.1E1,5.2E1,5.1E1,1.67E2],"tree_param":{"num_deleted":"0","num_feature":"24","num_nodes":"7","size_leaf_vector":"1"}},{"base_weights":[5.4422304E-2,-4.0204003E-1,3.3938733E-1,3.9930474E-2,-2.7551873E-2,-7.1321647E-3,3.149821E-2],"categories":[],"categories_nodes":[],"categories_segments":[],"categories_sizes":[],"default_left":[0,0,0,0,0,0,0],"id":48,"left_children":[1,3,5,-1,-1,-1,-1],"loss_changes":[3.5517063E1,1.9223898E1,2.362111E1,0E0,0E0,0E0,0E0],"parents":[2147483647,0,0,1,1,2,2],"right_children":[2,4,6,-1,-1,-1,-1],"split_conditions":[-5.579654E-1,-1.03284E0,-2.4564075E-1,3.9930474E-2,-2.7551873E-2,-7.1321647E-3,3.149821E-2],"split_indices":[21,0,9,0,0,0,0],"split_type":[0,0,0,0,0,0,0],"sum_hessian":[2.71E2,1.04E2,1.67E2,1.1E1,9.3E1,6.3E1,1.04E2],"tree_param":{"num_deleted":"0","num_feature":"24","num_nodes":"7","size_leaf_vector":"1"}},{"base_weights":[2.74701E-3,3.2115096E-1,-3.2235596E-1,2.9931743E-2,6.0298336E-3,3.8053107E-2,-2.2291794E-2],"categories":[],"categories_nodes":[],"categories_segments":[],"categories_sizes":[],"default_left":[0,0,0,0,0,0,0],"id":49,"left_children":[1,3,5,-1,-1,-1,-1],"loss_changes":[2.9915573E1,8.052793E0,1.9469906E1,0E0,0E0,0E0,0E0],"parents":[2147483647,0,0,1,1,2,2],"right_children":[2,4,6,-1,-1,-1,-1],"split_conditions":[-1.4839642E-1,-8.5271585E-1,-9.3533146E-1,2.9931743E-2,6.0298336E-3,3.8053107E-2,-2.2291794E-2],"split_indices":[12,18,19,0,0,0,0],"split_type":[0,0,0,0,0,0,0],"sum_hessian":[2.87E2,1.45E2,1.42E2,6E1,8.5E1,1.4E1,1.28E2],"tree_param":{"num_deleted":"0","num_feature":"24","num_nodes":"7","size_leaf_vector":"1"}}]},"name":"gbtree"},"learner_model_param":{"base_score":"[-3.4401852E-1]","boost_from_average":"1","num_class":"0","num_feature":"24","num_target":"1"},"objective":{"name":"reg:squarederror","reg_loss_param":{"scale_pos_weight":"1"}}},"version":[3,1,3]}